SVM-light Version V6.20
2 # kernel type
3 # kernel parameter -d 
100 # kernel parameter -g 
1 # kernel parameter -s 
1 # kernel parameter -r 
empty# kernel parameter -u 
36 # highest feature index 
30 # number of training documents 
3001 # number of support vectors plus 1 
0 # threshold b, each following line is a SV (starting with alpha*y)
-0.24012930691239989244856189998245 2:-0.89999998 3:0.32438299 5:-0.89999998 6:0.50438303 7:-0.036466464 8:-0.69319016 9:0.50438303 10:-0.072932929 11:-0.48638132 12:0.50438303 13:-0.19981687 14:-0.33287692 15:0.52007443 16:-0.3267 17:-0.17937247 18:0.53576589 21:0.17 24:0.34 25:-0.12855795 26:0.15320891 27:0.34000033 28:-0.25711492 29:0.30641782 30:0.34000066 31:-0.32346329 32:0.12020402 33:0.3701883 34:-0.38981274 35:-0.06601017 36:0.40037489 #
-0.090607507154337102450725183189206 2:-0.89999998 3:0.32438299 5:-0.89999998 6:0.50438303 7:-0.17089933 8:-0.83779788 9:0.60937697 10:-0.34179765 11:-0.77559674 12:0.71437097 13:-0.52357483 14:-0.8275665 15:0.64943552 16:-0.70535201 17:-0.87953621 18:0.58450109 21:0.17 24:0.34 25:0.0347296 26:-0.196962 27:0.34 28:0.069459297 29:-0.39392301 30:0.34 31:0.10418495 32:-0.59088069 33:0.34001815 34:0.13891089 35:-0.78783745 36:0.3400363 #
1.0030635624101826852694330227678 2:-0.89999998 3:0.32438299 5:-0.89999998 6:0.50438303 7:0.071824186 8:-0.70266497 9:0.50438303 10:0.14364797 11:-0.50532901 12:0.50438303 13:0.21208936 14:-0.31739068 15:0.50441098 16:0.28053173 17:-0.12945138 18:0.50443894 21:0.17 24:0.34 25:-6.0034205e-10 26:-1.6495103e-09 27:0.54000002 28:-1.2006847e-09 29:-3.2990279e-09 30:0.74000001 31:-1.2475552e-05 32:-1.9830171e-05 33:0.93998939 34:-2.4949977e-05 35:-3.9657087e-05 36:1.1399788 #
0.091214720159760578899188487866923 2:-0.89999998 3:0.32438299 5:-0.89999998 6:0.50438303 7:9.324247e-06 8:-0.89999217 9:0.71437967 10:1.8648447e-05 11:-0.89998436 12:0.92437625 13:-0.059233479 14:-0.73723376 15:0.82437968 16:-0.11848541 17:-0.57448405 18:0.724383 21:0.17 24:0.34 25:-0.059239391 26:-0.16275994 27:0.44000003 28:-0.11847858 29:-0.32551888 30:0.54000008 31:-0.29094654 32:-0.32345074 33:0.64119071 34:-0.4634155 35:-0.32138264 36:0.74238139 #
0.21756868809459573022024869715096 2:-0.89999998 3:0.32438299 5:-0.89999998 6:0.50438303 7:-0.031581111 8:-0.72089821 9:0.60938299 10:-0.063162223 11:-0.54179555 12:0.71438301 13:-0.093223222 14:-0.37122199 15:0.81437826 16:-0.12328463 17:-0.20064747 18:0.91437352 21:0.17 24:0.34 25:0.030076697 26:-0.17057399 27:0.44 28:0.060153496 29:-0.34114701 30:0.54000002 31:0.16641608 32:-0.17823245 33:0.58596009 34:0.2726782 35:-0.015317705 36:0.63192022 #
-0.092267123982301746387690855044639 2:-0.89999998 3:0.32438299 5:-0.89999998 6:0.50438303 7:0.036066756 8:-0.80141759 9:0.68624765 10:0.072133504 11:-0.70283616 12:0.86811328 13:0.065766931 14:-0.5369944 15:0.97926641 16:0.059400268 17:-0.37115261 18:1.0904213 21:0.17 24:0.34 25:0.098456308 26:0.017198781 27:0.51321119 28:0.19691302 29:0.034397561 30:0.68642247 31:0.15239355 32:-0.086499564 33:0.83940423 34:0.10787409 35:-0.20739709 36:0.99238604 #
-0.07319321390240704494623003029119 2:-0.89999998 3:0.32438299 5:-0.89999998 6:0.50438303 7:-0.17089798 8:-0.83779794 9:0.60938299 10:-0.34179494 11:-0.77559686 12:0.71438307 13:-0.21625924 14:-0.63974714 15:0.63836801 16:-0.090723641 17:-0.50389838 18:0.56235301 21:0.17 24:0.34 25:-0.059239604 26:-0.16276 27:0.44 28:-0.11847901 29:-0.325519 30:0.54000002 31:0.047412083 32:-0.31742287 33:0.65134954 34:0.21330398 35:-0.30932772 36:0.76269913 #
0.070926826447241894668671591261955 2:-0.89999998 3:0.32438299 5:-0.89999998 6:0.50438303 7:-0.098930627 8:-0.86446685 9:0.68624854 10:-0.19786085 11:-0.82893378 12:0.86811513 13:-0.11723135 14:-0.67661595 15:0.76666856 16:-0.036600549 17:-0.52429914 18:0.66522199 21:0.17 24:0.34 25:0.030077191 26:-0.17057361 27:0.44 28:0.060154483 29:-0.34114623 30:0.54000002 31:0.11120728 32:-0.23672807 33:0.70275831 34:0.16225956 35:-0.13230892 36:0.86551571 #
0.07337188348173415142206010841619 2:-0.89999998 3:0.32438299 5:-0.89999998 6:0.50438303 7:-0.018233148 8:-0.79659498 9:0.68624794 10:-0.036466196 11:-0.69318992 12:0.86811388 13:-0.15900698 14:-0.76186329 15:1.0103645 16:-0.28154689 17:-0.83053762 18:1.1526192 21:0.17 24:0.34 25:0.12855673 26:-0.15320764 27:0.34000656 28:0.25711247 29:-0.30641529 30:0.34001312 31:0.11316599 32:-0.42720264 33:0.40845108 34:-0.030780993 35:-0.54799092 36:0.47688904 #
-0.13798505067824040626334181069979 2:-0.89999998 3:0.32438299 5:-0.89999998 6:0.50438303 7:0.07973849 8:-0.83201975 9:0.68624753 10:0.15947659 11:-0.76404053 12:0.86811304 13:0.13798711 14:-0.63737482 15:0.71490145 16:0.11649663 17:-0.51070821 18:0.56168979 21:0.17 24:0.34 25:0.030076699 26:-0.17057399 27:0.44 28:0.060153499 29:-0.34114701 30:0.54000002 31:0.19982684 32:-0.25123331 33:0.65135878 34:0.33949968 35:-0.16131862 36:0.7627176 #
0.14629271812735633595536910434021 2:-0.89999998 3:0.32438299 5:-0.89999998 6:0.50438303 7:0.062201869 8:-0.72910202 9:0.39938301 10:0.12440354 11:-0.55820507 12:0.29438299 13:0.24993116 14:-0.71203548 15:0.31837165 16:0.37545776 17:-0.86586595 18:0.34236029 21:0.17 24:0.34 25:-0.068404056 26:-0.187939 27:0.34 28:-0.13680811 29:-0.37587699 30:0.34 31:-0.25757179 32:-0.33188459 33:0.49315169 34:-0.37833443 35:-0.28789222 36:0.64630336 #
-0.98692205013121792056551839777967 2:-0.89999998 3:0.32438299 5:-0.89999998 6:0.50438303 7:-0.03158062 8:-0.72089797 9:0.60938299 10:-0.063161239 11:-0.54179507 12:0.71438295 13:-0.093227319 14:-0.37123626 15:0.81436664 16:-0.1232938 17:-0.20067647 18:0.91435039 21:0.17 24:0.34 25:0.034729619 26:-0.1969621 27:0.33999959 28:0.069459334 29:-0.39392322 30:0.33999917 31:0.10418036 32:-0.59088415 33:0.34000406 34:0.13890168 35:-0.78784418 36:0.34000894 #
0.28905590120859175895517978460703 2:-0.89999998 3:0.32438299 5:-0.89999998 6:0.50438303 7:-0.06638559 8:-0.81906247 9:0.686248 10:-0.13277078 11:-0.73812592 12:0.86811399 13:-0.12326568 14:-0.59800011 15:1.0102178 16:-0.1137606 17:-0.45787412 18:1.1523253 21:0.17 24:0.34 25:-3.0831117e-07 26:1.6400382e-07 27:0.53999996 28:-6.1662428e-07 29:3.2800943e-07 30:0.73999983 31:-0.063224114 32:-0.077091925 33:0.91320509 34:-0.12644801 35:-0.15418437 36:1.0864103 #
-0.036223707720633963047518477651465 2:-0.89999998 3:0.32438299 5:-0.89999998 6:0.50438303 7:-0.134985 8:-0.73913109 9:0.50438327 10:-0.26997101 11:-0.57826126 12:0.50438356 13:-0.37962985 14:-0.53973532 15:0.6671434 16:-0.48928872 17:-0.50120938 18:0.82990223 21:0.17 24:0.34 25:-0.13267836 26:-0.1113301 27:0.44000605 28:-0.26535672 29:-0.2226602 30:0.54001212 31:-0.35370722 32:-0.27413151 33:0.71189511 34:-0.44205773 35:-0.32560283 36:0.88377905 #
-0.028388221361927395980373489692283 2:-0.89999998 3:0.32438299 5:-0.89999998 6:0.50438303 7:-0.036333859 8:-0.69319606 9:0.50440425 10:-0.072667725 11:-0.48639309 12:0.50442547 13:-0.015115595 14:-0.30023152 15:0.4615705 16:0.042436529 17:-0.11406983 18:0.4187156 21:0.17 24:0.34 25:-0.17068136 26:-0.030090833 27:0.43959105 28:-0.34136173 29:-0.060181767 30:0.53918213 31:-0.50745207 32:-0.10576063 33:0.44323298 34:-0.67354143 35:-0.15133904 36:0.34728384 #
0.071821338497095613129239666250214 2:-0.89999998 3:0.32438299 5:-0.89999998 6:0.50438303 7:8.3902802e-07 8:-0.90000516 9:0.7143845 10:1.6780513e-06 11:-0.90001035 12:0.92438596 13:0.16285463 14:-0.84089756 15:0.8243838 16:0.32570657 17:-0.78178579 18:0.72438163 21:0.17 24:0.34 25:0.11132084 26:-0.13268484 27:0.44000402 28:0.22264168 29:-0.26536968 30:0.54000807 31:0.13458729 32:-0.4136343 33:0.64131862 34:0.046532616 35:-0.56189889 36:0.74262911 #
-0.49251236149180105394762563264521 2:-0.89999998 3:0.32438299 5:-0.89999998 6:0.50438303 7:-0.017812477 8:-0.79659957 9:0.68624753 10:-0.035624854 11:-0.69319922 12:0.86811304 13:-0.029613607 14:-0.52261937 15:0.97179097 16:-0.023602365 17:-0.35203946 18:1.075465 21:0.17 24:0.34 25:1.7256308e-07 26:-1.8955105e-06 27:0.53999954 28:3.4512661e-07 29:-3.7910288e-06 30:0.73999906 31:0.03233647 32:-0.094150126 33:0.91320443 34:0.064672597 35:-0.18829687 36:1.0864099 #
-0.18095470964906923416748441013624 2:-0.89999998 3:0.32438299 5:-0.89999998 6:0.50438303 7:0.179105 8:-0.8684184 9:0.39939448 10:0.35821098 11:-0.83683783 12:0.29440594 13:0.34108293 14:-0.63983762 15:0.32443389 16:0.32395491 17:-0.44283843 18:0.35446081 21:0.17 24:0.34 25:0.12855797 26:-0.15320908 27:0.33999997 28:0.25711495 29:-0.30641815 30:0.33999994 31:0.40799788 32:-0.1798362 33:0.37474695 34:0.55888182 35:-0.053255163 36:0.409493 #
0.19489964470265494500544889433513 2:-0.89999998 3:0.32438299 5:-0.89999998 6:0.50438303 7:-0.16086803 8:-1.0349891 9:0.5043878 10:-0.32173705 11:-1.1699684 12:0.5043925 13:-0.44251096 14:-1.0259728 15:0.57267183 16:-0.56328589 17:-0.88197917 18:0.64095122 21:0.17 24:0.34 25:0.030083384 26:-0.17056726 27:0.44001266 28:0.060166869 29:-0.34113353 30:0.54002535 31:0.11312076 32:-0.53416985 33:0.54122889 34:0.16607517 35:-0.72720516 36:0.54243147 #
-0.33371119331531307050653367696214 2:-0.89999998 3:0.32438299 5:-0.89999998 6:0.50438303 7:-0.031564273 8:-0.72089916 9:0.60938215 10:-0.063128546 11:-0.54179746 12:0.71438134 13:-0.01958289 14:-0.34979096 15:0.74638093 16:0.023962766 17:-0.15778349 18:0.77837956 21:0.17 24:0.34 25:0.034729615 26:-0.19696209 27:0.33999965 28:0.069459327 29:-0.39392319 30:0.33999932 31:0.10418859 32:-0.59088528 33:0.33999977 34:0.13891815 35:-0.78784645 36:0.34000024 #
-0.076832049526267084949004981808685 2:-0.89999998 3:0.32438299 5:-0.89999998 6:0.50438303 7:0.035571538 8:-0.80131721 9:0.68624777 10:0.071143076 11:-0.70263541 12:0.86811358 13:0.096866623 14:-0.53065628 15:0.76946265 16:0.12258997 17:-0.35867813 18:0.67081171 21:0.17 24:0.34 25:0.030076675 26:-0.17057194 27:0.44000193 28:0.060153451 29:-0.34114289 30:0.5400039 31:-0.12025604 32:-0.30016845 33:0.46416199 34:-0.30066502 35:-0.25919405 36:0.38832015 #
-0.085939234375098552676242036341137 2:-0.89999998 3:0.32438299 5:-0.89999998 6:0.50438303 7:-0.036466215 8:-0.6931901 9:0.50438344 10:-0.07293243 11:-0.48638126 12:0.50438386 13:-0.1076151 14:-0.28944191 15:0.50437009 16:-0.14229797 17:-0.09250319 18:0.50435632 21:0.17 24:0.34 25:0.030010903 26:-0.17056787 27:0.44000053 28:0.060021907 29:-0.34113476 30:0.54000109 31:0.01741696 32:-0.4638572 33:0.69084716 34:-0.025187982 35:-0.58657968 36:0.84169328 #
-0.13394334979790695205892347985355 2:-0.89999998 3:0.32438299 5:-0.89999998 6:0.50438303 7:0.062219344 8:-0.72911459 9:0.60938299 10:0.12443849 11:-0.55823022 12:0.71438301 13:0.25707895 14:-0.46436602 15:0.83002067 16:0.3897185 17:-0.37050185 18:0.9456594 21:0.17 24:0.34 25:0.034730066 26:-0.19696201 27:0.34 28:0.069460228 29:-0.39392304 30:0.34 31:0.10412584 32:-0.59088212 33:0.34002039 34:0.13879173 35:-0.78784031 36:0.3400408 #
-0.22158170118925898939288288147509 2:-0.89999998 3:0.32438299 5:-0.89999998 6:0.50438303 7:0.071824238 8:-0.70266497 9:0.50438303 10:0.14364807 11:-0.50532901 12:0.50438303 13:0.13790981 14:-0.60964954 15:0.67483193 16:0.13217153 17:-0.71397018 18:0.84527993 21:0.17 24:0.34 25:-4.0864352e-06 26:-1.7964038e-06 27:0.54000098 28:-8.1728858e-06 29:-3.592809e-06 30:0.74000186 31:0.059236493 32:-0.16276242 33:0.63999933 34:0.11848096 35:-0.32552025 36:0.5399968 #
0.09054240770637146662469518787475 2:-0.89999998 3:0.32438299 5:-0.89999998 6:0.50438303 7:0.1791019 8:-0.86841893 9:0.60938305 10:0.35820478 11:-0.8368389 12:0.71438313 13:0.22849186 14:-0.68650389 15:0.69043261 16:0.098779522 17:-0.53616995 18:0.66648209 21:0.17 24:0.34 25:-0.064280331 26:0.076602221 27:0.51320499 28:-0.12856106 29:0.15320463 30:0.68641001 31:-0.051193781 32:-0.031149913 33:0.68118691 34:0.026173009 35:-0.21550386 36:0.67596495 #
0.10217574425040730490277240960495 2:-0.89999998 3:0.32438299 5:-0.89999998 6:0.50438303 7:-0.11690193 8:-0.76068449 9:0.60938299 10:-0.23380385 11:-0.621369 12:0.71438301 13:-0.41259584 14:-0.55251676 15:0.77062732 16:-0.59138787 17:-0.48366359 18:0.82687062 21:0.17 24:0.34 25:-0.068403997 26:-0.187939 27:0.34 28:-0.13680799 29:-0.37587699 30:0.34000003 31:-0.20521234 32:-0.56381601 33:0.33999988 34:-0.27361667 35:-0.75175393 36:0.33999974 #
-0.17550333142039345468710109798849 2:-0.89999998 3:0.32438299 5:-0.89999998 6:0.50438303 7:-0.031541374 8:-0.72090167 9:0.60938329 10:-0.063082747 11:-0.54180247 12:0.71438354 13:-0.019884925 14:-0.4201934 15:0.86636698 16:0.023312891 17:-0.29858524 18:1.0183495 21:0.17 24:0.34 25:0.034729611 26:-0.19696207 27:0.33999971 28:0.069459319 29:-0.39392316 30:0.33999944 31:0.10418388 32:-0.59088469 33:0.34000152 34:0.13890874 35:-0.78784531 36:0.34000364 #
0.056100795045489829093732225828717 2:-0.89999998 3:0.32438299 5:-0.89999998 6:0.50438303 7:0.062185552 8:-0.72910058 9:0.60938299 10:0.1243709 11:-0.55820221 12:0.71438295 13:-0.048602834 14:-0.64678538 15:0.76108158 16:-0.22157677 17:-0.73536956 18:0.80778021 21:0.17 24:0.34 25:0.076605484 26:0.064279668 27:0.51320463 28:0.15321116 29:0.12855974 30:0.68640924 31:0.098447621 32:-0.062727578 33:0.66614795 34:0.043684285 35:-0.25401431 36:0.6458866 #
0.041379220783706649466893168209936 2:-0.89999998 3:0.32438299 5:-0.89999998 6:0.50438303 7:-0.10340614 8:-0.91822898 9:0.686248 10:-0.20681228 11:-0.93645799 12:0.86811399 13:-0.23893172 14:-0.87614363 15:1.0559028 16:-0.2710512 17:-0.81582934 18:1.2436862 21:0.17 24:0.34 25:-0.059244357 26:-0.1627567 27:0.43999997 28:-0.11848851 29:-0.32551238 30:0.53999996 31:-0.17772181 32:-0.48826498 33:0.64000565 34:-0.23695509 35:-0.65101653 36:0.74001145 #
0.075387749820940652689671424013795 2:-0.89999998 3:0.32438299 5:-0.89999998 6:0.50438303 7:-0.066586658 8:-0.81914276 9:0.68624771 10:-0.13317291 11:-0.7382865 12:0.86811346 13:-0.12502122 14:-0.59770322 15:1.0093676 16:-0.11686954 17:-0.45711985 18:1.1506253 21:0.17 24:0.34 25:0.11133392 26:-0.13268313 27:0.43999967 28:0.22266784 29:-0.26536626 30:0.53999937 31:0.21247333 32:-0.45963678 33:0.49358532 34:0.20227982 35:-0.65390837 36:0.44717127 #
0.036227754317220667301668868276465 2:-0.89999998 3:0.32438299 5:-0.89999998 6:0.50438303 7:-0.067492686 8:-0.81956643 9:0.686248 10:-0.13498497 11:-0.73913389 12:0.86811399 13:-0.22136483 14:-0.68398327 15:0.69619834 16:-0.30774572 17:-0.62883264 18:0.52428377 21:0.17 24:0.34 25:0.030073492 26:-0.17057373 27:0.24000005 28:0.060147084 29:-0.34114647 30:0.14000012 31:-0.053024281 32:-0.34051874 33:0.30489358 34:-0.16619515 35:-0.33989102 36:0.46978605 #
-0.072144563309841633347296863121301 2:-0.89999998 3:0.32438299 5:-0.89999998 6:0.50438303 7:0.0718242 8:-0.70266497 9:0.50438297 10:0.143648 11:-0.50532895 12:0.50438291 13:-0.015236169 14:-0.55391699 15:0.61571616 16:-0.17412113 17:-0.60250503 18:0.72704941 21:0.17 24:0.34 25:0.030075718 26:-0.17056979 27:0.23999995 28:0.060151536 29:-0.3411386 30:0.13999991 31:0.11751026 32:-0.3257558 33:0.33099037 34:0.17486946 35:-0.31037298 36:0.52198088 #
0.12690302915869969280215912021959 2:-0.89999998 3:0.32438299 5:-0.89999998 6:0.50438303 7:-0.116901 8:-0.760683 9:0.39938301 10:-0.23380201 11:-0.62136602 12:0.29438299 13:-0.39584365 14:-0.73465043 15:0.32448262 16:-0.55788529 17:-0.84793586 18:0.35458124 21:0.17 24:0.34 25:0.12855799 26:-0.153209 27:0.34 28:0.25711501 29:-0.306418 30:0.34 31:0.068155192 32:-0.33443299 33:0.39923999 34:-0.12080501 35:-0.36244899 36:0.45847899 #
0.10846017859875152489212979389777 2:-0.89999998 3:0.32438299 5:-0.89999998 6:0.50438303 7:-0.13498472 8:-0.73913109 9:0.50438243 10:-0.26997045 11:-0.5782612 12:0.50438184 13:-0.39859444 14:-0.42508137 15:0.50441068 16:-0.52721947 17:-0.27190256 18:0.50443959 21:0.17 24:0.34 25:-0.17055626 26:-0.030114826 27:0.23999999 28:-0.34111154 29:-0.060229752 30:0.14 31:-0.34520149 32:-0.030366434 33:0.33766779 34:-0.34929246 35:-0.00050315191 36:0.5353356 #
0.074072564020746037294351538093906 2:-0.89999998 3:0.32438299 5:-0.89999998 6:0.50438303 7:-0.018233109 8:-0.79659498 9:0.686248 10:-0.036466118 11:-0.69318998 12:0.86811399 13:0.0098744081 14:-0.78419137 15:1.0399699 16:0.056214936 17:-0.8751927 18:1.2118298 21:0.17 24:0.34 25:-0.098366298 26:-0.017344967 27:0.51323611 28:-0.196733 29:-0.034689933 30:0.68647224 31:-0.13302532 32:-0.2234458 33:0.70381671 34:-0.069317542 35:-0.4122023 36:0.72116119 #
0.036183292977508524357332930776465 2:-0.89999998 3:0.32438299 5:-0.89999998 6:0.50438303 7:-0.036466099 8:-0.69318998 9:0.50438303 10:-0.072932199 11:-0.48638099 12:0.50438303 13:-0.14029634 14:-0.49826789 15:0.69232428 16:-0.20766069 17:-0.51015478 18:0.88026446 21:0.17 24:0.34 25:-0.034194235 26:-0.093974635 27:0.51320505 28:-0.06838847 29:-0.18794967 30:0.68641007 31:-0.085158266 32:-0.18322784 33:0.88565385 34:-0.10192786 35:-0.178506 36:1.0848956 #
0.03689852776005522055902119404891 2:-0.89999998 3:0.32438299 5:-0.89999998 6:0.50438303 7:-0.17089774 8:-0.83779812 9:0.39938197 10:-0.34179446 11:-0.77559716 12:0.29438087 13:-0.36967495 14:-0.62849665 15:0.42689618 16:-0.39755642 17:-0.48139611 18:0.55941153 21:0.17 24:0.34 25:-0.059239715 26:-0.16275993 27:0.44 28:-0.11847923 29:-0.32551885 30:0.54000002 31:-0.117475 32:-0.22110707 33:0.71053433 34:-0.11647078 35:-0.11669528 36:0.88106775 #
-0.036411304026838745007133013587008 2:-0.89999998 3:0.32438299 5:-0.89999998 6:0.50438303 7:-0.031580832 8:-0.72089803 9:0.39938346 10:-0.063161664 11:-0.54179513 12:0.29438388 13:0.12246315 14:-0.61225146 15:0.31837353 16:0.30808777 17:-0.68270779 18:0.34236315 21:0.17 24:0.34 25:0.034740962 26:-0.19695573 27:0.34000334 28:0.069482021 29:-0.39391047 30:0.34000668 31:0.19647796 32:-0.54741037 33:0.35738504 34:0.32347322 35:-0.70090932 36:0.37476334 #
0.15354433096943864711647620424628 2:-0.89999998 3:0.32438299 5:-0.89999998 6:0.50438303 7:-0.20680985 8:-0.93646449 9:0.50438297 10:-0.41361871 11:-0.97292906 12:0.50438291 13:-0.6005196 14:-0.910312 15:0.53659308 16:-0.78741944 17:-0.84769493 18:0.56880331 21:0.17 24:0.34 25:0.030085742 26:-0.17056511 27:0.44001633 28:0.060171586 29:-0.34112924 30:0.54003268 31:0.11263064 32:-0.53423131 33:0.541269 34:0.16509022 35:-0.72733241 36:0.54250431 #
0.072497166693203871079553834988474 2:-0.89999998 3:0.32438299 5:-0.89999998 6:0.50438303 7:-0.018233353 8:-0.79659498 9:0.686248 10:-0.036466606 11:-0.69319004 12:0.86811399 13:0.0026358264 14:-0.5210253 15:0.77414423 16:0.041738261 17:-0.34886047 18:0.68017548 21:0.17 24:0.34 25:0.09397015 26:-0.034201302 27:0.51320499 28:0.1879407 29:-0.068402603 30:0.68641001 31:0.28192613 32:-0.10259572 33:0.85960102 34:0.37591153 35:-0.13678883 36:1.032792 #
0.018191942945121032659816506793504 2:-0.89999998 3:0.32438299 5:-0.89999998 6:0.50438303 7:-0.067490995 8:-0.8195644 9:0.68624794 10:-0.13498159 11:-0.73912984 12:0.86811388 13:-0.053151608 14:-0.57124805 15:0.93959564 16:0.028678868 17:-0.40336719 18:1.0110754 21:0.17 24:0.34 25:0.16275924 26:-0.059240602 27:0.44 28:0.32551748 29:-0.118481 30:0.54000002 31:0.22109795 32:-0.11743262 33:0.71057415 34:0.11667839 35:-0.11638424 36:0.88114738 #
-0.13545707799493009182434377635218 2:-0.89999998 3:0.32438299 5:-0.89999998 6:0.50438303 7:0.071824022 8:-0.70266503 9:0.50438273 10:0.14364764 11:-0.50532913 12:0.50438249 13:0.14203222 14:-0.32042071 15:0.42846292 16:0.14041579 17:-0.13551229 18:0.35254243 21:0.17 24:0.34 25:-0.078334644 26:-0.060419835 27:0.5132063 28:-0.15666951 29:-0.12084004 30:0.68641263 31:-0.25921988 32:-0.090009056 33:0.85437602 34:-0.36177126 35:-0.059178442 36:1.0223376 #
-0.01823292695917020159179777749614 2:-0.89999998 3:0.32438299 5:-0.89999998 6:0.50438303 7:0.062233739 8:-0.72912455 9:0.60938299 10:0.12446728 11:-0.55825007 12:0.71438301 13:0.2239157 14:-0.38482898 15:0.71959454 16:0.32336411 17:-0.21140793 18:0.72480613 21:0.17 24:0.34 25:0.11137982 26:-0.13261759 27:0.44 28:0.22275963 29:-0.26523519 30:0.54000002 31:0.21467233 32:-0.14938407 33:0.70276707 34:0.20658603 35:-0.033532742 36:0.86553317 #
0.23557369379222253824579524916771 2:-0.89999998 3:0.32438299 5:-0.89999998 6:0.50438303 7:-0.03151853 8:-0.72090441 9:0.60938674 10:-0.06303706 11:-0.54180783 12:0.71439058 13:-0.034115355 14:-0.36611393 15:0.62343508 16:-0.0051937769 17:-0.19042003 18:0.53247964 21:0.17 24:0.34 25:-0.196962 26:-0.034729596 27:0.34 28:-0.39392301 29:-0.069459289 30:0.34 31:-0.59087962 32:-0.10418572 33:0.34001258 34:-0.7878353 35:-0.13891244 36:0.34002513 #
0.029338446911421674906383927350362 2:-0.89999998 3:0.32438299 5:-0.89999998 6:0.50438303 7:-0.19733493 8:-0.82817608 9:0.50438339 10:-0.39467084 11:-0.75635213 12:0.5043838 13:-0.33040497 14:-0.57974619 15:0.57278687 16:-0.26613909 17:-0.4031412 18:0.64119005 21:0.17 24:0.34 25:-0.098477989 26:-0.017370783 27:0.51320499 28:-0.19695638 29:-0.034741566 30:0.68641001 31:-0.33357725 32:-0.12616535 33:0.79956597 34:-0.47019908 35:-0.21758972 36:0.91272193 #
-0.036197006702419751156263316715922 2:-0.89999998 3:0.32438299 5:-0.89999998 6:0.50438303 7:0.062201723 8:-0.72910202 9:0.60938299 10:0.12440325 11:-0.55820501 12:0.71438301 13:-0.041557722 14:-0.5662846 15:0.82565272 16:-0.20751929 17:-0.57436317 18:0.93692243 21:0.17 24:0.34 25:0.11133374 26:-0.13268305 27:0.44 28:0.22266747 29:-0.26536611 30:0.54000002 31:0.24517797 32:-0.39226401 33:0.69295114 34:0.26768747 35:-0.51916188 36:0.84590232 #
-0.036215379368510457191998597181737 2:-0.89999998 3:0.32438299 5:-0.89999998 6:0.50438303 7:0.071824215 8:-0.70266491 9:0.50438285 10:0.14364803 11:-0.50532889 12:0.50438267 13:0.2644527 14:-0.54930019 15:0.65758991 16:0.38525733 17:-0.59327245 18:0.81079715 21:0.17 24:0.34 25:0.03007669 26:-0.17057401 27:0.44 28:0.060153481 29:-0.34114704 30:0.54000002 31:0.030762497 32:-0.34766507 33:0.73772025 34:0.0013716107 35:-0.35418212 36:0.93544042 #
-0.16294065862892548324225572287105 2:-0.89999998 3:0.32438299 5:-0.89999998 6:0.50438303 7:0.13931441 8:-0.78309327 9:0.39939541 10:0.27862883 11:-0.66618657 12:0.29440781 13:0.30231991 14:-0.47309583 15:0.34081829 16:0.326011 17:-0.28000516 18:0.38722876 21:0.17 24:0.34 25:0.17057166 26:0.030079652 27:0.24000008 28:0.34114233 29:0.060159404 30:0.14000018 31:0.34052405 32:-0.05300783 33:0.30490437 34:0.33990574 35:-0.16617458 36:0.4698076 #
0.046540168114002196386724818921721 2:-0.89999998 3:0.32438299 5:-0.89999998 6:0.50438303 7:0.071826592 8:-0.70266521 9:0.50438297 10:0.14365278 11:-0.50532943 12:0.50438297 13:0.024854392 14:-0.35571754 15:0.44516265 16:-0.093944393 17:-0.20610462 18:0.38594338 21:0.17 24:0.34 25:-0.062791377 26:0.077008113 27:0.51321125 28:-0.12558314 29:0.15401642 30:0.68642247 31:-0.1142302 32:0.046677545 33:0.8542968 34:-0.10287725 35:-0.060661312 36:1.0221671 #
0.10035641491412185255516220649952 2:-0.89999998 3:0.32438299 5:-0.89999998 6:0.50438303 7:0.062187597 8:-0.72910058 9:0.60938221 10:0.12437499 11:-0.55820215 12:0.71438146 13:0.093918405 14:-0.3688544 15:0.77068627 16:0.063461624 17:-0.17950664 18:0.82699007 21:0.17 24:0.34 25:-0.059241395 26:-0.16276406 27:0.4399955 28:-0.11848259 29:-0.3255271 30:0.53999102 31:-0.25429294 32:-0.19993263 33:0.46394733 34:-0.39010224 35:-0.074338287 36:0.38790363 #
0.055002360604698326274064612562142 2:-0.89999998 3:0.32438299 5:-0.89999998 6:0.50438303 7:0.1393169 8:-0.78309894 9:0.60938299 10:0.2786338 11:-0.6661979 12:0.71438301 13:0.22556624 14:-0.75601619 15:0.88497961 16:0.17249867 17:-0.84583449 18:1.0555751 21:0.17 24:0.34 25:0.030177519 26:-0.17052698 27:0.23999999 28:0.060355138 29:-0.34105298 30:0.14 31:0.14397931 32:-0.42173809 33:0.30276975 34:0.22760299 35:-0.50242215 36:0.46553847 #
-0.24245413020250930480337103745114 2:-0.89999998 3:0.32438299 5:-0.89999998 6:0.50438303 7:0.19733442 8:-0.97182333 9:0.50438547 10:0.39466983 11:-1.0436487 12:0.50438797 13:0.53404111 14:-0.95308775 15:0.61554694 16:0.6734134 17:-0.86252886 18:0.72670603 21:0.17 24:0.34 25:-0.068403579 26:-0.18793903 27:0.34 28:-0.13680716 29:-0.37587705 30:0.34 31:-0.12349985 32:-0.56501412 33:0.40398476 34:-0.11019252 35:-0.75415123 36:0.46796951 #
0.018083157483486649030890447420461 2:-0.89999998 3:0.32438299 5:-0.89999998 6:0.50438303 7:0.062201414 8:-0.72910339 9:0.60938823 10:0.12440263 11:-0.55820769 12:0.7143935 13:0.012854116 14:-0.53916883 15:0.54948163 16:-0.09869469 17:-0.52012908 18:0.38457069 21:0.17 24:0.34 25:-0.059237164 26:-0.16275509 27:0.23997907 28:-0.11847413 29:-0.32550916 30:0.13995816 31:0.016776253 32:-0.34183061 33:0.28639868 34:0.15202703 35:-0.35815307 36:0.43283918 #
-0.037428289651867271969898354200268 2:-0.89999998 3:0.32438299 5:-0.89999998 6:0.50438303 7:-0.17090297 8:-0.83779615 9:0.39940274 10:-0.34180492 11:-0.77559328 12:0.29442248 13:-0.23273712 14:-0.64207262 15:0.3957949 16:-0.12366834 17:-0.50855201 18:0.49716735 21:0.17 24:0.34 25:-0.098325774 26:-0.017685534 27:0.51319873 28:-0.19665195 29:-0.035371069 30:0.68639743 31:-0.16970098 32:-0.19565633 33:0.56994081 34:-0.14275001 35:-0.35594121 36:0.45348316 #
-0.11254323646425155869277290321406 2:-0.89999998 3:0.32438299 5:-0.89999998 6:0.50438303 7:-0.036466099 8:-0.69318998 9:0.50438297 10:-0.072932199 11:-0.48638096 12:0.50438291 13:-0.22341751 14:-0.61444098 15:0.53433329 16:-0.37390199 17:-0.74250203 18:0.56428272 21:0.17 24:0.34 25:0.093791284 26:-0.034285817 27:0.51323259 28:0.18758297 29:-0.068571635 30:0.6864652 31:0.03694449 32:-0.18690714 33:0.62929034 34:-0.11369359 35:-0.30524364 36:0.57211637 #
0.036216818261888245045199141713965 2:-0.89999998 3:0.32438299 5:-0.89999998 6:0.50438303 7:-0.13931686 8:-1.0169001 9:0.60938299 10:-0.27863371 11:-1.1338003 12:0.71438301 13:-0.23303112 14:-0.95020753 15:0.77929264 16:-0.18742855 17:-0.76661384 18:0.84420121 21:0.17 24:0.34 25:0.03472966 26:-0.19696203 27:0.33999977 28:0.069459416 29:-0.39392307 30:0.33999956 31:0.057198986 32:-0.4976272 33:0.51057184 34:0.044938553 35:-0.60133034 36:0.68114316 #
0.018648044206200302397302692725134 2:-0.89999998 3:0.32438299 5:-0.89999998 6:0.50438303 7:0.062201601 8:-0.72910202 9:0.60938299 10:0.124403 11:-0.55820501 12:0.71438301 13:0.31519848 14:-0.60948956 15:0.6842646 16:0.50599295 17:-0.66077411 18:0.65414715 21:0.17 24:0.34 25:-0.034194253 26:-0.093952529 27:0.51320946 28:-0.068388507 29:-0.18790546 30:0.68641895 31:-0.00032869069 32:-0.28884646 33:0.84509134 34:0.067731142 35:-0.38978851 36:1.0037577 #
-0.14643089845775200674715676996129 2:-0.89999998 3:0.32438299 5:-0.89999998 6:0.50438303 7:-0.17089817 8:-0.83779794 9:0.39938366 10:-0.34179533 11:-0.77559686 12:0.29438433 13:-0.18790568 14:-0.65007943 15:0.31826884 16:-0.034016363 17:-0.52456307 18:0.34215334 21:0.17 24:0.34 25:-0.068404071 26:-0.18793927 27:0.340002 28:-0.13680814 29:-0.37587753 30:0.34000397 31:-0.25544193 32:-0.22631755 33:0.39944127 34:-0.37407571 35:-0.076756962 36:0.45887759 #
0.082622291520230262129587117669871 2:-0.89999998 3:0.32438299 5:-0.89999998 6:0.50438303 7:-0.17090429 8:-0.83787274 9:0.60938275 10:-0.34180757 11:-0.77574652 12:0.71438259 13:-0.50745893 14:-0.81863803 15:0.81671375 16:-0.67310929 17:-0.86152947 18:0.91904485 21:0.17 24:0.34 25:0.11133353 26:-0.13268322 27:0.44 28:0.22266707 29:-0.26536644 30:0.54000002 31:0.21246445 32:-0.45963606 33:0.49359632 34:0.20226285 35:-0.65390676 36:0.44719264 #
-0.072740283794694354790877355299017 2:-0.89999998 3:0.32438299 5:-0.89999998 6:0.50438303 7:0.16086583 8:-0.76501763 9:0.50439954 10:0.32173264 11:-0.63003427 12:0.50441605 13:0.19513209 14:-0.47915062 15:0.53913134 16:0.068532318 17:-0.32826701 18:0.57384574 21:0.17 24:0.34 25:0.017364897 26:-0.098480865 27:0.51320499 28:0.034729794 29:-0.19696213 30:0.68641001 31:-0.14314264 32:-0.12552923 33:0.62938702 34:-0.32101545 35:-0.05409763 36:0.57236499 #
0.21756188943980109273823586590879 2:-0.89999998 3:0.32438299 5:-0.89999998 6:0.50438303 7:0.062201608 8:-0.72910202 9:0.60938293 10:0.12440301 11:-0.55820501 12:0.71438295 13:0.18365304 14:-0.39545557 15:0.81441081 16:0.24290207 17:-0.23270714 18:0.91443872 21:0.17 24:0.34 25:0.19696201 26:0.034729581 27:0.34 28:0.39392304 29:0.06945926 30:0.34 31:0.30067345 32:0.022426508 33:0.51055121 34:0.20742393 35:-0.024606142 36:0.6811015 #
-0.018147529335690845697648398981983 2:-0.89999998 3:0.32438299 5:-0.89999998 6:0.50438303 7:-0.018259412 8:-0.79660988 9:0.68624836 10:-0.036518723 11:-0.69321978 12:0.86811465 13:-0.19704019 14:-0.7201764 15:0.75190824 16:-0.35756174 17:-0.74713302 18:0.63570279 21:0.17 24:0.34 25:0.0347296 26:-0.196962 27:0.34 28:0.069459297 29:-0.39392301 30:0.34 31:0.10418899 32:-0.59088498 33:0.34 34:0.13891898 35:-0.78784603 36:0.34 #
0.12682300060986295697773584834067 2:-0.89999998 3:0.32438299 5:-0.89999998 6:0.50438303 7:0.062213954 8:-0.72911078 9:0.6093834 10:0.12442771 11:-0.55822259 12:0.71438384 13:0.29788101 14:-0.47000685 15:0.66804802 16:0.47133431 17:-0.38179213 18:0.62171227 21:0.17 24:0.34 25:0.15320894 26:0.12855795 27:0.34000027 28:0.30641788 29:0.25711492 30:0.34000051 31:0.33443442 32:0.068155855 33:0.39924052 34:0.36245197 35:-0.1208036 36:0.45847952 #
-0.067348028533154455366194213183917 2:-0.89999998 3:0.32438299 5:-0.89999998 6:0.50438303 7:-0.031586085 8:-0.72089505 9:0.60936433 10:-0.063172169 11:-0.54178923 12:0.71434569 13:-0.11287363 14:-0.34898049 15:0.71744567 16:-0.16257524 17:-0.15617175 18:0.7205447 21:0.17 24:0.34 25:-0.059239544 26:-0.16275997 27:0.44 28:-0.11847889 29:-0.32551894 30:0.54000002 31:-0.17768183 32:-0.48825169 33:0.64001149 34:-0.23688477 35:-0.65098339 36:0.74002302 #
0.090518901124588199702536428503663 2:-0.89999998 3:0.32438299 5:-0.89999998 6:0.50438303 7:-0.17089823 8:-0.83779812 9:0.60938287 10:-0.34179544 11:-0.77559727 12:0.71438277 13:-0.17691533 14:-0.66240317 15:0.71568608 16:-0.012034631 17:-0.54921013 18:0.71698934 21:0.17 24:0.34 25:0.187939 26:-0.068403997 27:0.33999994 28:0.37587699 29:-0.13680799 30:0.33999985 31:0.22625361 32:-0.2555154 33:0.39929247 34:0.076629624 35:-0.37422279 36:0.4585841 #
0.19963726401327189230450187551469 2:-0.89999998 3:0.32438299 5:-0.89999998 6:0.50438303 7:-0.031577863 8:-0.72091347 9:0.39932421 10:-0.063155726 11:-0.54182607 12:0.29426542 13:-0.21873166 14:-0.64187962 15:0.37037122 16:-0.37430879 17:-0.74193317 18:0.44647703 21:0.17 24:0.34 25:-1.5353306e-05 26:-2.5523211e-06 27:0.53999591 28:-3.0706677e-05 29:-5.1046418e-06 30:0.73999178 31:-0.030086432 32:-0.17057675 33:0.63999629 34:-0.060142256 35:-0.34114739 36:0.5400008 #
-0.018099412554873337000138633356983 2:-0.89999998 3:0.32438299 5:-0.89999998 6:0.50438303 7:-0.11690099 8:-0.76068294 9:0.3993831 10:-0.23380198 11:-0.62136596 12:0.2943832 13:-0.072248973 14:-0.56060112 15:0.39514524 16:0.089303516 17:-0.49983531 18:0.49590728 21:0.17 24:0.34 25:-0.1532086 26:-0.12855767 27:0.33999994 28:-0.3064172 29:-0.25711435 30:0.33999991 31:-0.17981894 32:-0.40800068 33:0.37473005 34:-0.053221587 35:-0.55888802 36:0.4094592 #
-0.093350149691096215298635740964528 2:-0.89999998 3:0.32438299 5:-0.89999998 6:0.50438303 7:0.035696525 8:-0.80131298 9:0.68624794 10:0.07139305 11:-0.702627 12:0.86811388 13:-0.01087968 14:-0.60353267 15:0.71515435 16:-0.093152411 17:-0.50443822 18:0.56219476 21:0.17 24:0.34 25:-0.059239678 26:-0.16275987 27:0.44000015 28:-0.11847916 29:-0.32551873 30:0.54000032 31:-0.28339964 32:-0.22915049 33:0.59915537 34:-0.44832015 35:-0.13278224 36:0.65830946 #
0.34397318959232947577220329549164 2:-0.89999998 3:0.32438299 5:-0.89999998 6:0.50438303 7:0.16086899 8:-0.76501501 9:0.50438297 10:0.32173896 11:-0.63002902 12:0.50438291 13:0.47494802 14:-0.50147206 15:0.50438291 16:0.62815607 17:-0.37291411 18:0.50438297 21:0.17 24:0.34 25:0.13268298 26:0.11133403 27:0.44 28:0.26536596 29:0.22266805 30:0.54000002 31:0.40527207 32:0.082948774 33:0.50992292 34:0.54517913 35:-0.056770589 36:0.47984684 #
0.01816700794733891802246183999614 2:-0.89999998 3:0.32438299 5:-0.89999998 6:0.50438303 7:0.080413416 8:-0.8324914 9:0.68624735 10:0.16082643 11:-0.76498377 12:0.86811268 13:0.17984687 14:-0.58120078 15:0.79158562 16:0.19886732 17:-0.39741787 18:0.71505964 21:0.17 24:0.34 25:0.16277017 26:-0.059221115 27:0.44 28:0.32553932 29:-0.11844203 30:0.54000002 31:0.1537251 32:-0.08791551 33:0.63772923 34:-0.018089097 35:-0.05738879 36:0.73545843 #
0.14035754190287799691994052864175 2:-0.89999998 3:0.32438299 5:-0.89999998 6:0.50438303 7:-0.017137716 8:-0.79661584 9:0.6862303 10:-0.034275334 11:-0.6932317 12:0.86807865 13:0.023042971 14:-0.66396523 15:1.057097 16:0.080361269 17:-0.63469875 18:1.2461098 21:0.17 24:0.34 25:0.017362697 26:-0.098467596 27:0.51320499 28:0.034725394 29:-0.19693559 30:0.68641007 31:0.052081697 32:-0.29537866 33:0.85962969 34:0.069437899 35:-0.39382276 36:1.0328492 #
-1.0003889412168862627083854022203 2:-0.89999998 3:0.32438299 5:-0.89999998 6:0.50438303 7:-1.1008125e-08 8:-0.90000004 9:0.71438301 10:-2.2016243e-08 11:-0.90000004 12:0.92438298 13:-1.5537247e-05 14:-0.89998811 15:1.1243713 16:-3.1052528e-05 17:-0.89997619 18:1.3243628 21:0.17 24:0.34 25:0.034729596 26:-0.196962 27:0.34 28:0.069459289 29:-0.39392301 30:0.34 31:0.10417547 32:-0.59088552 33:0.33999997 34:0.13889195 35:-0.78784704 36:0.33999994 #
0.07360165938734324064807168497282 2:-0.89999998 3:0.32438299 5:-0.89999998 6:0.50438303 7:0.071826614 8:-0.70266521 9:0.50438303 10:0.14365283 11:-0.50532943 12:0.50438303 13:0.024784174 14:-0.35570118 15:0.44588774 16:-0.094084881 17:-0.20607191 18:0.38739344 21:0.17 24:0.34 25:0.15320159 26:0.12855177 27:0.34002924 28:0.30640319 29:0.25710255 30:0.34005848 31:0.33443853 32:0.068340689 33:0.39951697 34:0.36247492 35:-0.12042157 36:0.45897448 #
0.018102540634570819799709084918504 2:-0.89999998 3:0.32438299 5:-0.89999998 6:0.50438303 7:0.071824193 8:-0.70266497 9:0.50438309 10:0.14364798 11:-0.50532901 12:0.50438309 13:0.20611431 14:-0.42164758 15:0.67495722 16:0.26858062 17:-0.3379651 18:0.84553039 21:0.17 24:0.34 25:0.093969718 26:-0.03420141 27:0.51320499 28:0.18793984 29:-0.068402819 30:0.68641001 31:0.38402486 32:-0.10775752 33:0.68772733 34:0.58011091 35:-0.14711121 36:0.68904454 #
-0.018272775923831557909338130230026 2:-0.89999998 3:0.32438299 5:-0.89999998 6:0.50438303 7:0.071824513 8:-0.7026642 9:0.50437987 10:0.14364862 11:-0.5053274 12:0.50437671 13:0.2631695 14:-0.36446428 15:0.580854 16:0.38269043 17:-0.22360118 18:0.65733236 21:0.17 24:0.34 25:0.034716927 26:-0.19696692 27:0.34000325 28:0.06943395 29:-0.39393285 30:0.3400065 31:0.17486843 32:-0.55124104 33:0.40418625 34:0.2803022 35:-0.70854825 36:0.468366 #
0.13935133814810418684260184818413 2:-0.89999998 3:0.32438299 5:-0.89999998 6:0.50438303 7:-0.11688112 8:-0.76067722 9:0.60938621 10:-0.23376225 11:-0.62135446 12:0.71438944 13:-0.25682837 14:-0.49439722 15:0.86701304 16:-0.27989548 17:-0.36744004 18:1.0196357 21:0.17 24:0.34 25:-0.098300986 26:-0.016971337 27:0.51320446 28:-0.19660237 29:-0.033942677 30:0.68640888 31:-0.29509676 32:-0.051685318 33:0.85941064 34:-0.39359215 35:-0.069427863 36:1.0324123 #
-0.09047590196131821693725783006812 2:-0.89999998 3:0.32438299 5:-0.89999998 6:0.50438303 7:-0.031580582 8:-0.72089535 9:0.39939317 10:-0.063161165 11:-0.54178971 12:0.29440331 13:0.11599652 14:-0.47548127 15:0.35362047 16:0.29515401 17:-0.40917179 18:0.41283664 21:0.17 24:0.34 25:0.12855817 26:-0.15320922 27:0.34000117 28:0.25711536 29:-0.30641845 30:0.34000233 31:0.40799659 32:-0.17981283 33:0.37473127 34:0.55887884 35:-0.053208124 36:0.40945923 #
-0.14760402962564053708227618244564 2:-0.89999998 3:0.32438299 5:-0.89999998 6:0.50438303 7:0.062200546 8:-0.72910184 9:0.60938299 10:0.12440089 11:-0.55820465 12:0.71438301 13:0.18360168 14:-0.39544094 15:0.8144123 16:0.24280147 17:-0.23267823 18:0.9144417 21:0.17 24:0.34 25:0.017621921 26:-0.09838438 27:0.51320463 28:0.035243843 29:-0.19676916 30:0.68640929 31:0.052462488 32:-0.29517275 33:0.85965222 34:0.069681026 35:-0.39357737 36:1.0328951 #
-0.11014607734977178987723078762428 2:-0.89999998 3:0.32438299 5:-0.89999998 6:0.50438303 7:0.062201638 8:-0.72910202 9:0.39938304 10:0.12440307 11:-0.55820507 12:0.29438305 13:-0.060297579 14:-0.56702638 15:0.37048504 16:-0.24499823 17:-0.57584679 18:0.44658703 21:0.17 24:0.34 25:0.034729619 26:-0.196962 27:0.34000003 28:0.069459334 29:-0.39392301 30:0.34000003 31:0.26339296 32:-0.35967869 33:0.37474182 34:0.45732594 35:-0.32543439 36:0.4094826 #
-0.66926024854176990874776720374939 2:-0.89999998 3:0.32438299 5:-0.89999998 6:0.50438303 7:0.17090045 8:-0.96220249 9:0.39939258 10:0.34179989 11:-1.0244009 12:0.29440212 13:0.52085012 14:-0.9483664 15:0.3408272 16:0.69990027 17:-0.87232888 18:0.3872523 21:0.17 24:0.34 25:0.034729604 26:-0.19696201 27:0.33999994 28:0.069459304 29:-0.39392304 30:0.33999988 31:0.10416036 32:-0.59089494 33:0.3400014 34:0.13886172 35:-0.78786588 36:0.34000292 #
0.48899598419661755022147531235532 2:-0.89999998 3:0.32438299 5:-0.89999998 6:0.50438303 7:-0.13931894 8:-1.016901 9:0.39939147 10:-0.27863789 11:-1.1338021 12:0.29439992 13:-0.42561528 14:-1.011808 15:0.35364559 16:-0.57259166 17:-0.88980615 18:0.41289029 21:0.17 24:0.34 25:-0.068403997 26:-0.187939 27:0.34 28:-0.13680799 29:-0.37587699 30:0.34 31:-0.20527001 32:-0.563797 33:0.34002578 34:-0.27373201 35:-0.7517159 36:0.34005156 #
0.23399218916890834885080607818963 2:-0.89999998 3:0.32438299 5:-0.89999998 6:0.50438303 7:0.071825765 8:-0.70266509 9:0.50438356 10:0.14365113 11:-0.50532931 12:0.50438416 13:0.024869328 14:-0.35571623 15:0.4450573 16:-0.093912862 17:-0.20610213 18:0.38573146 21:0.17 24:0.34 25:-0.098588564 26:-0.016855385 27:0.51320499 28:-0.19717753 29:-0.033710767 30:0.68641001 31:-0.2957094 32:-0.051582165 33:0.85952789 34:-0.39424232 35:-0.069453456 36:1.0326457 #
0.12587577104567312935579082022741 2:-0.89999998 3:0.32438299 5:-0.89999998 6:0.50438303 7:-0.080437936 8:-0.96748888 9:0.68624812 10:-0.16087547 11:-1.0349817 12:0.86811423 13:-0.28177395 14:-0.96329463 15:0.72578311 16:-0.40267143 17:-0.89161342 18:0.583453 21:0.17 24:0.34 25:-0.059239689 26:-0.1627599 27:0.44 28:-0.11847918 29:-0.32551879 30:0.54000002 31:-0.1777114 32:-0.48828366 33:0.63998938 34:-0.23694362 35:-0.65104753 36:0.73997873 #
-0.090688830241552526034709558189206 2:-0.89999998 3:0.32438299 5:-0.89999998 6:0.50438303 7:-0.13498123 8:-0.73913527 9:0.5043636 10:-0.26996347 11:-0.57826966 12:0.50434422 13:-0.11909467 14:-0.45171523 15:0.46963945 16:0.031772915 17:-0.32515982 18:0.43493569 21:0.17 24:0.34 25:-0.059239767 26:-0.1627609 27:0.43999907 28:-0.11847933 29:-0.32552078 30:0.53999817 31:-0.17772689 32:-0.48826554 33:0.64000905 34:-0.23697445 35:-0.65100926 36:0.74001998 #
-0.85138455033294391238740672633867 2:-0.89999998 3:0.32438299 5:-0.89999998 6:0.50438303 7:0.071824238 8:-0.70266497 9:0.50438303 10:0.14364807 11:-0.50532907 12:0.50438303 13:0.21202272 14:-0.31738839 15:0.50435972 16:0.28039837 17:-0.12944669 18:0.50433648 21:0.17 24:0.34 25:0.13268393 26:0.11133273 27:0.24000119 28:0.26536787 29:0.22266546 30:0.14000238 31:0.32633403 32:0.06135726 33:0.2413061 34:0.38730118 35:-0.099951029 36:0.34260982 #
-0.082290293648831377981700541113241 2:-0.89999998 3:0.32438299 5:-0.89999998 6:0.50438303 7:0.062204227 8:-0.72910285 9:0.60938293 10:0.12440825 11:-0.55820674 12:0.71438289 13:-0.048859119 14:-0.6465596 15:0.76083213 16:-0.22212669 17:-0.73491353 18:0.80728132 21:0.17 24:0.34 25:0.11131123 26:-0.1326935 27:0.44 28:0.22262245 29:-0.265387 30:0.54000002 31:0.23630551 32:-0.42743465 33:0.65614778 34:0.24998949 35:-0.58948326 36:0.77229655 #
-0.058320965617889707066634485954637 2:-0.89999998 3:0.32438299 5:-0.89999998 6:0.50438303 7:-0.017953394 8:-0.79672205 9:0.686248 10:-0.035906687 11:-0.69344413 12:0.86811393 13:-0.099365808 14:-0.53133488 15:0.76996434 16:-0.16282502 17:-0.3692247 18:0.67181468 21:0.17 24:0.34 25:-0.017362034 26:0.09846966 27:0.51320511 28:-0.034724068 29:0.19693972 30:0.68641019 31:-0.059893996 32:-0.0014017626 33:0.6811828 34:-0.085063823 35:-0.19974288 36:0.67595655 #
0.14867044053970387973429012617999 2:-0.89999998 3:0.32438299 5:-0.89999998 6:0.50438303 7:0.20680951 8:-0.86353415 9:0.50438201 10:0.41361803 11:-0.82706839 12:0.50438094 13:0.61056823 14:-0.79232937 15:0.50437772 16:0.80751747 17:-0.75759029 18:0.5043745 21:0.17 24:0.34 25:-0.068404011 26:-0.187939 27:0.34 28:-0.13680802 29:-0.37587699 30:0.34 31:-0.1645364 32:-0.55024767 33:0.43403444 34:-0.19226576 35:-0.72461945 36:0.52806991 #
-0.056890151463443734691782793788661 2:-0.89999998 3:0.32438299 5:-0.89999998 6:0.50438303 7:-0.036466099 8:-0.69318998 9:0.50438303 10:-0.072932199 11:-0.48638099 12:0.50438303 13:-0.22068405 14:-0.41094714 15:0.61574382 16:-0.3684361 17:-0.33551326 18:0.72710466 21:0.17 24:0.34 25:0.18793848 26:-0.068403907 27:0.34000164 28:0.37587595 29:-0.13680781 30:0.34000331 31:0.22623962 32:-0.25554955 33:0.39924237 34:0.076602668 35:-0.3742913 36:0.45848045 #
0.10226204060017113350866679866158 2:-0.89999998 3:0.32438299 5:-0.89999998 6:0.50438303 7:-0.17089771 8:-0.83779758 9:0.60938299 10:-0.3417944 11:-0.77559614 12:0.71438301 13:-0.43496153 14:-0.64159709 15:0.82977331 16:-0.52812868 17:-0.507599 18:0.94516474 21:0.17 24:0.34 25:-0.076455779 26:-0.064383253 27:0.51320499 28:-0.15291175 29:-0.12876691 30:0.68641001 31:-0.31123421 32:-0.16145732 33:0.80411208 34:-0.46955666 35:-0.19414872 36:0.92181319 #
0.036293796729293087421908126088965 2:-0.89999998 3:0.32438299 5:-0.89999998 6:0.50438303 7:-0.031589951 8:-0.72089714 9:0.60938293 10:-0.063179903 11:-0.54179335 12:0.71438289 13:0.076550588 14:-0.45189577 15:0.60304785 16:0.21628147 17:-0.36199719 18:0.49171293 21:0.17 24:0.34 25:0.16276 26:-0.059239596 27:0.44 28:0.325519 29:-0.11847899 30:0.54000002 31:0.49199471 32:-0.074319646 33:0.64164126 34:0.65846944 35:-0.030160001 36:0.7432825 #
-0.07274798583238641092041376623456 2:-0.89999998 3:0.32438299 5:-0.89999998 6:0.50438303 7:0.062201627 8:-0.72910202 9:0.60938293 10:0.12440305 11:-0.55820495 12:0.71438283 13:0.011245057 14:-0.39325422 15:0.71294749 16:-0.10191334 17:-0.22830245 18:0.71151215 21:0.17 24:0.34 25:-0.11133584 26:0.1326787 27:0.44000074 28:-0.22267167 29:0.2653574 30:0.54000151 31:-0.23279254 32:0.07111007 33:0.58646137 34:-0.24291342 35:-0.12313707 36:0.63292128 #
-0.27824452146885192416192467135261 2:-0.89999998 3:0.32438299 5:-0.89999998 6:0.50438303 7:0.13498095 8:-1.0608652 9:0.50436032 10:0.26996291 11:-1.2217304 12:0.50433761 13:0.33038732 14:-1.0404899 15:0.44538057 16:0.39081174 17:-0.85925949 18:0.38642454 21:0.17 24:0.34 25:-0.068399437 26:-0.18793941 27:0.34 28:-0.13679887 29:-0.3758778 30:0.34 31:-0.12231781 32:-0.5654074 33:0.40326545 34:-0.1078367 35:-0.75493693 36:0.46653089 #
0.1096203643828528723203064032532 2:-0.89999998 3:0.32438299 5:-0.89999998 6:0.50438303 7:-0.10340559 8:-0.91823286 9:0.68624735 10:-0.20681119 11:-0.93646574 12:0.86811274 13:-0.21284153 14:-0.76432371 15:0.76647216 16:-0.21887185 17:-0.59218264 18:0.66483158 21:0.17 24:0.34 25:-0.05923963 26:-0.16275994 27:0.44 28:-0.11847906 29:-0.32551888 30:0.54000002 31:-0.0052661211 32:-0.18807247 33:0.63093168 34:0.10794658 35:-0.050626945 36:0.72186327 #
-0.14355916529892542854440762312151 2:-0.89999998 3:0.32438299 5:-0.89999998 6:0.50438303 7:-0.13931705 8:-1.0168983 9:0.60938358 10:-0.2786341 11:-1.1337968 12:0.7143842 13:-0.23328188 14:-0.9499948 15:0.77905041 16:-0.18792969 17:-0.76619172 18:0.84371567 21:0.17 24:0.34 25:-0.059239384 26:-0.16276003 27:0.44 28:-0.11847857 29:-0.32551906 30:0.54000002 31:-0.17772928 32:-0.48827609 33:0.64000487 34:-0.23697999 35:-0.65103209 36:0.74000978 #
0.019917541649190718955342305207523 2:-0.89999998 3:0.32438299 5:-0.89999998 6:0.50438303 7:-0.11688589 8:-0.76067597 9:0.60938299 10:-0.23377179 11:-0.62135202 12:0.71438307 13:-0.24731314 14:-0.45898744 15:0.83027774 16:-0.26085451 17:-0.29662395 18:0.94617349 21:0.17 24:0.34 25:-0.076280326 26:-0.064505264 27:0.51320499 28:-0.15256085 29:-0.12901093 30:0.68641001 31:-0.20884143 32:-0.21398799 33:0.5145914 34:-0.26512101 35:-0.29896504 36:0.34277186 #
0.034911581315096959499122419856576 2:-0.89999998 3:0.32438299 5:-0.89999998 6:0.50438303 7:0.071826458 8:-0.70266241 9:0.50439489 10:0.14365251 11:-0.50532389 12:0.50440675 13:0.024854649 14:-0.355737 15:0.44481495 16:-0.093943618 17:-0.20614909 18:0.38522419 21:0.17 24:0.34 25:-0.1002768 26:-0.013140785 27:0.51321948 28:-0.20055401 29:-0.026281534 30:0.68643904 31:-0.19873291 32:-0.065643415 33:0.88251668 34:-0.19691186 35:-0.10500494 36:1.0785944 #
-0.054251719266171206934590287573883 2:-0.89999998 3:0.32438299 5:-0.89999998 6:0.50438303 7:0.13931684 8:-0.78309911 9:0.60938317 10:0.27863368 11:-0.66619825 12:0.71438342 13:0.4269065 14:-0.75424421 15:0.81568438 16:0.57517928 17:-0.84228921 18:0.91698545 21:0.17 24:0.34 25:0.030076874 26:-0.17057224 27:0.44000158 28:0.060153849 29:-0.34114349 30:0.54000318 31:0.090263076 32:-0.5117166 33:0.639992 34:0.12037241 35:-0.68228972 36:0.73998088 #
-0.52862904965872625773215531808091 2:-0.89999998 3:0.32438299 5:-0.89999998 6:0.50438303 7:0.062198494 8:-0.72910005 9:0.60938299 10:0.12439679 11:-0.55820107 12:0.71438301 13:0.011207988 14:-0.69572222 15:0.80529422 16:-0.10198141 17:-0.83324242 18:0.89620537 21:0.17 24:0.34 25:2.6576666e-07 26:-1.3354364e-07 27:0.53999996 28:5.3153457e-07 29:-2.6708759e-07 30:0.73999995 31:0.068407021 32:-0.18794754 33:0.7399677 34:0.13681351 35:-0.3758938 36:0.73993546 #
-0.03931477665900820483990685261233 2:-0.89999998 3:0.32438299 5:-0.89999998 6:0.50438303 7:-0.13498358 8:-0.7391305 9:0.50438541 10:-0.26996818 11:-0.57826006 12:0.50438774 13:-0.2096471 14:-0.39712548 15:0.56359458 16:-0.14932504 17:-0.21599092 18:0.62280041 21:0.17 24:0.34 25:-0.078519367 26:-0.060153976 27:0.51320499 28:-0.15703894 29:-0.12030832 30:0.68641001 31:-0.26030266 32:-0.089673243 33:0.85413063 34:-0.36356738 35:-0.059038524 36:1.0218494 #
-0.063806927305380067849682745872997 2:-0.89999998 3:0.32438299 5:-0.89999998 6:0.50438303 7:-0.031553958 8:-0.72090936 9:0.60939229 10:-0.063107915 11:-0.54181778 12:0.71440166 13:-0.023906255 14:-0.42242852 15:0.8689996 16:0.015295402 17:-0.30304015 18:1.0235966 21:0.17 24:0.34 25:-4.6377763e-06 26:-8.1072258e-06 27:0.5399971 28:-9.2755636e-06 29:-1.6214484e-05 30:0.73999417 31:-0.017930746 32:-0.097993828 33:0.91299921 34:-0.035852239 35:-0.19597183 36:1.0860043 #
0.075584086589508200915155100574339 2:-0.89999998 3:0.32438299 5:-0.89999998 6:0.50438303 7:-0.031580601 8:-0.72089797 9:0.60938299 10:-0.063161202 11:-0.54179502 12:0.71438301 13:-0.092088088 14:-0.71743786 15:0.80528975 16:-0.12101518 17:-0.89308071 18:0.89619642 21:0.17 24:0.34 25:0.017458264 26:-0.098357134 27:0.51320487 28:0.034916531 29:-0.19671467 30:0.68640983 31:-0.087408118 32:-0.26570365 33:0.54424137 34:-0.20973317 35:-0.33469266 36:0.40207192 #
0.018100347369907607286698691950733 2:-0.89999998 3:0.32438299 5:-0.89999998 6:0.50438303 7:0.080461755 8:-0.83252352 9:0.68624592 10:0.16092311 11:-0.76504797 12:0.86810982 13:0.13900933 14:-0.63806868 15:0.71515375 16:0.11709456 17:-0.51108837 18:0.56219757 21:0.17 24:0.34 25:-0.064254418 26:0.076616272 27:0.51320487 28:-0.12850924 29:0.15323274 30:0.68640971 31:-0.051197588 32:-0.031132143 33:0.68118763 34:0.02611356 35:-0.21549642 36:0.67596662 #
-0.5440329003692264686620205793588 2:-0.89999998 3:0.32438299 5:-0.89999998 6:0.50438303 7:-5.305057e-08 8:-0.9000001 9:0.71438295 10:-1.0610114e-07 11:-0.90000027 12:0.92438293 13:-1.1862736e-05 14:-0.89999461 15:1.1243747 16:-2.3619414e-05 17:-0.89998889 18:1.3243695 21:0.17 24:0.34 25:0.034654461 26:-0.19695543 27:0.34 28:0.069309019 29:-0.39390987 30:0.34 31:0.0072123711 32:-0.58075809 33:0.37461591 34:-0.0548843 35:-0.76760727 36:0.40923175 #
-0.05998940207063595958514312656007 2:-0.89999998 3:0.32438299 5:-0.89999998 6:0.50438303 7:0.062201861 8:-0.72910184 9:0.60938162 10:0.12440352 11:-0.55820459 12:0.7143802 13:0.012851386 14:-0.53916633 15:0.54947692 16:-0.098701045 17:-0.52012712 18:0.38457453 21:0.17 24:0.34 25:0.030093051 26:-0.1705661 27:0.44 28:0.060186204 29:-0.34113121 30:0.54000002 31:0.18109459 32:-0.46297127 33:0.64232117 34:0.30200249 35:-0.58481127 36:0.74464232 #
-0.072684609331183841485213292799017 2:-0.89999998 3:0.32438299 5:-0.89999998 6:0.50438303 7:0.0718242 8:-0.70266497 9:0.50438303 10:0.143648 11:-0.50532901 12:0.50438303 13:0.32021058 14:-0.56964433 15:0.57280195 16:0.49677214 17:-0.63395977 18:0.64122093 21:0.17 24:0.34 25:-0.15320872 26:-0.12855782 27:0.34000129 28:-0.30641744 29:-0.25711465 30:0.34000257 31:-0.12017038 32:-0.32350257 33:0.37007889 34:0.066077054 35:-0.38989156 36:0.4001542 #
-0.18076963722704170178801064139407 2:-0.89999998 3:0.32438299 5:-0.89999998 6:0.50438303 7:0.11690085 8:-1.03932 9:0.60938329 10:0.23380171 11:-1.1786301 12:0.7143836 13:0.24399406 14:-0.98436129 15:0.76080066 16:0.25418741 17:-0.79008949 18:0.80721772 21:0.17 24:0.34 25:0.030075636 26:-0.17057458 27:0.44 28:0.060151372 29:-0.34114817 30:0.54000002 31:0.090242274 32:-0.51173502 33:0.63999116 34:0.12033328 35:-0.68232191 36:0.73998243 #
-0.023444467224178526520983467662518 2:-0.89999998 3:0.32438299 5:-0.89999998 6:0.50438303 7:0.160869 8:-0.76501501 9:0.50438303 10:0.32173899 11:-0.63002902 12:0.50438303 13:0.51711005 14:-0.59337324 15:0.48509106 16:0.71248114 17:-0.5567165 18:0.46579918 21:0.17 24:0.34 25:0.03472957 26:-0.196962 27:0.34 28:0.069459237 29:-0.39392301 30:0.34000003 31:0.10418789 32:-0.59088469 33:0.34000123 34:0.13891682 35:-0.78784543 36:0.34000242 #
-0.30893757939335819706627717096126 2:-0.89999998 3:0.32438299 5:-0.89999998 6:0.50438303 7:-0.13498494 8:-0.73913109 9:0.50438303 10:-0.26997089 11:-0.5782612 12:0.50438303 13:-0.3984493 14:-0.42504394 15:0.50435895 16:-0.52692872 17:-0.2718277 18:0.50433493 21:0.17 24:0.34 25:0.034729611 26:-0.19696204 27:0.33999982 28:0.069459319 29:-0.3939231 30:0.33999965 31:0.10416821 32:-0.59088135 33:0.34001505 34:0.13887741 35:-0.78783864 36:0.34003046 #
-0.073749083094291983941914736533363 2:-0.89999998 3:0.32438299 5:-0.89999998 6:0.50438303 7:-0.036466394 8:-0.69319016 9:0.50438231 10:-0.072932787 11:-0.48638132 12:0.5043816 13:-0.027516959 14:-0.30249733 15:0.4402225 16:0.017898865 17:-0.11861334 18:0.37606341 21:0.17 24:0.34 25:0.098419905 26:0.016747084 27:0.51320666 28:0.19684021 29:0.033494167 30:0.68641335 31:0.22960368 32:-0.026593963 33:0.8739627 34:0.26236716 35:-0.086682096 36:1.0615082 #
-0.041322931647296896884302697117164 2:-0.89999998 3:0.32438299 5:-0.89999998 6:0.50438303 7:-0.036465965 8:-0.69318998 9:0.50438303 10:-0.07293193 11:-0.48638102 12:0.50438297 13:-0.0098953163 14:-0.29952148 15:0.53749794 16:0.053141303 17:-0.11266294 18:0.57061285 21:0.17 24:0.34 25:0.16276027 26:-0.059242003 27:0.43999374 28:0.32551953 29:-0.1184838 30:0.5399875 31:0.49731809 32:-0.14895916 33:0.44244596 34:0.66911668 35:-0.17943452 36:0.34490445 #
-0.29876230284568888739826775235997 2:-0.89999998 3:0.32438299 5:-0.89999998 6:0.50438303 7:0.080367595 8:-0.83246028 9:0.68624794 10:0.16073479 11:-0.76492155 12:0.86811382 13:0.19040091 14:-0.61815321 15:1.0004857 16:0.22006601 17:-0.47138497 18:1.1328614 21:0.17 24:0.34 25:0.064356171 26:-0.076600581 27:0.51320511 28:0.12871274 29:-0.15320136 30:0.68641025 31:0.19290771 32:-0.22983736 33:0.85966432 34:0.25710368 35:-0.30647436 36:1.0329183 #
0.018084680195896138399369590388233 2:-0.89999998 3:0.32438299 5:-0.89999998 6:0.50438303 7:0.071824208 8:-0.70266497 9:0.50438297 10:0.14364801 11:-0.50532901 12:0.50438291 13:0.32025248 14:-0.56960827 15:0.57278466 16:0.49685588 17:-0.63388765 18:0.64118648 21:0.17 24:0.34 25:0.11135525 26:-0.13267311 27:0.44 28:0.22271049 29:-0.26534623 30:0.54000002 31:0.15041494 32:-0.35245129 33:0.70490152 34:0.078119077 35:-0.43955636 36:0.86980206 #
0.21850086383607908446791157075495 2:-0.89999998 3:0.32438299 5:-0.89999998 6:0.50438303 7:3.5274102e-06 8:-0.89999795 9:0.71438152 10:7.0548108e-06 11:-0.89999592 12:0.92437994 13:0.064708494 14:-0.82657957 15:1.0978576 16:0.12941033 17:-0.75316226 18:1.2713284 21:0.17 24:0.34 25:-0.068403997 26:-0.187939 27:0.34 28:-0.13680799 29:-0.37587699 30:0.34 31:-0.20526734 32:-0.56381178 33:0.33998716 34:-0.27372667 35:-0.75174552 36:0.33997431 #
-0.12746596708892596327977742021176 2:-0.89999998 3:0.32438299 5:-0.89999998 6:0.50438303 7:0.13931885 8:-0.78309757 9:0.39939168 10:0.27863771 11:-0.66619515 12:0.2944003 13:0.11425394 14:-0.58140749 15:0.37036267 16:-0.050129924 17:-0.49661887 18:0.44632503 21:0.17 24:0.34 25:-0.068403929 26:-0.18793882 27:0.34000069 28:-0.13680786 29:-0.37587664 30:0.3400014 31:-0.20524305 32:-0.56377369 33:0.34005034 34:-0.27367821 35:-0.75166965 36:0.34009928 #
-0.55075362324709553618617974279914 2:-0.89999998 3:0.32438299 5:-0.89999998 6:0.50438303 7:0.0718242 8:-0.70266497 9:0.50438303 10:0.143648 11:-0.50532901 12:0.50438309 13:0.26973322 14:-0.65760171 15:0.47454694 16:0.39581844 17:-0.80987442 18:0.44471183 21:0.17 24:0.34 25:1.4753531e-06 26:-6.9657432e-07 27:0.53999954 28:2.9507128e-06 29:-1.3931493e-06 30:0.739999 31:0.059240315 32:-0.16276117 33:0.63999897 34:0.11847748 35:-0.32551992 36:0.53999901 #
-0.041056512854989526961624335399392 2:-0.89999998 3:0.32438299 5:-0.89999998 6:0.50438303 7:0.071824692 8:-0.7026636 9:0.50437605 10:0.14364898 11:-0.50532633 12:0.50436914 13:0.269732 14:-0.6575945 15:0.47462162 16:0.39581496 17:-0.80986273 18:0.44487515 21:0.17 24:0.34 25:-0.075857706 26:-0.064846359 27:0.5131712 28:-0.15171561 29:-0.12969312 30:0.68634236 31:-0.048440777 32:-0.25472304 33:0.56953138 34:0.054833859 35:-0.37975395 36:0.45271945 #
-0.055336137302214739863703840683229 2:-0.89999998 3:0.32438299 5:-0.89999998 6:0.50438303 7:0.071823463 8:-0.70266461 9:0.50438327 10:0.14364652 11:-0.5053283 12:0.50438356 13:0.025010878 14:-0.35564312 15:0.44515601 16:-0.093625173 17:-0.20595692 18:0.38592947 21:0.17 24:0.34 25:-0.17056747 26:-0.030075675 27:0.44002467 28:-0.34113395 29:-0.06015145 30:0.54004937 31:-0.50522286 32:-0.11941297 33:0.44236583 34:-0.66931075 35:-0.178674 36:0.34468231 #
0.49002895161817938696202645587618 2:-0.89999998 3:0.32438299 5:-0.89999998 6:0.50438303 7:-0.036466118 8:-0.69318998 9:0.50438303 10:-0.072932236 11:-0.48638099 12:0.50438303 13:-0.10769434 14:-0.28945079 15:0.50441301 16:-0.14245664 17:-0.09252122 18:0.50444305 21:0.17 24:0.34 25:0.034736317 26:-0.19695912 27:0.33999911 28:0.06947273 29:-0.39391726 30:0.33999825 31:0.17626679 32:-0.55086547 33:0.40230268 34:0.28306013 35:-0.70781267 36:0.46460715 #
-0.11209179647265825330304522822189 2:-0.89999998 3:0.32438299 5:-0.89999998 6:0.50438303 7:0.067524388 8:-0.98036516 9:0.68624747 10:0.13504837 11:-1.0607303 12:0.86811292 13:0.14253157 14:-0.86329818 15:0.8371222 16:0.1500138 17:-0.66586608 18:0.80613256 21:0.17 24:0.34 25:-0.033921793 26:-0.093995534 27:0.51320189 28:-0.067843586 29:-0.18799147 30:0.68640381 31:0.050014779 32:-0.33894029 33:0.74362552 34:0.16787276 35:-0.48989013 36:0.80084717 #
-0.20073821768162769529908473487012 2:-0.89999998 3:0.32438299 5:-0.89999998 6:0.50438303 7:-0.17089798 8:-0.83779788 9:0.60938299 10:-0.34179494 11:-0.77559674 12:0.71438301 13:-0.21625152 14:-0.63975281 15:0.63836282 16:-0.090708189 17:-0.50390983 18:0.56234258 21:0.17 24:0.34 25:-0.059239604 26:-0.16276 27:0.44 28:-0.11847901 29:-0.325519 30:0.54000002 31:-0.0053254729 32:-0.18798497 33:0.6309495 34:0.10782782 35:-0.050451823 36:0.72189891 #
0.10942356660961090331074530013211 2:-0.89999998 3:0.32438299 5:-0.89999998 6:0.50438303 7:0.13498209 8:-1.0608666 9:0.50439984 10:0.2699652 11:-1.2217331 12:0.5044167 13:0.33635408 14:-1.0354913 15:0.53447223 16:0.40274295 17:-0.84925365 18:0.56452674 21:0.17 24:0.34 25:0.11133397 26:-0.13268295 27:0.44000024 28:0.22266793 29:-0.2653659 30:0.5400005 31:0.28517598 32:-0.43215993 33:0.44911566 34:0.34768403 35:-0.59895402 36:0.35823089 #
0.018189168768001896803188088824754 2:-0.89999998 3:0.32438299 5:-0.89999998 6:0.50438303 7:0.179102 8:-0.86841899 9:0.60938299 10:0.35820499 11:-0.83683902 12:0.71438301 13:0.35924977 14:-0.64581603 15:0.65514678 16:0.36029455 17:-0.45479399 18:0.59591156 21:0.17 24:0.34 25:0.030076411 26:-0.17057396 27:0.44 28:0.060152922 29:-0.34114695 30:0.54000002 31:0.0087431315 32:-0.25002375 33:0.71033204 34:-0.042666599 35:-0.15889956 36:0.88066316 #
0.50058364868159421767757066845661 2:-0.89999998 3:0.32438299 5:-0.89999998 6:0.50438303 7:-0.116901 8:-0.760683 9:0.39938304 10:-0.23380201 11:-0.62136602 12:0.29438302 13:-0.24682498 14:-0.43263999 15:0.35929 16:-0.25984898 17:-0.24391402 18:0.424196 21:0.17 24:0.34 25:0.017168103 26:-0.098463587 27:0.51320499 28:0.034336206 29:-0.19692758 30:0.68641001 31:0.051877726 32:-0.29534766 33:0.85955268 34:0.069419146 35:-0.39376879 36:1.0326953 #
0.036693194415416886811076579988367 2:-0.89999998 3:0.32438299 5:-0.89999998 6:0.50438303 7:-0.067502365 8:-0.8195498 9:0.68622953 10:-0.13500433 11:-0.73910058 12:0.86807698 13:-0.0034460744 14:-0.58946925 15:0.85073501 16:0.1281123 17:-0.43983883 18:0.83339304 21:0.17 24:0.34 25:0.06427937 26:-0.076603338 27:0.51320493 28:0.12855914 29:-0.15320687 30:0.68640995 31:0.31833705 32:-0.1260791 33:0.74317938 34:0.50811493 35:-0.098950811 36:0.79994881 #
0.020172519143668927316115357939452 2:-0.89999998 3:0.32438299 5:-0.89999998 6:0.50438303 7:0.1393147 8:-0.78309739 9:0.60938346 10:0.27862939 11:-0.6661948 12:0.7143839 13:0.13030429 14:-0.57822388 15:0.6130352 16:-0.018021191 17:-0.49025291 18:0.51168638 21:0.17 24:0.34 25:-0.093433544 26:0.035014145 27:0.51319784 28:-0.18686749 29:0.07002829 30:0.6863957 31:-0.094907023 32:-0.10491373 33:0.65596664 34:-0.0029469526 35:-0.27985576 36:0.62553662 #
0.018103985348714702469097304060597 2:-0.89999998 3:0.32438299 5:-0.89999998 6:0.50438303 7:0.16086894 8:-0.76501507 9:0.50438327 10:0.32173887 11:-0.63002908 12:0.50438356 13:0.31305611 14:-0.46411008 15:0.61571735 16:0.30437437 17:-0.29819009 18:0.7270512 21:0.17 24:0.34 25:0.187939 26:-0.068404011 27:0.34 28:0.37587699 29:-0.13680802 30:0.34 31:0.39927298 32:-0.072529279 33:0.52793902 34:0.42266792 35:-0.0082504712 36:0.715877 #
0.030709209386256475921017639052479 2:-0.89999998 3:0.32438299 5:-0.89999998 6:0.50438303 7:-0.031580567 8:-0.72089797 9:0.60938299 10:-0.063161135 11:-0.54179502 12:0.71438301 13:-0.093060017 14:-0.71731192 15:0.80495542 16:-0.12295911 17:-0.89282882 18:0.89552784 21:0.17 24:0.34 25:0.014123289 26:-0.098167762 27:0.51320499 28:0.028246578 29:-0.19633593 30:0.68641001 31:-0.011631563 32:-0.29634199 33:0.51830703 34:-0.051509742 35:-0.39634719 36:0.35020402 #
0.018877753755075971087151742722199 2:-0.89999998 3:0.32438299 5:-0.89999998 6:0.50438303 7:0.071824729 8:-0.70266515 9:0.50438315 10:0.14364906 11:-0.50532937 12:0.50438321 13:0.079350725 14:-0.4820314 15:0.69230008 16:0.01505188 17:-0.45873249 18:0.88021594 21:0.17 24:0.34 25:-0.059253022 26:-0.16274516 27:0.44001403 28:-0.11850584 29:-0.32548931 30:0.5400281 31:0.054430924 32:-0.23686618 33:0.58673471 34:0.22736809 35:-0.14824204 36:0.63344133 #
0.05567155778407532895624143520763 2:-0.89999998 3:0.32438299 5:-0.89999998 6:0.50438303 7:0.19732867 8:-0.97182167 9:0.5043878 10:0.39465833 11:-1.0436454 12:0.50439256 13:0.46228695 14:-0.85885853 15:0.53877443 16:0.52991551 17:-0.67407376 18:0.57315528 21:0.17 24:0.34 25:-0.068403997 26:-0.187939 27:0.34 28:-0.13680799 29:-0.37587699 30:0.34 31:-0.20523798 32:-0.56381547 33:0.3399803 34:-0.27366796 35:-0.75175291 36:0.3399606 #
0.10927469469605860519223483606766 2:-0.89999998 3:0.32438299 5:-0.89999998 6:0.50438303 7:-0.031580564 8:-0.72089815 9:0.60938376 10:-0.063161127 11:-0.54179543 12:0.71438456 13:-0.09327291 14:-0.37134719 15:0.81446183 16:-0.12338509 17:-0.20089796 18:0.91453922 21:0.17 24:0.34 25:-0.13268183 26:-0.11133481 27:0.23999998 28:-0.26536366 29:-0.22266962 30:0.13999997 31:-0.15638176 32:-0.30442357 33:0.28641939 34:-0.047399748 35:-0.38617757 36:0.43283883 #
-0.036315452307459326897198792494237 2:-0.89999998 3:0.32438299 5:-0.89999998 6:0.50438303 7:0.071825132 8:-0.70266563 9:0.50438303 10:0.14364986 11:-0.50533032 12:0.50438303 13:0.26329359 14:-0.36455563 15:0.58098209 16:0.38293737 17:-0.22378096 18:0.65758222 21:0.17 24:0.34 25:0.1326828 26:0.11133404 27:0.44000059 28:0.2653656 29:0.22266808 30:0.54000121 31:0.35992226 32:0.056694239 33:0.59920651 34:0.45447889 35:-0.10928018 36:0.65841079 #
0.10862756520508713709016745951885 2:-0.89999998 3:0.32438299 5:-0.89999998 6:0.50438303 7:0.179102 8:-0.86841899 9:0.60938299 10:0.35820499 11:-0.83683902 12:0.71438301 13:0.30692667 14:-0.64588517 15:0.74441707 16:0.25564831 17:-0.45493129 18:0.77445018 21:0.17 24:0.34 25:0.03007704 26:-0.17057383 27:0.44 28:0.060154181 29:-0.34114668 30:0.54000002 31:0.00068506389 32:-0.17709261 33:0.63772094 34:-0.058784053 35:-0.013038469 36:0.73544186 #
0.97738032486909365292859774854151 2:-0.89999998 3:0.32438299 5:-0.89999998 6:0.50438303 7:-5.6279767e-08 8:-0.9000001 9:0.71438295 10:-1.1255943e-07 11:-0.90000015 12:0.92438293 13:-1.4236575e-05 14:-0.89999056 15:1.1243716 16:-2.8360648e-05 17:-0.89998096 18:1.3243636 21:0.17 24:0.34 25:-0.068403997 26:-0.187939 27:0.34 28:-0.13680799 29:-0.37587699 30:0.34 31:-0.20525467 32:-0.56381285 33:0.33998853 34:-0.27370134 35:-0.75174767 36:0.33997706 #
-0.047541395761068222514111880627752 2:-0.89999998 3:0.32438299 5:-0.89999998 6:0.50438303 7:0.035908777 8:-0.80132139 9:0.68624115 10:0.071817555 11:-0.70264369 12:0.86810029 13:0.22390935 14:-0.78349859 15:0.76646745 16:0.37600034 17:-0.86435437 18:0.66483456 21:0.17 24:0.34 25:0.030000133 26:-0.17057015 27:0.43999705 28:0.060000367 29:-0.34113932 30:0.53999412 31:-0.0081788488 32:-0.487198 33:0.65782869 34:-0.076358065 35:-0.63325667 36:0.77566433 #
0.10884653776883067288760997826103 2:-0.89999998 3:0.32438299 5:-0.89999998 6:0.50438303 7:-0.031580601 8:-0.72089797 9:0.60938299 10:-0.063161202 11:-0.54179502 12:0.71438301 13:-0.09323135 14:-0.37125868 15:0.81441396 16:-0.12330189 17:-0.20072135 18:0.91444504 21:0.17 24:0.34 25:0.030076709 26:-0.17057407 27:0.24000026 28:0.060153518 29:-0.34114715 30:0.14000054 31:-0.053148765 32:-0.43891221 33:0.27268332 34:-0.16645116 35:-0.53667629 36:0.40536615 #
-0.091884871944776624896888961302466 2:-0.89999998 3:0.32438299 5:-0.89999998 6:0.50438303 7:0.071824268 8:-0.70266479 9:0.50438273 10:0.14364813 11:-0.50532866 12:0.50438237 13:0.26972273 14:-0.65763372 15:0.47443399 16:0.39579728 17:-0.80993873 18:0.44448665 21:0.17 24:0.34 25:0.093972355 26:-0.034198314 27:0.51320457 28:0.18794511 29:-0.068396628 30:0.68640924 31:0.10722577 32:-0.22048956 33:0.58472663 34:0.026506128 35:-0.37258151 36:0.48304403 #
0.16954964026807167742916249153495 2:-0.89999998 3:0.32438299 5:-0.89999998 6:0.50438303 7:0.098667674 8:-0.93591177 9:0.686248 10:0.19733495 11:-0.97182351 12:0.86811405 13:0.14511441 14:-0.78977674 15:0.93239254 16:0.092893749 17:-0.60773093 18:0.99667203 21:0.17 24:0.34 25:-0.034524433 26:-0.093740605 27:0.51320565 28:-0.069048867 29:-0.18748161 30:0.68641132 31:-0.10292707 32:-0.28161305 33:0.85953307 34:-0.13680525 35:-0.37574446 36:1.0326548 #
0.10862256400286145197053855326885 2:-0.89999998 3:0.32438299 5:-0.89999998 6:0.50438303 7:-0.13931705 8:-1.016899 9:0.60938323 10:-0.2786341 11:-1.1337982 12:0.71438354 13:-0.30258691 14:-0.98608017 15:0.84706801 16:-0.32653871 17:-0.8383612 18:0.9797526 21:0.17 24:0.34 25:-0.0592396 26:-0.16276 27:0.44 28:-0.118479 29:-0.325519 30:0.54000002 31:-0.17771894 32:-0.48827904 33:0.63999999 34:-0.23695889 35:-0.65103805 36:0.73999995 #
0.07240859791635795295050570530293 2:-0.89999998 3:0.32438299 5:-0.89999998 6:0.50438303 7:-0.018234879 8:-0.79659474 9:0.68624789 10:-0.036469657 11:-0.69318944 12:0.86811376 13:0.095083654 14:-0.55694318 15:0.80383748 16:0.22663747 17:-0.42069685 18:0.73956132 21:0.17 24:0.34 25:-0.059239607 26:-0.16276 27:0.24000002 28:-0.11847901 29:-0.325519 30:0.14000006 31:0.016784912 32:-0.34182903 33:0.28641653 34:0.15204923 35:-0.35814002 36:0.43283299 #
-0.64532719552510953153756645406247 2:-0.89999998 3:0.32438299 5:-0.89999998 6:0.50438303 7:0.062174428 8:-0.72910029 9:0.39938042 10:0.12434866 11:-0.55820161 12:0.29437777 13:0.048487253 14:-0.37913451 15:0.34087232 16:-0.027374249 17:-0.20006737 18:0.38736686 21:0.17 24:0.34 25:0.017290924 26:-0.098373957 27:0.51320499 28:0.034581851 29:-0.19674832 30:0.68641001 31:0.052016605 32:-0.29522735 33:0.85949725 34:0.069451258 35:-0.39370742 36:1.0325844 #
0.39896823465820424603478500102938 2:-0.89999998 3:0.32438299 5:-0.89999998 6:0.50438303 7:4.5156071e-08 8:-0.90000004 9:0.71438301 10:9.0311964e-08 11:-0.90000004 12:0.92438298 13:0.030076744 14:-0.72942609 15:0.82438308 16:0.060153499 17:-0.55885303 18:0.72438306 21:0.17 24:0.34 25:0.18793896 26:-0.068404026 27:0.33999994 28:0.3758769 29:-0.13680805 30:0.33999988 31:0.22627011 32:-0.25556979 33:0.39924309 34:0.076662704 35:-0.3743315 36:0.45848528 #
0.055411169305438608134739553179315 2:-0.89999998 3:0.32438299 5:-0.89999998 6:0.50438303 7:-0.031580601 8:-0.72089797 9:0.60938299 10:-0.063161202 11:-0.54179502 12:0.71438301 13:-0.011919264 14:-0.6328178 15:0.88486892 16:0.039322574 17:-0.72384059 18:1.0553538 21:0.17 24:0.34 25:-0.059436299 26:-0.16262227 27:0.23999999 28:-0.1188724 29:-0.32524353 30:0.14 31:-0.14648572 32:-0.31387135 33:0.33769456 34:-0.17409904 35:-0.30249923 36:0.53538913 #
-0.28984708711502249478542125871172 2:-0.89999998 3:0.32438299 5:-0.89999998 6:0.50438303 7:-0.11686444 8:-0.76066548 9:0.60938251 10:-0.23372887 11:-0.62133092 12:0.71438205 13:-0.25968719 14:-0.43631017 15:0.78625304 16:-0.28564548 17:-0.25128946 18:0.85812396 21:0.17 24:0.34 25:-0.098426513 26:-0.017661149 27:0.51320535 28:-0.19685343 29:-0.035322297 30:0.68641067 31:-0.29531857 32:-0.05240041 33:0.85963988 34:-0.39378476 35:-0.069478422 36:1.032869 #
0.059763058088714307580779916406755 2:-0.89999998 3:0.32438299 5:-0.89999998 6:0.50438303 7:-0.031547859 8:-0.72090083 9:0.60938299 10:-0.063095719 11:-0.54180074 12:0.71438301 13:-0.012099129 14:-0.43737745 15:0.55163294 16:0.038897358 17:-0.3329542 18:0.38888386 21:0.17 24:0.34 25:-0.076605186 26:-0.064276956 27:0.51320499 28:-0.15321057 29:-0.12855431 30:0.68641001 31:-0.20944384 32:-0.092777707 33:0.8748247 34:-0.26567805 35:-0.057001684 36:1.0632355 #
0.94096250832072136915940063772723 2:-0.89999998 3:0.32438299 5:-0.89999998 6:0.50438303 7:-0.116901 8:-0.76068306 9:0.60938299 10:-0.23380199 11:-0.62136608 12:0.71438307 13:-0.34513548 14:-0.48868057 15:0.81437856 16:-0.45646897 17:-0.35599607 18:0.91437417 21:0.17 24:0.34 25:-0.098475322 26:-0.01728734 27:0.51320499 28:-0.19695105 29:-0.03457468 30:0.68641001 31:-0.29548743 32:-0.051975168 33:0.85956633 34:-0.39402485 35:-0.069375552 36:1.0327226 #
0.057190574910000332997661587342009 2:-0.89999998 3:0.32438299 5:-0.89999998 6:0.50438303 7:-0.018112762 8:-0.79653549 9:0.68624806 10:-0.036225423 11:-0.69307101 12:0.86811405 13:-0.053660206 14:-0.59471798 15:1.0414162 16:-0.071095094 17:-0.49636397 18:1.2147124 21:0.17 24:0.34 25:-0.098266527 26:-0.017685931 27:0.51321989 28:-0.19653346 29:-0.035371866 30:0.68643981 31:-0.12814119 32:-0.15765572 33:0.82900178 34:-0.059750322 35:-0.27994016 36:0.97156274 #
-0.07862074300646054725305589272466 2:-0.89999998 3:0.32438299 5:-0.89999998 6:0.50438303 7:0.071822613 8:-0.70266485 9:0.50438303 10:0.14364482 11:-0.50532871 12:0.50438303 13:0.14142732 14:-0.32005537 15:0.43026668 16:0.13920882 17:-0.13478194 18:0.35614944 21:0.17 24:0.34 25:0.15320885 26:0.12855804 27:0.34000018 28:0.3064177 29:0.2571151 30:0.34000039 31:0.30146286 32:0.10745085 33:0.47249803 34:0.29650906 35:-0.042212572 36:0.60499561 #
1.0140349785351188138804445770802 2:-0.89999998 3:0.32438299 5:-0.89999998 6:0.50438303 7:0.071824305 8:-0.70266503 9:0.50438309 10:0.14364821 11:-0.50532913 12:0.50438315 13:0.21207048 14:-0.3173905 15:0.50439978 16:0.28049374 17:-0.1294509 18:0.50441647 21:0.17 24:0.34 25:-0.0340738 26:-0.093980595 27:0.51320493 28:-0.0681476 29:-0.18796159 30:0.68640995 31:-0.10246129 32:-0.28194565 33:0.85953093 34:-0.13677497 35:-0.37592968 36:1.0326518 #
-0.058468656742345748167366537018097 2:-0.89999998 3:0.32438299 5:-0.89999998 6:0.50438303 7:0.10337837 8:-0.88174742 9:0.68624759 10:0.20675674 11:-0.86349487 12:0.86811316 13:0.2007564 14:-0.69136697 15:0.9697296 16:0.19475605 17:-0.51924002 18:1.0713501 21:0.17 24:0.34 25:0.061336942 26:-0.077974349 27:0.51320505 28:0.12267426 29:-0.15594891 30:0.68641007 31:0.11446241 32:-0.29445705 33:0.82964474 34:0.10625147 35:-0.43296432 36:0.97287858 #
-0.14732899144290509396704180744564 2:-0.89999998 3:0.32438299 5:-0.89999998 6:0.50438303 7:0.062201381 8:-0.72910208 9:0.60938299 10:0.12440256 11:-0.55820507 12:0.71438301 13:0.18361595 14:-0.39542273 15:0.8143816 16:0.24282834 17:-0.23264137 18:0.91438019 21:0.17 24:0.34 25:0.0766204 26:0.064182788 27:0.51320505 28:0.15324099 29:0.12836598 30:0.68641007 31:0.17554168 32:0.001329839 33:0.83915347 34:0.19784138 35:-0.12570624 36:0.99189693 #
-0.036665063817050633221406030770595 2:-0.89999998 3:0.32438299 5:-0.89999998 6:0.50438303 7:0.062200125 8:-0.72910011 9:0.60938025 10:0.12440005 11:-0.55820119 12:0.71437746 13:0.15535842 14:-0.38656145 15:0.61658925 16:0.1863168 17:-0.21492173 18:0.51880091 21:0.17 24:0.34 25:-0.0684034 26:-0.18793745 27:0.33999643 28:-0.1368068 29:-0.37587389 30:0.33999285 31:0.057679147 32:-0.34024552 33:0.37007487 34:0.2521655 35:-0.30461812 36:0.40015587 #
0.10154256597160352115771786429832 2:-0.89999998 3:0.32438299 5:-0.89999998 6:0.50438303 7:0.062202066 8:-0.72910208 9:0.60938293 10:0.12440393 11:-0.55820507 12:0.71438289 13:0.18361244 14:-0.39546964 15:0.81438541 16:0.24281995 17:-0.23273523 18:0.91438794 21:0.17 24:0.34 25:-0.059438419 26:-0.16274241 27:0.44000027 28:-0.11887664 29:-0.3254838 30:0.54000056 31:-0.089784324 32:-0.45927921 33:0.68586582 34:-0.060691822 35:-0.59307468 36:0.83173019 #
0.055173439905042302722204539122686 2:-0.89999998 3:0.32438299 5:-0.89999998 6:0.50438303 7:-0.018234117 8:-0.79659545 9:0.686248 10:-0.036468133 11:-0.69319093 12:0.86811399 13:0.0099912863 14:-0.78415841 15:1.0399711 16:0.05645071 17:-0.87512583 18:1.2118322 21:0.17 24:0.34 25:-0.059240147 26:-0.16276088 27:0.43999904 28:-0.11848009 29:-0.32552075 30:0.53999811 31:-0.064559713 32:-0.35063568 33:0.73096764 34:-0.010639138 35:-0.37575057 36:0.92193723 #
0.79746447503559370062475863960572 2:-0.89999998 3:0.32438299 5:-0.89999998 6:0.50438303 7:-0.031580478 8:-0.72089845 9:0.39938116 10:-0.063160956 11:-0.54179597 12:0.29437929 13:-0.063389525 14:-0.3672953 15:0.39210248 16:-0.063618191 17:-0.19279557 18:0.48982564 21:0.17 24:0.34 25:2.2875215e-09 26:1.5663334e-08 27:0.54000002 28:4.5750346e-09 29:3.1326731e-08 30:0.74000001 31:1.3711733e-05 32:-1.9368157e-05 33:0.93998796 34:2.741893e-05 35:-3.8767692e-05 36:1.139976 #
0.095259062945833916646876105005504 2:-0.89999998 3:0.32438299 5:-0.89999998 6:0.50438303 7:-0.031574421 8:-0.72089851 9:0.60938299 10:-0.063148841 11:-0.54179609 12:0.71438301 13:0.0063396129 14:-0.39434385 15:0.83016276 16:0.075828031 17:-0.24689063 18:0.94594365 21:0.17 24:0.34 25:-0.017352318 26:0.098484427 27:0.51320571 28:-0.034704637 29:0.19696926 30:0.68641144 31:-0.077264257 32:0.097116277 33:0.8543967 34:-0.11982387 35:-0.0027362432 36:1.022378 #
0.16293659806250013200035198224214 2:-0.89999998 3:0.32438299 5:-0.89999998 6:0.50438303 7:0.20680992 8:-0.86353397 9:0.50438285 10:0.41361886 11:-0.82706791 12:0.50438261 13:0.28687599 14:-0.68414599 15:0.44514301 16:0.16013214 17:-0.54122406 18:0.38590443 21:0.17 24:0.34 25:0.111334 26:-0.13268299 27:0.44 28:0.22266801 29:-0.26536599 30:0.54000002 31:0.08914008 32:-0.15302399 33:0.63772118 34:-0.044388041 35:-0.040681683 36:0.7354424 #
0.32837871462103662700826589571079 2:-0.89999998 3:0.32438299 5:-0.89999998 6:0.50438303 7:0.17090033 8:-0.96220261 9:0.39939222 10:0.34179965 11:-1.0244012 12:0.29440138 13:0.42545542 14:-0.84531248 15:0.32457277 16:0.50911218 17:-0.66622072 18:0.35474315 21:0.17 24:0.34 25:-0.068403997 26:-0.187939 27:0.34 28:-0.13680799 29:-0.37587699 30:0.34 31:-0.20523515 32:-0.56381208 33:0.33999759 34:-0.2736623 35:-0.75174612 36:0.33999515 #
0.18227161839602690207584601012059 2:-0.89999998 3:0.32438299 5:-0.89999998 6:0.50438303 7:0.071824171 8:-0.70266515 9:0.50438362 10:0.14364794 11:-0.50532931 12:0.50438422 13:0.017589552 14:-0.35300738 15:0.53447384 16:-0.10846904 17:-0.2006854 18:0.56456244 21:0.17 24:0.34 25:0.15320723 26:0.1285565 27:0.34000608 28:0.30641446 29:0.25711203 30:0.34001216 31:0.33441392 32:0.06820523 33:0.39932492 34:0.36241442 35:-0.12070196 36:0.4586367 #
0.036543868482109498341259268272552 2:-0.89999998 3:0.32438299 5:-0.89999998 6:0.50438303 7:-0.036465161 8:-0.69319028 9:0.50438386 10:-0.072930321 11:-0.48638156 12:0.5043847 13:0.054167487 14:-0.56551385 15:0.63693464 16:0.1812657 17:-0.64464509 18:0.76948452 21:0.17 24:0.34 25:0.11133391 26:-0.13268302 27:0.44000006 28:0.22266781 29:-0.26536605 30:0.54000014 31:0.27413353 32:-0.35371259 33:0.71188897 34:0.32559928 35:-0.4420591 36:0.88377881 #
0.1043950114399098128004084173881 2:-0.89999998 3:0.32438299 5:-0.89999998 6:0.50438303 7:0.035888247 8:-0.80133045 9:0.68624669 10:0.071776494 11:-0.70266181 12:0.86811137 13:0.11234553 14:-0.53529471 15:0.96936917 16:0.15291476 17:-0.36792848 18:1.0706251 21:0.17 24:0.34 25:-0.016394719 26:0.098395377 27:0.51320499 28:-0.032789439 29:0.19679116 30:0.68641001 31:0.029346952 32:0.034647215 33:0.78489071 34:0.09148334 35:-0.12749672 36:0.88337147 #
-0.047043850645418584799362093917807 2:-0.89999998 3:0.32438299 5:-0.89999998 6:0.50438303 7:-0.036462214 8:-0.69319034 9:0.50438303 10:-0.072924428 11:-0.48638165 12:0.50438303 13:-0.0069210883 14:-0.29886508 15:0.48504004 16:0.059082251 17:-0.11134852 18:0.46569708 21:0.17 24:0.34 25:-0.017319169 26:0.098470733 27:0.51320505 28:-0.034638338 29:0.19694187 30:0.68641013 31:0.11496256 32:0.088599518 33:0.76305127 34:0.26456386 35:-0.019742446 36:0.83969152 #
0.036559898871925060326315559677823 2:-0.89999998 3:0.32438299 5:-0.89999998 6:0.50438303 7:0.062201601 8:-0.72910202 9:0.39938301 10:0.124403 11:-0.55820501 12:0.29438299 13:-0.060270052 14:-0.56702632 15:0.37053269 16:-0.2449431 17:-0.57584667 18:0.44668239 21:0.17 24:0.34 25:0.16276035 26:-0.059236553 27:0.24000026 28:0.32551968 29:-0.1184729 30:0.14000054 31:0.35341725 32:-0.26541051 33:0.27272779 34:0.3813158 35:-0.41234812 36:0.40545505 #
0.055330856703216656222732439118772 2:-0.89999998 3:0.32438299 5:-0.89999998 6:0.50438303 7:-0.20680758 8:-0.93645769 9:0.50437713 10:-0.41361418 11:-0.97291541 12:0.50437123 13:-0.54180861 14:-0.82248092 15:0.47442916 16:-0.67000216 17:-0.67204547 18:0.44448817 21:0.17 24:0.34 25:0.11133067 26:-0.13268454 27:0.44 28:0.22266135 29:-0.26536909 30:0.54000002 31:0.21247193 32:-0.45964006 33:0.49358398 34:0.20228353 35:-0.65391201 36:0.4471679 #
-0.018287119455633854547826899761276 2:-0.89999998 3:0.32438299 5:-0.89999998 6:0.50438303 7:-0.031579718 8:-0.7208969 9:0.39938733 10:-0.063159436 11:-0.54179293 12:0.29439166 13:-0.1506729 14:-0.38665262 15:0.38533765 16:-0.23818557 17:-0.23151134 18:0.47628367 21:0.17 24:0.34 25:-0.068404026 26:-0.18793865 27:0.3399986 28:-0.13680805 29:-0.37587628 30:0.3399972 31:0.048291676 32:-0.44304657 33:0.37472153 34:0.23339179 35:-0.51021683 36:0.40944487 #
0.1117089018225566193764919376008 2:-0.89999998 3:0.32438299 5:-0.89999998 6:0.50438303 7:-0.11690023 8:-0.76068264 9:0.60938299 10:-0.23380046 11:-0.62136531 12:0.71438301 13:-0.30607611 14:-0.70844078 15:0.54948217 16:-0.37835181 17:-0.79551637 18:0.38458234 21:0.17 24:0.34 25:-0.076381676 26:-0.06443505 27:0.51320469 28:-0.15276355 29:-0.1288705 30:0.68640941 31:-0.1819357 32:-0.27530748 33:0.81931162 34:-0.21110784 35:-0.42174545 36:0.95221388 #
0.035802458878603234115889364375107 2:-0.89999998 3:0.32438299 5:-0.89999998 6:0.50438303 7:0.16086876 8:-0.76501483 9:0.50438303 10:0.32173851 11:-0.63002867 12:0.50438303 13:0.29373473 14:-0.4410826 15:0.4449372 16:0.26573196 17:-0.25213748 18:0.38549241 21:0.17 24:0.34 25:-0.093983836 26:0.034181483 27:0.51320499 28:-0.18796808 29:0.068362966 30:0.68641001 31:-0.028786268 32:-0.052608684 33:0.68118519 34:0.13039492 35:-0.17358012 36:0.67596149 #
0.22011397287781953036045479166205 2:-0.89999998 3:0.32438299 5:-0.89999998 6:0.50438303 7:0.062198948 8:-0.72909999 9:0.60937601 10:0.1243977 11:-0.5582009 12:0.71436906 13:0.17471859 14:-0.36517674 15:0.71696842 16:0.22503854 17:-0.17215259 18:0.71956682 21:0.17 24:0.34 25:-0.068403959 26:-0.187939 27:0.34000003 28:-0.13680792 29:-0.37587699 30:0.34000003 31:-0.20521951 32:-0.56381452 33:0.34000257 34:-0.2736311 35:-0.75175101 36:0.34000507 #
-0.070663532242172380493094863140868 2:-0.89999998 3:0.32438299 5:-0.89999998 6:0.50438303 7:-0.17088988 8:-0.83779979 9:0.60939091 10:-0.34177876 11:-0.77560055 12:0.71439886 13:-0.43054894 14:-0.72372586 15:0.88566184 16:-0.51931906 17:-0.67185205 18:1.0569237 21:0.17 24:0.34 25:0.034729604 26:-0.196962 27:0.34 28:0.069459304 29:-0.39392301 30:0.34 31:0.104189 32:-0.59088498 33:0.34 34:0.138919 35:-0.78784603 36:0.34 #
0.072733447886996677178572667799017 2:-0.89999998 3:0.32438299 5:-0.89999998 6:0.50438303 7:0.062201217 8:-0.72910184 9:0.60938263 10:0.12440223 11:-0.55820459 12:0.71438235 13:0.18366452 14:-0.39545208 15:0.81439382 16:0.24292578 17:-0.23270059 18:0.91440535 21:0.17 24:0.34 25:0.11138934 26:-0.13260359 27:0.44 28:0.22277868 29:-0.26520717 30:0.54000002 31:0.089208551 32:-0.15295742 33:0.63771969 34:-0.04436177 35:-0.040707354 36:0.7354393 #
0.055524893105024918094070329743772 2:-0.89999998 3:0.32438299 5:-0.89999998 6:0.50438303 7:-0.17909877 8:-0.93155092 9:0.39938331 10:-0.35819852 11:-0.96310079 12:0.29438362 13:-0.45610914 14:-0.84983832 15:0.42681524 16:-0.5540207 17:-0.73657584 18:0.5592469 21:0.17 24:0.34 25:0.11131197 26:-0.13269326 27:0.44 28:0.22262394 29:-0.26538652 30:0.54000002 31:0.21244892 32:-0.45965722 33:0.49359494 34:0.20227492 35:-0.65392894 36:0.44718987 #
-0.12547275449588113360732677392662 2:-0.89999998 3:0.32438299 5:-0.89999998 6:0.50438303 7:0.035899442 8:-0.80133533 9:0.68624848 10:0.071798883 11:-0.70267165 12:0.86811501 13:0.10600881 14:-0.60866046 15:1.0412946 16:0.14021893 17:-0.51465029 18:1.2144682 21:0.17 24:0.34 25:0.064357243 26:-0.076571859 27:0.51320517 28:0.1287149 29:-0.15314391 30:0.68641043 31:0.11831892 32:-0.29438731 33:0.82775587 34:0.10792394 35:-0.43562967 36:0.96910042 #
-0.024024099111554779450994345779691 2:-0.89999998 3:0.32438299 5:-0.89999998 6:0.50438303 7:-0.031555235 8:-0.72089928 9:0.60937953 10:-0.063110471 11:-0.5417977 12:0.71437603 13:0.04274324 14:-0.3786402 15:0.66793466 16:0.14859675 17:-0.21548277 18:0.62149334 21:0.17 24:0.34 25:0.064425513 26:-0.076385021 27:0.51320499 28:0.12885143 29:-0.15277024 30:0.68641007 31:0.20516624 32:-0.12754782 33:0.86920416 34:0.28148106 35:-0.10232635 36:1.0519984 #
0.04201939795165864771631092366988 2:-0.89999998 3:0.32438299 5:-0.89999998 6:0.50438303 7:-0.079310909 8:-0.96827221 9:0.68624878 10:-0.15862142 11:-1.0365484 12:0.86811548 13:-0.10438363 14:-0.95028651 15:1.0399983 16:-0.050144561 17:-0.86402965 18:1.2118851 21:0.17 24:0.34 25:0.030103821 26:-0.1705613 27:0.44000015 28:0.060207743 29:-0.34112161 30:0.54000032 31:0.11188699 32:-0.53431779 33:0.54131156 34:0.16356674 35:-0.72751302 36:0.54262179 #
0.018809424946082876906050529441927 2:-0.89999998 3:0.32438299 5:-0.89999998 6:0.50438303 7:0.062201601 8:-0.72910202 9:0.60938299 10:0.124403 11:-0.55820501 12:0.71438301 13:-0.070490271 14:-0.59542572 15:0.69041646 16:-0.26538375 17:-0.63264537 18:0.66644996 21:0.17 24:0.34 25:0.017390294 26:-0.098470457 27:0.5132035 28:0.034780588 29:-0.19694132 30:0.68640703 31:0.18441115 32:-0.30530101 33:0.60983294 34:0.33404231 35:-0.41366071 36:0.53325784 #
0.018189358524976474706935647418504 2:-0.89999998 3:0.32438299 5:-0.89999998 6:0.50438303 7:-0.031580593 8:-0.72089797 9:0.39938301 10:-0.063161187 11:-0.54179502 12:0.29438296 13:0.019923031 14:-0.37184179 15:0.3592898 16:0.10300685 17:-0.20188856 18:0.42419562 21:0.17 24:0.34 25:-0.076604545 26:-0.064278945 27:0.51320487 28:-0.15320928 29:-0.12855829 30:0.68640977 31:-0.0778732 32:-0.31060699 33:0.65216798 34:-0.0025372619 35:-0.49265674 36:0.61792624 #
0.018079056171698675709036407965868 2:-0.89999998 3:0.32438299 5:-0.89999998 6:0.50438303 7:0.071824044 8:-0.70266539 9:0.50438476 10:0.14364769 11:-0.50532991 12:0.50438648 13:-0.043496259 14:-0.54362929 15:0.44514301 16:-0.23064022 17:-0.58192962 18:0.38590059 21:0.17 24:0.34 25:0.11135992 26:-0.13267085 27:0.44 28:0.22271983 29:-0.2653417 30:0.54000002 31:0.039086904 32:-0.21977557 33:0.60489637 34:-0.14454563 35:-0.1742094 36:0.66979176 #
-0.12673405930398720653506927646959 2:-0.89999998 3:0.32438299 5:-0.89999998 6:0.50438303 7:0.17090169 8:-0.96220332 9:0.39939761 10:0.34180236 11:-1.0244026 12:0.2944122 13:0.42548153 14:-0.84526187 15:0.32447532 16:0.50916165 17:-0.66611803 18:0.3545374 21:0.17 24:0.34 25:0.034736805 26:-0.19695862 27:0.34000009 28:0.069473706 29:-0.39391625 30:0.34000015 31:0.25481528 32:-0.46278399 33:0.37007537 34:0.4401581 35:-0.53165179 36:0.40014958 #
-0.057370490394527365318744216438063 2:-0.89999998 3:0.32438299 5:-0.89999998 6:0.50438303 7:-0.19733368 8:-0.8281765 9:0.50438529 10:-0.39466834 11:-0.75635296 12:0.50438756 13:-0.24238898 14:-0.63024932 15:0.47430182 16:-0.090109736 17:-0.50414568 18:0.44421712 21:0.17 24:0.34 25:-0.068403937 26:-0.187939 27:0.34 28:-0.13680787 29:-0.37587699 30:0.34 31:-0.20729403 32:-0.24380428 33:0.4723134 34:-0.27778021 35:-0.11173254 36:0.60462677 #
0.076794452033929844203541392744228 2:-0.89999998 3:0.32438299 5:-0.89999998 6:0.50438303 7:0.062201574 8:-0.72910202 9:0.60938299 10:0.12440295 11:-0.55820501 12:0.71438301 13:0.12568238 14:-0.44817853 15:0.88092923 16:0.12696181 17:-0.33815303 18:1.0474782 21:0.17 24:0.34 25:0.11133444 26:-0.13268279 27:0.44 28:0.22266889 29:-0.26536557 30:0.54000002 31:0.33403277 32:-0.39805207 33:0.63998294 34:0.44539672 35:-0.53073955 36:0.73996586 #
-0.10955591686068949508481296106766 2:-0.89999998 3:0.32438299 5:-0.89999998 6:0.50438303 7:-0.116901 8:-0.760683 9:0.39938301 10:-0.23380201 11:-0.62136602 12:0.29438299 13:-0.072511233 14:-0.56035775 15:0.39566654 16:0.088779017 17:-0.49934855 18:0.49695006 21:0.17 24:0.34 25:0.030067727 26:-0.17057818 27:0.44 28:0.060135555 29:-0.34115538 30:0.54000002 31:0.19604683 32:-0.34854952 33:0.68649387 34:0.33195859 35:-0.35594267 36:0.83298779 #
0.090865101665250011531149709753663 2:-0.89999998 3:0.32438299 5:-0.89999998 6:0.50438303 7:0.062201601 8:-0.72910202 9:0.60938299 10:0.124403 11:-0.55820501 12:0.71438301 13:0.028041022 14:-0.62320888 15:0.87708122 16:-0.068321258 17:-0.68821168 18:1.0397763 21:0.17 24:0.34 25:0.18793891 26:-0.068404093 27:0.33999991 28:0.37587681 29:-0.13680819 30:0.33999985 31:0.2262409 32:-0.25555006 33:0.39923996 34:0.076604366 35:-0.3742919 36:0.45847911 #
0.073055247776203521836713150605647 2:-0.89999998 3:0.32438299 5:-0.89999998 6:0.50438303 7:0.062191095 8:-0.72910112 9:0.60938299 10:0.12438199 11:-0.55820316 12:0.71438301 13:0.12340967 14:-0.66261649 15:0.88490635 16:0.12243737 17:-0.76702982 18:1.0554286 21:0.17 24:0.34 25:0.076605737 26:0.064279906 27:0.51320451 28:0.15321167 29:0.12856022 30:0.68640906 31:0.09844774 32:-0.062727138 33:0.66614771 34:0.043683998 35:-0.2540139 36:0.64588636 #
-0.036210417747494193230206604994237 2:-0.89999998 3:0.32438299 5:-0.89999998 6:0.50438303 7:0.13931696 8:-0.783099 9:0.60938305 10:0.27863392 11:-0.66619802 12:0.71438307 13:0.13036358 14:-0.57814497 15:0.61307961 16:-0.017907131 17:-0.49009192 18:0.51177609 21:0.17 24:0.34 25:0.12855791 26:-0.15320891 27:0.33999953 28:0.25711483 29:-0.30641782 30:0.33999905 31:0.11314571 32:-0.42722076 33:0.40840331 34:-0.030823922 35:-0.54802465 36:0.47680762 #
0.28507569204457700040578060907137 2:-0.89999998 3:0.32438299 5:-0.89999998 6:0.50438303 7:-0.031485032 8:-0.72090632 9:0.60938299 10:-0.062970065 11:-0.54181176 12:0.71438301 13:0.004259754 14:-0.36796629 15:0.78481257 16:0.071489565 17:-0.19411983 18:0.85524201 21:0.17 24:0.34 25:-0.068403982 26:-0.18793899 27:0.34000006 28:-0.13680796 29:-0.37587696 30:0.34000012 31:-0.2052414 32:-0.56381464 33:0.33998367 34:-0.27367482 35:-0.75175124 36:0.33996719 #
0.090520782396188922969137991003663 2:-0.89999998 3:0.32438299 5:-0.89999998 6:0.50438303 7:-0.1169009 8:-0.76068294 9:0.39938301 10:-0.2338018 11:-0.6213659 12:0.29438299 13:-0.037800834 14:-0.58958501 15:0.31833613 16:0.15820013 17:-0.55780411 18:0.34228924 21:0.17 24:0.34 25:0.196962 26:0.034729537 27:0.34 28:0.39392301 29:0.06945917 30:0.34 31:0.3237049 32:-0.10819208 33:0.39923999 34:0.25348684 35:-0.28584403 36:0.45847899 #
0.090853283181778099475423005060293 2:-0.89999998 3:0.32438299 5:-0.89999998 6:0.50438303 7:-0.17089805 8:-0.83779812 9:0.39938283 10:-0.34179509 11:-0.77559727 12:0.2943826 13:-0.23259658 14:-0.64213198 15:0.3956778 16:-0.12339708 17:-0.50866663 18:0.49697301 21:0.17 24:0.34 25:-0.13276848 26:-0.11127414 27:0.44 28:-0.26553696 29:-0.22254828 30:0.54000002 31:-0.098742835 32:-0.16006809 33:0.63099414 34:0.068050928 35:-0.097588517 36:0.7219882 #
-0.31269304454323726405462480215647 2:-0.89999998 3:0.32438299 5:-0.89999998 6:0.50438303 7:-0.036474291 8:-0.69318926 9:0.50438309 10:-0.072948582 11:-0.48637959 12:0.50438315 13:-0.027175404 14:-0.30238584 15:0.44136289 16:0.01859777 17:-0.11839209 18:0.3783426 21:0.17 24:0.34 25:2.6100955e-07 26:4.2832818e-07 27:0.53999984 28:5.2201972e-07 29:8.5665857e-07 30:0.73999971 31:2.1804655e-05 32:-1.6644448e-05 33:0.93999064 34:4.308737e-05 35:-3.4145618e-05 36:1.1399816 #
-0.054729129187757671881620069598284 2:-0.89999998 3:0.32438299 5:-0.89999998 6:0.50438303 7:-0.11690063 8:-0.76068282 9:0.39938301 10:-0.23380126 11:-0.62136567 12:0.29438299 13:-0.31553525 14:-0.7302525 15:0.44084132 16:-0.39726827 17:-0.8391394 18:0.58729964 21:0.17 24:0.34 25:-0.13268301 26:-0.11133399 27:0.23999999 28:-0.26536602 29:-0.22266798 30:0.13999999 31:-0.21618149 32:-0.38142374 33:0.25130081 34:-0.16699794 35:-0.54017854 36:0.36260164 #
0.055482988245780094638259782868772 2:-0.89999998 3:0.32438299 5:-0.89999998 6:0.50438303 7:-0.031580973 8:-0.72089601 9:0.60937554 10:-0.063161947 11:-0.54179114 12:0.7143681 13:-0.21339774 14:-0.62606674 15:0.61293775 16:-0.36363375 17:-0.71034241 18:0.51150727 21:0.17 24:0.34 25:-0.13264185 26:-0.11135536 27:0.44000521 28:-0.2652837 29:-0.22271071 30:0.54001045 31:-0.2312824 32:-0.27133599 33:0.731013 34:-0.19728108 35:-0.31996226 36:0.92201567 #
-0.14488202519713488936048406685586 2:-0.89999998 3:0.32438299 5:-0.89999998 6:0.50438303 7:-0.031612765 8:-0.72091258 9:0.60938162 10:-0.06322553 11:-0.54182422 12:0.71438032 13:-0.19939826 14:-0.41052365 15:0.64946383 16:-0.33557123 17:-0.2792221 18:0.58454835 21:0.17 24:0.34 25:-0.16276127 26:0.059236243 27:0.24000372 28:-0.32552153 29:0.11847229 30:0.14000745 31:-0.34182799 32:-0.016787924 33:0.28642303 34:-0.35813546 35:-0.15204853 36:0.43283865 #
-0.27281496673819871645605417143088 2:-0.89999998 3:0.32438299 5:-0.89999998 6:0.50438303 7:-0.13931708 8:-1.0168999 9:0.39938331 10:-0.27863416 11:-1.1338 12:0.29438359 13:-0.31035262 14:-0.93772674 15:0.31817076 16:-0.34207106 17:-0.74165148 18:0.3419579 21:0.17 24:0.34 25:-0.068404786 26:-0.18793742 27:0.3400028 28:-0.13680957 29:-0.37587383 30:0.34000561 31:-0.20522083 32:-0.56376874 33:0.34006491 34:-0.27363208 35:-0.75166255 36:0.34012422 #
0.01819340977817604856903166421489 2:-0.89999998 3:0.32438299 5:-0.89999998 6:0.50438303 7:-0.036466248 8:-0.69319004 9:0.50438303 10:-0.072932497 11:-0.48638114 12:0.50438303 13:-0.19553648 14:-0.3321251 15:0.47014421 16:-0.31813967 17:-0.17786907 18:0.43590546 21:0.17 24:0.34 25:0.017352652 26:-0.098475039 27:0.51320511 28:0.034705304 29:-0.19695048 30:0.68641019 31:-0.12572172 32:-0.22397611 33:0.80268341 34:-0.28615013 35:-0.25100276 36:0.91895562 #
0.07343821693211113887933549904119 2:-0.89999998 3:0.32438299 5:-0.89999998 6:0.50438303 7:0.13931702 8:-0.783099 9:0.39938301 10:0.27863404 11:-0.66619802 12:0.29438302 13:0.16533096 14:-0.50415528 15:0.32445917 16:0.052027307 17:-0.3421126 18:0.3545343 21:0.17 24:0.34 25:0.11138387 26:-0.13265973 27:0.44 28:0.22276774 29:-0.26531947 30:0.54000002 31:0.15051094 32:-0.35249418 33:0.70480722 34:0.078253821 35:-0.43966892 36:0.86961347 #
0.01776208053342833229071295875201 2:-0.89999998 3:0.32438299 5:-0.89999998 6:0.50438303 7:-0.036466047 8:-0.69318998 9:0.50438303 10:-0.072932094 11:-0.48638093 12:0.50438303 13:-0.19569042 14:-0.33218533 15:0.46992114 16:-0.31844795 17:-0.17798966 18:0.43545929 21:0.17 24:0.34 25:0.098494917 26:0.017334528 27:0.51320499 28:0.19699024 29:0.034669057 30:0.68641001 31:0.0074370597 32:-0.029190363 33:0.68511391 34:-0.18211609 35:-0.093049787 36:0.68381888 #
0.036712489090856482987224040925867 2:-0.89999998 3:0.32438299 5:-0.89999998 6:0.50438303 7:0.071824238 8:-0.70266497 9:0.50438303 10:0.14364807 11:-0.50532901 12:0.50438309 13:0.26432562 14:-0.54940039 15:0.65756637 16:0.38500315 17:-0.59347272 18:0.81074971 21:0.17 24:0.34 25:0.11133399 26:-0.13268299 27:0.23999999 28:0.22266798 29:-0.26536599 30:0.14 31:0.061355095 32:-0.32633391 33:0.24129915 34:-0.099957891 35:-0.38730285 36:0.34259832 #
1.0122650737003890952792062307708 2:-0.89999998 3:0.32438299 5:-0.89999998 6:0.50438303 7:-0.031580258 8:-0.72089815 9:0.60938299 10:-0.063160516 11:-0.54179531 12:0.71438307 13:-0.09324456 14:-0.37122855 15:0.8143484 16:-0.12332901 17:-0.20066079 18:0.91431385 21:0.17 24:0.34 25:-0.068403989 26:-0.187939 27:0.34000003 28:-0.13680798 29:-0.37587699 30:0.34000006 31:-0.20522478 32:-0.56381506 33:0.33999565 34:-0.27364156 35:-0.75175214 36:0.33999127 #
0.072421981021755191254563044367387 2:-0.89999998 3:0.32438299 5:-0.89999998 6:0.50438303 7:-0.11690101 8:-0.760683 9:0.39938301 10:-0.23380202 11:-0.62136602 12:0.29438299 13:-0.31555927 14:-0.73035103 15:0.44079915 16:-0.39731553 17:-0.8393361 18:0.5872153 21:0.17 24:0.34 25:-0.059239604 26:-0.16276 27:0.23999999 28:-0.11847901 29:-0.325519 30:0.14 31:0.0035053506 32:-0.43832198 33:0.25133404 34:0.12548995 35:-0.55112499 36:0.36266804 #
0.3485945476483694460689832794742 2:-0.89999998 3:0.32438299 5:-0.89999998 6:0.50438303 7:0.071824186 8:-0.70266497 9:0.50438303 10:0.14364797 11:-0.50532901 12:0.50438303 13:0.21208797 14:-0.3173925 15:0.50439668 16:0.28052893 17:-0.12945502 18:0.50441033 21:0.17 24:0.34 25:-1.6802363e-07 26:-5.6544104e-07 27:0.53999984 28:-3.3604712e-07 29:-1.1308845e-06 30:0.73999971 31:-0.09308064 32:-0.035504948 33:0.91318285 34:-0.18616134 35:-0.071008772 36:1.0863661 #
0.19964367151258524679668937551469 2:-0.89999998 3:0.32438299 5:-0.89999998 6:0.50438303 7:-0.116901 8:-0.760683 9:0.60938299 10:-0.23380201 11:-0.62136602 12:0.71438301 13:-0.15773836 14:-0.47367465 15:0.60303688 16:-0.08167579 17:-0.32598329 18:0.49169087 21:0.17 24:0.34 25:0.12855671 26:-0.15320748 27:0.34000742 28:0.25711244 29:-0.30641496 30:0.34001485 31:0.4079918 32:-0.17981496 33:0.37474591 34:0.55887216 35:-0.053215876 36:0.40947595 #
-0.038522707764055731660679526839886 2:-0.89999998 3:0.32438299 5:-0.89999998 6:0.50438303 7:-0.19733496 8:-0.82817596 9:0.50438327 10:-0.3946709 11:-0.75635183 12:0.50438344 13:-0.262622 14:-0.68593425 15:0.63706607 16:-0.13057308 17:-0.6155166 18:0.76974869 21:0.17 24:0.34 25:0.016773656 26:-0.098429196 27:0.51320487 28:0.033547312 29:-0.19685879 30:0.68640977 31:-0.016818998 32:-0.35059637 33:0.80403441 34:-0.067185313 35:-0.50433391 36:0.92165816 #
-0.036570022348311137516674307335052 2:-0.89999998 3:0.32438299 5:-0.89999998 6:0.50438303 7:-0.031580593 8:-0.7208975 9:0.60938114 10:-0.063161187 11:-0.54179406 12:0.71437931 13:-0.033987805 14:-0.36607736 15:0.62342542 16:-0.004814547 17:-0.19036072 18:0.53247148 21:0.17 24:0.34 25:0.093935959 26:-0.034253079 27:0.51320469 28:0.18787232 29:-0.068506159 30:0.68640941 31:0.35999867 32:-0.094125219 33:0.58794844 34:0.53212506 35:-0.11974428 36:0.48948842 #
-0.92026929320667527623101022982155 2:-0.89999998 3:0.32438299 5:-0.89999998 6:0.50438303 7:-7.1210295e-08 8:-0.9000001 9:0.71438295 10:-1.4242043e-07 11:-0.90000021 12:0.92438293 13:1.0635785e-05 14:-0.89998323 15:1.1243708 16:2.1414051e-05 17:-0.8999663 18:1.3243618 21:0.17 24:0.34 25:-0.068404295 26:-0.18793897 27:0.34 28:-0.13680859 29:-0.37587693 30:0.34 31:-0.10380261 32:-0.57221097 33:0.35804498 34:-0.070796616 35:-0.76854503 36:0.37608993 #
0.036208678502586119640760387028422 2:-0.89999998 3:0.32438299 5:-0.89999998 6:0.50438303 7:0.20680994 8:-0.86353397 9:0.50438321 10:0.41361889 11:-0.82706797 12:0.50438339 13:0.28551906 14:-0.67645019 15:0.53445929 16:0.15741824 17:-0.52583331 18:0.56453419 21:0.17 24:0.34 25:0.12855799 26:-0.153209 27:0.34 28:0.25711501 29:-0.306418 30:0.34 31:0.38567334 32:-0.45962641 33:0.34000054 34:0.51423073 35:-0.61283481 36:0.34000108 #
-0.054399119690055564024788736787741 2:-0.89999998 3:0.32438299 5:-0.89999998 6:0.50438303 7:0.17910153 8:-0.86841846 9:0.60938323 10:0.35820404 11:-0.83683795 12:0.71438348 13:0.3592352 14:-0.64581519 15:0.65517133 16:0.36026633 17:-0.45479339 18:0.59596008 21:0.17 24:0.34 25:0.17057399 26:0.030076697 27:0.44 28:0.34114701 29:0.060153496 30:0.54000002 31:0.34009999 32:-0.13086902 33:0.59924001 34:0.339053 35:-0.32189104 36:0.65847898 #
0.037131409626450673222564091702225 2:-0.89999998 3:0.32438299 5:-0.89999998 6:0.50438303 7:0.062201601 8:-0.72910202 9:0.60938299 10:0.124403 11:-0.55820501 12:0.71438301 13:-0.041393548 14:-0.56632632 15:0.82571578 16:-0.20719071 17:-0.57444674 18:0.93704855 21:0.17 24:0.34 25:0.11127326 26:-0.13271132 27:0.23999999 28:0.22254652 29:-0.26542264 30:0.14 31:0.19871825 32:-0.2837241 33:0.33771452 34:0.17489 35:-0.30202559 36:0.53542906 #
0.047446638345713984530327422817209 2:-0.89999998 3:0.32438299 5:-0.89999998 6:0.50438303 7:-0.17909385 8:-0.93148971 9:0.60938263 10:-0.35818869 11:-0.96297836 12:0.71438229 13:-0.53040463 14:-0.89369017 15:0.78792024 16:-0.70262152 17:-0.82440293 18:0.86145818 21:0.17 24:0.34 25:-0.068403997 26:-0.187939 27:0.34 28:-0.13680799 29:-0.37587699 30:0.34 31:-0.20520781 32:-0.56381464 33:0.34000954 34:-0.27360761 35:-0.75175124 36:0.34001905 #
0.054562953300769032050077100848284 2:-0.89999998 3:0.32438299 5:-0.89999998 6:0.50438303 7:0.071824282 8:-0.70266497 9:0.50438303 10:0.14364816 11:-0.50532901 12:0.50438303 13:0.21204779 14:-0.3174068 15:0.5043841 16:0.28044838 17:-0.1294836 18:0.50438523 21:0.17 24:0.34 25:0.030085554 26:-0.1705699 27:0.23999999 28:0.060171209 29:-0.34113881 30:0.13999999 31:-0.052995007 32:-0.34055674 33:0.30489045 34:-0.16616073 35:-0.33997464 36:0.46977991 #
0.19076958298681404024854657563992 2:-0.89999998 3:0.32438299 5:-0.89999998 6:0.50438303 7:0.067808159 8:-0.97997767 9:0.68624741 10:0.13561592 11:-1.0599554 12:0.86811274 13:0.28120542 14:-0.96892321 15:0.97031772 16:0.42679486 17:-0.87789112 18:1.0725267 21:0.17 24:0.34 25:-0.068403997 26:-0.187939 27:0.34 28:-0.13680799 29:-0.37587699 30:0.34 31:-0.20524469 32:-0.56381559 33:0.33997414 34:-0.27368137 35:-0.75175315 36:0.3399483 #
0.052886405028397892591485174307309 2:-0.89999998 3:0.32438299 5:-0.89999998 6:0.50438303 7:0.17904304 8:-0.86829382 9:0.60938311 10:0.35808706 11:-0.83658862 12:0.71438318 13:0.48021072 14:-0.71661073 15:0.81667781 16:0.60233527 17:-0.596632 18:0.91897237 21:0.17 24:0.34 25:-0.068403997 26:-0.187939 27:0.34 28:-0.13680799 29:-0.37587699 30:0.34 31:-0.2052609 32:-0.56380635 33:0.34002015 34:-0.2737138 35:-0.75173467 36:0.34004033 #
-0.056508774869138730934103875824803 2:-0.89999998 3:0.32438299 5:-0.89999998 6:0.50438303 7:0.07182385 8:-0.70266461 9:0.50438303 10:0.1436473 11:-0.50532836 12:0.50438303 13:0.13750267 14:-0.60950929 15:0.67488718 16:0.13135801 17:-0.71369028 18:0.84539032 21:0.17 24:0.34 25:0.09397237 26:-0.034212422 27:0.51319802 28:0.18794514 29:-0.068424843 30:0.68639606 31:0.18602739 32:-0.20903939 33:0.54427892 34:0.18411064 35:-0.34965393 36:0.40216079 #
0.96298610863961919825726454291726 2:-0.89999998 3:0.32438299 5:-0.89999998 6:0.50438303 7:-0.036466058 8:-0.69318998 9:0.50438303 10:-0.072932117 11:-0.48638099 12:0.50438303 13:-0.10767921 14:-0.28941673 15:0.50439209 16:-0.14242651 17:-0.092453092 18:0.50440121 21:0.17 24:0.34 25:0.12855799 26:-0.153209 27:0.34 28:0.25711501 29:-0.306418 30:0.34 31:0.38564217 32:-0.45963204 33:0.34003279 34:0.51416838 35:-0.61284608 36:0.34006554 #
-0.054923854768271128390377811001599 2:-0.89999998 3:0.32438299 5:-0.89999998 6:0.50438303 7:-0.11690217 8:-0.76067978 9:0.39939621 10:-0.23380433 11:-0.62135959 12:0.29440939 13:-0.072427414 14:-0.56048471 15:0.39538604 16:0.088948987 17:-0.49960884 18:0.49636269 21:0.17 24:0.34 25:0.034729604 26:-0.19696198 27:0.34000006 28:0.069459304 29:-0.39392298 30:0.34000012 31:0.10421146 32:-0.59087241 33:0.34001973 34:0.13896392 35:-0.78782094 36:0.34003934 #
-0.12467261403797902374890327337198 2:-0.89999998 3:0.32438299 5:-0.89999998 6:0.50438303 7:-0.036466185 8:-0.69318998 9:0.50438303 10:-0.07293237 11:-0.48638096 12:0.50438303 13:-0.026580255 14:-0.30233011 15:0.44221514 16:0.019771861 17:-0.11827926 18:0.38004726 21:0.17 24:0.34 25:0.19695988 26:0.034706023 27:0.34000018 28:0.39391878 29:0.069412142 30:0.34000036 31:0.58080077 32:0.0069547561 33:0.37420657 34:0.7676838 35:-0.055502657 36:0.40841272 #
-0.061002750881010599226517143733872 2:-0.89999998 3:0.32438299 5:-0.89999998 6:0.50438303 7:-0.13498393 8:-0.73913223 9:0.50438929 10:-0.26996887 11:-0.57826358 12:0.50439548 13:-0.36752543 14:-0.43386197 15:0.60203588 16:-0.46508199 17:-0.28945938 18:0.69967622 21:0.17 24:0.34 25:-0.18793873 26:0.0684039 27:0.34000111 28:-0.37587646 29:0.1368078 30:0.34000218 31:-0.42827576 32:-0.0071592554 33:0.46856654 34:-0.48067403 35:-0.15112592 36:0.59712982 #
1.0014059664822081430202160845511 2:-0.89999998 3:0.32438299 5:-0.89999998 6:0.50438303 7:-1.3695218e-07 8:-0.9000001 9:0.71438295 10:-2.7390405e-07 11:-0.90000027 12:0.92438287 13:-3.1525047e-05 14:-0.89997011 15:1.1243619 16:-6.2776286e-05 17:-0.89993995 18:1.3243438 21:0.17 24:0.34 25:0.11133342 26:-0.13268326 27:0.44 28:0.22266684 29:-0.26536652 30:0.54000002 31:0.21247528 32:-0.45963752 33:0.49358234 34:0.20228474 35:-0.65390956 36:0.44716468 #
0.33707344169575398362681539765617 2:-0.89999998 3:0.32438299 5:-0.89999998 6:0.50438303 7:0.071824223 8:-0.70266497 9:0.50438303 10:0.14364804 11:-0.50532901 12:0.50438303 13:0.21208508 14:-0.31739968 15:0.50439411 16:0.28052309 17:-0.12946934 18:0.5044052 21:0.17 24:0.34 25:-0.059240583 26:-0.16276006 27:0.4399994 28:-0.11848097 29:-0.32551911 30:0.53999883 31:-0.21558376 32:-0.49963617 33:0.54568756 34:-0.31268656 35:-0.67375416 36:0.55137628 #
0.054227896034712529116372792259426 2:-0.89999998 3:0.32438299 5:-0.89999998 6:0.50438303 7:-0.031634014 8:-0.72092265 9:0.60938209 10:-0.063268028 11:-0.54184443 12:0.71438116 13:-0.20309116 14:-0.48876736 15:0.58160883 16:-0.34291449 17:-0.43569031 18:0.44883639 21:0.17 24:0.34 25:-0.11133385 26:0.1326832 27:0.44 28:-0.22266771 29:0.26536641 30:0.54000002 31:-0.28800297 32:0.077862062 33:0.51604581 34:-0.35333717 35:-0.10964229 36:0.49209166 #
0.14440800994633290477153764186369 2:-0.89999998 3:0.32438299 5:-0.89999998 6:0.50438303 7:-0.17089796 8:-0.837798 9:0.39938286 10:-0.34179491 11:-0.77559698 12:0.29438269 13:-0.23253641 14:-0.64217442 15:0.39571071 16:-0.1232769 17:-0.50875187 18:0.49703875 21:0.17 24:0.34 25:-0.187939 26:0.068404004 27:0.34 28:-0.37587699 29:0.13680801 30:0.34 31:-0.34024701 32:-0.057680782 33:0.37007701 34:-0.30461803 35:-0.25216997 36:0.40015301 #
0.12750456109641800095388930458284 2:-0.89999998 3:0.32438299 5:-0.89999998 6:0.50438303 7:1.0778542e-07 8:-0.9000001 9:0.71438301 10:2.1557051e-07 11:-0.90000015 12:0.92438304 13:0.030076686 14:-0.72942615 15:0.8243832 16:0.060153257 17:-0.55885303 18:0.72438329 21:0.17 24:0.34 25:0.030076416 26:-0.17057396 27:0.44 28:0.060152933 29:-0.34114695 30:0.54000002 31:0.0089735519 32:-0.25017792 33:0.71056455 34:-0.042205773 35:-0.15920787 36:0.88112825 #
