SVM-light Version V6.20
2 # kernel type
3 # kernel parameter -d 
0.9298 # kernel parameter -g 
1 # kernel parameter -s 
1 # kernel parameter -r 
empty# kernel parameter -u 
36 # highest feature index 
121 # number of training documents 
3001 # number of support vectors plus 1 
0 # threshold b, each following line is a SV (starting with alpha*y)
132.75718655447670357716560829431 2:-1.3 3:0.32438299 5:-1.3 6:0.50438303 7:0.00028564967 8:-1.1655732 9:0.60810566 10:0.00057130354 11:-1.0311499 12:0.71182865 13:-0.0013002214 14:-0.95650744 15:0.77414072 16:-0.0031717522 17:-0.88186502 18:0.83645308 21:0.17 24:0.34 25:-0.0020414747 26:-0.09075664 27:0.47618148 28:-0.0040829517 29:-0.18151312 30:0.6123628 31:-0.0017690358 32:-0.26171014 33:0.69576412 34:0.00054487295 35:-0.34190723 36:0.77916569 #
1122.1579849825925521145109087229 2:-1.3 3:0.32438299 5:-1.3 6:0.50438303 7:-0.00063160586 8:-1.0965483 9:0.49349275 10:-0.0012632142 11:-0.89310062 12:0.48260248 13:-0.00078268809 14:-0.69586557 15:0.47578108 16:-0.00030215652 17:-0.49863061 18:0.46895954 21:0.17 24:0.34 25:0.00050584535 26:-0.18595108 27:0.37943095 28:0.0010116906 29:-0.37190214 30:0.41886154 31:-0.00088294526 32:-0.55274969 33:0.45863983 34:-0.0027775781 35:-0.7335974 36:0.49841806 #
339.80965744985394394461764022708 2:-1.3 3:0.32438299 5:-1.3 6:0.50438303 7:0.00027417441 8:-1.1571705 9:0.44388068 10:0.00054835679 11:-1.0143474 12:0.38337833 13:-0.0026349218 14:-1.0165164 15:0.39264312 16:-0.0058182217 17:-1.0186855 18:0.40190807 21:0.17 24:0.34 25:-0.0026316557 26:-0.15204705 27:0.30241179 28:-0.0052633127 29:-0.30409482 30:0.26482382 31:0.0024186813 32:-0.31138584 33:0.31811228 34:0.010100652 35:-0.31867704 36:0.37140095 #
-173.63981034898213806627609301358 2:-1.3 3:0.32438299 5:-1.3 6:0.50438303 7:0.15781739 8:-1.1589292 9:0.53878397 10:0.31563437 11:-1.0178605 12:0.57318515 13:0.422804 14:-0.85358363 15:0.55955589 16:0.52997345 17:-0.68930656 18:0.54592663 21:0.17 24:0.34 25:0.14239411 26:-0.12523691 27:0.39709523 28:0.28478855 29:-0.25047433 30:0.45419005 31:0.39867181 32:-0.41392156 33:0.4851743 34:0.51255524 35:-0.57736915 36:0.51615846 #
359.14102123773972152775968424976 2:-1.3 3:0.32438299 5:-1.3 6:0.50438303 7:0.063716464 8:-1.0720265 9:0.53692931 10:0.12743267 11:-0.84406066 12:0.56947535 13:0.19783734 14:-0.71690327 15:0.64728099 16:0.26824182 17:-0.5897463 18:0.72508657 21:0.17 24:0.34 25:0.063668907 26:-0.17267172 27:0.46155536 28:0.12733763 29:-0.34534249 30:0.58311075 31:0.20618056 32:-0.43682262 33:0.68966115 34:0.28502339 35:-0.52830237 36:0.79621184 #
-364.96106998750309458046103827655 2:-1.3 3:0.32438299 5:-1.3 6:0.50438303 7:-0.12187839 8:-1.1808717 9:0.63180214 10:-0.24375646 11:-1.0617468 12:0.75922155 13:-0.36417618 14:-0.92638278 15:0.7217924 16:-0.48459581 17:-0.79101884 18:0.68436331 21:0.17 24:0.34 25:-0.12645742 26:-0.15865798 27:0.39515045 28:-0.25291505 29:-0.31731617 30:0.45030048 31:-0.37313661 32:-0.49100593 33:0.46325395 34:-0.49335822 35:-0.66469568 36:0.47620738 #
78.496206732780507309144013561308 2:-1.3 3:0.32438299 5:-1.3 6:0.50438303 7:-0.07990557 8:-1.0880075 9:0.48406991 10:-0.15981086 11:-0.87601858 12:0.46375686 13:-0.21119422 14:-0.63557601 15:0.49966192 16:-0.26257735 17:-0.3951332 18:0.53556687 21:0.17 24:0.34 25:-0.070574716 26:-0.063045435 27:0.51594353 28:-0.14114934 29:-0.12609068 30:0.69188678 31:-0.21341467 32:-0.24329552 33:0.76911879 34:-0.28567994 35:-0.36050066 36:0.84635079 #
-544.70967128919505739759188145399 2:-1.3 3:0.32438299 5:-1.3 6:0.50438303 7:0.028084198 8:-1.1910565 9:0.66950852 10:0.056168336 11:-1.0821129 12:0.83463466 13:0.074237019 14:-1.0137923 15:0.86482358 16:0.092305698 17:-0.94547117 18:0.89501274 21:0.17 24:0.34 25:0.029539503 26:-0.21896476 27:0.34111384 28:0.059079118 29:-0.43792957 30:0.34222722 31:0.079999857 32:-0.67162979 33:0.40351093 34:0.10092064 35:-0.90533 36:0.46479452 #
486.36230632203540835689636878669 2:-1.3 3:0.32438299 5:-1.3 6:0.50438303 7:-0.031984262 8:-1.0660093 9:0.61412805 10:-0.063968331 11:-0.83202636 12:0.72387302 13:-0.065613844 14:-0.69843018 15:0.81609243 16:-0.067259237 17:-0.56483454 18:0.9083119 21:0.17 24:0.34 25:-0.057759728 26:-0.21542917 27:0.48536816 28:-0.1155193 29:-0.43085626 30:0.63073647 31:-0.16122927 32:-0.60242105 33:0.74834585 34:-0.20693918 35:-0.77398503 36:0.86595559 #
877.21579253446225266088731586933 2:-1.3 3:0.32438299 5:-1.3 6:0.50438303 7:0.12400045 8:-1.1752272 9:0.50703347 10:0.24800006 11:-1.0504574 12:0.50968444 13:0.30493024 14:-0.81795698 15:0.59744102 16:0.3618598 17:-0.58545595 18:0.68519765 21:0.17 24:0.34 25:-0.12331063 26:-0.13669036 27:0.35468584 28:-0.24662229 29:-0.27338302 30:0.369371 31:-0.32563692 32:-0.43870527 33:0.56222975 34:-0.40465251 35:-0.60402876 36:0.75508815 #
257.55285164305615808189031668007 2:-1.3 3:0.32438299 5:-1.3 6:0.50438303 7:-0.12577741 8:-1.1205363 9:0.54382771 10:-0.25155452 11:-0.94107705 12:0.58327252 13:-0.30551144 14:-0.77573383 15:0.59304911 16:-0.35946822 17:-0.61039054 18:0.60282564 21:0.17 24:0.34 25:0.14363785 26:-0.1351447 27:0.4272162 28:0.28727591 29:-0.27028945 30:0.51443207 31:0.34224695 32:-0.4268716 33:0.54730505 34:0.39721805 35:-0.58345395 36:0.58017802 #
-309.28985121967218674399191513658 2:-1.3 3:0.32438299 5:-1.3 6:0.50438303 7:-0.09333194 8:-1.1278489 9:0.47680658 10:-0.18666324 11:-0.9556964 12:0.44922999 13:-0.23878114 14:-0.80921769 15:0.52512258 16:-0.29089859 17:-0.66273886 18:0.60101527 21:0.17 24:0.34 25:-0.050529379 26:-0.17216294 27:0.29364052 28:-0.10105906 29:-0.34432697 30:0.24728057 31:-0.16673814 32:-0.42292449 33:0.45682809 34:-0.23241732 35:-0.50152272 36:0.66637558 #
28.688986930241593853452286566608 2:-1.3 3:0.32438299 5:-1.3 6:0.50438303 7:0.29986891 8:-1.1727221 9:0.63354933 10:0.59973788 11:-1.0454292 12:0.76271576 13:0.79591662 14:-0.80430508 15:0.67879021 16:0.99209553 17:-0.56318057 18:0.59486479 21:0.17 24:0.34 25:0.20109048 26:-0.059688885 27:0.39505592 28:0.40218118 29:-0.11937924 30:0.45011061 31:0.51874822 32:-0.29095307 33:0.57666093 34:0.63531548 35:-0.46252808 36:0.70321113 #
409.28264011130238486657617613673 2:-1.3 3:0.32438299 5:-1.3 6:0.50438303 7:0.0096568614 8:-1.0464467 9:0.37743384 10:0.019313356 11:-0.79290706 12:0.25048432 13:0.097364515 14:-0.69122899 15:0.41284451 16:0.17541538 17:-0.58955115 18:0.57520449 21:0.17 24:0.34 25:0.088752881 26:-0.26154071 27:0.24970928 28:0.17750622 29:-0.52308208 30:0.15941916 31:0.31891605 32:-0.58478409 33:0.3340641 34:0.46032602 35:-0.64648646 36:0.50870925 #
-525.582162024643480435770470649 2:-1.3 3:0.32438299 5:-1.3 6:0.50438303 7:0.041944906 8:-1.1665499 9:0.62836057 10:0.083889551 11:-1.0331084 12:0.75233847 13:0.025150472 14:-0.93541127 15:0.5008924 16:-0.033588812 17:-0.83771396 18:0.24944592 21:0.17 24:0.34 25:0.016366884 26:-0.11302391 27:0.62216359 28:0.0327335 29:-0.22604604 30:0.90432763 31:-0.054597687 32:-0.45122561 33:0.68329877 34:-0.14192921 35:-0.67640501 36:0.46227011 #
-315.16691306412747053400380536914 2:-1.3 3:0.32438299 5:-1.3 6:0.50438303 7:0.0064302511 8:-1.0616337 9:0.5900954 10:0.012860161 11:-0.82329053 12:0.67580783 13:0.013769813 14:-0.55178279 15:0.79053038 16:0.014679101 17:-0.2802754 18:0.90525258 21:0.17 24:0.34 25:-0.048082758 26:-0.22018717 27:0.25359961 28:-0.096166149 29:-0.44037464 30:0.1672003 31:-0.093128107 32:-0.41117501 33:0.20838724 34:-0.090090685 35:-0.38197532 36:0.24957436 #
348.95007720265425632533151656389 2:-1.3 3:0.32438299 5:-1.3 6:0.50438303 7:0.039888322 8:-1.0991571 9:0.69090432 10:0.079776958 11:-0.89829826 12:0.87742579 13:0.026329465 14:-0.68746281 15:0.7042883 16:-0.027117662 17:-0.4766275 18:0.53115112 21:0.17 24:0.34 25:-0.0053134724 26:-0.024516873 27:0.45139647 28:-0.010626131 29:-0.049034823 30:0.56279135 31:-0.035050109 32:-0.21034935 33:0.47172165 34:-0.059473213 35:-0.37166482 36:0.38065183 #
414.90569179100873498100554570556 2:-1.3 3:0.32438299 5:-1.3 6:0.50438303 7:0.086205192 8:-1.0820812 9:0.39790633 10:0.17241006 11:-0.86417854 12:0.29142925 13:0.24179378 14:-0.70326453 15:0.27705431 16:0.31117725 17:-0.54235107 18:0.26267901 21:0.17 24:0.34 25:-0.035425488 26:-0.10234145 27:0.48857257 28:-0.0708507 29:-0.2046814 30:0.63714564 31:0.0089148125 32:-0.18854876 33:0.64053684 34:0.088680461 35:-0.17241551 36:0.64392859 #
394.34808038648787942292983643711 2:-1.3 3:0.32438299 5:-1.3 6:0.50438303 7:0.031040685 8:-1.010784 9:0.60312521 10:0.062081046 11:-0.72159451 12:0.70186782 13:-0.16573288 14:-0.79614699 15:0.79373235 16:-0.39354694 17:-0.87070078 18:0.88559705 21:0.17 24:0.34 25:-0.08137846 26:-0.17346998 27:0.32031575 28:-0.16275735 29:-0.34694007 30:0.3006326 31:0.019803539 32:-0.50845623 33:0.35225841 34:0.20236401 35:-0.66997194 36:0.4038842 #
-222.3092881635443234245030907914 2:-1.3 3:0.32438299 5:-1.3 6:0.50438303 7:0.24893852 8:-1.2577909 9:0.50777817 10:0.49787709 11:-1.2155598 12:0.51117355 13:0.23274305 14:-0.92952812 15:0.61482215 16:-0.032390829 17:-0.64349514 18:0.71847123 21:0.17 24:0.34 25:-0.04848139 26:-0.18830954 27:0.36191913 28:-0.096962363 29:-0.37661836 30:0.38383725 31:0.023357682 32:-0.46729773 33:0.49409935 34:0.14367835 35:-0.55797774 36:0.60436118 #
-90.556646554713466912289732135832 2:-1.3 3:0.32438299 5:-1.3 6:0.50438303 7:-0.19713785 8:-1.1444696 9:0.43770033 10:-0.39427546 11:-0.98892117 12:0.37101769 13:-0.14509133 14:-0.82948178 15:0.63135552 16:0.10409281 17:-0.6700415 18:0.89169329 21:0.17 24:0.34 25:-0.11124059 26:-0.084774345 27:0.48691219 28:-0.2224815 29:-0.16954882 30:0.63382292 31:-0.073247902 32:-0.41100359 33:0.52968389 34:0.075985603 35:-0.65245908 36:0.42554459 #
403.94752059956681478070095181465 2:-1.3 3:0.32438299 5:-1.3 6:0.50438303 7:0.12154357 8:-1.1146208 9:0.45455709 10:0.24308734 11:-0.92927837 12:0.40473071 13:0.24617007 14:-0.83084118 15:0.53909141 16:0.24925308 17:-0.7324053 18:0.67345285 21:0.17 24:0.34 25:-0.074524775 26:-0.031786516 27:0.61385757 28:-0.14904962 29:-0.063572571 30:0.88771558 31:0.10361282 32:-0.32015091 33:0.65421736 34:0.35627502 35:-0.57672882 36:0.42071941 #
-388.97589897122594493339420296252 2:-1.3 3:0.32438299 5:-1.3 6:0.50438303 7:0.075242408 8:-1.1163818 9:0.61054856 10:0.15048346 11:-0.93270367 12:0.71671522 13:0.18963845 14:-0.77542162 15:0.71357554 16:0.2287925 17:-0.61813802 18:0.71043426 21:0.17 24:0.34 25:0.13543653 26:-0.044913445 27:0.51359159 28:0.27087206 29:-0.089827575 30:0.68717921 31:0.18364629 32:-0.53635412 33:0.61594355 34:0.096420668 35:-0.98288202 36:0.54470742 #
-191.88700885849249289094586856663 2:-1.3 3:0.32438299 5:-1.3 6:0.50438303 7:-0.014873671 8:-1.0633793 9:0.46308807 10:-0.029747315 11:-0.82677817 12:0.42179263 13:-0.097107336 14:-0.73176581 15:0.40690106 16:-0.16446738 17:-0.63675416 18:0.39200899 21:0.17 24:0.34 25:-0.22259845 26:-0.11231417 27:0.43084499 28:-0.44519711 29:-0.22462745 30:0.52169096 31:-0.47827166 32:-0.35100552 33:0.39314473 34:-0.51134628 35:-0.4773832 36:0.264599 #
68.238217807130794767545012291521 2:-1.3 3:0.32438299 5:-1.3 6:0.50438303 7:0.23968831 8:-1.0913838 9:0.45204052 10:0.4793773 11:-0.88290304 12:0.39969513 13:0.18274544 14:-0.64557451 15:0.55174851 16:-0.11388595 17:-0.40825012 18:0.70380354 21:0.17 24:0.34 25:0.30873844 26:-0.13324022 27:0.45772383 28:0.61747795 29:-0.26647857 30:0.57545441 31:0.29924417 32:-0.39691314 33:0.3618879 34:-0.01899079 35:-0.52734476 36:0.14832292 #
212.97002472502430237000226043165 2:-1.3 3:0.32438299 5:-1.3 6:0.50438303 7:0.065526329 8:-1.1740333 9:0.66921335 10:0.13105339 11:-1.0480795 12:0.83404404 13:0.35936928 14:-1.0718714 15:0.83066016 16:0.58768594 17:-1.0956643 18:0.82727724 21:0.17 24:0.34 25:0.013368644 26:-0.12429741 27:0.52084643 28:0.026737843 29:-0.24859256 30:0.70169371 31:0.1099188 32:-0.40344688 33:0.77148497 34:0.19310033 35:-0.55830038 36:0.84127647 #
-65.22436956669066887570807011798 2:-1.3 3:0.32438299 5:-1.3 6:0.50438303 7:-0.038071241 8:-1.1600113 9:0.59596986 10:-0.076142646 11:-1.0200206 12:0.68755746 13:0.0055992277 14:-0.78934067 15:0.61515206 16:0.087340981 17:-0.55866146 18:0.54274642 21:0.17 24:0.34 25:0.24132611 26:-0.18860537 27:0.30104843 28:0.4826524 29:-0.3772116 30:0.26209679 31:0.099455096 32:-0.38863832 33:0.53664976 34:-0.28374237 35:-0.40006581 36:0.81120247 #
73.06231465805025493409630144015 2:-1.3 3:0.32438299 5:-1.3 6:0.50438303 7:0.14735869 8:-1.0520602 9:0.53991628 10:0.29471505 11:-0.80410057 12:0.57544953 13:0.33690801 14:-0.73199236 15:0.77575254 16:0.37909895 17:-0.65988457 18:0.97605383 21:0.17 24:0.34 25:0.047897346 26:-0.29626548 27:0.43470684 28:0.095792972 29:-0.59253114 30:0.52941191 31:0.39384437 32:-0.57236564 33:0.73925763 34:0.69189471 35:-0.55220056 36:0.94910347 #
292.97033661753965816387790255249 2:-1.3 3:0.32438299 5:-1.3 6:0.50438303 7:-0.05203981 8:-1.1697693 9:0.49339092 10:-0.10407969 11:-1.0395403 12:0.48239881 13:-0.17024958 14:-1.0038873 15:0.46125004 16:-0.23641963 17:-0.9682349 18:0.44010118 21:0.17 24:0.34 25:-0.051382493 26:-0.21752852 27:0.43976316 28:-0.10276447 29:-0.43505588 30:0.53952551 31:0.025815349 32:-0.56952381 33:0.77959466 34:0.15439579 35:-0.70399052 36:1.0196642 #
234.89528521474676381330937147141 2:-1.3 3:0.32438299 5:-1.3 6:0.50438303 7:-0.20311372 8:-1.2401958 9:0.72225732 10:-0.40622696 11:-1.1804026 12:0.94013184 13:-0.17284676 14:-0.88194168 15:0.73621887 16:0.060533669 17:-0.58348072 18:0.5323056 21:0.17 24:0.34 25:0.0056679356 26:-0.26468012 27:0.42326859 28:0.011336041 29:-0.52935904 30:0.50653702 31:-0.038804609 32:-0.55248773 33:0.50203478 34:-0.088945158 35:-0.57561582 36:0.49753284 #
417.75506959944681284468970261514 2:-1.3 3:0.32438299 5:-1.3 6:0.50438303 7:-0.030321239 8:-1.0802774 9:0.38641202 10:-0.060642492 11:-0.86056286 12:0.26844063 13:-0.15474299 14:-0.86634696 15:0.51563865 16:-0.24884333 17:-0.87213129 18:0.76283711 21:0.17 24:0.34 25:0.11281967 26:-0.21213493 27:0.52807969 28:0.22564021 29:-0.42426842 30:0.71615893 31:-0.11137813 32:-0.50046086 33:0.60573018 34:-0.44839606 35:-0.57665271 36:0.49530175 #
-245.88547212851912604492099490017 2:-1.3 3:0.32438299 5:-1.3 6:0.50438303 7:-0.1414912 8:-1.1666646 9:0.47679985 10:-0.28298223 11:-1.0333357 12:0.44921649 13:-0.47460157 14:-1.0131297 15:0.41421095 16:-0.66622102 17:-0.99292445 18:0.37920511 21:0.17 24:0.34 25:0.087043777 26:-0.22191516 27:0.41034195 28:0.17408837 29:-0.44382936 30:0.48068336 31:0.41834348 32:-0.49736258 33:0.81142759 34:0.66259933 35:-0.55089432 36:1.1421726 #
664.13770056965904586832039058208 2:-1.3 3:0.32438299 5:-1.3 6:0.50438303 7:-0.018250974 8:-0.97282076 9:0.45877558 10:-0.036501788 11:-0.64562529 12:0.41316769 13:0.29739335 14:-0.74584305 15:0.51919878 16:0.63128877 17:-0.84606105 18:0.62523043 21:0.17 24:0.34 25:0.092528813 26:-0.19953179 27:0.45901081 28:0.18505739 29:-0.39906088 30:0.57802022 31:0.14121526 32:-0.5713917 33:0.48738834 34:0.097373649 35:-0.74372137 36:0.39675662 #
327.89715597263398194627370685339 2:-1.3 3:0.32438299 5:-1.3 6:0.50438303 7:-0.021681298 8:-1.075762 9:0.68865043 10:-0.043361612 11:-0.85156828 12:0.872917 13:0.17403677 14:-0.8593803 15:0.56144714 16:0.39143583 17:-0.86719435 18:0.24997665 21:0.17 24:0.34 25:-0.097776607 26:-0.15254059 27:0.31081116 28:-0.19555175 29:-0.30508241 30:0.28162354 31:-0.067900181 32:-0.48960641 33:0.50241178 34:0.059751712 35:-0.67413008 36:0.72320092 #
-96.109482213462158028960402589291 2:-1.3 3:0.32438299 5:-1.3 6:0.50438303 7:-0.029443573 8:-1.0470006 9:0.27530369 10:-0.058887195 11:-0.79402965 12:0.046223104 13:-0.20480841 14:-0.91750777 15:0.44086558 16:-0.35072926 17:-1.0409873 18:0.835509 21:0.17 24:0.34 25:0.26365888 26:-0.27830875 27:0.61697495 28:0.52731979 29:-0.55661458 30:0.89395034 31:-0.16865514 32:-0.5405212 33:0.63271809 34:-0.86462933 35:-0.52442604 36:0.37148646 #
-681.54906175587211691890843212605 2:-1.3 3:0.32438299 5:-1.3 6:0.50438303 7:-0.027506886 8:-1.0886048 9:0.51189333 10:-0.055012818 11:-0.87726748 12:0.51940274 13:-0.0090401908 14:-0.67649323 15:0.89343941 16:0.036932789 17:-0.47572121 18:1.2674766 21:0.17 24:0.34 25:0.053429365 26:-0.029763412 27:0.46161672 28:0.10685889 29:-0.059526913 30:0.58323526 31:0.078235433 32:-0.26834527 33:0.8277601 34:0.049611941 35:-0.47716287 36:1.0722852 #
-3.158536137756140060872667163494 2:-1.3 3:0.32438299 5:-1.3 6:0.50438303 7:0.11333646 8:-1.0321852 9:0.53043479 10:0.22667089 11:-0.76429987 12:0.55648756 13:0.31476057 14:-0.60696507 15:0.33623812 16:0.40284911 17:-0.44962791 18:0.11598785 21:0.17 24:0.34 25:0.13809618 26:-0.14683284 27:0.4664478 28:0.27618948 29:-0.29366514 30:0.59289163 31:0.45747721 32:-0.46827391 33:0.56703132 34:0.63876432 35:-0.6428839 36:0.5411703 #
-225.87292228348962908057728782296 2:-1.3 3:0.32438299 5:-1.3 6:0.50438303 7:0.09325359 8:-1.1245332 9:0.32730711 10:0.18650743 11:-0.94908828 12:0.15023081 13:0.31651255 14:-0.72613758 15:0.44944835 16:0.44651812 17:-0.50318706 18:0.74866682 21:0.17 24:0.34 25:-0.021593133 26:-0.2370131 27:0.32841498 28:-0.043185081 29:-0.47402644 30:0.31683019 31:0.057397746 32:-0.6288383 33:0.54172027 34:0.15798168 35:-0.78365064 36:0.76660997 #
242.81295554884340504031570162624 2:-1.3 3:0.32438299 5:-1.3 6:0.50438303 7:-0.15026273 8:-1.0925893 9:0.39168802 10:-0.30052513 11:-0.88519502 12:0.27899259 13:-0.22380683 14:-0.93272668 15:0.4383339 16:-0.14708836 17:-0.98025912 18:0.59767497 21:0.17 24:0.34 25:-0.29526517 26:-0.16376503 27:0.31701243 28:-0.59053129 29:-0.32752886 30:0.29402658 31:-0.69265836 32:-0.36842415 33:0.27208194 34:-0.79478592 35:-0.4093188 36:0.25013807 #
399.77390194046279248141217976809 2:-1.3 3:0.32438299 5:-1.3 6:0.50438303 7:-0.14348902 8:-1.1347891 9:0.58013171 10:-0.28697804 11:-0.96959591 12:0.65588063 13:-0.47603974 14:-0.71980226 15:0.64458156 16:-0.66510165 17:-0.47000888 18:0.63328183 21:0.17 24:0.34 25:0.072192661 26:-0.1953381 27:0.42605773 28:0.14438526 29:-0.39067429 30:0.51211667 31:0.046645381 32:-0.59781241 33:0.42232135 34:-0.051095322 35:-0.80494994 36:0.33252627 #
267.64218704289152128694695420563 2:-1.3 3:0.32438299 5:-1.3 6:0.50438303 7:-0.11071572 8:-1.1226403 9:0.36179399 10:-0.22143139 11:-0.94528186 12:0.21920489 13:-0.29527789 14:-0.85950583 15:0.27536938 16:-0.36912426 17:-0.77372968 18:0.33153412 21:0.17 24:0.34 25:-0.033972297 26:-0.17488487 27:0.28115702 28:-0.067944974 29:-0.34977129 30:0.22231254 31:-0.16854751 32:-0.66750389 33:0.19856931 34:-0.26914999 35:-0.98523676 36:0.17482573 #
517.80907945308672424289397895336 2:-1.3 3:0.32438299 5:-1.3 6:0.50438303 7:0.013076316 8:-1.1075633 9:0.56325686 10:0.026151525 11:-0.91512358 12:0.62213147 13:-0.01195052 14:-0.6708138 15:0.65869665 16:-0.050053343 17:-0.42650434 18:0.69526142 21:0.17 24:0.34 25:-0.27181745 26:-0.16160305 27:0.3804554 28:-0.54363579 29:-0.32320675 30:0.4209103 31:-0.13999449 32:-0.31677836 33:0.5824784 34:0.26364642 35:-0.31035057 36:0.74404627 #
-194.62474042661995099479099735618 2:-1.3 3:0.32438299 5:-1.3 6:0.50438303 7:0.17197965 8:-1.0961879 9:0.46216452 10:0.34395912 11:-0.89240724 12:0.41994554 13:0.14628403 14:-0.84952545 15:0.5123331 16:-0.051391125 17:-0.8066448 18:0.60472119 21:0.17 24:0.34 25:0.15146977 26:0.059083633 27:0.45061809 28:0.30293909 29:0.11816566 30:0.56123704 31:0.12371511 32:-0.21305901 33:0.71956092 34:-0.05550934 35:-0.54428434 36:0.87788475 #
76.239426153122792584326816722751 2:-1.3 3:0.32438299 5:-1.3 6:0.50438303 7:-0.046691682 8:-1.0456541 9:0.35167462 10:-0.093383148 11:-0.79133743 12:0.19896547 13:-0.31424057 14:-0.74578369 15:0.13907781 16:-0.53509802 17:-0.70023119 18:0.079190478 21:0.17 24:0.34 25:-0.052065622 26:-0.25303277 27:0.20002991 28:-0.10413079 29:-0.50606704 30:0.060059644 31:-0.23054768 32:-0.8780157 33:0.014463899 34:-0.35696405 35:-1.249964 36:-0.031131852 #
124.61545807504685967614932451397 2:-1.3 3:0.32438299 5:-1.3 6:0.50438303 7:0.051994946 8:-1.2111199 9:0.53064597 10:0.10398909 11:-1.1222214 12:0.55690938 13:0.25280622 14:-0.767923 15:0.53621858 16:0.40162241 17:-0.41362369 18:0.51552659 21:0.17 24:0.34 25:0.080573417 26:-0.041757688 27:0.61971277 28:0.16114682 29:-0.08351478 30:0.89942443 31:0.0108565 32:-0.31839657 33:0.88007361 34:-0.13943423 35:-0.55327821 36:0.86072302 #
359.19408923213899242909974418581 2:-1.3 3:0.32438299 5:-1.3 6:0.50438303 7:0.062081307 8:-1.24658 9:0.7830711 10:0.12416231 11:-1.193143 12:1.0617613 13:-0.020399364 14:-0.84969348 15:0.80820256 16:-0.16496119 17:-0.5062418 18:0.55464405 21:0.17 24:0.34 25:0.024420122 26:-0.098506525 27:0.48390931 28:0.048839685 29:-0.19701336 30:0.62781799 31:0.14710648 32:-0.42817163 33:0.81060916 34:0.24537289 35:-0.65933049 36:0.9933998 #
61.783317834613853847258724272251 2:-1.3 3:0.32438299 5:-1.3 6:0.50438303 7:0.12913807 8:-1.0909331 9:0.74995148 10:0.25827742 11:-0.88194895 12:0.99551868 13:0.14559087 14:-0.69497049 15:0.98720425 16:0.0329054 17:-0.50799596 18:0.97889245 21:0.17 24:0.34 25:0.13254614 26:-0.24893039 27:0.37649021 28:0.26509348 29:-0.49785861 30:0.41298431 31:0.23447312 32:-0.55994135 33:0.45028883 34:0.20385344 35:-0.62202036 36:0.4875952 #
363.20531731766789107496151700616 2:-1.3 3:0.32438299 5:-1.3 6:0.50438303 7:0.089505263 8:-1.1029202 9:0.65177292 10:0.17900932 11:-0.90583104 12:0.79916376 13:0.35775796 14:-0.67670143 15:0.68609363 16:0.53650606 17:-0.44756973 18:0.57302189 21:0.17 24:0.34 25:-0.034072787 26:-0.29817137 27:0.46526408 28:-0.068146534 29:-0.59634215 30:0.59052676 31:0.23606104 32:-0.64928955 33:0.46229112 34:0.54026872 35:-0.70223856 36:0.3340539 #
157.96799261940378755753044970334 2:-1.3 3:0.32438299 5:-1.3 6:0.50438303 7:0.11777852 8:-1.0870879 9:0.64162213 10:0.23555529 11:-0.87418729 12:0.77886117 13:0.068092071 14:-0.67726481 15:0.52341509 16:-0.099372692 17:-0.48034194 18:0.26796779 21:0.17 24:0.34 25:0.035567414 26:-0.17069805 27:0.12540661 28:0.071135692 29:-0.34139842 30:-0.089187033 31:0.013794867 32:-0.51462811 33:0.20946635 34:-0.043545056 35:-0.68785918 36:0.5081197 #
184.87742743793106114935653749853 2:-1.3 3:0.32438299 5:-1.3 6:0.50438303 7:0.14686088 8:-1.0681036 9:0.35890588 10:0.29372197 11:-0.83623075 12:0.21342826 13:0.096100882 14:-0.93779308 15:0.42603615 16:-0.10152006 17:-1.0393555 18:0.63864404 21:0.17 24:0.34 25:0.11198112 26:-0.22208102 27:0.44819248 28:0.22396173 29:-0.44416097 30:0.5563851 31:0.20073457 32:-0.69611192 33:0.56198078 34:0.17750712 35:-0.94806254 36:0.56757647 #
-128.18185655462866634479723870754 2:-1.3 3:0.32438299 5:-1.3 6:0.50438303 7:0.11872519 8:-1.0312036 9:0.34229827 10:0.23745011 11:-0.76241249 12:0.18021281 13:0.15233265 14:-0.63518095 15:0.23795174 16:0.067215383 17:-0.50794989 18:0.29569051 21:0.17 24:0.34 25:0.082817756 26:-0.26101118 27:0.2627207 28:0.16563532 29:-0.52202231 30:0.1854423 31:-0.063101456 32:-0.64730191 33:0.20614773 34:-0.29183829 35:-0.77258146 36:0.22685347 #
69.468868533819190247413644101471 2:-1.3 3:0.32438299 5:-1.3 6:0.50438303 7:-0.023972243 8:-1.0288258 9:0.47855771 10:-0.047944438 11:-0.7576375 12:0.45273247 13:-0.11781762 14:-0.51355261 15:0.44237912 16:-0.18769045 17:-0.26946658 18:0.43202552 21:0.17 24:0.34 25:-0.10906305 26:-0.065049663 27:0.5459199 28:-0.21812569 29:-0.13009813 30:0.75183952 31:-0.20827068 32:-0.099348255 33:1.0500145 34:-0.19841519 35:-0.068598278 36:1.3481901 #
-744.82857838991378685022937133908 2:-1.3 3:0.32438299 5:-1.3 6:0.50438303 7:-0.079606019 8:-1.1966765 9:0.52060592 10:-0.15921147 11:-1.093352 12:0.53682989 13:0.095011637 14:-0.74398404 15:0.44690865 16:0.34923518 17:-0.39461529 18:0.35698763 21:0.17 24:0.34 25:0.12232066 26:-0.022674531 27:0.38596666 28:0.24464168 29:-0.045351781 30:0.43193191 31:0.29895711 32:-0.21095175 33:0.39440393 34:0.35327262 35:-0.37655324 36:0.35687515 #
-45.012920955852223414694890379906 2:-1.3 3:0.32438299 5:-1.3 6:0.50438303 7:0.026158242 8:-1.1740073 9:0.69966531 10:0.052316375 11:-1.0480042 12:0.89494884 13:-0.10346726 14:-0.90630352 15:0.95028955 16:-0.25925127 17:-0.76460129 18:1.00563 21:0.17 24:0.34 25:-0.089768313 26:-0.16588145 27:0.50338143 28:-0.17953558 29:-0.33176202 30:0.66676301 31:-0.40349254 32:-0.36094275 33:0.73970705 34:-0.62744862 35:-0.3901237 36:0.81265086 #
-793.01242984971213445533066987991 2:-1.3 3:0.32438299 5:-1.3 6:0.50438303 7:0.17889269 8:-1.1204652 9:0.6641413 10:0.35778284 11:-0.94091445 12:0.82390165 13:-0.025682583 14:-0.81380296 15:0.64976138 16:-0.40914997 17:-0.68669051 18:0.47562128 21:0.17 24:0.34 25:0.010640174 26:-0.15949361 27:0.37614885 28:0.021278376 29:-0.31898862 30:0.41229391 31:-0.18202271 32:-0.49375558 33:0.52314675 34:-0.38532519 35:-0.66852129 36:0.63399869 #
-82.935842802032510689969058148563 2:-1.3 3:0.32438299 5:-1.3 6:0.50438303 7:-0.036233298 8:-1.2265799 9:0.39233381 10:-0.072467759 11:-1.1531112 12:0.28028524 13:0.0061345841 14:-1.0510666 15:0.54751962 16:0.084736213 17:-0.9490248 18:0.8147518 21:0.17 24:0.34 25:-0.03774054 26:-0.18957339 27:0.34308118 28:-0.075481005 29:-0.37915072 30:0.346154 31:0.083181337 32:-0.21971807 33:0.6474731 34:0.24184492 35:-0.060285572 36:0.94879097 #
-468.81831941473893721195054240525 2:-1.3 3:0.32438299 5:-1.3 6:0.50438303 7:0.21737109 8:-1.1826881 9:0.51736033 10:0.43474048 11:-1.0653704 12:0.5303371 13:0.45134962 14:-0.98919117 15:0.80704153 16:0.46795726 17:-0.91301107 18:1.083745 21:0.17 24:0.34 25:0.098800302 26:-0.2258258 27:0.31777024 28:0.19760163 29:-0.4516539 30:0.29553917 31:0.15640666 32:-0.73917526 33:0.23482941 34:0.11521148 35:-1.0266978 36:0.1741201 #
-59.315327484040153649402782320976 2:-1.3 3:0.32438299 5:-1.3 6:0.50438303 7:0.18383186 8:-1.2067925 9:0.48863038 10:0.36766285 11:-1.1135865 12:0.47287765 13:0.43276152 14:-0.89165479 15:0.28416967 16:0.497859 17:-0.66972405 18:0.09546122 21:0.17 24:0.34 25:0.0062006698 26:-0.16238059 27:0.44100311 28:0.012401208 29:-0.32476351 30:0.54200357 31:0.049929485 32:-0.54272527 33:0.42794967 34:0.087457053 35:-0.76068771 36:0.31389576 #
-278.8422411481376457231817767024 2:-1.3 3:0.32438299 5:-1.3 6:0.50438303 7:-0.0036621611 8:-1.0594226 9:0.43977329 10:-0.0073239468 11:-0.81879038 12:0.37516335 13:-0.077372938 14:-0.54258913 15:0.49147314 16:-0.14742208 17:-0.2663863 18:0.60778159 21:0.17 24:0.34 25:0.098525532 26:-0.02388767 27:0.60476017 28:0.19705175 29:-0.047776096 30:0.86951643 31:0.18754666 32:-0.18233292 33:0.79983616 34:0.17804252 35:-0.31689161 36:0.73015583 #
254.74384981387808579711418133229 2:-1.3 3:0.32438299 5:-1.3 6:0.50438303 7:0.11498824 8:-1.3147802 9:0.80479425 10:0.22997665 11:-1.3295739 12:1.105206 13:0.20508221 14:-1.0823753 15:1.0769621 16:0.1801879 17:-0.83517545 18:1.0487182 21:0.17 24:0.34 25:-0.082658783 26:-0.28653622 27:0.27011797 28:-0.16531701 29:-0.57307452 30:0.2002352 31:-0.23011558 32:-0.83785915 33:0.28116131 34:-0.29491416 35:-1.1026459 36:0.36208701 #
60.803174459569802934311155695468 2:-1.3 3:0.32438299 5:-1.3 6:0.50438303 7:0.0032088312 8:-1.1633387 9:0.6669957 10:0.0064190468 11:-1.0266964 12:0.82960618 13:0.009971858 14:-0.87750638 15:0.82562888 16:0.013525668 17:-0.7283178 18:0.82165152 21:0.17 24:0.34 25:-0.1460795 26:-0.16222751 27:0.48483622 28:-0.2921569 29:-0.32445553 30:0.62967253 31:-0.31237596 32:-0.55617005 33:0.37459031 34:-0.33259356 35:-0.7878871 36:0.11950883 #
-97.505978722615921583383169490844 2:-1.3 3:0.32438299 5:-1.3 6:0.50438303 7:0.0053314026 8:-0.9735598 9:0.42591959 10:0.010660732 11:-0.6470052 12:0.34745651 13:0.1154557 14:-0.33872694 15:0.42267567 16:0.22024871 17:-0.030445499 18:0.49789128 21:0.17 24:0.34 25:-0.026984565 26:-0.23021433 27:0.38449782 28:-0.053970773 29:-0.46042961 30:0.42898938 31:-0.022548396 32:-0.77396607 33:0.45746365 34:0.0088744769 35:-1.0875071 36:0.48593673 #
-184.0317207024766901213297387585 2:-1.3 3:0.32438299 5:-1.3 6:0.50438303 7:-0.1018808 8:-1.1195173 9:0.6566332 10:-0.20376146 11:-0.9390021 12:0.80888265 13:0.041823011 14:-0.94121641 15:0.80929464 16:0.28740761 17:-0.94342905 18:0.80970609 21:0.17 24:0.34 25:0.11123666 26:-0.078470297 27:0.2933237 28:0.22247423 29:-0.15694222 30:0.24664664 31:0.36597356 32:-0.3075836 33:0.35870165 34:0.50947392 35:-0.45822802 36:0.47075665 #
113.01525821815646111190289957449 2:-1.3 3:0.32438299 5:-1.3 6:0.50438303 7:0.031985644 8:-1.1483946 9:0.25987506 10:0.063971236 11:-0.99678808 12:0.015367564 13:0.25012037 14:-0.66318953 15:0.049857352 16:0.4362694 17:-0.32959139 18:0.084347285 21:0.17 24:0.34 25:0.004474326 26:-0.065276913 27:0.54826248 28:0.0089492956 29:-0.13055538 30:0.75652313 31:0.1301315 32:-0.098162659 33:0.89424366 34:0.25131354 35:-0.065771088 36:1.0319638 #
112.44235569352254344721586676314 2:-1.3 3:0.32438299 5:-1.3 6:0.50438303 7:-0.12868145 8:-1.1306642 9:0.528503 10:-0.25736293 11:-0.96133476 12:0.5526222 13:-0.45411679 14:-0.84755731 15:0.60650831 16:-0.6508705 17:-0.73378122 18:0.66039354 21:0.17 24:0.34 25:-0.13699566 26:0.074715741 27:0.50196576 28:-0.27399141 29:0.1494306 30:0.66393065 31:-0.26575154 32:-0.035454698 33:0.63822758 34:-0.25751141 35:-0.22034065 36:0.61252463 #
13.539013724084995260454888921231 2:-1.3 3:0.32438299 5:-1.3 6:0.50438303 7:0.042079069 8:-1.1385306 9:0.60237521 10:0.084158078 11:-0.97708946 12:0.70036817 13:0.12110089 14:-0.95208377 15:0.76485956 16:0.1580435 17:-0.92707813 18:0.82935166 21:0.17 24:0.34 25:0.0099463752 26:0.033736147 27:0.55150533 28:0.019892454 29:0.067472748 30:0.76301223 31:0.013698259 32:0.086225413 33:0.80640924 34:0.007503415 35:0.10497843 36:0.84980667 #
-334.72246448872033397492486983538 2:-1.3 3:0.32438299 5:-1.3 6:0.50438303 7:0.023806658 8:-1.1310775 9:0.5828768 10:0.047610886 11:-0.96219957 12:0.66137075 13:0.066879332 14:-0.75628847 15:0.62452668 16:0.08614666 17:-0.55037671 18:0.58768046 21:0.17 24:0.34 25:-0.014032856 26:0.044034034 27:0.52661872 28:-0.028067639 29:0.088067979 30:0.71323854 31:0.27873659 32:-0.035910893 33:0.74024999 34:0.58553952 35:-0.15988909 36:0.76726103 #
-237.5467361440420575036114314571 2:-1.3 3:0.32438299 5:-1.3 6:0.50438303 7:0.0035875617 8:-1.1757402 9:0.58957118 10:0.0071773678 11:-1.0514337 12:0.67475796 13:0.012421289 14:-0.90033996 15:0.558088 16:0.017667403 17:-0.74924505 18:0.4414171 21:0.17 24:0.34 25:0.18351434 26:-0.23323935 27:0.30210355 28:0.36703014 29:-0.46647811 30:0.26420563 31:0.15511551 32:-0.67598587 33:0.27158657 34:-0.056798026 35:-0.88549221 36:0.27896836 #
56.967456967535930800750065827742 2:-1.3 3:0.32438299 5:-1.3 6:0.50438303 7:-0.18417247 8:-1.1084818 9:0.36775905 10:-0.36834484 11:-0.91696244 12:0.23113538 13:-0.44789267 14:-0.52429801 15:0.28671399 16:-0.52744025 17:-0.13163303 18:0.34229255 21:0.17 24:0.34 25:-0.062719271 26:-0.12702982 27:0.51165551 28:-0.12543868 29:-0.25405964 30:0.68331015 31:-0.2513938 32:-0.23741059 33:0.64743036 34:-0.37734896 35:-0.22076207 36:0.61154997 #
-32.519259355229102936846174998209 2:-1.3 3:0.32438299 5:-1.3 6:0.50438303 7:0.0091541698 8:-1.2485538 9:0.68555844 10:0.018308604 11:-1.197088 12:0.86673445 13:0.013757243 14:-1.0223421 15:1.1363035 16:0.0092060594 17:-0.84759241 18:1.4058726 21:0.17 24:0.34 25:-0.0066274595 26:-0.22636746 27:0.50314635 28:-0.013255074 29:-0.45273268 30:0.66629308 31:0.079361841 32:-0.54513758 33:0.73963404 34:0.17197873 35:-0.63754225 36:0.81297541 #
-232.8093287958158157380239572376 2:-1.3 3:0.32438299 5:-1.3 6:0.50438303 7:-0.22550043 8:-1.1250583 9:0.6617496 10:-0.45100054 11:-0.95013911 12:0.81911564 13:-0.4240883 14:-0.80130249 15:0.84804529 16:-0.39717564 17:-0.65246892 18:0.87697524 21:0.17 24:0.34 25:0.042087387 26:-0.092572562 27:0.53875452 28:0.084173843 29:-0.18514466 30:0.73750871 31:-0.090732805 32:-0.25760344 33:0.81013972 34:-0.26563978 35:-0.33006132 36:0.88277131 #
-182.92837959441948214589501731098 2:-1.3 3:0.32438299 5:-1.3 6:0.50438303 7:-0.27446878 8:-1.2193859 9:0.48293504 10:-0.54893696 11:-1.1387606 12:0.46148798 13:-0.36010075 14:-0.9879393 15:0.36147386 16:-0.17126428 17:-0.83711565 18:0.2614601 21:0.17 24:0.34 25:0.025343988 26:-0.04749855 27:0.47858503 28:0.050687734 29:-0.09499903 30:0.61716795 31:-0.21828531 32:-0.3168014 33:0.58090794 34:-0.48725888 35:-0.53860533 36:0.54464662 #
121.87938382252423252793960273266 2:-1.3 3:0.32438299 5:-1.3 6:0.50438303 7:-0.080319665 8:-1.1437453 9:0.55165017 10:-0.16063933 11:-0.98747438 12:0.59891808 13:-0.092351712 14:-0.74985951 15:0.5254935 16:-0.024063995 17:-0.51224464 18:0.45206967 21:0.17 24:0.34 25:-0.069906227 26:-0.16578153 27:0.27763933 28:-0.13981384 29:-0.33156541 30:0.21527836 31:-0.38406298 32:-0.21665929 33:0.45221037 34:-0.62831211 35:-0.10175487 36:0.68914211 #
77.010924706829072761138377245516 2:-1.3 3:0.32438299 5:-1.3 6:0.50438303 7:-0.025659854 8:-1.100572 9:0.44807652 10:-0.051317569 11:-0.9010554 12:0.39177009 13:-0.090303637 14:-0.45817864 15:0.51302725 16:-0.12928937 17:-0.015297947 18:0.63428396 21:0.17 24:0.34 25:0.044793356 26:0.13293932 27:0.69184983 28:0.089589424 29:0.26587677 30:1.0436938 31:-0.033201121 32:0.081797466 33:0.8669818 34:-0.1559902 35:-0.10228515 36:0.69026977 #
114.00596390540772517852019518614 2:-1.3 3:0.32438299 5:-1.3 6:0.50438303 7:0.015383111 8:-1.0572135 9:0.62379003 10:0.030763516 11:-0.81443739 12:0.74319923 13:-0.075084314 14:-0.6913293 15:0.86457455 16:-0.18093337 17:-0.56821877 18:0.98594886 21:0.17 24:0.34 25:0.055202592 26:-0.086394966 27:0.71095127 28:0.11040254 29:-0.17278741 30:1.0819023 31:0.048760459 32:-0.30467302 33:0.83285135 34:-0.012883716 35:-0.43655792 36:0.5837999 #
-125.44618748631734206355758942664 2:-1.3 3:0.32438299 5:-1.3 6:0.50438303 7:-0.23416142 8:-1.1142817 9:0.46042421 10:-0.46832347 11:-0.92866755 12:0.41646624 13:-0.13402712 14:-1.0054884 15:0.43665427 16:0.20026731 17:-1.0823125 18:0.45684254 21:0.17 24:0.34 25:0.072990455 26:-0.1973494 27:0.41122293 28:0.14598188 29:-0.39470071 30:0.48244348 31:0.19575197 32:-0.64749336 33:0.4863385 34:0.24552198 35:-0.90028518 36:0.49023142 #
-103.093625172728039274261391256 2:-1.3 3:0.32438299 5:-1.3 6:0.50438303 7:0.0040697912 8:-1.2334764 9:0.47757062 10:0.0081384564 11:-1.1669717 12:0.45075953 13:0.069195196 14:-1.1686924 15:0.4215399 16:0.13025089 17:-1.170413 18:0.39232069 21:0.17 24:0.34 25:0.06490317 26:-0.22804008 27:0.44330764 28:0.12980714 29:-0.45607966 30:0.54661518 31:0.29308876 32:-0.6128552 33:0.84194791 34:0.4563714 35:-0.7696296 36:1.1372808 #
136.65355414539462231005018111318 2:-1.3 3:0.32438299 5:-1.3 6:0.50438303 7:-0.38548043 8:-1.0672077 9:0.4549602 10:-0.7709617 11:-0.83460313 12:0.40553793 13:-0.21923655 14:-1.1607991 15:0.3282069 16:0.33248577 17:-1.4870011 18:0.2508761 21:0.17 24:0.34 25:0.067078158 26:-0.18991095 27:0.4688696 28:0.1341583 29:-0.37982464 30:0.59773409 31:0.23587781 32:-0.82399023 33:0.51835722 34:0.33759761 35:-1.2681537 36:0.43897668 #
133.33494889741109545866493135691 2:-1.3 3:0.32438299 5:-1.3 6:0.50438303 7:-0.0046324101 8:-0.96994257 9:0.38031355 10:-0.0092652179 11:-0.63991135 12:0.25624353 13:-0.017051674 14:-0.5737353 15:0.22260207 16:-0.024838045 17:-0.50755984 18:0.18895982 21:0.17 24:0.34 25:-0.31296235 26:-0.0087601719 27:0.57967228 28:-0.62592542 29:-0.017518451 30:0.81934792 31:-0.60551316 32:-0.14379685 33:0.44222647 34:-0.58510113 35:-0.27007467 36:0.065105759 #
179.66559167447499589798098895699 2:-1.3 3:0.32438299 5:-1.3 6:0.50438303 7:0.024645073 8:-1.1298202 9:0.50458944 10:0.049290113 11:-0.95962393 12:0.50479698 13:-0.053350683 14:-1.1356988 15:0.58904529 16:-0.15599178 17:-1.3117735 18:0.67329264 21:0.17 24:0.34 25:-0.17070343 26:-0.24325672 27:0.38047457 28:-0.34140903 29:-0.48651201 30:0.42094934 31:-0.25261095 32:-0.60982364 33:0.51268393 34:-0.16381396 35:-0.73313546 36:0.60441822 #
376.10807975020492222029133699834 2:-1.3 3:0.32438299 5:-1.3 6:0.50438303 7:0.06533087 8:-1.0969568 9:0.53538561 10:0.13066438 11:-0.89392567 12:0.56638741 13:-0.026007418 14:-0.69339848 15:0.49787506 16:-0.18267742 17:-0.49287394 18:0.42936569 21:0.17 24:0.34 25:0.05727423 26:-0.27432942 27:0.32929397 28:0.11455069 29:-0.54865634 30:0.31859002 31:0.25338784 32:-0.25431433 33:0.53090191 34:0.39222619 35:0.04002801 36:0.74321526 #
-212.87003355868034759623697027564 2:-1.3 3:0.32438299 5:-1.3 6:0.50438303 7:0.19976306 8:-1.254344 9:0.69341832 10:0.39952493 11:-1.2088047 12:0.88245362 13:0.47754663 14:-0.94369203 15:0.79618669 16:0.55556738 17:-0.67858356 18:0.7099191 21:0.17 24:0.34 25:0.12698916 26:-0.23251641 27:0.43674177 28:0.25397721 29:-0.46503353 30:0.53348768 31:0.09741921 32:-0.48291543 33:0.58348262 34:-0.059140518 35:-0.50079852 36:0.63347799 #
97.735052734411326014196674805135 2:-1.3 3:0.32438299 5:-1.3 6:0.50438303 7:0.22060357 8:-1.1532218 9:0.45188838 10:0.44120568 11:-1.0064584 12:0.39939451 13:0.40094545 14:-0.88322115 15:0.52675211 16:0.36068499 17:-0.75998366 18:0.65410972 21:0.17 24:0.34 25:-0.052462589 26:-0.18757115 27:0.18242905 28:-0.10492767 29:-0.37513965 30:0.024863426 31:0.093896888 32:-0.37760961 33:0.15643546 34:0.29271978 35:-0.38007879 36:0.28800833 #
-129.38093867086345767347665969282 2:-1.3 3:0.32438299 5:-1.3 6:0.50438303 7:-0.08656925 8:-1.1774756 9:0.60946125 10:-0.17313439 11:-1.0549484 12:0.71454197 13:0.07105165 14:-0.77845651 15:0.78346753 16:0.31524044 17:-0.50196737 18:0.85239828 21:0.17 24:0.34 25:-0.085391037 26:-0.14594088 27:0.4575229 28:-0.17077962 29:-0.291881 30:0.57504755 31:0.15240791 32:-0.50815511 33:0.68073732 34:0.47559687 35:-0.7244283 36:0.78642738 #
297.95804271362078452511923387647 2:-1.3 3:0.32438299 5:-1.3 6:0.50438303 7:-0.17385015 8:-1.1367035 9:0.51468271 10:-0.34770089 11:-0.97337633 12:0.52498114 13:-0.32317603 14:-1.0019648 15:0.79461318 16:-0.29865178 17:-1.0305517 18:1.0642439 21:0.17 24:0.34 25:-0.019193016 26:-0.11955215 27:0.40289837 28:-0.038386136 29:-0.23910846 30:0.46579167 31:-0.11700482 32:-0.58849412 33:0.57441193 34:-0.19562413 35:-0.93788147 36:0.68303102 #
-61.067741192502083436011162120849 2:-1.3 3:0.32438299 5:-1.3 6:0.50438303 7:0.063532263 8:-1.1799536 9:0.67039704 10:0.12706421 11:-1.0598867 12:0.83641154 13:0.30370402 14:-0.78544188 15:0.72882283 16:0.48034403 17:-0.51099724 18:0.62123519 21:0.17 24:0.34 25:0.16804792 26:0.13652936 27:0.53865081 28:0.33609715 29:0.27305847 30:0.73729879 31:0.2400874 32:-0.019632373 33:0.62745869 34:0.14407788 35:-0.31232378 36:0.51761907 #
390.70923429333947751729283481836 2:-1.3 3:0.32438299 5:-1.3 6:0.50438303 7:-0.037317391 8:-1.1022309 9:0.47567549 10:-0.074631587 11:-0.90442967 12:0.44696674 13:-0.29348299 14:-0.75519872 15:0.34380412 16:-0.51233208 17:-0.60596764 18:0.24064256 21:0.17 24:0.34 25:-0.15238337 26:-0.17076226 27:0.51040953 28:-0.30476448 29:-0.34152529 30:0.68081743 31:-0.08107204 32:-0.44038576 33:0.48770329 34:0.14262237 35:-0.53924847 36:0.29458913 #
-111.62464217707156421965919435024 2:-1.3 3:0.32438299 5:-1.3 6:0.50438303 7:-0.27062893 8:-1.2410449 9:0.73804444 10:-0.54125565 11:-1.1822238 12:0.97170532 13:-0.1945145 14:-0.9705103 15:0.83074248 16:0.15222786 17:-0.75880742 18:0.68978262 21:0.17 24:0.34 25:-0.23946793 26:-0.11726673 27:0.51690823 28:-0.47893161 29:-0.23453057 30:0.69382316 31:-0.28933829 32:-0.47540987 33:0.7746613 34:-0.099742562 35:-0.71628726 36:0.85550153 #
-493.42673871638351101864827796817 2:-1.3 3:0.32438299 5:-1.3 6:0.50438303 7:-0.014156434 8:-1.0535749 9:0.47563776 10:-0.028311921 11:-0.8071503 12:0.44689253 13:0.079983324 14:-0.68120021 15:0.33047128 16:0.18827899 17:-0.55524844 18:0.21404982 21:0.17 24:0.34 25:-0.07262928 26:-0.33018336 27:0.37454998 28:-0.14525877 29:-0.6603629 30:0.40909937 31:-0.30144277 32:-0.61173207 33:0.54975402 34:-0.45762727 35:-0.56309932 36:0.69040847 #
188.78974747260679123428417369723 2:-1.3 3:0.32438299 5:-1.3 6:0.50438303 7:-0.093113899 8:-1.0365742 9:0.47493932 10:-0.18622845 11:-0.77320063 12:0.44549629 13:-0.48748043 14:-0.7684043 15:0.35920385 16:-0.78873354 17:-0.76360768 18:0.27291009 21:0.17 24:0.34 25:-0.079639189 26:-0.20510772 27:0.40016162 28:-0.15928088 29:-0.41021582 30:0.46032253 31:-0.42333704 32:-0.48251897 33:0.55373234 34:-0.6873945 35:-0.55482072 36:0.64714205 #
23.496034645444527910740362131037 2:-1.3 3:0.32438299 5:-1.3 6:0.50438303 7:-0.13538417 8:-0.93447167 9:0.38093576 10:-0.27077022 11:-0.56902957 12:0.25748989 13:-0.69646293 14:-0.56320488 15:0.13390365 16:-1.1221582 17:-0.55737931 18:0.010314935 21:0.17 24:0.34 25:-0.071003057 26:-0.23289655 27:0.52331519 28:-0.14201005 29:-0.46579298 30:0.70662934 31:-0.4589034 32:-0.40516049 33:0.71999484 34:-0.77579862 35:-0.34452567 36:0.73335999 #
80.340451103061866433563409373164 2:-1.3 3:0.32438299 5:-1.3 6:0.50438303 7:-0.28439751 8:-1.3087231 9:0.84638506 10:-0.56879336 11:-1.3174953 12:1.188387 13:-0.054905757 14:-1.0402112 15:0.69050163 16:0.45898238 17:-0.76292717 18:0.1926146 21:0.17 24:0.34 25:0.14166752 26:-0.24582624 27:0.53838581 28:0.28333595 29:-0.49165294 30:0.73677146 31:-0.084534682 32:-0.54818475 33:0.58401191 34:-0.45240605 35:-0.604716 36:0.43125251 #
90.821736928209645611786982044578 2:-1.3 3:0.32438299 5:-1.3 6:0.50438303 7:0.069570981 8:-0.98910642 9:0.70884603 10:0.13914098 11:-0.67825699 12:0.91330886 13:0.08203049 14:-0.36105174 15:0.97892052 16:0.024919199 17:-0.043848161 18:1.0445318 21:0.17 24:0.34 25:-0.10582339 26:-0.19714713 27:0.21198583 28:-0.2116476 29:-0.39429656 30:0.083971605 31:-0.14302094 32:-0.28710905 33:0.011259329 34:-0.074394912 35:-0.1799216 36:-0.061453033 #
35.320641847218197995061927940696 2:-1.3 3:0.32438299 5:-1.3 6:0.50438303 7:0.084805988 8:-1.1114795 9:0.34341717 10:0.16960843 11:-0.92287827 12:0.18245186 13:0.2382205 14:-0.82059634 15:0.3899799 16:0.30683005 17:-0.71830916 18:0.59750468 21:0.17 24:0.34 25:0.23468772 26:-0.056654308 27:0.29560122 28:0.4693746 29:-0.1133128 30:0.25119704 31:0.35547081 32:-0.1564991 33:0.36436597 34:0.24156691 35:-0.19969009 36:0.47753343 #
400.46516070079860583064146339893 2:-1.3 3:0.32438299 5:-1.3 6:0.50438303 7:-0.14237383 8:-1.046118 9:0.67834485 10:-0.28474712 11:-0.79216826 12:0.85230649 13:-0.28452668 14:-0.6842317 15:0.59166658 16:-0.28430599 17:-0.57629162 18:0.33102444 21:0.17 24:0.34 25:-0.099664375 26:-0.12577915 27:0.40880075 28:-0.19933154 29:-0.25156313 30:0.47759748 31:-0.22826838 32:-0.58311087 33:0.5256508 34:-0.25720748 35:-0.91466397 36:0.57370269 #
230.68909108896704651670006569475 2:-1.3 3:0.32438299 5:-1.3 6:0.50438303 7:-0.078063689 8:-1.0177428 9:0.39023831 10:-0.15612905 11:-0.73539954 12:0.27609345 13:-0.03319338 14:-0.62937123 15:0.45209923 16:0.089741379 17:-0.52333736 18:0.62809968 21:0.17 24:0.34 25:-0.1082526 26:-0.31398892 27:0.47510898 28:-0.21651129 29:-0.62797821 30:0.61020994 31:-0.0038127608 32:-0.39988551 33:0.48651856 34:0.2088822 35:-0.17179672 36:0.36282501 #
228.68982463395431636854482349008 2:-1.3 3:0.32438299 5:-1.3 6:0.50438303 7:0.10201875 8:-1.2249242 9:0.70704991 10:0.20403552 11:-1.1497704 12:0.90971845 13:0.13323471 14:-1.035125 15:0.68944782 16:0.06243182 17:-0.92047614 18:0.46917641 21:0.17 24:0.34 25:0.05840195 26:-0.19872831 27:0.51144427 28:0.11680286 29:-0.3974562 30:0.68288612 31:0.3097344 32:-0.40538114 33:0.5176034 34:0.50266522 35:-0.41330427 36:0.35232076 #
336.29108620098270421294728294015 2:-1.3 3:0.32438299 5:-1.3 6:0.50438303 7:-0.053223856 8:-1.1854683 9:0.68470818 10:-0.10645041 11:-1.0711062 12:0.86503494 13:-0.22281103 14:-1.0590488 15:0.57091111 16:-0.33917335 17:-1.0470014 18:0.27678874 21:0.17 24:0.34 25:-0.018992409 26:-0.13466896 27:0.33693743 28:-0.037984889 29:-0.26933163 30:0.33388311 31:-0.037058391 32:-0.49065173 33:0.2888853 34:-0.036131844 35:-0.71196437 36:0.24389093 #
49.388424442898781308031175285578 2:-1.3 3:0.32438299 5:-1.3 6:0.50438303 7:-0.14136003 8:-0.81711143 9:0.30657899 10:-0.28272307 11:-0.33435333 12:0.10877693 13:-0.873357 14:-0.34662867 15:0.046128932 16:-1.4639938 17:-0.35890391 18:-0.016522657 21:0.17 24:0.34 25:-0.13088596 26:-0.31650883 27:0.63402647 28:-0.2617766 29:-0.63301623 30:0.92805326 31:-0.53303009 32:-0.4174861 33:0.94366771 34:-0.80428654 35:-0.20195496 36:0.95928127 #
-306.94058335289531669332063756883 2:-1.3 3:0.32438299 5:-1.3 6:0.50438303 7:0.21246962 8:-1.1866853 9:0.64823395 10:0.42493686 11:-1.0733027 12:0.79208499 13:0.30836424 14:-0.74240416 15:0.90176576 16:0.19178939 17:-0.41150588 18:1.011444 21:0.17 24:0.34 25:-0.074058764 26:-0.07146991 27:0.51778525 28:-0.14811596 29:-0.14294106 30:0.69556373 31:-0.060643237 32:-0.25700116 33:0.82866061 34:0.026830707 35:-0.37106407 36:0.96175605 #
469.6405685771178468712605535984 2:-1.3 3:0.32438299 5:-1.3 6:0.50438303 7:-0.14694825 8:-1.1966227 9:0.44843054 10:-0.29389784 11:-1.093389 12:0.39248103 13:-0.26514891 14:-0.64814961 15:0.59636599 16:-0.23640002 17:-0.20291588 18:0.80025339 21:0.17 24:0.34 25:-0.025987562 26:-0.21909246 27:0.45734671 28:-0.051976617 29:-0.43817872 30:0.57470137 31:-0.19880076 32:-0.61771095 33:0.6288172 34:-0.34562686 35:-0.7972362 36:0.6829344 #
458.35370571077675094784353859723 2:-1.3 3:0.32438299 5:-1.3 6:0.50438303 7:-0.2080286 8:-1.1954153 9:0.45803869 10:-0.41605717 11:-1.0908761 12:0.41169447 13:-0.20710121 14:-0.89139885 15:0.64114058 16:0.0018533274 17:-0.69192451 18:0.87058783 21:0.17 24:0.34 25:0.035893608 26:-0.26304331 27:0.21933429 28:0.071788721 29:-0.52608556 30:0.098670281 31:0.052967317 32:-0.68193007 33:0.20617355 34:0.034147058 35:-0.83777106 36:0.31367722 #
61.900940613601854067837848560885 2:-1.3 3:0.32438299 5:-1.3 6:0.50438303 7:0.0014487305 8:-1.1204476 9:0.38762978 10:0.0028978407 11:-0.94091797 12:0.27087507 13:0.21932717 14:-0.91687512 15:0.31292164 16:0.43575579 17:-0.89283371 18:0.35496762 21:0.17 24:0.34 25:0.052389823 26:-0.24407011 27:0.46061623 28:0.10478158 29:-0.48813832 30:0.58123446 31:0.35545534 32:-0.31952149 33:0.42115292 34:0.60613084 35:-0.15090264 36:0.26107219 #
-271.59842656370796021292335353792 2:-1.3 3:0.32438299 5:-1.3 6:0.50438303 7:-0.32683653 8:-1.332008 9:0.85978281 10:-0.65367079 11:-1.3641104 12:1.2151824 13:-0.27281657 14:-0.82243884 15:0.80627942 16:0.10803874 17:-0.280774 18:0.39737749 21:0.17 24:0.34 25:0.037214648 26:-0.37070832 27:0.40389341 28:0.074431747 29:-0.74141049 30:0.46779126 31:0.066463567 32:-0.56409913 33:0.37551752 34:0.058497369 35:-0.38678229 36:0.28324676 #
-89.221674156973605818166106473655 2:-1.3 3:0.32438299 5:-1.3 6:0.50438303 7:0.12284337 8:-1.0594603 9:0.44694352 10:0.24568547 11:-0.81879503 12:0.38950467 13:0.1726948 14:-0.47366214 15:0.35238996 16:0.099703439 17:-0.12852062 18:0.31527621 21:0.17 24:0.34 25:-0.18895169 26:-0.18137942 27:0.44453922 28:-0.37790519 29:-0.36275831 30:0.5490731 31:-0.39770401 32:-0.1056321 33:1.0274522 34:-0.41750404 35:0.15149443 36:1.505831 #
160.80130184943948279396863654256 2:-1.3 3:0.32438299 5:-1.3 6:0.50438303 7:0.056741014 8:-1.0599611 9:0.40973526 10:0.1134846 11:-0.81993651 12:0.3150866 13:0.059451479 14:-0.64230376 15:0.64500284 16:0.0054200119 17:-0.46467307 18:0.97491956 21:0.17 24:0.34 25:-0.053513274 26:-0.12879002 27:0.46661142 28:-0.10702495 29:-0.25758111 30:0.59322494 31:-0.2298654 32:-0.21017627 33:0.56757116 34:-0.35270432 35:-0.16277163 36:0.54191816 #
99.054712855653377800990710966289 2:-1.3 3:0.32438299 5:-1.3 6:0.50438303 7:-0.009036365 8:-1.0849663 9:0.45920247 10:-0.018070996 11:-0.86991471 12:0.41402337 13:0.010358509 14:-0.39733541 15:0.53151518 16:0.038787678 17:0.07524842 18:0.6490069 21:0.17 24:0.34 25:-0.071078375 26:0.21830873 27:0.65869731 28:-0.14215356 29:0.43661878 30:0.97739607 31:-0.11322792 32:0.35267901 33:1.1662084 34:-0.084301315 35:0.26873776 36:1.3550216 #
-227.46910237475665894635312724859 2:-1.3 3:0.32438299 5:-1.3 6:0.50438303 7:0.076804981 8:-1.0701199 9:0.57222503 10:0.1536144 11:-0.84022743 12:0.64006573 13:-0.16922455 14:-0.6431427 15:0.5102914 16:-0.49206039 17:-0.44606099 18:0.38052267 21:0.17 24:0.34 25:0.096902244 26:-0.3382844 27:0.3320497 28:0.19380815 29:-0.67656326 30:0.32410285 31:0.43385565 32:-0.11088227 33:0.56983143 34:0.67390513 35:0.45479909 36:0.81556273 #
242.00237395230374204402323812246 2:-1.3 3:0.32438299 5:-1.3 6:0.50438303 7:-0.062253214 8:-1.0805323 9:0.58052886 10:-0.12450939 11:-0.86113828 12:0.65667576 13:-0.016380925 14:-0.69551378 15:0.53360611 16:0.091745183 17:-0.52988833 18:0.41053471 21:0.17 24:0.34 25:-0.047094878 26:0.026358774 27:0.46507585 28:-0.094193146 29:0.052717995 30:0.59015137 31:-0.038694829 32:-0.14099345 33:0.8114115 34:0.016801819 35:-0.33470178 36:1.0326725 #
233.67251223942412252654321491718 2:-1.3 3:0.32438299 5:-1.3 6:0.50438303 7:0.01829247 8:-1.0696664 9:0.48903242 10:0.036581598 11:-0.83927935 12:0.47368321 13:0.20482898 14:-0.89855188 15:0.62864959 16:0.37307483 17:-0.95782137 18:0.7836135 21:0.17 24:0.34 25:-0.039854757 26:-0.21571216 27:0.21946935 28:-0.07971514 29:-0.43142101 30:0.098933995 31:-0.042210117 32:-0.67129362 33:0.31849751 34:-0.0047078468 35:-0.91116172 36:0.53806025 #
-13.976844138592859678738022921607 2:-1.3 3:0.32438299 5:-1.3 6:0.50438303 7:0.28027675 8:-1.0202852 9:0.68020481 10:0.56054777 11:-0.74066603 12:0.85603017 13:0.29506147 14:-0.76656812 15:0.53861862 16:0.029571751 17:-0.79247063 18:0.22120969 21:0.17 24:0.34 25:0.10248081 26:-0.1640179 27:0.30633125 28:0.20495789 29:-0.3280324 30:0.2726641 31:0.17908743 32:-0.56629962 33:0.44830665 34:0.15321444 35:-0.80456412 36:0.6239478 #
-280.64702250272011951892636716366 2:-1.3 3:0.32438299 5:-1.3 6:0.50438303 7:0.042595398 8:-0.99023676 9:0.56942296 10:0.0851871 11:-0.68056005 12:0.63446146 13:-0.090783648 14:-0.71458387 15:0.7397728 16:-0.26675701 17:-0.74860662 18:0.84508163 21:0.17 24:0.34 25:-0.12688087 26:-0.094980478 27:0.23803458 28:-0.25376359 29:-0.18995789 30:0.13607088 31:-0.27525598 32:-0.25835145 33:0.56872833 34:-0.29674977 35:-0.32674372 36:1.0013869 #
10.30786924030759976744775485713 2:-1.3 3:0.32438299 5:-1.3 6:0.50438303 7:-0.15900572 8:-1.095191 9:0.29984173 10:-0.31800842 11:-0.8903051 12:0.09530066 13:-0.25407603 14:-0.84456301 15:0.57300556 16:-0.19014132 17:-0.79882061 18:1.0507115 21:0.17 24:0.34 25:-0.046441615 26:-0.072907202 27:0.27866998 28:-0.092884965 29:-0.14582336 30:0.21733117 31:-0.28355211 32:-0.37667963 33:0.60259986 34:-0.47422004 35:-0.60753977 36:0.9878664 #
16.688526225063494479172732098959 2:-1.3 3:0.32438299 5:-1.3 6:0.50438303 7:0.019539004 8:-1.2273548 9:0.58037603 10:0.039080694 11:-1.1544689 12:0.65636855 13:0.17194147 14:-0.88293689 15:0.48971179 16:0.30480549 17:-0.61139297 18:0.32305157 21:0.17 24:0.34 25:-0.066233754 26:-0.2701858 27:0.30345061 28:-0.13246509 29:-0.54037952 30:0.26688635 31:0.11446668 32:-0.56038749 33:0.41542774 34:0.36140263 35:-0.58040798 36:0.56396437 #
276.16725273438186150087858550251 2:-1.3 3:0.32438299 5:-1.3 6:0.50438303 7:0.16592062 8:-1.1073661 9:0.51799196 10:0.3318432 11:-0.91494119 12:0.53159857 13:0.43988672 14:-0.84201556 15:0.85215616 16:0.54793006 17:-0.76910245 18:1.1727177 21:0.17 24:0.34 25:0.0033844095 26:-0.068430282 27:0.34773755 28:0.0067677065 29:-0.13685644 30:0.35548577 31:0.12224561 32:-0.35262057 33:0.52828068 34:0.23772123 35:-0.56836832 36:0.70108134 #
145.90113776917098675767192617059 2:-1.3 3:0.32438299 5:-1.3 6:0.50438303 7:0.069352508 8:-1.025589 9:0.53669226 10:0.13870853 11:-0.75126505 12:0.56900114 13:-0.017437756 14:-0.59136939 15:0.54197657 16:-0.17358188 17:-0.43148026 18:0.51495498 21:0.17 24:0.34 25:0.28869706 26:-0.01477257 27:0.46764311 28:0.57739663 29:-0.029543003 30:0.59529227 31:0.63393068 32:-0.2008723 33:0.56250888 34:0.69046444 35:-0.3721987 36:0.5297274 #
271.615966828764555884845321998 2:-1.3 3:0.32438299 5:-1.3 6:0.50438303 7:0.028684184 8:-1.1307727 9:0.52372605 10:0.057371076 11:-0.96160406 12:0.54306638 13:-0.29117346 14:-0.71922356 15:0.71754855 16:-0.63971746 17:-0.47684437 18:0.89202935 21:0.17 24:0.34 25:-0.028089052 26:-0.23421007 27:0.47796425 28:-0.056174189 29:-0.46842012 30:0.61593187 31:0.063626155 32:-0.54989809 33:0.70674914 34:0.18342915 35:-0.63138288 36:0.79756719 #
111.12478883695951026311377063394 2:-1.3 3:0.32438299 5:-1.3 6:0.50438303 7:-0.23366976 8:-1.2306421 9:0.73301572 10:-0.46734539 11:-1.161582 12:0.96165043 13:-0.56298572 14:-1.1585354 15:0.65848339 16:-0.65862966 17:-1.1555061 18:0.35531664 21:0.17 24:0.34 25:-0.14259794 26:-0.083121866 27:0.21692365 28:-0.28519571 29:-0.16623607 30:0.093861416 31:-0.17448451 32:-0.44191861 33:0.067153387 34:-0.063773558 35:-0.71759099 36:0.040450457 #
363.50344722870926261748536489904 2:-1.3 3:0.32438299 5:-1.3 6:0.50438303 7:-0.10396528 8:-1.0717604 9:0.60626793 10:-0.20792925 11:-0.84357649 12:0.70815206 13:-0.0001395185 14:-0.79726553 15:0.7167539 16:0.20765097 17:-0.75095844 18:0.72535729 21:0.17 24:0.34 25:-0.01877908 26:0.021918237 27:0.49709961 28:-0.037556779 29:0.043834288 30:0.65420014 31:-0.35684329 32:-0.24290431 33:0.66987818 34:-0.67613 35:-0.52964324 36:0.68555599 #
9.0656808378498059397543329396285 2:-1.3 3:0.32438299 5:-1.3 6:0.50438303 7:0.14603668 8:-1.2661599 9:0.37529129 10:0.29207343 11:-1.23232 12:0.24619947 13:0.37341562 14:-1.1525584 15:0.39254233 16:0.45475739 17:-1.0727985 18:0.5388853 21:0.17 24:0.34 25:0.091373309 26:-0.15646456 27:0.40773055 28:0.18274988 29:-0.31292948 30:0.47546682 31:0.14603245 32:-0.49447688 33:0.54203212 34:0.10931703 35:-0.67602718 36:0.60859847 #
86.481622037339377584430621936917 2:-1.3 3:0.32438299 5:-1.3 6:0.50438303 7:0.028955728 8:-1.1992623 9:0.41985896 10:0.057915635 11:-1.0985867 12:0.33533484 13:0.1661384 14:-0.78687876 15:0.34889683 16:0.27436298 17:-0.4751752 18:0.36246404 21:0.17 24:0.34 25:0.1284543 26:-0.011487288 27:0.22609594 28:0.25690773 29:-0.022970794 30:0.11219519 31:0.29309556 32:-0.5209139 33:0.256024 34:0.32928091 35:-1.0188439 36:0.39985833 #
291.42493321997915245447074994445 2:-1.3 3:0.32438299 5:-1.3 6:0.50438303 7:-0.18607858 8:-1.2121176 9:0.59049743 10:-0.3721562 11:-1.1242403 12:0.67661434 13:-0.49078193 14:-0.99192619 15:0.69773102 16:-0.60940707 17:-0.85961574 18:0.71885067 21:0.17 24:0.34 25:-0.076446526 26:-0.25460079 27:0.36223423 28:-0.15289322 29:-0.50919884 30:0.38447207 31:-0.18552797 32:-0.38302079 33:0.69783759 34:-0.21816368 35:-0.25683689 36:1.0112033 #
163.37021435082615994360821787268 2:-1.3 3:0.32438299 5:-1.3 6:0.50438303 7:0.0050490061 8:-1.0517021 9:0.49581113 10:0.010099643 11:-0.80348688 12:0.48723796 13:-0.10160266 14:-0.63454545 15:0.61662543 16:-0.21330522 17:-0.46560618 18:0.7460131 21:0.17 24:0.34 25:-0.099550322 26:-0.19584587 27:0.21055156 28:-0.19909868 29:-0.39169201 30:0.081107825 31:-0.51945424 32:-0.59792107 33:0.26807439 34:-0.83980823 35:-0.80415136 36:0.45504209 #
154.62238110205308316835726145655 2:-1.3 3:0.32438299 5:-1.3 6:0.50438303 7:0.10591776 8:-0.95611417 9:0.38282663 10:0.21183525 11:-0.61227828 12:0.26126862 13:-0.091697372 14:-0.38852715 15:0.66287237 16:-0.39523119 17:-0.16477431 18:1.0644729 21:0.17 24:0.34 25:0.1587337 26:-0.13162675 27:0.74052578 28:0.31746733 29:-0.26325187 30:1.141052 31:0.30359688 32:-0.31888345 33:0.91639566 34:0.28972709 35:-0.37451604 36:0.69174027 #
215.50829344989489300132845528424 2:-1.3 3:0.32438299 5:-1.3 6:0.50438303 7:-0.038198043 8:-1.1088054 9:0.74037451 10:-0.076398186 11:-0.91764122 12:0.97636652 13:0.040125549 14:-1.0751033 15:1.0110835 16:0.15664795 17:-1.232568 18:1.0457997 21:0.17 24:0.34 25:0.037672721 26:-0.26391175 27:0.25722075 28:0.075343318 29:-0.52782071 30:0.17444126 31:0.20707402 32:-0.84135503 33:0.20330368 34:0.3388038 35:-1.1548856 36:0.23216657 #
119.29249393611873131249012658373 2:-1.3 3:0.32438299 5:-1.3 6:0.50438303 7:-0.078871824 8:-1.1298804 9:0.70103818 10:-0.15774374 11:-0.95976698 12:0.89769298 13:-0.25876734 14:-0.80253232 15:0.69053012 16:-0.35979161 17:-0.64529389 18:0.48336571 21:0.17 24:0.34 25:-0.013022776 26:-0.099117115 27:0.62471253 28:-0.02604292 29:-0.19823053 30:0.9094249 31:-0.27953783 32:-0.18558493 33:0.52573067 34:-0.53303117 35:-0.17293778 36:0.14203672 #
333.07016535556437020204612053931 2:-1.3 3:0.32438299 5:-1.3 6:0.50438303 7:0.0087676207 8:-1.1838726 9:0.62306881 10:0.017537653 11:-1.0676597 12:0.74175096 13:-0.03872418 14:-1.1748958 15:0.67609042 16:-0.09498439 17:-1.2821259 18:0.61042684 21:0.17 24:0.34 25:0.046489187 26:-0.10101721 27:0.31528607 28:0.092978619 29:-0.20204134 30:0.29056242 31:-0.042055693 32:-0.064213462 33:0.45342377 34:-0.17708868 35:0.073605366 36:0.61628276 #
-74.740021161293270779424346983433 2:-1.3 3:0.32438299 5:-1.3 6:0.50438303 7:-0.047626566 8:-1.1218456 9:0.50809658 10:-0.095254026 11:-0.94373024 12:0.51181108 13:0.0014850063 14:-1.1171199 15:0.89775342 16:0.098223433 17:-1.2905109 18:1.2836964 21:0.17 24:0.34 25:0.030623361 26:-0.13867162 27:0.60480952 28:0.061248731 29:-0.27734128 30:0.86962277 31:0.018556789 32:-0.29137054 33:0.68110114 34:-0.024134893 35:-0.30540141 36:0.49258065 #
172.87546425463750665585394017398 2:-1.3 3:0.32438299 5:-1.3 6:0.50438303 7:0.32672521 8:-1.3076671 9:0.7635656 10:0.65344751 11:-1.3156506 12:1.0227469 13:0.71826339 14:-1.0403836 15:0.94570166 16:0.78307611 17:-0.76512933 18:0.86865628 21:0.17 24:0.34 25:0.18484277 26:-0.37089133 27:0.4399083 28:0.3696824 29:-0.74178046 30:0.53982681 31:0.19051069 32:-0.57897341 33:0.50744629 34:0.011334638 35:-0.41616005 36:0.47506887 #
380.21885978482964674185495823622 2:-1.3 3:0.32438299 5:-1.3 6:0.50438303 7:-0.053297002 8:-1.2440193 9:0.32719046 10:-0.10659542 11:-1.1880324 12:0.14999762 13:-0.13578509 14:-0.8245132 15:0.26392522 16:-0.16497581 17:-0.46099541 18:0.37785339 21:0.17 24:0.34 25:-0.20372608 26:-0.095253825 27:0.39293754 28:-0.40745077 29:-0.19051187 30:0.44587433 31:-0.31704515 32:-0.4961302 33:0.54011095 34:-0.226639 35:-0.80175078 36:0.63434803 #
-179.40333926891517535295861307532 2:-1.3 3:0.32438299 5:-1.3 6:0.50438303 7:-0.0099011213 8:-1.3432182 9:0.60571289 10:-0.019803658 11:-1.386364 12:0.70704442 13:-0.18019296 14:-0.8892045 15:0.80243284 16:-0.340583 17:-0.39203906 18:0.89782208 21:0.17 24:0.34 25:-0.13108817 26:0.00097517198 27:0.44338217 28:-0.26217645 29:0.0019438302 30:0.54675972 31:-0.22274685 32:-0.36803523 33:0.73268837 34:-0.18331735 35:-0.73801881 36:0.918616 #
163.38902512698214763986470643431 2:-1.3 3:0.32438299 5:-1.3 6:0.50438303 7:-0.11923434 8:-1.0552862 9:0.52445292 10:-0.23846644 11:-0.81054074 12:0.54452181 13:-0.011610401 14:-0.71239835 15:0.46472675 16:0.21524785 17:-0.61425573 18:0.38493171 21:0.17 24:0.34 25:0.22849368 26:-0.10528829 27:0.45570868 28:0.45698825 29:-0.21057351 30:0.57142228 31:0.26174721 32:-0.5526768 33:0.79440117 34:0.066506796 35:-0.89478171 36:1.0173812 #
-143.86752893017578003309608902782 2:-1.3 3:0.32438299 5:-1.3 6:0.50438303 7:0.074691087 8:-1.1450305 9:0.51441324 10:0.14938042 11:-0.98987448 12:0.52444446 13:0.1569622 14:-0.74426872 15:0.76487613 16:0.16454226 17:-0.49865395 18:1.005304 21:0.17 24:0.34 25:0.089751914 26:-0.13248314 27:0.34845552 28:0.17951165 29:-0.26497781 30:0.35689792 31:0.25756851 32:-0.27364463 33:0.36326304 34:0.33562949 35:-0.28233421 36:0.3696225 #
96.029697010116976230165164452046 2:-1.3 3:0.32438299 5:-1.3 6:0.50438303 7:-0.40215668 8:-1.2239405 9:0.42126375 10:-0.80431217 11:-1.1478659 12:0.33814445 13:-0.22033925 14:-0.91297102 15:0.75135362 16:0.36363378 17:-0.67807704 18:1.1645641 21:0.17 24:0.34 25:-0.21119645 26:-0.03618715 27:0.59112632 28:-0.42239171 29:-0.07237573 30:0.84224916 31:-0.10814402 32:-0.44691214 33:0.54343349 34:0.20610437 35:-0.82144976 36:0.24461691 #
-146.67338641571706148170051164925 2:-1.3 3:0.32438299 5:-1.3 6:0.50438303 7:-0.020137373 8:-1.1497366 9:0.63619292 10:-0.040267408 11:-0.99951398 12:0.7680003 13:-0.068842463 14:-0.70764667 15:0.80861807 16:-0.097411573 17:-0.41578022 18:0.84924018 21:0.17 24:0.34 25:0.16446011 26:-0.053202696 27:0.462497 28:0.32892027 29:-0.10640626 30:0.58499861 31:0.083801188 32:-0.36803615 33:0.67993671 34:-0.16131832 35:-0.62966824 36:0.77487397 #
5.8024528102407089136249851435423 2:-1.3 3:0.32438299 5:-1.3 6:0.50438303 7:0.33524352 8:-1.2281352 9:0.55152744 10:0.67048538 11:-1.1559741 12:0.59867358 13:0.53186017 14:-1.0449169 15:0.59879982 16:0.39323384 17:-0.93384695 18:0.59892261 21:0.17 24:0.34 25:0.083075374 26:-0.13845555 27:0.58253443 28:0.16615126 29:-0.27691865 30:0.82504958 31:0.27178711 32:-0.50651348 33:0.8194446 34:0.37742478 35:-0.7361201 36:0.81383443 #
-544.45905391014821361750364303589 2:-1.3 3:0.32438299 5:-1.3 6:0.50438303 7:0.075564794 8:-1.0639502 9:0.53930849 10:0.15112993 11:-0.82798761 12:0.5742324 13:0.30133113 14:-0.63286632 15:0.57012546 16:0.45153102 17:-0.43775031 18:0.56601989 21:0.17 24:0.34 25:0.086590648 26:-0.12158702 27:0.34440887 28:0.17318396 29:-0.24317215 30:0.3488265 31:-0.021182902 32:-0.42011267 33:0.33842066 34:-0.21554771 35:-0.59704465 36:0.32801872 #
333.69253557850646529914229176939 2:-1.3 3:0.32438299 5:-1.3 6:0.50438303 7:-0.11357345 8:-1.191553 9:0.57342941 10:-0.2271335 11:-1.083069 12:0.64247608 13:0.032141123 14:-0.95631933 15:0.56387156 16:0.29142728 17:-0.82957643 18:0.48527816 21:0.17 24:0.34 25:-0.17993712 26:-0.1465074 27:0.43231079 28:-0.35986918 29:-0.29301721 30:0.52462178 31:-0.23779699 32:-0.32133451 33:0.50214756 34:-0.11572514 35:-0.34966484 36:0.47966802 #
180.50324628950286864892404992133 2:-1.3 3:0.32438299 5:-1.3 6:0.50438303 7:0.098485962 8:-1.135466 9:0.57459474 10:0.19696964 11:-0.97084016 12:0.64480972 13:0.39087197 14:-0.83705676 15:0.47151065 16:0.58477414 17:-0.7032665 18:0.29821172 21:0.17 24:0.34 25:0.092730537 26:-0.068667613 27:0.38784799 28:0.18545644 29:-0.13733646 30:0.43569595 31:0.36789119 32:-0.18124923 33:0.70659983 34:0.55032378 35:-0.22516946 36:0.97750187 #
-2.5241811500394955025683429994388 2:-1.3 3:0.32438299 5:-1.3 6:0.50438303 7:0.034237638 8:-1.4288045 9:0.79389644 10:0.068474129 11:-1.5575086 12:1.0834132 13:-0.012619587 14:-1.3313123 15:0.94168037 16:-0.093714572 17:-1.1051097 18:0.79994828 21:0.17 24:0.34 25:-0.095206343 26:-0.079971597 27:0.45953706 28:-0.1904137 29:-0.15994392 30:0.57906818 31:-0.030010162 32:-0.32020995 33:0.54897475 34:0.13039346 35:-0.48047569 36:0.51888096 #
123.51899436033674817281280411407 2:-1.3 3:0.32438299 5:-1.3 6:0.50438303 7:-0.090076968 8:-1.1322236 9:0.43636805 10:-0.18014325 11:-0.96438628 12:0.36835378 13:-0.36814442 14:-0.66127384 15:0.47640008 16:-0.55613601 17:-0.35816103 18:0.58445382 21:0.17 24:0.34 25:-0.14718351 26:0.03127715 27:0.33435157 28:-0.29436731 29:0.062546983 30:0.32869729 31:-0.36930305 32:-0.31623149 33:0.35449681 34:-0.44423959 35:-0.69501954 36:0.38029051 #
-20.448428363622241477060015313327 2:-1.3 3:0.32438299 5:-1.3 6:0.50438303 7:-0.10532756 8:-1.1535389 9:0.40351182 10:-0.21064939 11:-1.0071837 12:0.30263701 13:-0.092260353 14:-0.78691018 15:0.41788009 16:0.026132829 17:-0.56664872 18:0.53312814 21:0.17 24:0.34 25:0.18294659 26:-0.032360256 27:0.52326876 28:0.36589709 29:-0.064721584 30:0.7065438 31:0.078554675 32:-0.24348173 33:0.47944391 34:-0.20878671 35:-0.42224595 36:0.25234491 #
59.712555036753556692019628826529 2:-1.3 3:0.32438299 5:-1.3 6:0.50438303 7:0.052354258 8:-1.1045496 9:0.45523676 10:0.10469618 11:-0.909033 12:0.40609199 13:-0.00064234319 14:-0.72437191 15:0.362928 16:-0.10599281 17:-0.53969938 18:0.31975418 21:0.17 24:0.34 25:-0.25193402 26:0.11342965 27:0.48021725 28:-0.50386763 29:0.22686155 30:0.6204356 31:-0.26815006 32:-0.10119697 33:0.60431975 34:-0.032429826 35:-0.4292452 36:0.58820915 #
-599.99409426987313054269179701805 2:-1.3 3:0.32438299 5:-1.3 6:0.50438303 7:0.020162387 8:-1.2356054 9:0.69154054 10:0.040333331 11:-1.1710795 12:0.87869537 13:0.044949967 14:-0.77001143 15:0.45279357 16:0.049574457 17:-0.36893836 18:0.026892144 21:0.17 24:0.34 25:-0.14631628 26:-0.18442075 27:0.35882631 28:-0.29262751 29:-0.36885658 30:0.3776384 31:-0.1123939 32:-0.62750566 33:0.25011596 34:0.067844771 35:-0.8861686 36:0.12258825 #
63.967308713874274417321430519223 2:-1.3 3:0.32438299 5:-1.3 6:0.50438303 7:-0.075510919 8:-0.98669231 9:0.53886652 10:-0.15102816 11:-0.67320257 12:0.57335246 13:-0.15662739 14:-0.49981657 15:0.28726572 16:-0.16223128 17:-0.32641655 18:0.0011720947 21:0.17 24:0.34 25:0.13253963 26:-0.18936019 27:0.36210895 28:0.26507637 29:-0.37872055 30:0.38420609 31:0.063986413 32:-0.47127733 33:0.37408927 34:-0.13710359 35:-0.56383538 36:0.36397243 #
-101.53009869620085225960792740807 2:-1.3 3:0.32438299 5:-1.3 6:0.50438303 7:-0.13038613 8:-1.374476 9:0.57332462 10:-0.26076669 11:-1.4487721 12:0.6422646 13:-0.38479158 14:-1.1894114 15:0.59492821 16:-0.50881141 17:-0.93003982 18:0.54759324 21:0.17 24:0.34 25:-0.036217257 26:-0.2144907 27:0.41810539 28:-0.072433323 29:-0.42898285 30:0.49620417 31:-0.13077579 32:-0.66186297 33:0.57204103 34:-0.18911761 35:-0.89475083 36:0.64787519 #
-122.26413862879020655327622080222 2:-1.3 3:0.32438299 5:-1.3 6:0.50438303 7:-0.17205805 8:-1.092919 9:0.44892532 10:-0.34411466 11:-0.88575613 12:0.39346671 13:-0.23941441 14:-0.57532281 15:0.50530034 16:-0.1347107 17:-0.26488861 18:0.61713475 21:0.17 24:0.34 25:-0.0041380594 26:-0.14667787 27:0.1515878 28:-0.0082761021 29:-0.29336008 30:-0.036823288 31:0.050101958 32:-0.38974783 33:0.42001945 34:0.10847857 35:-0.48613951 36:0.87686265 #
107.69666052735780681359756272286 2:-1.3 3:0.32438299 5:-1.3 6:0.50438303 7:0.033603791 8:-1.0484041 9:0.59433979 10:0.067201965 11:-0.79662025 12:0.68429768 13:0.038004741 14:-0.65809208 15:0.67366874 16:0.0088023525 17:-0.5195604 18:0.66303545 21:0.17 24:0.34 25:0.056466028 26:-0.26450193 27:0.45630366 28:0.11293656 29:-0.52900779 30:0.57259423 31:0.027183462 32:-0.35737088 33:0.94233662 34:-0.058566526 35:-0.18573964 36:1.3120792 #
93.594591525688798583360039629042 2:-1.3 3:0.32438299 5:-1.3 6:0.50438303 7:0.086741999 8:-0.97291595 9:0.39051417 10:0.17348747 11:-0.64582878 12:0.27664489 13:0.13584155 14:-0.67988873 15:0.53041226 16:0.098199926 17:-0.71394545 18:0.78418201 21:0.17 24:0.34 25:-0.082117751 26:-0.12088792 27:0.55533618 28:-0.16423598 29:-0.24177225 30:0.77067655 31:-0.060687661 32:-0.49725896 33:0.87389332 34:0.042860202 35:-0.75275165 36:0.97710747 #
-234.29167794651732492638984695077 2:-1.3 3:0.32438299 5:-1.3 6:0.50438303 7:-0.10293963 8:-1.2485245 9:0.63602185 10:-0.20588066 11:-1.1968771 12:0.76766425 13:0.020589035 14:-1.0245504 15:0.87054032 16:0.24705711 17:-0.85220861 18:0.97341496 21:0.17 24:0.34 25:0.099696212 26:-0.14112505 27:0.53608721 28:0.19938876 29:-0.28225204 30:0.73216653 31:-0.041578203 32:-0.57234186 33:0.83896208 34:-0.28254578 35:-0.86243463 36:0.94575751 #
166.56969587366873497558117378503 2:-1.3 3:0.32438299 5:-1.3 6:0.50438303 7:-0.046721432 8:-1.184569 9:0.86099088 10:-0.093443051 11:-1.0691913 12:1.2175978 13:-0.17194176 14:-1.0688517 15:0.97665286 16:-0.25044051 17:-1.0685154 18:0.73570663 21:0.17 24:0.34 25:-0.020230068 26:-0.16329812 27:0.35394314 28:-0.040459603 29:-0.3265928 30:0.36789125 31:-0.19758718 32:-0.50250989 33:0.57235879 34:-0.3547157 35:-0.67842603 36:0.77682716 #
168.4660959747172341849363874644 2:-1.3 3:0.32438299 5:-1.3 6:0.50438303 7:-0.098396771 8:-1.2416104 9:0.48916844 10:-0.19679452 11:-1.183295 12:0.47395402 13:-0.27586231 14:-0.8215785 15:0.35337028 16:-0.35492983 17:-0.45986891 18:0.23278819 21:0.17 24:0.34 25:-0.019197226 26:-0.28823408 27:0.39213094 28:-0.03839286 29:-0.5764643 30:0.44426933 31:-0.25677189 32:-0.52617794 33:0.29391769 34:-0.47515073 35:-0.47588703 36:0.14356615 #
177.4340656659315982324187643826 2:-1.3 3:0.32438299 5:-1.3 6:0.50438303 7:0.015146399 8:-1.1382102 9:0.37351778 10:0.030292928 11:-0.97655773 12:0.24265334 13:0.021032549 14:-0.79240137 15:0.18135294 16:0.011771574 17:-0.60824418 18:0.12005442 21:0.17 24:0.34 25:0.093331419 26:-0.12595288 27:0.4222219 28:0.18666166 29:-0.25190541 30:0.50446063 31:0.28023955 32:-0.39659202 33:0.66896254 34:0.3738142 35:-0.54127872 36:0.83346575 #
268.43346755646376777804107405245 2:-1.3 3:0.32438299 5:-1.3 6:0.50438303 7:0.11005441 8:-1.0884019 9:0.61462492 10:0.22009772 11:-0.87703717 12:0.72486663 13:0.1620777 14:-0.71646434 15:0.66167682 16:0.10404607 17:-0.55589527 18:0.59848136 21:0.17 24:0.34 25:-0.16484687 26:-0.036354188 27:0.5473572 28:-0.32969517 29:-0.072684228 30:0.75474292 31:-0.16207851 32:-0.38212568 33:0.67236727 34:0.005535875 35:-0.69154781 36:0.59000564 #
75.057373869140917577169602736831 2:-1.3 3:0.32438299 5:-1.3 6:0.50438303 7:-0.1756258 8:-1.0918026 9:0.49594054 10:-0.35125908 11:-0.88378066 12:0.48750031 13:-0.13738255 14:-0.65944099 15:0.35759401 16:0.076486073 17:-0.43510762 18:0.22768581 21:0.17 24:0.34 25:-0.20550193 26:-0.092388138 27:0.2010974 28:-0.41100466 29:-0.18476477 30:0.062207989 31:-0.21743192 32:-0.35130325 33:0.18905681 34:-0.023859516 35:-0.51782542 36:0.31591317 #
-359.18049595789017303104628808796 2:-1.3 3:0.32438299 5:-1.3 6:0.50438303 7:0.071736775 8:-0.88232589 9:0.5482868 10:0.14347441 11:-0.46469975 12:0.59218824 13:-0.289305 14:-0.73852956 15:0.87455899 16:-0.72208387 17:-1.0123618 18:1.1569293 21:0.17 24:0.34 25:-0.10362446 26:-0.19108447 27:0.2123999 28:-0.2072472 29:-0.38217106 30:0.084801719 31:0.11079282 32:-0.51401114 33:0.19415748 34:0.42883405 35:-0.64585501 36:0.30351365 #
-44.357947947392545984257594682276 2:-1.3 3:0.32438299 5:-1.3 6:0.50438303 7:0.44931427 8:-1.2180498 9:0.70134401 10:0.89863676 11:-1.1359785 12:0.898305 13:1.1669844 14:-0.81572628 15:0.78165776 16:1.4353405 17:-0.49547273 18:0.66501641 21:0.17 24:0.34 25:0.26815248 26:-0.078400202 27:0.36300415 28:0.53630799 29:-0.15682168 30:0.3859885 31:0.60607713 32:-0.29433239 33:0.63886958 34:0.67584932 35:-0.43185624 36:0.89174098 #
-248.20153933197013884637271985412 2:-1.3 3:0.32438299 5:-1.3 6:0.50438303 7:-0.011343798 8:-0.96650058 9:0.66680217 10:-0.022688659 11:-0.63308048 12:0.82922071 13:-0.046697047 14:-0.54395306 15:0.89715928 16:-0.070708267 17:-0.45483184 18:0.96509778 21:0.17 24:0.34 25:-0.067193352 26:-0.3401072 27:0.59599221 28:-0.13438442 29:-0.68020225 30:0.85198909 31:-0.22187155 32:-0.91697043 33:0.97427773 34:-0.30935702 35:-1.1537277 36:1.0965723 #
141.98641051901736886975413654 2:-1.3 3:0.32438299 5:-1.3 6:0.50438303 7:0.12430374 8:-1.211485 9:0.65240312 10:0.24860138 11:-1.1231793 12:0.80042684 13:0.37011477 14:-0.9052549 15:1.0024136 16:0.49162084 17:-0.68734509 18:1.2044015 21:0.17 24:0.34 25:0.093775973 26:0.021595847 27:0.6119628 28:0.18754824 29:0.043201279 30:0.88393283 31:0.32771578 32:-0.16639434 33:0.85610551 34:0.4678812 35:-0.37596875 36:0.82828277 #
91.936970859012220103068102616817 2:-1.3 3:0.32438299 5:-1.3 6:0.50438303 7:0.075677879 8:-1.1525313 9:0.85435319 10:0.15134735 11:-1.0052991 12:1.2043208 13:0.13868386 14:-1.0485017 15:1.1122904 16:0.12601128 17:-1.0917042 18:1.0202518 21:0.17 24:0.34 25:-0.1592014 26:-0.24484335 27:0.39082503 28:-0.31840366 29:-0.48966569 30:0.44167858 31:-0.58720064 32:-0.74707359 33:0.30105078 34:-0.85599828 35:-1.004475 36:0.16043392 #
-18.442940358161163061367915361188 2:-1.3 3:0.32438299 5:-1.3 6:0.50438303 7:-0.2757051 8:-1.0996947 9:0.55093795 10:-0.55142432 11:-0.89978707 12:0.59749627 13:-0.13912365 14:-0.59634578 15:0.24141382 16:0.27316177 17:-0.2929168 18:-0.11467271 21:0.17 24:0.34 25:-0.31756267 26:-0.040139638 27:0.084436826 28:-0.63512576 29:-0.080254346 30:-0.17109425 31:-0.28005153 32:-0.30255929 33:-0.041915167 34:0.075022407 35:-0.52483135 36:0.087280035 #
110.07507758472576142594334669411 2:-1.3 3:0.32438299 5:-1.3 6:0.50438303 7:-0.056897644 8:-1.014659 9:0.61535114 10:-0.11381821 11:-0.72942358 12:0.72632587 13:-0.0017949948 14:-0.73243684 15:0.49738422 16:0.11021035 17:-0.73543644 18:0.26842931 21:0.17 24:0.34 25:0.1353319 26:-0.11212635 27:0.52225167 28:0.2706579 29:-0.22422569 30:0.70452654 31:0.28924856 32:-0.40690684 33:0.47464174 34:0.30783749 35:-0.5895713 36:0.24476962 #
99.608883745860723024634353350848 2:-1.3 3:0.32438299 5:-1.3 6:0.50438303 7:-0.28151977 8:-1.0228878 9:0.54892331 10:-0.56303269 11:-0.74603719 12:0.59345865 13:-0.10490666 14:-0.78188574 15:0.68148869 16:0.35322431 17:-0.81774312 18:0.76952606 21:0.17 24:0.34 25:0.091410853 26:-0.14619188 27:0.53543955 28:0.18282205 29:-0.29236594 30:0.73090869 31:0.15361817 32:-0.2595627 33:0.81808066 34:0.1244085 35:-0.22674529 36:0.90526104 #
-23.608424466460817825463891495019 2:-1.3 3:0.32438299 5:-1.3 6:0.50438303 7:0.15505324 8:-1.4524113 9:0.53035098 10:0.31010875 11:-1.6043745 12:0.5563184 13:0.30555326 14:-1.0155561 15:0.41157052 16:0.3010003 17:-0.42671311 18:0.2668137 21:0.17 24:0.34 25:-0.19882002 26:-0.31082785 27:0.2351117 28:-0.39763674 29:-0.62166363 30:0.130202 31:0.12283235 32:-0.54129946 33:0.34377155 34:0.64330912 35:-0.46095151 36:0.55733657 #
72.846999572749552953609963878989 2:-1.3 3:0.32438299 5:-1.3 6:0.50438303 7:-0.012477837 8:-0.92835325 9:0.60731649 10:-0.024963133 11:-0.55675489 12:0.71025151 13:-0.0081370072 14:-0.4214479 15:0.8967095 16:0.0086791534 17:-0.28614914 18:1.0831641 21:0.17 24:0.34 25:-0.10907324 26:-0.43674305 27:0.75012898 28:-0.21813859 29:-0.87346011 30:1.1602603 31:-0.27133095 32:-1.1898345 33:1.2459961 34:-0.32451433 35:-1.5061846 36:1.3317453 #
-727.03961887858417867391835898161 2:-1.3 3:0.32438299 5:-1.3 6:0.50438303 7:0.18469235 8:-1.1013746 9:0.44099948 10:0.36937726 11:-0.90266448 12:0.37761924 13:0.28194347 14:-0.67892104 15:0.39174506 16:0.19450583 17:-0.45516062 18:0.40586463 21:0.17 24:0.34 25:0.091024257 26:-0.22915898 27:0.30699432 28:0.18204023 29:-0.45832381 30:0.27397656 31:0.058222026 32:-0.39714974 33:0.58131623 34:-0.065602742 35:-0.33598652 36:0.88865387 #
121.84823082653826986643252894282 2:-1.3 3:0.32438299 5:-1.3 6:0.50438303 7:0.13024183 8:-1.0979382 9:0.57565159 10:0.26047987 11:-0.89580101 12:0.64692086 13:0.093772918 14:-0.63355339 15:0.60660702 16:-0.072936699 17:-0.3713176 18:0.56629068 21:0.17 24:0.34 25:0.049945176 26:-0.089318186 27:0.3027859 28:0.099882782 29:-0.17864496 30:0.26553875 31:0.40817538 32:-0.43632773 33:0.42234743 34:0.7164675 35:-0.69399011 36:0.57915008 #
-148.20234087439553150034043937922 2:-1.3 3:0.32438299 5:-1.3 6:0.50438303 7:0.093888886 8:-0.8625406 9:0.47444877 10:0.1877802 11:-0.42502084 12:0.44451365 13:0.36195704 14:-0.39761144 15:0.65232199 16:0.53613502 17:-0.3702018 18:0.86013079 21:0.17 24:0.34 25:0.012285484 26:-0.19519791 27:0.4917556 28:0.024573063 29:-0.39040455 30:0.64349461 31:0.20243855 32:-0.29792222 33:0.76221424 34:0.38030428 35:-0.20544648 36:0.88093138 #
178.04152057120720087368681561202 2:-1.3 3:0.32438299 5:-1.3 6:0.50438303 7:-0.11715898 8:-1.1227126 9:0.58955961 10:-0.23433563 11:-0.94524139 12:0.67473787 13:-0.22462353 14:-0.76189715 15:0.73695219 16:-0.21492752 17:-0.57853401 18:0.79914683 21:0.17 24:0.34 25:-0.26508355 26:-0.1069004 27:0.45144573 28:-0.53017265 29:-0.21380043 30:0.56287819 31:-0.49661401 32:-0.29029673 33:0.68846053 34:-0.46305177 35:-0.36678278 36:0.8140493 #
-301.35350034146335929108317941427 2:-1.3 3:0.32438299 5:-1.3 6:0.50438303 7:-0.039906498 8:-1.1386583 9:0.59481287 10:-0.079817615 11:-0.97736156 12:0.68524432 13:0.075955331 14:-0.66647887 15:0.52881306 16:0.23172387 17:-0.35560018 18:0.37238187 21:0.17 24:0.34 25:-0.10546105 26:-0.25168142 27:0.24033196 28:-0.21092336 29:-0.50335991 30:0.1406675 31:-0.67522478 32:-0.22139913 33:0.43023574 34:-1.1395251 35:0.060566172 36:0.71980661 #
37.357554802046529118797479895875 2:-1.3 3:0.32438299 5:-1.3 6:0.50438303 7:0.026907943 8:-1.0345986 9:0.60974795 10:0.053811722 11:-0.76965994 12:0.71510977 13:0.22368106 14:-0.59474665 15:0.71948528 16:0.39354715 17:-0.4198308 18:0.72385848 21:0.17 24:0.34 25:-0.019683206 26:-0.17388882 27:0.27153531 28:-0.039380204 29:-0.34776515 30:0.20310678 31:-0.073483974 32:-0.092772543 33:0.53243196 34:-0.1075965 35:0.16224597 36:0.86177033 #
-196.55524658142240923552890308201 2:-1.3 3:0.32438299 5:-1.3 6:0.50438303 7:-0.14915806 8:-1.1074461 9:0.65036565 10:-0.29831901 11:-0.91479337 12:0.79634702 13:-0.12730004 14:-0.82967728 15:0.92033827 16:0.043713015 17:-0.74456173 18:1.0443259 21:0.17 24:0.34 25:0.06961263 26:-0.17665137 27:0.49416625 28:0.13921514 29:-0.35328799 30:0.64833921 31:0.051062088 32:-0.52238029 33:0.39121911 34:-0.03709279 35:-0.69144654 36:0.13410866 #
27.1531785332947102062917110743 2:-1.3 3:0.32438299 5:-1.3 6:0.50438303 7:-0.087037481 8:-0.97747254 9:0.60890967 10:-0.17408679 11:-0.65471661 12:0.71344006 13:-0.25343159 14:-0.71974856 15:0.6239292 16:-0.33278579 17:-0.78475338 18:0.53440428 21:0.17 24:0.34 25:0.083244421 26:-0.30900538 27:0.38245475 28:0.16647737 29:-0.61800379 30:0.42489806 31:-0.15589266 32:-0.58109939 33:0.3357195 34:-0.47826576 35:-0.54419881 36:0.24654424 #
-184.61735660382919377298094332218 2:-1.3 3:0.32438299 5:-1.3 6:0.50438303 7:0.2096066 8:-1.1623951 9:0.29552662 10:0.41921797 11:-1.0251218 12:0.086668313 13:0.31226918 14:-0.94547129 15:-0.015962567 16:0.20532054 17:-0.86583078 18:-0.11858318 21:0.17 24:0.34 25:0.057642072 26:-0.16990514 27:0.32346782 28:0.11529282 29:-0.33981428 30:0.30697846 31:0.30556536 32:-0.36722425 33:0.6863457 34:0.49583676 35:-0.39463446 36:1.0657176 #
-15.15910661735546582917777413968 2:-1.3 3:0.32438299 5:-1.3 6:0.50438303 7:0.0059871967 8:-1.1800474 9:0.47681895 10:0.011977474 11:-1.0596809 12:0.4492532 13:-0.10521294 14:-0.88832325 15:0.31877485 16:-0.22239679 17:-0.71694744 18:0.18828915 21:0.17 24:0.34 25:-0.13996804 26:-0.37027261 27:0.32272166 28:-0.27993587 29:-0.74055833 30:0.30540681 31:0.093985438 32:-0.84476519 33:0.43826175 34:0.46790963 35:-0.94899487 36:0.57110739 #
225.66480101548464176630659494549 2:-1.3 3:0.32438299 5:-1.3 6:0.50438303 7:0.12995742 8:-1.1074824 9:0.59510207 10:0.25990093 11:-0.91509473 12:0.68581945 13:0.079289801 14:-0.70270842 15:0.73266661 16:-0.1013373 17:-0.49033108 18:0.77950454 21:0.17 24:0.34 25:-0.20029582 26:-0.048762616 27:0.60211694 28:-0.40058979 29:-0.097493991 30:0.86426055 31:-0.32414508 32:-0.099804163 33:0.96035951 34:-0.24769579 35:-0.10207697 36:1.0564798 #
1215.3399120953520196053432300687 2:-1.3 3:0.32438299 5:-1.3 6:0.50438303 7:0.051945936 8:-1.1326253 9:0.51872873 10:0.10391351 11:-0.96512818 12:0.53306806 13:-0.018802831 14:-0.82251793 15:0.45944244 16:-0.14149709 17:-0.67992443 18:0.38582885 21:0.17 24:0.34 25:-0.054571513 26:-0.1319097 27:0.48127005 28:-0.1091329 29:-0.26383698 30:0.62251341 31:-0.26883107 32:-0.40497893 33:0.70942628 34:-0.42851853 35:-0.54613578 36:0.79632437 #
563.49395063521012616547523066401 2:-1.3 3:0.32438299 5:-1.3 6:0.50438303 7:0.010564535 8:-1.0205263 9:0.49987146 10:0.021069236 11:-0.74108356 12:0.49538344 13:-0.23345987 14:-0.66837788 15:0.5202806 16:-0.4880439 17:-0.59562272 18:0.54514265 21:0.17 24:0.34 25:0.015803564 26:-0.036329091 27:0.55257195 28:0.031579208 29:-0.072630696 30:0.76516253 31:-0.1287405 32:-0.38415152 33:0.51030248 34:-0.28908291 35:-0.69562125 36:0.25546271 #
110.32024874521701462981582153589 2:-1.3 3:0.32438299 5:-1.3 6:0.50438303 7:-0.057914115 8:-1.0785584 9:0.33506835 10:-0.1158312 11:-0.85708618 12:0.16575474 13:0.11592051 14:-0.83583462 15:0.54433733 16:0.34766793 17:-0.81458193 18:0.92292053 21:0.17 24:0.34 25:0.011661517 26:-0.15365194 27:0.32622662 28:0.023326917 29:-0.307307 30:0.31244364 31:0.48531839 32:-0.45952255 33:0.44169325 34:0.9473111 35:-0.61173385 36:0.57094526 #
211.15719318130149417811480816454 2:-1.3 3:0.32438299 5:-1.3 6:0.50438303 7:-0.14571303 8:-1.2116635 9:0.53066391 10:-0.29136726 11:-1.1229951 12:0.55693007 13:-0.31815916 14:-0.90986818 15:0.48863086 16:-0.34489536 17:-0.69678885 18:0.42036867 21:0.17 24:0.34 25:0.035376616 26:-0.10398146 27:0.44497624 28:0.070783481 29:-0.20799796 30:0.54989421 31:0.057781905 32:-0.50812608 33:0.57245588 34:0.044811521 35:-0.80829412 36:0.59498596 #
-74.070790185434930208430159837008 2:-1.3 3:0.32438299 5:-1.3 6:0.50438303 7:0.026858276 8:-0.9454751 9:0.31660691 10:0.053757448 11:-0.59097463 12:0.1288166 13:-0.36695933 14:-0.64115787 15:-0.026012726 16:-0.78764051 17:-0.69138616 18:-0.18081377 21:0.17 24:0.34 25:-0.09594281 26:-0.32583591 27:0.1415505 28:-0.19186364 29:-0.65167898 30:-0.056913592 31:-0.31062594 32:-1.1306885 33:-0.15807323 34:-0.42936617 35:-1.6097107 36:-0.25924402 #
-40.157631912132643492441275157034 2:-1.3 3:0.32438299 5:-1.3 6:0.50438303 7:-0.02866088 8:-1.504918 9:0.96188849 10:-0.057385903 11:-1.7099197 12:1.4194183 13:-0.1089913 14:-1.4870536 15:1.0445524 16:-0.16065715 17:-1.2641212 18:0.66964716 21:0.17 24:0.34 25:-0.1204831 26:-0.10458981 27:0.53393894 28:-0.24100034 29:-0.20914683 30:0.72792375 31:0.059146654 32:-0.2659606 33:0.4032287 34:0.35925829 35:-0.32273662 36:0.078561723 #
35.238962528912054494867334142327 2:-1.3 3:0.32438299 5:-1.3 6:0.50438303 7:-0.096638821 8:-1.1811091 9:0.37329027 10:-0.19324021 11:-1.0619854 12:0.24218823 13:-0.38000941 14:-1.0172656 15:0.45297945 16:-0.56674272 17:-0.97256953 18:0.66379207 21:0.17 24:0.34 25:-0.076322734 26:-0.1694876 27:0.07489533 28:-0.15263164 29:-0.33900213 30:-0.19024581 31:-0.22172002 32:-0.30042633 33:0.28660285 34:-0.29079401 35:-0.26187778 36:0.76343012 #
-64.559500100973366443213308230042 2:-1.3 3:0.32438299 5:-1.3 6:0.50438303 7:0.048300937 8:-1.0607086 9:0.24797083 10:0.096606024 11:-0.82140851 12:-0.0084390705 13:0.10601005 14:-0.81002671 15:0.006704519 16:0.11541902 17:-0.79863423 18:0.021850128 21:0.17 24:0.34 25:0.1013078 26:0.027900852 27:0.49229679 28:0.20260644 29:0.055791318 30:0.64460754 31:0.34015593 32:-0.36305869 33:0.9677605 34:0.4776974 35:-0.78192222 36:1.2909081 #
148.1360086479860456165624782443 2:-1.3 3:0.32438299 5:-1.3 6:0.50438303 7:-0.24247774 8:-1.1202201 9:0.44289729 10:-0.48513103 11:-0.94163799 12:0.38144973 13:-0.41823286 14:-0.84749883 15:0.48731461 16:-0.35150257 17:-0.7532106 18:0.59306121 21:0.17 24:0.34 25:-0.15340571 26:-0.27345529 27:0.51416117 28:-0.30690438 29:-0.54680693 30:0.68850875 31:-0.26674595 32:-0.63833368 33:0.59580237 34:-0.22668502 35:-0.72973055 36:0.50319505 #
170.31662317830762276571476832032 2:-1.3 3:0.32438299 5:-1.3 6:0.50438303 7:0.03053892 8:-1.2734213 9:0.71143067 10:0.061076574 11:-1.2462111 12:0.91847891 13:0.049529687 14:-0.78210396 15:0.25969964 16:0.037985124 17:-0.31795722 18:-0.39909458 21:0.17 24:0.34 25:-0.34830651 26:-0.12181307 27:0.23983391 28:-0.69661295 29:-0.24366279 30:0.13961129 31:-0.29824615 32:-0.55794221 33:0.042672943 34:0.1001251 35:-0.87225461 36:-0.05427656 #
34.136770683484726873757608700544 2:-1.3 3:0.32438299 5:-1.3 6:0.50438303 7:-0.21571505 8:-1.2517701 9:0.37193465 10:-0.43118203 11:-1.2023165 12:0.23942579 13:-0.51143378 14:-1.098532 15:0.460309 16:-0.59145325 17:-0.99497086 18:0.68136501 21:0.17 24:0.34 25:-0.16304784 26:-0.078512825 27:0.37135428 28:-0.32596534 29:-0.15715812 30:0.40249857 31:-0.28672153 32:-0.34686118 33:0.36636764 34:-0.24735381 35:-0.53674853 36:0.33010972 #
-57.210900989773669778060138924047 2:-1.3 3:0.32438299 5:-1.3 6:0.50438303 7:0.17879988 8:-1.2656152 9:0.67136526 10:0.35761443 11:-1.2312127 12:0.83834398 13:0.4396404 14:-1.2276564 15:0.59307855 16:0.52167791 17:-1.2241126 18:0.34782094 21:0.17 24:0.34 25:0.01911936 26:-0.19530986 27:0.34454075 28:0.038245756 29:-0.39063397 30:0.34906918 31:0.16053541 32:-0.60336196 33:0.31557569 34:0.28283018 35:-0.81610072 36:0.28207496 #
316.57461737043865923624252900481 2:-1.3 3:0.32438299 5:-1.3 6:0.50438303 7:-0.070014015 8:-1.1001812 9:0.49052727 10:-0.14013918 11:-0.90090114 12:0.47670513 13:-0.31802881 14:-0.81969023 15:0.37506241 16:-0.496021 17:-0.7383669 18:0.27334809 21:0.17 24:0.34 25:-0.24768792 26:-0.091401502 27:0.25144595 28:-0.49544114 29:-0.18274753 30:0.16299088 31:-0.35775298 32:-0.2495008 33:0.47380164 34:-0.22013235 35:-0.3161844 36:0.78466654 #
-231.23146355990300548910454381257 2:-1.3 3:0.32438299 5:-1.3 6:0.50438303 7:-0.041131746 8:-1.0413382 9:0.40615875 10:-0.082353078 11:-0.78277296 12:0.30797121 13:-0.072878033 14:-0.70772904 15:0.54250687 16:-0.063485712 17:-0.63260329 18:0.77699208 21:0.17 24:0.34 25:0.14699751 26:-0.089421488 27:0.34589866 28:0.29394472 29:-0.1787914 30:0.35185516 31:0.18642537 32:-0.3457512 33:0.46864077 34:0.078854732 35:-0.51265877 36:0.58547264 #
-119.30699234879304526657506357878 2:-1.3 3:0.32438299 5:-1.3 6:0.50438303 7:-0.17401816 8:-1.133393 9:0.56818533 10:-0.34807456 11:-0.96680754 12:0.63200349 13:-0.61450213 14:-0.7292276 15:0.67546266 16:-0.88096523 17:-0.4916124 18:0.71889943 21:0.17 24:0.34 25:0.24085248 26:-0.085642666 27:0.47730905 28:0.48168346 29:-0.17125501 30:0.61464697 31:0.48918307 32:-0.4102802 33:0.56292307 34:0.49666235 35:-0.6492812 36:0.51122248 #
-185.10114507013034312876698095351 2:-1.3 3:0.32438299 5:-1.3 6:0.50438303 7:-0.037234083 8:-1.0658128 9:0.48466608 10:-0.074293643 11:-0.83094084 12:0.46491531 13:-0.19594127 14:-0.61621255 15:0.40058914 16:-0.3174229 17:-0.40163189 18:0.33639079 21:0.17 24:0.34 25:-0.17745805 26:-0.18419619 27:0.36669165 28:-0.35482818 29:-0.36847651 30:0.39324284 31:-0.28147775 32:-0.58914214 33:0.76540154 34:-0.20804331 35:-0.80993068 36:1.1374667 #
40.404692806385632763976900605485 2:-1.3 3:0.32438299 5:-1.3 6:0.50438303 7:0.061909281 8:-1.1408671 9:0.266343 10:0.12379063 11:-0.98188466 12:0.028313398 13:-0.06885156 14:-0.71350151 15:0.20331003 16:-0.26152146 17:-0.44509465 18:0.3782922 21:0.17 24:0.34 25:-0.014760736 26:-0.17735355 27:0.27041325 28:-0.029535349 29:-0.35468993 30:0.20085491 31:-0.12966286 32:-0.26295397 33:0.43807268 34:-0.22980669 35:-0.17120022 36:0.67530572 #
-53.419047980528965524626983096823 2:-1.3 3:0.32438299 5:-1.3 6:0.50438303 7:0.19624317 8:-1.1190209 9:0.69655579 10:0.3924427 11:-0.93793482 12:0.88874394 13:0.42596638 14:-0.65272987 15:0.85864729 16:0.4594492 17:-0.36748838 18:0.82852542 21:0.17 24:0.34 25:0.12551329 26:-0.10685951 27:0.40661982 28:0.25100651 29:-0.21370277 30:0.47324732 31:0.33719027 32:-0.35532117 33:0.90085447 34:0.42335549 35:-0.49691126 36:1.3284808 #
-34.642238502133558597506635123864 2:-1.3 3:0.32438299 5:-1.3 6:0.50438303 7:-0.19484992 8:-1.2174596 9:0.75719869 10:-0.38985452 11:-1.135451 12:1.0100501 13:-0.51503527 14:-1.0168265 15:0.81325102 16:-0.64036071 17:-0.89806366 18:0.6163404 21:0.17 24:0.34 25:-0.20944948 26:-0.18097393 27:0.50076997 28:-0.41897702 29:-0.36187497 30:0.6616497 31:-0.61708194 32:-0.55301183 33:0.38631386 34:-0.81525701 35:-0.74404448 36:0.11105484 #
-31.593246481138194781124184373766 2:-1.3 3:0.32438299 5:-1.3 6:0.50438303 7:0.074304119 8:-0.90015787 9:0.34035271 10:0.1485856 11:-0.50031036 12:0.1763307 13:0.069010481 14:-0.50903207 15:0.47462034 16:-0.010585383 17:-0.51772994 18:0.77289623 21:0.17 24:0.34 25:0.1184057 26:-0.44668588 27:0.17314301 28:0.23679356 29:-0.89336854 30:0.0062861657 31:0.42816347 32:-0.85995662 33:0.33455634 34:0.61952019 35:-0.82652235 36:0.66283047 #
-22.982527423218026996210028300993 2:-1.3 3:0.32438299 5:-1.3 6:0.50438303 7:-0.11681856 8:-0.97135723 9:0.42774096 10:-0.23361601 11:-0.6427694 12:0.3510958 13:-0.20811781 14:-0.54206228 15:0.33091831 16:-0.18259811 17:-0.44137928 18:0.3107577 21:0.17 24:0.34 25:0.046802834 26:-0.2664907 27:0.23022185 28:0.093614765 29:-0.5329892 30:0.12041897 31:0.1457178 32:-0.80340886 33:0.24995007 34:0.19783098 35:-1.0738328 36:0.37946874 #
204.04272599682386157837754581124 2:-1.3 3:0.32438299 5:-1.3 6:0.50438303 7:0.07760103 8:-1.1831942 9:0.40746176 10:0.15548785 11:-1.0658998 12:0.3104367 13:-0.22246614 14:-0.80468553 15:0.37563097 16:-0.60015553 17:-0.54372585 18:0.44099742 21:0.17 24:0.34 25:0.10176173 26:-0.15554513 27:0.1825971 28:0.20367996 29:-0.31124762 30:0.025014468 31:0.16406487 32:-0.44619474 33:0.22405306 34:0.12460231 35:-0.58132857 36:0.42294979 #
-7.0535310545704952289725042646751 2:-1.3 3:0.32438299 5:-1.3 6:0.50438303 7:-0.40103966 8:-1.0603156 9:0.66416448 10:-0.80208457 11:-0.82131851 12:0.82394093 13:-0.14859883 14:-0.45705938 15:0.16010046 16:0.5048784 17:-0.092828669 18:-0.50374019 21:0.17 24:0.34 25:-0.39424789 26:-0.030644694 27:-0.039034046 28:-0.7884866 29:-0.06126513 30:-0.41801921 31:-0.35212836 32:-0.31412852 33:-0.24233052 34:0.084236301 35:-0.56695926 36:-0.066628933 #
253.01085887526619444543030112982 2:-1.3 3:0.32438299 5:-1.3 6:0.50438303 7:-0.098091446 8:-1.2568887 9:0.54266173 10:-0.19618104 11:-1.213364 12:0.58094615 13:-0.033913884 14:-1.0273981 15:0.54833436 16:0.12835832 17:-0.84140575 18:0.51572227 21:0.17 24:0.34 25:0.036622688 26:-0.10468944 27:0.30263001 28:0.073242761 29:-0.20938285 30:0.26524761 31:-0.1872908 32:-0.54876107 33:0.34515855 34:-0.44781932 35:-0.8881495 36:0.42506221 #
98.184621954040238733796286396682 2:-1.3 3:0.32438299 5:-1.3 6:0.50438303 7:0.10623341 8:-1.186836 9:0.46500134 10:0.21277076 11:-1.0727067 12:0.42550665 13:0.14940605 14:-0.76561922 15:0.41996002 16:0.086325027 17:-0.45877436 18:0.41458753 21:0.17 24:0.34 25:0.19078298 26:-0.14105076 27:0.50086993 28:0.38174254 29:-0.28231826 30:0.66148496 31:0.24130596 32:-0.40939304 33:0.55824876 34:0.10104538 35:-0.53669041 36:0.45483378 #
-85.965036717637730134811135940254 2:-1.3 3:0.32438299 5:-1.3 6:0.50438303 7:0.21740572 8:-1.1236928 9:0.31883657 10:0.4348186 11:-0.94748253 12:0.13328548 13:0.31082967 14:-0.91084284 15:0.45006594 16:0.18684646 17:-0.87421805 18:0.7668525 21:0.17 24:0.34 25:-0.21035492 26:0.050736986 27:0.80973744 28:-0.42070514 29:0.10148149 30:1.2794784 31:0.055602517 32:-0.29496369 33:0.87116015 34:0.53191352 35:-0.69140851 36:0.46284351 #
153.29565089496963992132805287838 2:-1.3 3:0.32438299 5:-1.3 6:0.50438303 7:0.060522787 8:-1.0895617 9:0.66260946 10:0.12123622 11:-0.87860119 12:0.82076734 13:0.056625389 14:-0.79548746 15:0.87535745 16:-0.0078081493 17:-0.71252298 18:0.9300558 21:0.17 24:0.34 25:-0.21974745 26:0.0026978853 27:0.30630052 28:-0.4394055 29:0.0052524027 30:0.27244183 31:-0.32141402 32:-0.29355034 33:0.41758436 34:-0.2033271 35:-0.59248179 36:0.562617 #
146.27090096215459880113485269248 2:-1.3 3:0.32438299 5:-1.3 6:0.50438303 7:0.14447017 8:-1.0352007 9:0.6024071 10:0.28897053 11:-0.77051705 12:0.70041037 13:0.25449073 14:-0.91921985 15:0.62947178 16:0.22003908 17:-1.0679574 18:0.55854785 21:0.17 24:0.34 25:-0.08278501 26:0.0898927 27:0.71894467 28:-0.16554086 29:0.17976528 30:1.097874 31:0.084682047 32:-0.12578763 33:0.49799755 34:0.33493719 35:-0.43134886 36:-0.10189731 #
-200.44471728124838705298316199332 2:-1.3 3:0.32438299 5:-1.3 6:0.50438303 7:0.11027536 8:-1.3940053 9:0.65446663 10:0.22116967 11:-1.4857157 12:0.80432308 13:0.30889678 14:-1.0649134 15:0.81096971 16:0.39720699 17:-0.64460158 18:0.8179704 21:0.17 24:0.34 25:0.21996851 26:-0.06841594 27:0.26702234 28:0.440294 29:-0.13726701 30:0.19350103 31:0.33338434 32:-0.39701277 33:0.3774983 34:0.22683939 35:-0.65720713 36:0.5611248 #
-112.74858511131284899420279543847 2:-1.3 3:0.32438299 5:-1.3 6:0.50438303 7:-0.18230993 8:-1.1943873 9:0.39112347 10:-0.36389145 11:-1.0866287 12:0.27759039 13:0.04737075 14:-0.80076104 15:0.34586766 16:0.45931029 17:-0.51551044 18:0.41456112 21:0.17 24:0.34 25:0.068457276 26:-0.30667675 27:0.33528954 28:0.13734964 29:-0.61385041 30:0.32996985 31:0.024206363 32:-0.46174961 33:0.51000619 34:-0.088501118 35:-0.31016174 36:0.68962139 #
421.36328890722251117040286771953 2:-1.3 3:0.32438299 5:-1.3 6:0.50438303 7:-0.03059753 8:-1.2654254 9:0.74130219 10:-0.061101787 11:-1.2306151 12:0.97817594 13:-0.011135415 14:-0.99721009 15:0.62409717 16:0.038916051 17:-0.76387739 18:0.27006575 21:0.17 24:0.34 25:-0.15871015 26:-0.348777 27:0.24798559 28:-0.31734225 29:-0.69761825 30:0.15590461 31:-0.2605955 32:-0.63239622 33:0.42206088 34:-0.20377807 35:-0.56724125 36:0.68816274 #
28.044180077057760058778512757272 2:-1.3 3:0.32438299 5:-1.3 6:0.50438303 7:-0.45689577 8:-1.1359487 9:0.3024264 10:-0.91302961 11:-0.9696359 12:0.10018376 13:-0.035971753 14:-0.79270178 15:0.34335604 16:0.84179586 17:-0.61641288 18:0.58696502 21:0.17 24:0.34 25:0.23720552 26:-0.24376616 27:0.42405134 28:0.47486919 29:-0.48804978 30:0.50746423 31:0.21738537 32:-0.47111258 33:0.68544394 34:-0.03964154 35:-0.45471507 36:0.86298174 #
105.08677963351335904462757753208 2:-1.3 3:0.32438299 5:-1.3 6:0.50438303 7:0.045060437 8:-1.1616644 9:0.52641809 10:0.090395242 11:-1.0226948 12:0.54834706 13:0.28175452 14:-1.0094661 15:0.7984249 16:0.47337049 17:-0.99646765 18:1.0486603 21:0.17 24:0.34 25:0.229525 26:-0.26385111 27:0.38439193 28:0.45921081 29:-0.52789426 30:0.42856559 31:0.38395265 32:-0.5636059 33:0.54138255 34:0.30885705 35:-0.59950697 36:0.65404004 #
-284.12578041417191343498416244984 2:-1.3 3:0.32438299 5:-1.3 6:0.50438303 7:-0.11449629 8:-1.2171534 9:0.81580919 10:-0.229027 11:-1.1344905 12:1.1272526 13:-0.096455373 14:-0.92432457 15:1.0379206 16:0.036085814 17:-0.71414214 18:0.94857311 21:0.17 24:0.34 25:0.04735088 26:-0.028347101 27:0.56068456 28:0.094691582 29:-0.056675613 30:0.78139526 31:0.11843864 32:-0.33553392 33:0.8313669 34:0.14216392 35:-0.614389 36:0.88135284 #
147.94305371537228666056762449443 2:-1.3 3:0.32438299 5:-1.3 6:0.50438303 7:-0.17861697 8:-1.18689 9:0.63727778 10:-0.35702956 11:-1.0727682 12:0.77010185 13:-0.069038533 14:-0.89024866 15:1.1074252 16:0.21914212 17:-0.70788229 18:1.4448655 21:0.17 24:0.34 25:0.067321062 26:-0.26414445 27:0.29041576 28:0.13475691 29:-0.52843565 30:0.24064861 31:0.32064876 32:-0.27943936 33:0.16895363 34:0.50665843 35:-0.030600959 36:0.097137481 #
-287.27621259516621421425952576101 2:-1.3 3:0.32438299 5:-1.3 6:0.50438303 7:0.13315396 8:-1.0651169 9:0.36677751 10:0.2666707 11:-0.82932991 12:0.22903404 13:0.20710026 14:-0.86643958 15:0.34269452 16:0.14786716 17:-0.90385926 18:0.45656735 21:0.17 24:0.34 25:-0.20230046 26:-0.16268004 27:0.34696224 28:-0.40439385 29:-0.32560548 30:0.35361952 31:-0.15237361 32:-0.64798665 33:0.35671896 34:0.099856198 35:-0.97060591 36:0.35961133 #
254.96034143859762366446375381202 2:-1.3 3:0.32438299 5:-1.3 6:0.50438303 7:0.042944051 8:-1.0402077 9:0.53026587 10:0.08566834 11:-0.78113741 12:0.55623555 13:0.21486627 14:-0.65922445 15:0.72648972 16:0.34385839 17:-0.53712076 18:0.8966223 21:0.17 24:0.34 25:0.065805711 26:0.067227259 27:0.59007251 28:0.13147546 29:0.13463472 30:0.84037137 31:0.09703806 32:-0.086091839 33:0.87693334 34:0.062456455 35:-0.30666673 36:0.9136371 #
-183.91980639021991805748257320374 2:-1.3 3:0.32438299 5:-1.3 6:0.50438303 7:-0.15320398 8:-1.112082 9:0.48221537 10:-0.30624226 11:-0.92313188 12:0.45999193 13:-0.5867821 14:-0.7371164 15:0.64314204 16:-0.86716694 17:-0.55125946 18:0.82638401 21:0.17 24:0.34 25:-0.14296888 26:-0.18540277 27:0.51492268 28:-0.28583291 29:-0.37089095 30:0.68967283 31:-0.44206715 32:-0.36430794 33:0.70712113 34:-0.59818614 35:-0.35781854 36:0.72448879 #
48.142957343112797730100282933563 2:-1.3 3:0.32438299 5:-1.3 6:0.50438303 7:-0.12654029 8:-1.1055835 9:0.41477975 10:-0.2533935 11:-0.91207439 12:0.32529512 13:-0.30914888 14:-0.70287871 15:0.57754934 16:-0.36519358 17:-0.49337813 18:0.82961774 21:0.17 24:0.34 25:0.10290898 26:-0.14547879 27:0.4625856 28:0.20565063 29:-0.29081473 30:0.58538842 31:-0.21580611 32:-0.29598412 33:0.48540395 34:-0.63744467 35:-0.30099663 36:0.3855553 #
-397.15544839874354465791839174926 2:-1.3 3:0.32438299 5:-1.3 6:0.50438303 7:-0.059981141 8:-1.1179504 9:0.56716919 10:-0.12040803 11:-0.93695062 12:0.63012564 13:0.18897106 14:-0.82345879 15:0.84953636 16:0.49793759 17:-0.70959204 18:1.0686897 21:0.17 24:0.34 25:-0.086378455 26:-0.22968748 27:0.44123042 28:-0.17300282 29:-0.45909211 30:0.54278737 31:-0.12857865 32:-0.48340017 33:0.57475078 34:-0.084401637 35:-0.50742614 36:0.60695332 #
-610.11192422663009438110748305917 2:-1.3 3:0.32438299 5:-1.3 6:0.50438303 7:-0.016583201 8:-1.1356988 9:0.6202141 10:-0.033136457 11:-0.97158587 12:0.736018 13:-0.0017993584 14:-0.76675624 15:0.77341068 16:0.02956094 17:-0.56196773 18:0.81081164 21:0.17 24:0.34 25:0.014017321 26:-0.22679064 27:0.23615828 28:0.028063409 29:-0.45359698 30:0.13231812 31:0.099401474 32:-0.54157668 33:0.58279186 34:0.17077127 35:-0.62956423 36:1.0332546 #
118.60590086658926622931176098064 2:-1.3 3:0.32438299 5:-1.3 6:0.50438303 7:0.065113634 8:-1.2106172 9:0.81641388 10:0.13034436 11:-1.1208057 12:1.128396 13:0.44775397 14:-0.79041439 15:0.86080903 16:0.76527363 17:-0.46012267 18:0.5932861 21:0.17 24:0.34 25:0.22978356 26:0.30896837 27:0.56883144 28:0.45964247 29:0.61784416 30:0.79754543 31:0.25488353 32:0.27626222 33:0.5987919 34:0.050203193 35:-0.065401018 36:0.39996549 #
136.68771151757002257909334730357 2:-1.3 3:0.32438299 5:-1.3 6:0.50438303 7:-0.067120411 8:-1.1365787 9:0.52567261 10:-0.13420396 11:-0.97312629 12:0.54694617 13:-0.31926754 14:-0.7151587 15:0.51001042 16:-0.50429338 17:-0.4572036 18:0.47309011 21:0.17 24:0.34 25:-0.00091203745 26:0.05446139 27:0.55379826 28:-0.0018111756 29:0.10886137 30:0.767542 31:-0.29032412 32:-0.25450295 33:1.0079198 34:-0.57882041 35:-0.61790216 36:1.2482556 #
-324.05724434052478954981779679656 2:-1.3 3:0.32438299 5:-1.3 6:0.50438303 7:0.1243898 8:-1.0696636 9:0.53983587 10:0.24994783 11:-0.83644342 12:0.57482302 13:0.24928913 14:-0.89281368 15:0.58050388 16:0.24971099 17:-0.95016652 18:0.58684391 21:0.17 24:0.34 25:0.00044286615 26:-0.28137901 27:0.48168376 28:0.0015632105 29:-0.5635891 30:0.6224122 31:-0.0071342248 32:-0.47480106 33:0.50084394 34:-0.015142514 35:-0.38679066 36:0.37859285 #
-123.72654247192424747936456697062 2:-1.3 3:0.32438299 5:-1.3 6:0.50438303 7:0.073328771 8:-1.0822209 9:0.43246686 10:0.14657763 11:-0.86469191 12:0.36056495 13:-0.24639632 14:-0.95480132 15:0.58478242 16:-0.6394496 17:-1.0448217 18:0.80894148 21:0.17 24:0.34 25:-0.11586881 26:-0.033772834 27:0.46777669 28:-0.23177505 29:-0.06750641 30:0.59563941 31:-0.19941938 32:-0.34872794 33:0.6709103 34:-0.1671042 35:-0.62991732 36:0.74622631 #
127.9088750913991674451608560048 2:-1.3 3:0.32438299 5:-1.3 6:0.50438303 7:0.24280214 8:-1.2059307 9:0.45984739 10:0.48590255 11:-1.1109809 12:0.41519943 13:0.45965955 14:-1.0294321 15:1.0473571 16:0.43369535 17:-0.94812757 18:1.6796867 21:0.17 24:0.34 25:-0.003492502 26:-0.20018612 27:0.18303478 28:-0.0068118153 29:-0.40058419 30:0.025816029 31:0.012320921 32:-0.59028375 33:0.20670655 34:0.031629048 35:-0.78019035 36:0.38742164 #
-20.017830378901461330087840906344 2:-1.3 3:0.32438299 5:-1.3 6:0.50438303 7:-0.12328177 8:-1.0470603 9:0.54530203 10:-0.24769409 11:-0.79719704 12:0.58665961 13:-0.25034505 14:-0.71986473 15:0.47450432 16:-0.25403988 17:-0.64157999 18:0.36170274 21:0.17 24:0.34 25:0.15516815 26:-0.057524487 27:0.52364004 28:0.30969408 29:-0.11428284 30:0.70818651 31:0.047777805 32:-0.020971876 33:0.65525824 34:-0.21479759 35:0.073091552 36:0.6029616 #
-370.77694097511260906685492955148 2:-1.3 3:0.32438299 5:-1.3 6:0.50438303 7:0.15516409 8:-1.1945689 9:0.59092516 10:0.30876109 11:-1.0927074 12:0.67810839 13:0.17266367 14:-0.97015208 15:0.50960517 16:0.035118204 17:-0.84627491 18:0.34022403 21:0.17 24:0.34 25:0.013638263 26:-0.15006705 27:0.41312274 28:0.026374428 29:-0.2990596 30:0.48748183 31:0.095443249 32:-0.52901655 33:0.6382525 34:0.16358766 35:-0.75792897 36:0.78991455 #
-43.873843923021517809957003919408 2:-1.3 3:0.32438299 5:-1.3 6:0.50438303 7:-0.049408365 8:-1.3025384 9:0.82354414 10:-0.099530108 11:-1.3061589 12:1.1430372 13:-0.39461178 14:-1.2434148 15:0.93429065 16:-0.69034576 17:-1.1800485 18:0.72517151 21:0.17 24:0.34 25:-0.14098534 26:-0.096144214 27:0.29827955 28:-0.28240481 29:-0.19176511 30:0.25711456 31:-0.49000284 32:-0.40312326 33:0.46255657 34:-0.69805706 35:-0.61402118 36:0.66840976 #
80.676879892339329103378986474127 2:-1.3 3:0.32438299 5:-1.3 6:0.50438303 7:0.19757622 8:-1.2511334 9:0.49268642 10:0.39450926 11:-1.2037611 12:0.48125672 13:0.67798758 14:-0.82755005 15:0.50306976 16:0.96087247 17:-0.45079264 18:0.52452552 21:0.17 24:0.34 25:0.019051148 26:-0.1240794 27:0.46506053 28:0.037737057 29:-0.24772085 30:0.59063357 31:-0.1693287 32:-0.18644902 33:0.56718957 34:-0.3767772 35:-0.1247668 36:0.54411048 #
65.064412508863597395247779786587 2:-1.3 3:0.32438299 5:-1.3 6:0.50438303 7:0.1351831 8:-0.99527967 9:0.43612626 10:0.27096772 11:-0.68885046 12:0.3676253 13:-0.21112272 14:-0.77727705 15:0.3551608 16:-0.69266027 17:-0.86617905 18:0.34302926 21:0.17 24:0.34 25:-0.011622011 26:-0.32782093 27:0.37143254 28:-0.02289186 29:-0.65611076 30:0.40235743 31:-0.0033103155 32:-0.64127445 33:0.54171151 34:0.016624624 35:-0.62684762 36:0.68070608 #
-15.376392682089097263542498694733 2:-1.3 3:0.32438299 5:-1.3 6:0.50438303 7:0.06478215 8:-1.1899347 9:0.43444473 10:0.12928511 11:-1.0805318 12:0.36462268 13:0.1064069 14:-1.0329797 15:0.43960854 16:0.083272018 17:-0.98519623 18:0.51443791 21:0.17 24:0.34 25:0.22305536 26:-0.37960282 27:0.067690022 28:0.44595027 29:-0.75899446 30:-0.20438346 31:0.28212196 32:-0.9345749 33:-0.053824194 34:0.11812519 35:-1.1099651 36:0.096903823 #
