SVM-light Version V6.20
2 # kernel type
3 # kernel parameter -d 
0.9298 # kernel parameter -g 
1 # kernel parameter -s 
1 # kernel parameter -r 
empty# kernel parameter -u 
36 # highest feature index 
110 # number of training documents 
3001 # number of support vectors plus 1 
0 # threshold b, each following line is a SV (starting with alpha*y)
19.394973004094968160870848805644 2:-1.3 3:0.32438299 5:-1.3 6:0.50438303 7:-0.0049407976 8:-1.1675508 9:0.60889298 10:-0.0098815802 11:-1.0351048 12:0.71340322 13:-0.0043329257 14:-0.95737559 15:0.77312642 16:0.0012157772 17:-0.87964636 18:0.83284974 21:0.17 24:0.34 25:0.00043144185 26:-0.089567602 27:0.47628605 28:0.0008628919 29:-0.17913502 30:0.61257195 31:0.00098022132 32:-0.26066607 33:0.69553667 34:0.0010975382 35:-0.34219718 36:0.77850163 #
1540.7501340961646292271325364709 2:-1.3 3:0.32438299 5:-1.3 6:0.50438303 7:0.0014145396 8:-1.0956769 9:0.49306005 10:0.0028290707 11:-0.89135814 12:0.48173708 13:-0.0012594917 14:-0.69600677 15:0.47762984 16:-0.0053480817 17:-0.50065553 18:0.47352257 21:0.17 24:0.34 25:-0.0014138449 26:-0.18740961 27:0.37889996 28:-0.0028276986 29:-0.37481916 30:0.41779959 31:-0.0042792554 32:-0.55520761 33:0.45781085 34:-0.0057308082 35:-0.73559612 36:0.49782202 #
253.40483887640232296689646318555 2:-1.3 3:0.32438299 5:-1.3 6:0.50438303 7:0.0027829276 8:-1.1608053 9:0.44220781 10:0.0055658617 11:-1.0216162 12:0.38003257 13:0.018418726 14:-1.0186347 15:0.38885847 16:0.03127164 17:-1.015653 18:0.39768428 21:0.17 24:0.34 25:0.0049130861 26:-0.15026525 27:0.30419573 28:0.0098262159 29:-0.30053124 30:0.26839161 31:0.019889047 32:-0.31199384 33:0.32162562 34:0.029951852 35:-0.3234567 36:0.37485984 #
337.13317931749173794742091558874 2:-1.3 3:0.32438299 5:-1.3 6:0.50438303 7:0.14178962 8:-1.1437024 9:0.5376907 10:0.28357878 11:-0.9874081 12:0.57099855 13:0.38300118 14:-0.81748521 15:0.57026082 16:0.48242331 17:-0.64756244 18:0.5695231 21:0.17 24:0.34 25:0.12960967 26:-0.1304511 27:0.41060388 28:0.25921965 29:-0.26090258 30:0.48120737 31:0.3717986 32:-0.42080382 33:0.51840323 34:0.48437774 35:-0.5807054 36:0.55559897 #
-689.37281405212206664145924150944 2:-1.3 3:0.32438299 5:-1.3 6:0.50438303 7:-0.12545381 8:-1.1357712 9:0.53311604 10:-0.25090727 11:-0.97154617 12:0.56184924 13:-0.34628323 14:-0.82174772 15:0.57206684 16:-0.44165897 17:-0.67194921 18:0.58228451 21:0.17 24:0.34 25:-0.11692133 26:-0.14276832 27:0.4048993 28:-0.23384288 29:-0.28553686 30:0.4697983 31:-0.33443519 32:-0.43107024 33:0.52071249 34:-0.43502763 35:-0.57660383 36:0.57162672 #
59.071126291556886656053393380716 2:-1.3 3:0.32438299 5:-1.3 6:0.50438303 7:0.0090663712 8:-1.0600191 9:0.54413736 10:0.018132729 11:-0.82004505 12:0.58389157 13:0.017342329 14:-0.56892049 15:0.62383378 16:0.016551916 17:-0.31779611 18:0.66377586 21:0.17 24:0.34 25:0.0018235419 26:-0.1077313 27:0.55289078 28:0.0036470594 29:-0.2154616 30:0.76578134 31:0.0017477204 32:-0.35444981 33:0.86106288 34:-0.00015166667 35:-0.49343792 36:0.95634472 #
-107.24824668807873706555255921558 2:-1.3 3:0.32438299 5:-1.3 6:0.50438303 7:0.0051637939 8:-1.1120121 9:0.41184744 10:0.01032751 11:-0.9240253 12:0.31931201 13:0.019509435 14:-0.74139136 15:0.34540844 16:0.028691303 17:-0.55875766 18:0.3715049 21:0.17 24:0.34 25:0.0057958052 26:-0.060561594 27:0.45758662 28:0.011591589 29:-0.1211236 30:0.57517302 31:0.025115486 32:-0.14293891 33:0.56456262 34:0.03863949 35:-0.16475494 36:0.55395204 #
21.776156811601101281894443673082 2:-1.3 3:0.32438299 5:-1.3 6:0.50438303 7:0.019265158 8:-1.1466064 9:0.67301273 10:0.038530245 11:-0.993213 12:0.84164304 13:0.03443554 14:-0.8598181 15:0.89115357 16:0.030340765 17:-0.7264232 18:0.94066429 21:0.17 24:0.34 25:-0.001828931 26:-0.23462766 27:0.39386564 28:-0.0036578535 29:-0.46925455 30:0.44773084 31:-0.004626655 32:-0.7230618 33:0.59275478 34:-0.0055953977 35:-0.97686875 36:0.73777854 #
204.55546846115069570259947795421 2:-1.3 3:0.32438299 5:-1.3 6:0.50438303 7:0.066781983 8:-1.1345311 9:0.63235736 10:0.13356385 11:-0.96906877 12:0.76033169 13:0.20435184 14:-0.89650762 15:0.79117626 16:0.2751399 17:-0.823946 18:0.82202113 21:0.17 24:0.34 25:-0.050723981 26:-0.18288246 27:0.39747259 28:-0.10144817 29:-0.36576468 30:0.45494518 31:-0.1198023 32:-0.45637721 33:0.35285684 34:-0.13815671 35:-0.54698974 36:0.25076902 #
52.128952683277084645396826090291 2:-1.3 3:0.32438299 5:-1.3 6:0.50438303 7:0.071537897 8:-1.0880429 9:0.5311237 10:0.14307559 11:-0.87608624 12:0.55786467 13:0.10554265 14:-0.62398762 15:0.53958547 16:0.068009526 17:-0.37188941 18:0.52130586 21:0.17 24:0.34 25:-0.16246374 26:-0.091873497 27:0.42174423 28:-0.32492766 29:-0.18374753 30:0.50348771 31:-0.36793089 32:-0.37682721 33:0.5218482 34:-0.41093409 35:-0.56990719 36:0.54020828 #
204.29401206811081692649167962372 2:-1.3 3:0.32438299 5:-1.3 6:0.50438303 7:-0.1202899 8:-1.1125945 9:0.58701593 10:-0.2405795 11:-0.92518997 12:0.669649 13:-0.11400789 14:-0.7155332 15:0.6909734 16:0.012563961 17:-0.50587648 18:0.71229732 21:0.17 24:0.34 25:0.15120691 26:-0.10481713 27:0.4521656 28:0.30241403 29:-0.20963442 30:0.5643301 31:0.29813862 32:-0.37866497 33:0.38994244 34:0.29386336 35:-0.54769558 36:0.21555455 #
340.25367180877509554193238727748 2:-1.3 3:0.32438299 5:-1.3 6:0.50438303 7:-0.089630857 8:-1.1018754 9:0.62502718 10:-0.17926139 11:-0.90376168 12:0.74567133 13:-0.30493629 14:-0.73735183 15:0.72766787 16:-0.43061119 17:-0.57094204 18:0.70966518 21:0.17 24:0.34 25:0.038038976 26:-0.15241805 27:0.32784027 28:0.076078378 29:-0.30483645 30:0.31568193 31:0.1556835 32:-0.41668773 33:0.55205131 34:0.2352889 35:-0.5285396 36:0.78842098 #
156.80972882657195555111684370786 2:-1.3 3:0.32438299 5:-1.3 6:0.50438303 7:-0.043988097 8:-1.0817437 9:0.46759781 10:-0.087976038 11:-0.86349934 12:0.43081239 13:0.20678143 14:-0.84250027 15:0.50694329 16:0.50153905 17:-0.8215012 18:0.58307487 21:0.17 24:0.34 25:0.068424426 26:-0.036944557 27:0.56648946 28:0.13684885 29:-0.073888697 30:0.79297942 31:-0.047302201 32:-0.41682577 33:0.66755295 34:-0.23145334 35:-0.75976312 36:0.54212677 #
-156.80050667747704551402421202511 2:-1.3 3:0.32438299 5:-1.3 6:0.50438303 7:-0.15527923 8:-1.1842276 9:0.51815355 10:-0.31055829 11:-1.0684468 12:0.53192443 13:-0.30480668 14:-0.98796946 15:0.53303337 16:-0.29905498 17:-0.90749204 18:0.534141 21:0.17 24:0.34 25:0.045471512 26:-0.18253759 27:0.56175745 28:0.090942949 29:-0.36507326 30:0.78351229 31:0.021766216 32:-0.59667015 33:0.74450374 34:-0.047410775 35:-0.82826608 36:0.70549452 #
148.94608364112400522571988403797 2:-1.3 3:0.32438299 5:-1.3 6:0.50438303 7:0.070515484 8:-1.1692504 9:0.54722184 10:0.14103082 11:-1.0385019 12:0.59006137 13:-0.089766324 14:-1.0886171 15:0.68980885 16:-0.32056355 17:-1.1387324 18:0.78955805 21:0.17 24:0.34 25:0.018830193 26:-0.17135851 27:0.35144153 28:0.037660692 29:-0.34271735 30:0.36288437 31:0.10071798 32:-0.57675713 33:0.39736798 34:0.16377567 35:-0.81079733 36:0.43185189 #
63.45232563573899398079447564669 2:-1.3 3:0.32438299 5:-1.3 6:0.50438303 7:0.28183174 8:-1.0878508 9:0.45546255 10:0.56366259 11:-0.87569886 12:0.40654185 13:0.27942285 14:-0.70397329 15:0.60250831 16:-0.0048175007 17:-0.53224778 18:0.798473 21:0.17 24:0.34 25:-0.0012311566 26:-0.061879829 27:0.46961674 28:-0.0024625845 29:-0.1237599 30:0.59923083 31:0.027245728 32:-0.39268476 33:0.56191409 34:0.056953974 35:-0.66160947 36:0.52459681 #
-4.6155228018437988168898300500587 2:-1.3 3:0.32438299 5:-1.3 6:0.50438303 7:-0.064345062 8:-1.1784729 9:0.46357873 10:-0.1286902 11:-1.0569626 12:0.42277411 13:-0.41606414 14:-0.87661904 15:0.63005906 16:-0.70343786 17:-0.69627672 18:0.83734626 21:0.17 24:0.34 25:-0.025224613 26:-0.064575553 27:0.56414068 28:-0.050448235 29:-0.12915023 30:0.78828484 31:-0.21924669 32:-0.33314916 33:0.79679805 34:-0.38804424 35:-0.53714871 36:0.80531216 #
109.14284808252583047760708723217 2:-1.3 3:0.32438299 5:-1.3 6:0.50438303 7:0.034448419 8:-0.97071987 9:0.45071566 10:0.068897143 11:-0.64144206 12:0.39704803 13:-0.16792147 14:-0.4937318 15:0.45798814 16:-0.4047401 17:-0.34602088 18:0.51892656 21:0.17 24:0.34 25:-0.048570644 26:-0.07468576 27:0.57596684 28:-0.097141385 29:-0.1493711 30:0.8119303 31:-0.12810144 32:-0.4510659 33:0.71291745 34:-0.15906185 35:-0.75276023 36:0.61390418 #
-88.282338798934503643067728262395 2:-1.3 3:0.32438299 5:-1.3 6:0.50438303 7:0.14579266 8:-1.2026802 9:0.68216735 10:0.29158512 11:-1.105364 12:0.85995215 13:0.30706257 14:-0.90238863 15:0.84896636 16:0.32253987 17:-0.6994139 18:0.83798146 21:0.17 24:0.34 25:0.063487165 26:-0.033651359 27:0.59777796 28:0.126974 29:-0.06730184 30:0.85555708 31:0.31535187 32:-0.28366685 33:0.78610998 34:0.50372952 35:-0.50003225 36:0.71666318 #
110.09721400895598719671397702768 2:-1.3 3:0.32438299 5:-1.3 6:0.50438303 7:-0.035020471 8:-1.1104691 9:0.48851189 10:-0.070041321 11:-0.92097133 12:0.47263947 13:-0.0519397 14:-0.83903861 15:0.6239723 16:-0.03383803 17:-0.75710672 18:0.77530897 21:0.17 24:0.34 25:-0.020972688 26:-0.14948198 27:0.55436891 28:-0.041944087 29:-0.29896328 30:0.76874572 31:-0.24991341 32:-0.38346681 33:0.640863 34:-0.45788163 35:-0.46797192 36:0.51298249 #
-58.802474178543576499578193761408 2:-1.3 3:0.32438299 5:-1.3 6:0.50438303 7:0.11665835 8:-1.1444221 9:0.39371559 10:0.23331647 11:-0.98884934 12:0.28304833 13:0.28064236 14:-0.8533783 15:0.56421369 16:0.32796809 17:-0.71790689 18:0.84537965 21:0.17 24:0.34 25:0.057896391 26:-0.22747235 27:0.38146797 28:0.11579272 29:-0.45494387 30:0.42293543 31:0.049571067 32:-0.45558101 33:0.77458912 34:-0.016650807 35:-0.45621744 36:1.1262431 #
35.851869495633906126386136747897 2:-1.3 3:0.32438299 5:-1.3 6:0.50438303 7:-0.081837699 8:-1.0344814 9:0.53649765 10:-0.16367538 11:-0.76896989 12:0.56861126 13:0.065339975 14:-0.77987272 15:0.65994662 16:0.29435566 17:-0.79077691 18:0.7512815 21:0.17 24:0.34 25:0.047572706 26:-0.25295189 27:0.35648945 28:0.095145598 29:-0.5059036 30:0.37298086 31:0.15131 32:-0.47999847 33:0.60037774 34:0.20747508 35:-0.45409426 36:0.8277753 #
-11.176029704960830812865424377378 2:-1.3 3:0.32438299 5:-1.3 6:0.50438303 7:0.033278409 8:-1.1018457 9:0.21956788 10:0.066556841 11:-0.90368825 12:-0.065246686 13:0.14971776 14:-0.69071037 15:0.054330315 16:0.2328786 17:-0.47773206 18:0.17390734 21:0.17 24:0.34 25:-0.030095339 26:0.03478761 27:0.49361563 28:-0.06019089 29:0.069574162 30:0.64722955 31:-0.04457425 32:0.12071041 33:0.54729325 34:-0.028957451 35:0.17184566 36:0.44735613 #
278.40016651539644954027608036995 2:-1.3 3:0.32438299 5:-1.3 6:0.50438303 7:0.067731328 8:-1.0472487 9:0.56875539 10:0.13546264 11:-0.79449296 12:0.63312739 13:0.0094053801 14:-0.60968351 15:0.61588144 16:-0.11665156 17:-0.42487472 18:0.59863484 21:0.17 24:0.34 25:0.094202161 26:-0.23621824 27:0.23915677 28:0.18840423 29:-0.47243661 30:0.13831395 31:-0.0046570818 32:-0.30795622 33:0.36071432 34:-0.19771841 35:-0.1434762 36:0.58311558 #
-65.994002215766997210266708862036 2:-1.3 3:0.32438299 5:-1.3 6:0.50438303 7:0.0093031619 8:-1.1943232 9:0.49726146 10:0.018606612 11:-1.0886341 12:0.49014047 13:0.27059323 14:-0.98236912 15:0.48615104 16:0.52258009 17:-0.87610358 18:0.48216116 21:0.17 24:0.34 25:-0.11491123 26:-0.18178993 27:0.47274911 28:-0.22982258 29:-0.36357909 30:0.60549569 31:0.030838868 32:-0.62948346 33:0.53549129 34:0.2915006 35:-0.89538723 36:0.46548668 #
-176.80741485451804351214377675205 2:-1.3 3:0.32438299 5:-1.3 6:0.50438303 7:0.13569047 8:-1.1015712 9:0.4431318 10:0.27138045 11:-0.90315443 12:0.38187996 13:0.092797704 14:-0.82080185 15:0.20765349 16:-0.085785232 17:-0.73845005 18:0.033427648 21:0.17 24:0.34 25:0.02718984 26:-0.20021549 27:0.47956413 28:0.054380093 29:-0.40042934 30:0.61913151 31:0.056148134 32:-0.53465444 33:0.71681607 34:0.057916716 35:-0.66887975 36:0.81450182 #
-61.407612116539979751905775628984 2:-1.3 3:0.32438299 5:-1.3 6:0.50438303 7:-0.023939393 8:-1.2443776 9:0.77529573 10:-0.047878556 11:-1.1887516 12:1.0462104 13:0.0051768222 14:-0.95778602 15:0.70946497 16:0.058232125 17:-0.72682011 18:0.37272102 21:0.17 24:0.34 25:0.074274398 26:-0.10783597 27:0.37170795 28:0.1485489 29:-0.2156727 30:0.40341622 31:0.055627238 32:-0.46620187 33:0.46005303 34:-0.037294239 35:-0.7167322 36:0.51668984 #
351.05539641018299334973562508821 2:-1.3 3:0.32438299 5:-1.3 6:0.50438303 7:0.10127658 8:-1.0390676 9:0.61162668 10:0.20255335 11:-0.77813166 12:0.71887076 13:-0.1235662 14:-0.76844263 15:0.72551852 16:-0.44968572 17:-0.75875372 18:0.73216498 21:0.17 24:0.34 25:-0.13376993 26:-0.17180525 27:0.36963966 28:-0.26754099 29:-0.34361207 30:0.3992745 31:-0.28602883 32:-0.56754035 33:0.63298589 34:-0.3045176 35:-0.79146886 36:0.86669654 #
-96.493217951566990109313337597996 2:-1.3 3:0.32438299 5:-1.3 6:0.50438303 7:0.04492176 8:-1.0613949 9:0.41295877 10:0.089843556 11:-0.82279462 12:0.32153505 13:0.15566367 14:-0.46453142 15:0.29787445 16:0.22148336 17:-0.10626839 18:0.27421504 21:0.17 24:0.34 25:0.10231997 26:-0.22467488 27:0.33351916 28:0.20464025 29:-0.44935086 30:0.32703608 31:0.15655905 32:-0.62569499 33:0.50286382 34:0.10847777 35:-0.8020398 36:0.67869073 #
-18.30570921992964272817516757641 2:-1.3 3:0.32438299 5:-1.3 6:0.50438303 7:0.18173683 8:-1.2688766 9:0.6208359 10:0.36347342 11:-1.2377539 12:0.73728967 13:0.23304491 14:-0.89780492 15:0.64661705 16:0.10261629 17:-0.55785489 18:0.5559426 21:0.17 24:0.34 25:-0.019736465 26:-0.28559622 27:0.3926999 28:-0.039473332 29:-0.57119137 30:0.44539377 31:0.072190724 32:-0.53593016 33:0.58675039 34:0.18385381 35:-0.50066662 36:0.72810537 #
-122.62452765201649640403047669679 2:-1.3 3:0.32438299 5:-1.3 6:0.50438303 7:0.036430556 8:-1.0576361 9:0.25341004 10:0.072861686 11:-0.81527662 12:0.002438311 13:0.16750254 14:-0.28201258 15:0.038421951 16:0.2621429 17:0.25125101 18:0.074408121 21:0.17 24:0.34 25:0.1271124 26:-0.2782312 27:0.28320652 28:0.25422466 29:-0.55646503 30:0.22640708 31:0.139893 32:-0.73861474 33:0.53369576 34:0.025560794 35:-0.9207657 36:0.84098274 #
195.97894024601205842373019549996 2:-1.3 3:0.32438299 5:-1.3 6:0.50438303 7:0.10421742 8:-1.1119752 9:0.35815409 10:0.20843434 11:-0.92395645 12:0.2119249 13:0.19109213 14:-0.74630046 15:0.22656286 16:0.17374977 17:-0.56864512 18:0.24120127 21:0.17 24:0.34 25:0.0018158035 26:-0.15470864 27:0.45809138 28:0.0036317948 29:-0.30941707 30:0.57618415 31:0.20600237 32:-0.4798196 33:0.31503218 34:0.40837327 35:-0.65022278 36:0.053880632 #
82.402170229180910610011778771877 2:-1.3 3:0.32438299 5:-1.3 6:0.50438303 7:0.020496324 8:-1.1088408 9:0.39831632 10:0.040992733 11:-0.91769242 12:0.29225013 13:-0.051273368 14:-0.78788853 15:0.44939804 16:-0.14353962 17:-0.65808338 18:0.60654628 21:0.17 24:0.34 25:0.074510269 26:-0.19719182 27:0.29902086 28:0.14902128 29:-0.39438388 30:0.25804102 31:0.41490597 32:-0.4724724 33:0.39330742 34:0.68079031 35:-0.55056036 36:0.52857399 #
-106.72372244020422726862307172269 2:-1.3 3:0.32438299 5:-1.3 6:0.50438303 7:0.10904654 8:-1.0622956 9:0.64168006 10:0.21809253 11:-0.82460451 12:0.77897644 13:0.33056137 14:-0.76199305 15:0.59638566 16:0.44303015 17:-0.69938153 18:0.41379458 21:0.17 24:0.34 25:-0.0062967907 26:-0.069829985 27:0.48773617 28:-0.012593343 29:-0.1396594 30:0.63547337 31:-0.03191204 32:-0.14235894 33:0.76183474 34:-0.051230703 35:-0.14505813 36:0.88819718 #
-57.764423033853013578209356637672 2:-1.3 3:0.32438299 5:-1.3 6:0.50438303 7:-0.13374054 8:-1.0988284 9:0.57982278 10:-0.2674807 11:-0.89762938 12:0.65526456 13:-0.16571297 14:-0.70632821 15:0.87384349 16:-0.063945651 17:-0.51502675 18:1.0924203 21:0.17 24:0.34 25:-0.20237398 26:0.001477634 27:0.48265445 28:-0.40474829 29:0.0029559324 30:0.62530291 31:-0.23123761 32:-0.28187451 33:0.76835287 34:-0.057727274 35:-0.56670445 36:0.91140056 #
9.6074014554373228236272552749142 2:-1.3 3:0.32438299 5:-1.3 6:0.50438303 7:0.0067078532 8:-1.1296682 9:0.45097226 10:0.013414891 11:-0.95933682 12:0.39756107 13:-0.2418482 14:-0.91841024 15:0.32840273 16:-0.49711171 17:-0.8774842 18:0.25924462 21:0.17 24:0.34 25:-0.019206159 26:-0.18225069 27:0.37762198 28:-0.038412351 29:-0.36450139 30:0.41524398 31:-0.28549317 32:-0.59853047 33:0.3295908 34:-0.53257394 35:-0.83256018 36:0.24393749 #
96.160869861810439829241659026593 2:-1.3 3:0.32438299 5:-1.3 6:0.50438303 7:-0.15976709 8:-1.2264204 9:0.74804401 10:-0.31953442 11:-1.1528995 12:0.99170244 13:-0.23387495 14:-0.80139434 15:0.88406742 16:-0.14821464 17:-0.44989058 18:0.77643824 21:0.17 24:0.34 25:-0.11828662 26:-0.17550007 27:0.53831559 28:-0.23657182 29:-0.35100052 30:0.73664463 31:-0.23532949 32:-0.45294365 33:0.71367711 34:-0.23408584 35:-0.55488962 36:0.690714 #
56.884469264956734946281358134001 2:-1.3 3:0.32438299 5:-1.3 6:0.50438303 7:0.060131524 8:-1.1145905 9:0.53144938 10:0.12026308 11:-0.92919201 12:0.55851573 13:0.074691705 14:-0.81383008 15:0.66796988 16:0.029120386 17:-0.69846869 18:0.77742493 21:0.17 24:0.34 25:0.2868005 26:-0.074880622 27:0.36985919 28:0.57360131 29:-0.14976312 30:0.39971873 31:0.27464059 32:-0.40397894 33:0.56448656 34:-0.024319919 35:-0.65819669 36:0.72925448 #
300.66925837486741102111409418285 2:-1.3 3:0.32438299 5:-1.3 6:0.50438303 7:0.026780568 8:-1.1663377 9:0.64746869 10:0.053561177 11:-1.0325619 12:0.79055929 13:0.094600357 14:-0.74279332 15:0.69054151 16:0.13563861 17:-0.453017 18:0.59051085 21:0.17 24:0.34 25:0.11746837 26:-0.16539243 27:0.47396895 28:0.23493421 29:-0.33078066 30:0.607912 31:-0.068156809 32:-0.44986153 33:0.64684778 34:-0.3712512 35:-0.56893057 36:0.68577647 #
-302.79302341072997251103515736759 2:-1.3 3:0.32438299 5:-1.3 6:0.50438303 7:-0.23753148 8:-1.0954767 9:0.46161908 10:-0.47506166 11:-0.89101768 12:0.41885349 13:-0.32066041 14:-0.71221632 15:0.49238163 16:-0.16625796 17:-0.53341943 18:0.56591558 21:0.17 24:0.34 25:0.17874774 26:-0.11716865 27:0.3797766 28:0.35749656 29:-0.234339 30:0.41956192 31:0.020712702 32:-0.35216865 33:0.50992632 34:-0.31606993 35:-0.47000489 36:0.60029316 #
135.51588744485445658938260748982 2:-1.3 3:0.32438299 5:-1.3 6:0.50438303 7:-0.19671209 8:-1.1256896 9:0.53876889 10:-0.39342338 11:-0.95131856 12:0.57315665 13:-0.30447015 14:-0.82329881 15:0.54349893 16:-0.21551719 17:-0.69527501 18:0.51383251 21:0.17 24:0.34 25:-0.1199607 26:-0.12637985 27:0.43513551 28:-0.23992288 29:-0.25275743 30:0.53025627 31:-0.25222293 32:-0.24215294 33:0.84163886 34:-0.26452494 35:-0.23154166 36:1.1530184 #
237.57670213388948354804597329348 2:-1.3 3:0.32438299 5:-1.3 6:0.50438303 7:0.036436711 8:-1.1211743 9:0.57524663 10:0.072873726 11:-0.94236112 12:0.64611006 13:-0.11108653 14:-0.77543813 15:0.55609214 16:-0.29504645 17:-0.60851556 18:0.46607471 21:0.17 24:0.34 25:-0.21594627 26:0.017593646 27:0.40992635 28:-0.4318929 29:0.035186186 30:0.47985214 31:-0.23338082 32:-0.18820877 33:0.49675262 34:-0.034868557 35:-0.41160569 36:0.51365346 #
375.77311552057767585210967808962 2:-1.3 3:0.32438299 5:-1.3 6:0.50438303 7:-0.030541502 8:-1.0803301 9:0.63659263 10:-0.061083142 11:-0.86064744 12:0.76880342 13:-0.2334462 14:-0.71168315 15:0.92023063 16:-0.4058097 17:-0.56271875 18:1.0716549 21:0.17 24:0.34 25:-0.035365038 26:-0.084500536 27:0.37773183 28:-0.070730574 29:-0.1690015 30:0.41545844 31:-0.19400597 32:-0.40957168 33:0.32670435 34:-0.31728205 35:-0.65014052 36:0.23794825 #
364.32419291696419350046198815107 2:-1.3 3:0.32438299 5:-1.3 6:0.50438303 7:0.11913539 8:-1.104769 9:0.48170412 10:0.23827034 11:-0.90958154 12:0.4590241 13:0.27072671 14:-0.64069861 15:0.41164649 16:0.30318269 17:-0.37181887 18:0.36427557 21:0.17 24:0.34 25:-0.10234596 26:-0.11392689 27:0.48397431 28:-0.20469134 29:-0.22785397 30:0.62795937 31:0.20778315 32:-0.2462212 33:0.58446527 34:0.62025964 35:-0.26459438 36:0.54097444 #
-83.470101868999066141441289801151 2:-1.3 3:0.32438299 5:-1.3 6:0.50438303 7:0.13516527 8:-1.0939606 9:0.50287044 10:0.27033037 11:-0.88792592 12:0.50135875 13:-0.1172879 14:-1.1767694 15:0.76419157 16:-0.5049063 17:-1.4656136 18:1.0270284 21:0.17 24:0.34 25:-0.056815475 26:-0.24400137 27:0.21656576 28:-0.11363037 29:-0.48800379 30:0.093136996 31:0.055858243 32:-0.77388215 33:0.23046565 34:0.225348 35:-1.0597627 36:0.36779556 #
5.2825409563495320242054731352255 2:-1.3 3:0.32438299 5:-1.3 6:0.50438303 7:0.015920401 8:-1.051549 9:0.53900075 10:0.031840492 11:-0.80307204 12:0.57361931 13:0.054288775 14:-0.68324292 15:0.54390538 16:0.076737203 17:-0.56341034 18:0.51418602 21:0.17 24:0.34 25:0.16763666 26:-0.043027971 27:0.45066375 28:0.33527225 29:-0.086055309 30:0.56131905 31:0.43647507 32:-0.19917323 33:0.69127971 34:0.53767556 35:-0.31228656 36:0.82123774 #
-292.01137352836576610570773482323 2:-1.3 3:0.32438299 5:-1.3 6:0.50438303 7:0.017937139 8:-1.1136261 9:0.48786458 10:0.035873469 11:-0.92729616 12:0.4713456 13:0.24382694 14:-0.69423425 15:0.62026793 16:0.45177996 17:-0.46117193 18:0.76919222 21:0.17 24:0.34 25:-0.068404101 26:-0.1415327 27:0.16195777 28:-0.13680765 29:-0.28306726 30:-0.016079299 31:-0.04295725 32:-0.42195967 33:0.24438916 34:0.050892744 35:-0.56085366 36:0.50485802 #
-75.33337908887799017065844964236 2:-1.3 3:0.32438299 5:-1.3 6:0.50438303 7:-0.0067797545 8:-1.1024377 9:0.5670827 10:-0.013559755 11:-0.90491199 12:0.62978142 13:-0.21549709 14:-0.51131505 15:0.40522563 16:-0.41743463 17:-0.11772045 18:0.18067253 21:0.17 24:0.34 25:-0.023829373 26:-0.26624024 27:0.39142865 28:-0.04765784 29:-0.53248203 30:0.44286537 31:0.0080658514 32:-0.72704983 33:0.47598898 34:0.063790552 35:-0.92162126 36:0.50911301 #
-1.7134713916059594041030322841834 2:-1.3 3:0.32438299 5:-1.3 6:0.50438303 7:0.014469841 8:-1.0992512 9:0.605326 10:0.028939208 11:-0.89847732 12:0.7062698 13:-0.062882334 14:-0.78576541 15:0.56921911 16:-0.15470417 17:-0.67305183 18:0.43216279 21:0.17 24:0.34 25:-0.044298273 26:-0.066265285 27:0.69203812 28:-0.088597029 29:-0.13252789 30:1.0440687 31:0.057819251 32:-0.30234852 33:0.658481 34:0.2042338 35:-0.47216424 36:0.2728906 #
-8.4939427097282127476773894159123 2:-1.3 3:0.32438299 5:-1.3 6:0.50438303 7:-0.023675786 8:-1.3182819 9:1.0575743 10:-0.047351249 11:-1.3365635 12:1.6107682 13:0.048244234 14:-1.0279758 15:0.79872262 16:0.14383931 17:-0.71938902 18:-0.013319432 21:0.17 24:0.34 25:0.1829163 26:-0.0669498 27:0.32816616 28:0.36583319 29:-0.13390112 30:0.3163363 31:0.08567787 32:-0.44264972 33:0.39736557 34:-0.19447637 35:-0.7514025 36:0.47839564 #
185.10840389194282806784030981362 2:-1.3 3:0.32438299 5:-1.3 6:0.50438303 7:-0.12316228 8:-1.0991023 9:0.43221378 10:-0.24632432 11:-0.89823568 12:0.36004364 13:-0.24006489 14:-0.75493634 15:0.29768005 16:-0.23380516 17:-0.61163855 18:0.23531926 21:0.17 24:0.34 25:-0.097609513 26:-0.10403222 27:0.38162991 28:-0.19521815 29:-0.2080652 30:0.42326605 31:-0.49646288 32:-0.2109305 33:0.4450216 34:-0.7977066 35:-0.21379858 36:0.46677822 #
31.784501841713311165449340478517 2:-1.3 3:0.32438299 5:-1.3 6:0.50438303 7:0.025818866 8:-1.153901 9:0.89539933 10:0.051637188 11:-1.0078562 12:1.2864127 13:0.13070975 14:-0.96261644 15:0.6874041 16:0.20978238 17:-0.91738212 18:0.088398293 21:0.17 24:0.34 25:0.16409595 26:-0.28681442 27:0.23389721 28:0.32819438 29:-0.57363051 30:0.12780556 31:0.0051436895 32:-0.77247322 33:0.25193471 34:-0.3179045 35:-0.97132254 36:0.37606624 #
-96.801445405757391426959657110274 2:-1.3 3:0.32438299 5:-1.3 6:0.50438303 7:0.032461464 8:-1.1063646 9:0.49219415 10:0.064923018 11:-0.91278929 12:0.48000315 13:0.037602678 14:-0.68744844 15:0.7627719 16:0.010282173 17:-0.46211129 18:1.045549 21:0.17 24:0.34 25:0.0036380528 26:-0.0047252467 27:0.48567823 28:0.0072773518 29:-0.0094534252 30:0.63136905 31:0.15544745 32:-0.067471489 33:0.70424289 34:0.30361986 35:-0.12549479 36:0.77712196 #
220.66043211520704403483250644058 2:-1.3 3:0.32438299 5:-1.3 6:0.50438303 7:-0.19978988 8:-1.3578271 9:0.49609417 10:-0.39957905 11:-1.4156376 12:0.48780668 13:-0.22929665 14:-1.052278 15:0.6399442 16:-0.059014041 17:-0.6889171 18:0.79208273 21:0.17 24:0.34 25:-0.091317758 26:-0.18712017 27:0.34635508 28:-0.18263629 29:-0.37424201 30:0.35270846 31:-0.094107501 32:-0.45722771 33:0.36608213 34:-0.0055788462 35:-0.54021412 36:0.37945578 #
-30.144220595013109686988173052669 2:-1.3 3:0.32438299 5:-1.3 6:0.50438303 7:-0.17545348 8:-1.1216623 9:0.63231128 10:-0.35090673 11:-0.94329363 12:0.76024026 13:-0.2121172 14:-0.94586724 15:0.7212342 16:-0.073328033 17:-0.94843888 18:0.68222183 21:0.17 24:0.34 25:-0.094136126 26:-0.26800308 27:0.27018583 28:-0.18827364 29:-0.53600413 30:0.20036066 31:-0.19998871 32:-0.77659774 33:0.34272298 34:-0.21170586 35:-1.0171865 36:0.48508212 #
-26.707873773788453064526038360782 2:-1.3 3:0.32438299 5:-1.3 6:0.50438303 7:0.0013497683 8:-1.0780884 9:0.43120918 10:0.002699353 11:-0.85616821 12:0.35803536 13:0.21639886 14:-0.80245423 15:0.37130824 16:0.43009806 17:-0.74873871 18:0.38457799 21:0.17 24:0.34 25:0.26383537 26:-0.14728843 27:0.2497007 28:0.52767062 29:-0.29457685 30:0.15939675 31:0.36700994 32:-0.3924028 33:0.23745462 34:0.20634848 35:-0.49022645 36:0.31551144 #
68.629087201624514591458137147129 2:-1.3 3:0.32438299 5:-1.3 6:0.50438303 7:-0.13105263 8:-1.1527369 9:0.26028994 10:-0.26210448 11:-1.0055307 12:0.016195089 13:-0.23350374 14:-0.81782657 15:0.24276492 16:-0.20490228 17:-0.63012338 18:0.4693386 21:0.17 24:0.34 25:-0.11754592 26:-0.22403234 27:0.301521 28:-0.23509096 29:-0.44806629 30:0.26305079 31:-0.15880623 32:-0.55924106 33:0.54112875 34:-0.082520977 35:-0.6704185 36:0.81920838 #
-68.050394418804515339616045821458 2:-1.3 3:0.32438299 5:-1.3 6:0.50438303 7:0.027637955 8:-1.0765355 9:0.70469403 10:0.055275828 11:-0.85308522 12:0.90500438 13:-0.039692845 14:-0.71567142 15:1.0233226 16:-0.13466097 17:-0.57825863 18:1.1416402 21:0.17 24:0.34 25:0.069405876 26:-0.13185787 27:0.60501373 28:0.13881184 29:-0.26371455 30:0.87002957 31:-0.018407112 32:-0.28906077 33:0.98049825 34:-0.17562614 35:-0.31440714 36:1.0909666 #
254.0512441778424488347809528932 2:-1.3 3:0.32438299 5:-1.3 6:0.50438303 7:0.021988116 8:-1.0261066 9:0.66932189 10:0.043976422 11:-0.75232846 12:0.83425653 13:0.13153683 14:-0.67186022 15:0.6288498 16:0.21909827 17:-0.59139848 18:0.42345288 21:0.17 24:0.34 25:0.048425525 26:-0.14399813 27:0.46898866 28:0.096853532 29:-0.28799823 30:0.59799767 31:0.24458097 32:-0.57936573 33:0.58050078 34:0.39231187 35:-0.87074178 36:0.56301033 #
-281.43103626901967118101310916245 2:-1.3 3:0.32438299 5:-1.3 6:0.50438303 7:-0.084436469 8:-1.168233 9:0.41634482 10:-0.16887279 11:-1.036536 12:0.32830498 13:-0.0018485333 14:-0.83118385 15:0.58689243 16:0.16517636 17:-0.62583482 18:0.845487 21:0.17 24:0.34 25:-0.01987447 26:-0.010678449 27:0.47179502 28:-0.039747994 29:-0.021359215 30:0.60360014 31:0.10478148 32:-0.43301764 33:0.68594855 34:0.24931146 35:-0.84468359 36:0.76829934 #
-3.3309650092856051273315642902162 2:-1.3 3:0.32438299 5:-1.3 6:0.50438303 7:-0.0096268235 8:-1.0815189 9:0.65036482 10:-0.019252861 11:-0.86292827 12:0.79635435 13:0.047223277 14:-0.63342035 15:0.78685433 16:0.11369816 17:-0.40390602 18:0.77734792 21:0.17 24:0.34 25:0.036601353 26:0.038517348 27:0.4283832 28:0.073200233 29:0.077036016 30:0.51674414 31:-0.032885056 32:-0.16437586 33:0.56134945 34:-0.13897362 35:-0.40577871 36:0.60594767 #
107.62701336045648758954484947026 2:-1.3 3:0.32438299 5:-1.3 6:0.50438303 7:0.0057122177 8:-1.0476131 9:0.58834314 10:0.011423957 11:-0.79516292 12:0.67230523 13:0.024217395 14:-0.76278991 15:0.43810117 16:0.037010156 17:-0.73041326 18:0.20388842 21:0.17 24:0.34 25:-0.18174535 26:-0.29730102 27:0.27157444 28:-0.36349204 29:-0.59459919 30:0.20313713 31:-0.034122497 32:-0.51246357 33:0.31979334 34:0.29524556 35:-0.43032146 36:0.43644521 #
-11.398610222273852343732869485393 2:-1.3 3:0.32438299 5:-1.3 6:0.50438303 7:-0.0010367816 8:-1.3363678 9:0.74026501 10:-0.0020738603 11:-1.372687 12:0.97615063 13:-0.12559395 14:-1.1325431 15:0.98035115 16:-0.24911495 17:-0.89239621 18:0.98455185 21:0.17 24:0.34 25:-0.11012875 26:-0.19684482 27:0.45355508 28:-0.22025812 29:-0.39368668 30:0.56710821 31:-0.11894342 32:-0.51571703 33:0.75127172 34:-0.017629143 35:-0.63774562 36:0.93543488 #
80.542170519485296154016396030784 2:-1.3 3:0.32438299 5:-1.3 6:0.50438303 7:0.094882749 8:-1.2326596 9:0.4812296 10:0.18976505 11:-1.1654793 12:0.45806867 13:0.25681368 14:-0.73338151 15:0.40453362 16:0.32386318 17:-0.30129588 18:0.35101563 21:0.17 24:0.34 25:0.19505879 26:-0.0085683055 27:0.51057392 28:0.39012092 29:-0.017141316 30:0.68118459 31:0.30809182 32:-0.27323267 33:0.60788637 34:0.22607023 35:-0.52934295 36:0.53460062 #
62.126332231568930808407458243892 2:-1.3 3:0.32438299 5:-1.3 6:0.50438303 7:0.25009102 8:-1.2336407 9:0.42636269 10:0.50018257 11:-1.1673051 12:0.34834096 13:0.44797039 14:-1.0189351 15:0.35797104 16:0.39575857 17:-0.87056643 18:0.36760324 21:0.17 24:0.34 25:0.15588534 26:-0.0085825995 27:0.29786867 28:0.31177095 29:-0.017166449 30:0.25574255 31:0.40139103 32:-0.14913569 33:0.3878839 34:0.49101034 35:-0.28110716 36:0.52002662 #
-88.740703559588240523225977085531 2:-1.3 3:0.32438299 5:-1.3 6:0.50438303 7:-0.093645856 8:-1.0390159 9:0.59476447 10:-0.18729188 11:-0.77803916 12:0.68514711 13:0.18924959 14:-1.0872508 15:0.6633026 16:0.56579143 17:-1.3964605 18:0.64146119 21:0.17 24:0.34 25:0.088334113 26:-0.17163125 27:0.36497518 28:0.17667061 29:-0.34326535 30:0.38995159 31:0.1095788 32:-0.58954519 33:0.38145703 34:0.042488404 35:-0.8358255 36:0.37296247 #
205.44141297390831368829822167754 2:-1.3 3:0.32438299 5:-1.3 6:0.50438303 7:-0.067870334 8:-1.2704414 9:0.65656638 10:-0.13574213 11:-1.2410169 12:0.80874288 13:0.15700689 14:-0.95016706 15:0.72316295 16:0.44975662 17:-0.65932459 18:0.63759577 21:0.17 24:0.34 25:0.13992114 26:-0.13458227 27:0.33301681 28:0.279845 29:-0.26916835 30:0.32606438 31:0.25040996 32:-0.44965446 33:0.72069263 34:0.22097921 35:-0.63015139 36:1.1153325 #
102.59653456507055580004816874862 2:-1.3 3:0.32438299 5:-1.3 6:0.50438303 7:0.22447957 8:-1.112909 9:0.41572565 10:0.44895855 11:-0.92583454 12:0.32706624 13:0.12604573 14:-0.90200955 15:-0.07626459 16:-0.19686708 17:-0.87818682 18:-0.47959435 21:0.17 24:0.34 25:0.030635197 26:-0.20108403 27:0.54841614 28:0.061271328 29:-0.40216503 30:0.75684106 31:0.068809792 32:-0.42547056 33:0.7505312 34:0.076349951 35:-0.44877744 36:0.74422449 #
-22.880055398942811706319844233803 2:-1.3 3:0.32438299 5:-1.3 6:0.50438303 7:0.01283873 8:-1.1691002 9:0.61442459 10:0.025676722 11:-1.0385051 12:0.72444999 13:0.24073595 14:-0.70686775 15:0.96362191 16:0.45579955 17:-0.3752467 18:1.2028158 21:0.17 24:0.34 25:-0.07854443 26:-0.21195897 27:0.54771507 28:-0.15708201 29:-0.42392305 30:0.75548309 31:-0.19019714 32:-0.53003848 33:0.7301687 34:-0.2233042 35:-0.6361751 36:0.70487112 #
238.50929327503791910203290171921 2:-1.3 3:0.32438299 5:-1.3 6:0.50438303 7:-0.028564617 8:-1.1719444 9:0.57432532 10:-0.057129748 11:-1.044266 12:0.64425361 13:-0.12604831 14:-0.86151677 15:0.6722877 16:-0.19496433 17:-0.67879272 18:0.7003603 21:0.17 24:0.34 25:0.0053312932 26:-0.19519056 27:0.34371462 28:0.010669663 29:-0.39039245 30:0.34750319 31:-0.2052388 32:-0.43104777 33:0.66483724 34:-0.42113644 35:-0.4717392 36:0.98219061 #
-224.0732203981249028856836957857 2:-1.3 3:0.32438299 5:-1.3 6:0.50438303 7:-0.053897347 8:-1.0848898 9:0.67106938 10:-0.10779426 11:-0.86941189 12:0.83777374 13:0.16863438 14:-0.71735018 15:0.97040939 16:0.44505838 17:-0.56526607 18:1.1030103 21:0.17 24:0.34 25:0.030748054 26:-0.017935971 27:0.49735776 28:0.061488915 29:-0.035861939 30:0.65463948 31:0.16493116 32:-0.32231334 33:0.80529445 34:0.26836237 35:-0.60873282 36:0.95592654 #
-312.41659826405407329730223864317 2:-1.3 3:0.32438299 5:-1.3 6:0.50438303 7:0.2205625 8:-1.1030259 9:0.5545584 10:0.4411239 11:-0.90635204 12:0.60472202 13:0.39046454 14:-0.99363208 15:0.57977474 16:0.33980697 17:-1.0809338 18:0.55485493 21:0.17 24:0.34 25:0.06184325 26:-0.2083378 27:0.2917257 28:0.12369068 29:-0.41668391 30:0.24350917 31:0.10888328 32:-0.63058901 33:0.50339735 34:0.09408313 35:-0.84452307 36:0.76329923 #
102.36802829147175941670866450295 2:-1.3 3:0.32438299 5:-1.3 6:0.50438303 7:0.037149739 8:-1.1195607 9:0.28498098 10:0.074300013 11:-0.93883705 12:0.065589815 13:0.032209393 14:-0.99160993 15:0.49348873 16:-0.0098831439 17:-1.0443658 18:0.92136252 21:0.17 24:0.34 25:-0.071567118 26:-0.15366223 27:0.3810893 28:-0.14313857 29:-0.30731571 30:0.42212465 31:-0.17858432 32:-0.58380395 33:0.47169557 34:-0.21403652 35:-0.86026692 36:0.52125359 #
-59.278725975096108413708861917257 2:-1.3 3:0.32438299 5:-1.3 6:0.50438303 7:0.050525218 8:-1.0622957 9:0.50108808 10:0.10104802 11:-0.82484931 12:0.4977836 13:0.03877059 14:-0.69663787 15:0.86549568 16:-0.023505174 17:-0.56843621 18:1.2332299 21:0.17 24:0.34 25:0.1136113 26:-0.2568436 27:0.47173068 28:0.22722691 29:-0.51369125 30:0.60350764 31:0.27227974 32:-0.56856424 33:0.56778944 34:0.31733742 35:-0.62345356 36:0.53208452 #
30.80420990380305923395098943729 2:-1.3 3:0.32438299 5:-1.3 6:0.50438303 7:0.097762793 8:-1.1234652 9:0.72446007 10:0.19552509 11:-0.94697613 12:0.94453555 13:0.068962313 14:-0.80802709 15:0.84956574 16:-0.057600308 17:-0.6690799 18:0.75459695 21:0.17 24:0.34 25:0.056992214 26:0.11605864 27:0.78700101 28:0.11398521 29:0.23211837 30:1.2340059 31:0.4352828 32:-0.14687459 33:0.84748328 34:0.75658047 35:-0.52586895 36:0.46096089 #
-135.03473112446965842536883428693 2:-1.3 3:0.32438299 5:-1.3 6:0.50438303 7:0.081567273 8:-1.1339749 9:0.47191787 10:0.16313484 11:-0.96779776 12:0.43945986 13:0.026823357 14:-0.85677302 15:0.54475367 16:-0.10948915 17:-0.74573529 18:0.65003252 21:0.17 24:0.34 25:-0.12199958 26:-0.33416799 27:0.31619957 28:-0.24400365 29:-0.66833216 30:0.29236728 31:-0.46737927 32:-0.65004998 33:0.40352809 34:-0.69076133 35:-0.63175035 36:0.51468027 #
-234.01217047960403760953340679407 2:-1.3 3:0.32438299 5:-1.3 6:0.50438303 7:-0.16054909 8:-1.0779896 9:0.5250181 10:-0.32109654 11:-0.85595959 12:0.545654 13:-0.21988221 14:-0.65965927 15:0.39833018 16:-0.11866704 17:-0.46335682 18:0.25100529 21:0.17 24:0.34 25:-0.16115844 26:-0.16017793 27:0.19933081 28:-0.3223187 29:-0.32035756 30:0.0586605 31:-0.29524902 32:-0.51507127 33:0.19294959 34:-0.26818046 35:-0.70978403 36:0.3272405 #
44.354308189692943642512545920908 2:-1.3 3:0.32438299 5:-1.3 6:0.50438303 7:0.076571621 8:-1.1635628 9:0.42394099 10:0.15314306 11:-1.0270211 12:0.34350216 13:0.28252396 14:-0.90217149 15:0.25167522 16:0.41190419 17:-0.77731806 18:0.1598397 21:0.17 24:0.34 25:0.044784404 26:-0.23903413 27:0.22771348 28:0.089568026 29:-0.47806853 30:0.11541058 31:0.23974492 32:-0.64569926 33:0.33801204 34:0.38992131 35:-0.81332457 36:0.56060952 #
9.2394484065635253955406369641423 2:-1.3 3:0.32438299 5:-1.3 6:0.50438303 7:-0.1244081 8:-1.0969378 9:0.57048619 10:-0.2488154 11:-0.89318871 12:0.63661551 13:-0.13994372 14:-0.74312431 15:0.36907157 16:-0.031077182 17:-0.59301329 18:0.10145386 21:0.17 24:0.34 25:-0.081865147 26:-0.25590804 27:0.43678263 28:-0.16374403 29:-0.51179355 30:0.5334245 31:-0.20112869 32:-0.43603373 33:0.54799628 34:-0.2385336 35:-0.36020681 36:0.56253195 #
38.191008342806874509278713958338 2:-1.3 3:0.32438299 5:-1.3 6:0.50438303 7:-0.088097304 8:-1.171137 9:0.64739126 10:-0.1761943 11:-1.0422766 12:0.79039896 13:-0.26689106 14:-1.1117091 15:0.8268823 16:-0.35758743 17:-1.1811422 18:0.86336029 21:0.17 24:0.34 25:-0.12276355 26:-0.14777865 27:0.34974054 28:-0.24552765 29:-0.29555786 30:0.35947242 31:-0.33444226 32:-0.25421157 33:0.42090547 34:-0.42335796 35:-0.21286246 36:0.48233575 #
75.863831296759656197536969557405 2:-1.3 3:0.32438299 5:-1.3 6:0.50438303 7:-0.19551015 8:-1.2582605 9:0.45481661 10:-0.39101931 11:-1.217111 12:0.40522751 13:-0.62383616 14:-0.99499619 15:0.29929942 16:-0.85664743 17:-0.77292299 18:0.19343469 21:0.17 24:0.34 25:-0.02301494 26:-0.16203026 27:0.41759136 28:-0.046018768 29:-0.32408023 30:0.4953039 31:-0.13777952 32:-0.4330858 33:0.47878206 34:-0.22952276 35:-0.54214734 36:0.46229288 #
50.652844670130541260277823312208 2:-1.3 3:0.32438299 5:-1.3 6:0.50438303 7:-0.27106187 8:-1.0828754 9:0.56199402 10:-0.54212123 11:-0.86559284 12:0.61961079 13:-0.39358789 14:-0.61516255 15:0.24469763 16:-0.24505407 17:-0.36471996 18:-0.13023061 21:0.17 24:0.34 25:-0.26134658 26:-0.1891118 27:0.10012385 28:-0.52269852 29:-0.37822258 30:-0.13977809 31:-0.4422138 32:-0.5685516 33:0.033666432 34:-0.3617349 35:-0.75886732 36:0.20710742 #
-119.90872773917355686990049434826 2:-1.3 3:0.32438299 5:-1.3 6:0.50438303 7:0.17169346 8:-1.2239572 9:0.66517049 10:0.34338659 11:-1.1478626 12:0.82596201 13:0.14924216 14:-0.97636932 15:0.64559126 16:-0.044903561 17:-0.80486816 18:0.46522373 21:0.17 24:0.34 25:-0.074761018 26:-0.062154565 27:0.54396266 28:-0.14952195 29:-0.12430842 30:0.74792653 31:-0.13795297 32:-0.48741946 33:0.70271748 34:-0.12638441 35:-0.85052735 36:0.65750998 #
-16.430913454230889669815951492637 2:-1.3 3:0.32438299 5:-1.3 6:0.50438303 7:-0.030640742 8:-1.0922409 9:0.29466829 10:-0.061280664 11:-0.88437515 12:0.084959358 13:-0.26689205 14:-0.84490776 15:0.40893736 16:-0.47250414 17:-0.80542946 18:0.73289973 21:0.17 24:0.34 25:0.050268665 26:-0.20954196 27:0.22286607 28:0.10053527 29:-0.41907954 30:0.10569943 31:0.58698463 32:-0.5311327 33:0.37407437 34:1.0734284 35:-0.64317101 36:0.64244097 #
3.3881900642579614313376623613294 2:-1.3 3:0.32438299 5:-1.3 6:0.50438303 7:0.34534168 8:-1.2380693 9:0.49647483 10:0.69068718 11:-1.176231 12:0.48856932 13:0.82073152 14:-0.83961338 15:0.4768438 16:0.95077693 17:-0.50300717 18:0.46513942 21:0.17 24:0.34 25:0.035675999 26:-0.27459112 27:0.29412273 28:0.071359836 29:-0.54919112 30:0.24826381 31:0.078630485 32:-0.6812557 33:0.17630599 34:0.08590138 35:-0.81332654 36:0.10434961 #
-232.96424301138767987140454351902 2:-1.3 3:0.32438299 5:-1.3 6:0.50438303 7:-0.07846164 8:-1.1159297 9:0.49776444 10:-0.15692356 11:-0.93181789 12:0.491146 13:-0.11272856 14:-0.79024333 15:0.52829772 16:-0.068533659 17:-0.64866728 18:0.56544036 21:0.17 24:0.34 25:0.027550682 26:0.17900245 27:0.63822865 28:0.055100534 29:0.35800582 30:0.93644428 31:-0.021755923 32:0.023017401 33:0.88148153 34:-0.098613031 35:-0.31196707 36:0.82651544 #
42.817934309015143412580073345453 2:-1.3 3:0.32438299 5:-1.3 6:0.50438303 7:-0.22253875 8:-1.1266091 9:0.59743237 10:-0.44507733 11:-0.95323259 12:0.69048089 13:-0.019198619 14:-0.65659714 15:1.0557532 16:0.40668052 17:-0.3599622 18:1.4210222 21:0.17 24:0.34 25:-0.094292589 26:0.018179879 27:0.58063442 28:-0.18858409 29:0.036361173 30:0.82126349 31:-0.052720241 32:-0.49336034 33:0.91183972 34:0.083143175 35:-1.0230823 36:1.0024147 #
133.88381281276141976377402897924 2:-1.3 3:0.32438299 5:-1.3 6:0.50438303 7:0.074248701 8:-1.1553863 9:0.55732089 10:0.14849931 11:-1.0103749 12:0.61027384 13:0.091974735 14:-0.77658141 15:0.56465977 16:0.035448711 17:-0.54276621 18:0.51900285 21:0.17 24:0.34 25:-0.016153844 26:-0.13294117 27:0.356787 28:-0.032313079 29:-0.26587254 30:0.37349445 31:0.13635159 32:-0.25648901 33:0.66875261 34:0.30500841 35:-0.24707711 36:0.9639864 #
-333.28191170558602607343345880508 2:-1.3 3:0.32438299 5:-1.3 6:0.50438303 7:-0.036852065 8:-1.0465398 9:0.48704508 10:-0.073702767 11:-0.79320282 12:0.46970242 13:-0.13504665 14:-0.60749841 15:0.70445037 16:-0.19638814 17:-0.42179993 18:0.93920577 21:0.17 24:0.34 25:-0.115844 26:-0.23383835 27:0.4314318 28:-0.23168677 29:-0.4676775 30:0.52287889 31:-0.066600755 32:-0.74353981 33:0.34215304 34:0.098487698 35:-1.0194126 36:0.16143124 #
237.85467935248760795730049721897 2:-1.3 3:0.32438299 5:-1.3 6:0.50438303 7:0.0028363571 8:-1.0732663 9:0.51788354 10:0.0056711477 11:-0.84627974 12:0.53139496 13:0.11878645 14:-0.68205935 15:0.6454922 16:0.23189716 17:-0.51782417 18:0.75957417 21:0.17 24:0.34 25:-0.20448123 26:-0.20591679 27:0.46791661 28:-0.40896848 29:-0.41182807 30:0.59580016 31:-0.13133496 32:-0.43596455 33:0.58687848 34:0.14629053 35:-0.46007976 36:0.5779494 #
1.935211181094242061107024710509 2:-1.3 3:0.32438299 5:-1.3 6:0.50438303 7:-0.018703291 8:-1.2599012 9:0.62391549 10:-0.037406594 11:-1.2197726 12:0.74345219 13:0.013839202 14:-1.1926093 15:0.88056582 16:0.065084055 17:-1.165446 18:1.0176852 21:0.17 24:0.34 25:0.03637198 26:0.0097439066 27:0.43704745 28:0.072743818 29:0.019486107 30:0.53409868 31:0.024001317 32:0.033921111 33:0.72579336 34:-0.024741527 35:0.048354466 36:0.91748834 #
216.61151504885015128820668905973 2:-1.3 3:0.32438299 5:-1.3 6:0.50438303 7:-0.031183876 8:-1.1142806 9:0.5655356 10:-0.06236504 11:-0.92954564 12:0.62664944 13:-0.26178446 14:-0.82065159 15:0.64142603 16:-0.46119118 17:-0.7118206 18:0.65628374 21:0.17 24:0.34 25:-0.12818569 26:-0.2246877 27:0.45997682 28:-0.25635174 29:-0.44939223 30:0.58011132 31:-0.080210626 32:-0.55519468 33:0.4649156 34:0.095958285 35:-0.66107571 36:0.34976164 #
254.23674559267070094392693135887 2:-1.3 3:0.32438299 5:-1.3 6:0.50438303 7:0.16891666 8:-1.1621307 9:0.50443101 10:0.33783141 11:-1.0228623 12:0.50453407 13:0.034714591 14:-0.91560173 15:0.54091525 16:-0.26841912 17:-0.80825114 18:0.57717514 21:0.17 24:0.34 25:0.1925641 26:-0.23039721 27:0.49325678 28:0.38510016 29:-0.46075866 30:0.64627796 31:0.18145593 32:-0.37750918 33:0.56715387 34:-0.022227367 35:-0.29413852 36:0.48796856 #
4.3629112966045520138891333772335 2:-1.3 3:0.32438299 5:-1.3 6:0.50438303 7:-0.098566905 8:-1.0729768 9:0.63952237 10:-0.19713531 11:-0.84591454 12:0.77466506 13:-0.21132953 14:-0.83216816 15:0.9567343 16:-0.22552574 17:-0.81841213 18:1.1387974 21:0.17 24:0.34 25:0.26949582 26:-0.16671227 27:0.42087922 28:0.5389896 29:-0.33342037 30:0.5017463 31:0.46017027 32:-0.23247845 33:0.47347504 34:0.38134608 35:-0.13152486 36:0.44520169 #
206.00095029337637697608442977071 2:-1.3 3:0.32438299 5:-1.3 6:0.50438303 7:0.078234017 8:-1.1991968 9:0.49595454 10:0.15646714 11:-1.0981643 12:0.48753488 13:0.44656903 14:-1.1114866 15:0.75594431 16:0.73666948 17:-1.1247921 18:1.0243287 21:0.17 24:0.34 25:0.12919673 26:-0.16358562 27:0.43399966 28:0.25839025 29:-0.32716444 30:0.52795035 31:0.26403058 32:-0.41586319 33:0.6227563 34:0.26966363 35:-0.50453699 36:0.71755159 #
53.937976385872808293697744375095 2:-1.3 3:0.32438299 5:-1.3 6:0.50438303 7:0.26237646 8:-1.2326037 9:0.45831001 10:0.52475089 11:-1.1653816 12:0.41222781 13:0.29088166 14:-0.92359996 15:0.27428144 16:0.057012226 17:-0.68183559 18:0.13635466 21:0.17 24:0.34 25:0.039470956 26:-0.13489524 27:0.41559222 28:0.078946814 29:-0.26979503 30:0.49122503 31:-0.040497594 32:-0.48136491 33:0.31471452 34:-0.15993312 35:-0.69295549 36:0.13821599 #
9.6318154388110137631429097382352 2:-1.3 3:0.32438299 5:-1.3 6:0.50438303 7:-0.11931127 8:-1.0451313 9:0.43557912 10:-0.23862134 11:-0.79007012 12:0.3667841 13:-0.23802797 14:-0.79975772 15:0.24357803 16:-0.23743834 17:-0.80943751 18:0.12036863 21:0.17 24:0.34 25:0.11372841 26:-0.15950859 27:0.41830513 28:0.22745173 29:-0.31901988 30:0.49659783 31:0.21249379 32:-0.52020222 33:0.40446511 34:0.19753303 35:-0.72137874 36:0.31233045 #
86.390949484693749127472983673215 2:-1.3 3:0.32438299 5:-1.3 6:0.50438303 7:0.078302585 8:-1.0388494 9:0.43347266 10:0.15660886 11:-0.77590841 12:0.3626301 13:0.33880234 14:-0.6636039 15:0.64943653 16:0.52097696 17:-0.55121076 18:0.93611181 21:0.17 24:0.34 25:0.053121429 26:-0.21535867 27:0.42157343 28:0.1062094 29:-0.43068621 30:0.50288314 31:0.19760898 32:-0.59535789 33:0.39932764 34:0.2889742 35:-0.75991166 36:0.29570141 #
82.507492267234354699212417472154 2:-1.3 3:0.32438299 5:-1.3 6:0.50438303 7:0.028845381 8:-1.0081235 9:0.34721258 10:0.057689775 11:-0.71393836 12:0.19013017 13:0.051442333 14:-0.75924748 15:0.44496953 16:0.045171302 17:-0.80442667 18:0.69960386 21:0.17 24:0.34 25:0.037935924 26:-0.25717506 27:0.5810948 28:0.075825803 29:-0.51429319 30:0.82178915 31:0.21175045 32:-0.62615222 33:0.75209767 34:0.34761775 35:-0.73782134 36:0.68229568 #
53.7125434697259223071341693867 2:-1.3 3:0.32438299 5:-1.3 6:0.50438303 7:-0.33929092 8:-1.1570199 9:0.43613157 10:-0.67858052 11:-1.0145534 12:0.36786148 13:-0.28588176 14:-0.97605455 15:0.47217807 16:0.10682293 17:-0.93758237 18:0.57653421 21:0.17 24:0.34 25:-0.03541939 26:-0.13497673 27:0.48372418 28:-0.070829563 29:-0.26996216 30:0.62752312 31:-0.28489599 32:-0.49077529 33:0.52535671 34:-0.49895096 35:-0.7116254 36:0.42320907 #
4.7970658912288604014406701026019 2:-1.3 3:0.32438299 5:-1.3 6:0.50438303 7:0.073415525 8:-1.0976244 9:0.48615676 10:0.14683062 11:-0.89713371 12:0.46786234 13:0.31530946 14:-0.71828365 15:0.36060679 16:0.48380968 17:-0.53952533 18:0.25349358 21:0.17 24:0.34 25:0.0025719709 26:-0.25418976 27:0.39020526 28:0.0051779002 29:-0.50841099 30:0.44069037 31:0.020786773 32:-0.4446525 33:0.42563036 34:0.036430378 35:-0.38101855 36:0.41064608 #
11.980829649689841431836612173356 2:-1.3 3:0.32438299 5:-1.3 6:0.50438303 7:0.06055918 8:-0.82694006 9:0.36090162 10:0.12111535 11:-0.35288081 12:0.2174616 13:-0.17048238 14:-0.15642014 15:0.3751725 16:-0.4620944 17:0.040109958 18:0.53279352 21:0.17 24:0.34 25:-0.063601166 26:0.033144731 27:0.67060441 28:-0.12722509 29:0.066310674 30:1.0010355 31:-0.045919988 32:-0.37625131 33:0.84273177 34:0.035349034 35:-0.81871969 36:0.68438303 #
78.620335188683029059575346764177 2:-1.3 3:0.32438299 5:-1.3 6:0.50438303 7:-0.07743755 8:-1.1487941 9:0.37702593 10:-0.15487224 11:-0.99596518 12:0.2497303 13:-0.051931854 14:-0.65971792 15:0.46173021 16:0.050992921 17:-0.32338229 18:0.67358845 21:0.17 24:0.34 25:-0.031534445 26:-0.13462174 27:0.36483809 28:-0.063103974 29:-0.26921263 30:0.38939577 31:-0.25206602 32:-0.58620298 33:0.45789412 34:-0.44106877 35:-0.90306908 36:0.52631676 #
-149.91519567827668879544944502413 2:-1.3 3:0.32438299 5:-1.3 6:0.50438303 7:0.21550447 8:-1.1542476 9:0.68738925 10:0.43100923 11:-1.0071003 12:0.87044775 13:0.59060341 14:-0.80402231 15:0.75385994 16:0.75018209 17:-0.60086739 18:0.63715708 21:0.17 24:0.34 25:0.19517942 26:-0.057148218 27:0.49848208 28:0.39033118 29:-0.11426976 30:0.65673864 31:0.57244736 32:-0.52694643 33:0.59200984 34:0.75453281 35:-0.93951946 36:0.5272215 #
7.6854381203262223110073136922438 2:-1.3 3:0.32438299 5:-1.3 6:0.50438303 7:-0.16470158 8:-1.4384997 9:0.97720611 10:-0.32940158 11:-1.5784715 12:1.4499725 13:-0.22281261 14:-0.88839734 15:1.0895739 16:-0.11620677 17:-0.19841607 18:0.72931486 21:0.17 24:0.34 25:-0.21737355 26:-0.18779868 27:0.71894395 28:-0.43471637 29:-0.37562725 30:1.0981557 31:-0.33268484 32:-0.43255401 33:1.027374 34:-0.23061107 35:-0.48960534 36:0.95666629 #
-65.33387783600500142711098305881 2:-1.3 3:0.32438299 5:-1.3 6:0.50438303 7:-0.049464304 8:-1.1471112 9:0.39703891 10:-0.098929591 11:-0.99481207 12:0.28967014 13:-0.17107034 14:-0.8546645 15:0.37884006 16:-0.24320428 17:-0.71455806 18:0.46806136 21:0.17 24:0.34 25:-0.29303524 26:-0.063386813 27:0.36458597 28:-0.58605725 29:-0.12678637 30:0.38927329 31:-0.4127886 32:-0.42080995 33:0.54400796 34:-0.23950171 35:-0.71488309 36:0.69877028 #
98.395839966934985909574606921524 2:-1.3 3:0.32438299 5:-1.3 6:0.50438303 7:0.036172532 8:-1.2628897 9:0.46818906 10:0.072346367 11:-1.2287098 12:0.43188134 13:-0.13193433 14:-0.95707858 15:0.40381202 16:-0.33617941 17:-0.68561542 18:0.37596288 21:0.17 24:0.34 25:0.20110601 26:-0.085504435 27:0.39146006 28:0.40227291 29:-0.17106085 30:0.44336289 31:0.27344191 32:-0.53481376 33:0.57839125 34:0.1446799 35:-0.89878148 36:0.71353358 #
355.52932867755049528568633832037 2:-1.3 3:0.32438299 5:-1.3 6:0.50438303 7:-0.1072848 8:-1.0632679 9:0.48546147 10:-0.21456677 11:-0.82775009 12:0.46649161 13:-0.24114034 14:-0.59023929 15:0.68966776 16:-0.26769605 17:-0.35279971 18:0.91293395 21:0.17 24:0.34 25:-0.073090345 26:-0.30659878 27:0.40611389 28:-0.14615344 29:-0.61321259 30:0.47240677 31:-0.18153706 32:-0.41838875 33:0.60929918 34:-0.2168885 35:-0.22364998 36:0.74623919 #
146.87765024802226321298803668469 2:-1.3 3:0.32438299 5:-1.3 6:0.50438303 7:0.08727999 8:-1.0035417 9:0.47553492 10:0.17455691 11:-0.70826769 12:0.44663897 13:0.35182953 14:-0.66535938 15:0.53855771 16:0.5291149 17:-0.62251312 18:0.63055938 21:0.17 24:0.34 25:0.076782487 26:-0.36540079 27:0.11214422 28:0.15358917 29:-0.73082334 30:-0.11553648 31:0.3477512 32:-0.68055725 33:0.45378503 34:0.5419398 35:-0.63037229 36:1.0231532 #
100.77392251585398241786606376991 2:-1.3 3:0.32438299 5:-1.3 6:0.50438303 7:-0.071978703 8:-0.95281744 9:0.47832903 10:-0.14395778 11:-0.60475636 12:0.45231214 13:0.30104506 14:-1.0567499 15:0.59888685 16:0.74603891 17:-1.5086857 18:0.74538058 21:0.17 24:0.34 25:-0.007827092 26:-0.25826669 27:0.2158398 28:-0.015673421 29:-0.51651442 30:0.091516167 31:-0.047596619 32:-0.73381674 33:0.20105241 34:-0.079545803 35:-0.95104355 36:0.3105422 #
22.939935275790933388861958519556 2:-1.3 3:0.32438299 5:-1.3 6:0.50438303 7:0.034613218 8:-1.0733452 9:0.38569182 10:0.069229707 11:-0.84583396 12:0.26703304 13:0.066629358 14:-0.55248123 15:0.31337929 16:0.0640219 17:-0.25908038 18:0.35964975 21:0.17 24:0.34 25:-0.080587976 26:-0.21378601 27:0.23683898 28:-0.16119766 29:-0.42755491 30:0.13352658 31:-0.032325361 32:-0.73308486 33:0.15666308 34:0.096523583 35:-1.0385456 36:0.17976321 #
91.458834634373928906825312878937 2:-1.3 3:0.32438299 5:-1.3 6:0.50438303 7:-0.0098805213 8:-1.0342768 9:0.59155911 10:-0.019763181 11:-0.76758546 12:0.67877483 13:-0.25558048 14:-0.62230134 15:0.6407814 16:-0.49141315 17:-0.47696036 18:0.60272503 21:0.17 24:0.34 25:-0.021767331 26:-0.020498147 27:0.49177721 28:-0.043559145 29:-0.040985081 30:0.64342159 31:-0.22954135 32:-0.0567673 33:0.69333816 34:-0.41555116 35:-0.072476074 36:0.74322271 #
0.74070046143067491684064407309052 2:-1.3 3:0.32438299 5:-1.3 6:0.50438303 7:-0.14103074 8:-1.2252971 9:0.43424919 10:-0.28205797 11:-1.1528639 12:0.36402792 13:-0.2661761 14:-0.79313928 15:0.35881302 16:-0.25026721 17:-0.43355027 18:0.35379156 21:0.17 24:0.34 25:-0.049942043 26:-0.039214578 27:0.5537973 28:-0.099836223 29:-0.078481145 30:0.76797962 31:-0.20643879 32:-0.32282504 33:0.71957421 34:-0.31298199 35:-0.56735915 36:0.67126799 #
-197.12049309878815961383224930614 2:-1.3 3:0.32438299 5:-1.3 6:0.50438303 7:0.053050019 8:-0.99790055 9:0.3864378 10:0.10609718 11:-0.69433159 12:0.2685498 13:-0.18444182 14:-0.81391531 15:0.43660489 16:-0.47500029 17:-0.93341398 18:0.60453314 21:0.17 24:0.34 25:-0.0084401136 26:-0.11228664 27:0.37360844 28:-0.016912896 29:-0.22454846 30:0.40697801 31:-0.097394191 32:-0.32088831 33:0.48297951 34:-0.17791459 35:-0.4171201 36:0.55891395 #
-92.891491914524237927253125235438 2:-1.3 3:0.32438299 5:-1.3 6:0.50438303 7:-0.013002619 8:-1.2451333 9:0.63718081 10:-0.026008936 11:-1.1903173 12:0.76997215 13:0.044035595 14:-0.85536784 15:0.76964492 16:0.1140743 17:-0.52042341 18:0.76934403 21:0.17 24:0.34 25:0.15544933 26:-0.091899887 27:0.58866143 28:0.31089455 29:-0.18380724 30:0.83737338 31:0.22726347 32:-0.27936721 33:0.88959879 34:0.14363541 35:-0.37493715 36:0.94184679 #
-47.67176379628949689504224807024 2:-1.3 3:0.32438299 5:-1.3 6:0.50438303 7:-0.1674116 8:-1.1050279 9:0.67032534 10:-0.33481809 11:-0.91030747 12:0.83625734 13:-0.050495893 14:-0.85120732 15:0.61407274 16:0.23383498 17:-0.79211432 18:0.39187324 21:0.17 24:0.34 25:-0.1836099 26:-0.087794475 27:0.4001753 28:-0.36721694 29:-0.17558658 30:0.46033832 31:-0.38270596 32:-0.44026333 33:0.54595506 34:-0.39819473 35:-0.70494699 36:0.63156605 #
-14.00345177529025342266777443001 2:-1.3 3:0.32438299 5:-1.3 6:0.50438303 7:-0.0755473 8:-1.0571803 9:0.29309538 10:-0.15109257 11:-0.81414133 12:0.081821673 13:-0.46959615 14:-0.87040412 15:0.49744219 16:-0.7881006 17:-0.92664939 18:0.91303676 21:0.17 24:0.34 25:0.017493902 26:-0.27543721 27:0.13251081 28:0.034982793 29:-0.55086601 30:-0.075043231 31:0.78806376 32:-0.60480785 33:0.34285438 34:1.5411334 35:-0.65872133 36:0.76073527 #
-77.148346839806706043418671470135 2:-1.3 3:0.32438299 5:-1.3 6:0.50438303 7:-0.08593522 8:-0.97468197 9:0.61675698 10:-0.171872 11:-0.64834309 12:0.72917145 13:0.027939329 14:-0.27119982 15:0.64009893 16:0.22773746 17:0.10600729 18:0.55094355 21:0.17 24:0.34 25:-0.026775345 26:-0.048165917 27:0.64028281 28:-0.053573053 29:-0.096308686 30:0.94039714 31:0.0052858009 32:-0.28037813 33:1.0398026 34:0.064117923 35:-0.46436271 36:1.1391654 #
190.3872601103899739882763242349 2:-1.3 3:0.32438299 5:-1.3 6:0.50438303 7:-0.18856443 8:-1.1597691 9:0.65416974 10:-0.37712786 11:-1.0170395 12:0.80405593 13:-0.33387384 14:-0.91931623 15:0.91544336 16:-0.29064533 17:-0.82144344 18:1.0266113 21:0.17 24:0.34 25:0.059215594 26:-0.044914305 27:0.52524781 28:0.11838187 29:-0.089771181 30:0.7100572 31:0.021072691 32:-0.39361101 33:0.6996392 34:-0.076298468 35:-0.69724721 36:0.68910331 #
-79.341704431697579025239974725991 2:-1.3 3:0.32438299 5:-1.3 6:0.50438303 7:0.11633986 8:-1.0579991 9:0.76743376 10:0.23267752 11:-0.81639582 12:1.0304687 13:0.40218687 14:-0.83618671 15:0.75322038 16:0.57169843 17:-0.85599566 18:0.4760069 21:0.17 24:0.34 25:-0.10021123 26:-0.10575526 27:0.51967061 28:-0.20041555 29:-0.21151684 30:0.69941163 31:-0.34755597 32:-0.10955156 33:0.873891 34:-0.49468756 35:-0.0076100328 36:1.048393 #
-54.100662460200581449498713482171 2:-1.3 3:0.32438299 5:-1.3 6:0.50438303 7:-0.12172615 8:-1.094559 9:0.21848197 10:-0.24345237 11:-0.88757318 12:-0.067355178 13:0.082115032 14:-0.6742388 15:0.51690578 16:0.4076651 17:-0.46081144 18:1.1010371 21:0.17 24:0.34 25:-0.15283467 26:0.027973218 27:0.41818106 28:-0.30570209 29:0.055979401 30:0.496095 31:-0.064017765 32:-0.42990658 33:0.79456657 34:0.17762358 35:-0.91567039 36:1.0929648 #
97.196332096826409951972891576588 2:-1.3 3:0.32438299 5:-1.3 6:0.50438303 7:0.11381838 8:-1.2156292 9:0.70499283 10:0.22763558 11:-1.1324865 12:0.90555567 13:0.25846729 14:-0.84843254 15:0.90626979 16:0.28931293 17:-0.56443977 18:0.90707839 21:0.17 24:0.34 25:0.059201796 26:-0.13373013 27:0.25331703 28:0.11842729 29:-0.26748365 30:0.16681692 31:0.29023415 32:-0.57233441 33:0.37001839 34:0.46206945 35:-0.87726694 36:0.57327199 #
100.48991381598654015760985203087 2:-1.3 3:0.32438299 5:-1.3 6:0.50438303 7:0.12481385 8:-1.0206456 9:0.67414868 10:0.24961889 11:-0.73772585 12:0.84405452 13:0.048435841 14:-0.7657817 15:0.55823255 16:-0.15279566 17:-0.7936365 18:0.27214429 21:0.17 24:0.34 25:0.040657841 26:-0.06694442 27:0.46882236 28:0.0812409 29:-0.13382562 30:0.5970937 31:-0.15469016 32:-0.30878142 33:0.37669808 34:-0.39070913 35:-0.48346016 36:0.15616016 #
-8.9651081978172282305195039953105 2:-1.3 3:0.32438299 5:-1.3 6:0.50438303 7:-0.12151414 8:-1.0718763 9:0.46736071 10:-0.24302961 11:-0.84609962 12:0.43024856 13:-0.10467121 14:-0.80249035 15:0.61711544 16:0.033708759 17:-0.75901121 18:0.80418807 21:0.17 24:0.34 25:-0.075867847 26:-0.17109464 27:0.21150367 28:-0.15169111 29:-0.34224752 30:0.083420739 31:-0.22292489 32:-0.32653916 33:0.31315079 34:-0.29410583 35:-0.3110221 36:0.542988 #
-138.81282880477138519381696823984 2:-1.3 3:0.32438299 5:-1.3 6:0.50438303 7:-0.038623773 8:-0.95496327 9:0.27556807 10:-0.07725516 11:-0.61035311 12:0.04674593 13:0.2829676 14:-0.96884269 15:0.39917815 16:0.64319807 17:-1.3273125 18:0.75158453 21:0.17 24:0.34 25:0.14751892 26:-0.27898371 27:0.11246546 28:0.29504368 29:-0.55794656 30:-0.11512294 31:0.092947163 32:-0.83575267 33:0.048406094 34:-0.10916207 35:-1.113517 36:0.21191821 #
297.40543312096946237943484447896 2:-1.3 3:0.32438299 5:-1.3 6:0.50438303 7:0.14118908 8:-1.1462264 9:0.30479732 10:0.28238124 11:-0.99393082 12:0.10515352 13:0.32740042 14:-0.88721311 15:0.30122489 16:0.37243137 17:-0.78057802 18:0.49744642 21:0.17 24:0.34 25:0.094302341 26:-0.10698316 27:0.46243978 28:0.18862945 29:-0.21401444 30:0.58515269 31:0.24898472 32:-0.42655209 33:0.60304886 34:0.3093802 35:-0.63921326 36:0.62102991 #
-223.59279541041433958525885827839 2:-1.3 3:0.32438299 5:-1.3 6:0.50438303 7:-0.1384673 8:-1.1597162 9:0.56886387 10:-0.27694777 11:-1.0180769 12:0.63340223 13:-0.1615455 14:-0.95915204 15:0.60359997 16:-0.046167638 17:-0.90012819 18:0.57371348 21:0.17 24:0.34 25:0.079775557 26:-0.270073 27:0.4224208 28:0.15952469 29:-0.54012269 30:0.50466377 31:-0.0090497369 32:-0.61451662 33:0.37924269 34:-0.17767353 35:-0.68878454 36:0.25378275 #
32.949408935592444436224468518049 2:-1.3 3:0.32438299 5:-1.3 6:0.50438303 7:0.14310816 8:-1.3232613 9:0.50850129 10:0.28622523 11:-1.3449374 12:0.51267916 13:0.30016503 14:-1.1427711 15:0.58361834 16:0.31410363 17:-0.94052941 18:0.65436399 21:0.17 24:0.34 25:0.10048166 26:-0.20546828 27:0.42384657 28:0.2009366 29:-0.41087872 30:0.50735056 31:0.21023396 32:-0.57956892 33:0.40216804 34:0.21949375 35:-0.7481389 36:0.29687309 #
14.516853835068294742427497112658 2:-1.3 3:0.32438299 5:-1.3 6:0.50438303 7:-0.23191692 8:-1.1177282 9:0.57900256 10:-0.46383399 11:-0.93584555 12:0.65360492 13:-0.35599509 14:-0.62198615 15:0.83407098 16:-0.24815194 17:-0.30814993 18:1.0145707 21:0.17 24:0.34 25:0.16856234 26:-0.077908881 27:0.56751144 28:0.3371318 29:-0.15582989 30:0.79509658 31:0.32146052 32:-0.34339118 33:0.35877916 34:0.3058013 35:-0.53099197 36:-0.077519313 #
-378.64613991670410086953779682517 2:-1.3 3:0.32438299 5:-1.3 6:0.50438303 7:0.1327246 8:-1.1424376 9:0.5893749 10:0.26543659 11:-0.98309976 12:0.6744324 13:0.33889401 14:-0.79133368 15:0.71629578 16:0.41231668 17:-0.59946626 18:0.75808185 21:0.17 24:0.34 25:0.034725528 26:-0.13768372 27:0.46255341 28:0.069421522 29:-0.27535763 30:0.58492541 31:0.10779309 32:-0.50213969 33:0.67213327 34:0.14613064 35:-0.72879887 36:0.75930887 #
-151.59547359356488982484734151512 2:-1.3 3:0.32438299 5:-1.3 6:0.50438303 7:0.012958194 8:-1.1193277 9:0.68925387 10:0.025942586 11:-0.94263202 12:0.87397403 13:-0.018606074 14:-1.136957 15:0.64433426 16:-0.063077852 17:-1.3315196 18:0.4148775 21:0.17 24:0.34 25:0.013057083 26:-0.30294383 27:0.45125845 28:0.026187679 29:-0.60591155 30:0.5629499 31:-0.072736457 32:-0.61577153 33:0.72550422 34:-0.17157501 35:-0.62592256 36:0.88813788 #
171.62330156796656410733703523874 2:-1.3 3:0.32438299 5:-1.3 6:0.50438303 7:0.099264346 8:-1.0864067 9:0.53891957 10:0.19852261 11:-0.87119758 12:0.57351786 13:0.02207342 14:-0.67279649 15:0.37915659 16:-0.15439941 17:-0.47430357 18:0.18469787 21:0.17 24:0.34 25:0.17247127 26:0.052601781 27:0.24973254 28:0.34491411 29:0.10522214 30:0.15926228 31:0.22549196 32:-0.14147052 33:0.32999644 34:0.10603724 35:-0.3880516 36:0.50068492 #
52.798115661078462323985149851069 2:-1.3 3:0.32438299 5:-1.3 6:0.50438303 7:-0.10379574 8:-0.94959068 9:0.46321538 10:-0.20759892 11:-0.60335886 12:0.42189598 13:-0.092532516 14:-0.60478431 15:0.38791335 16:0.02256958 17:-0.60644156 18:0.35431817 21:0.17 24:0.34 25:-0.062267829 26:-0.31242695 27:0.45969594 28:-0.12445266 29:-0.62494129 30:0.58014321 31:-0.25707239 32:-0.74668545 33:0.5927816 34:-0.38959759 35:-0.86875319 36:0.60561842 #
5.5698321697968706800452309835237 2:-1.3 3:0.32438299 5:-1.3 6:0.50438303 7:0.19427718 8:-0.95693117 9:0.39979637 10:0.38854221 11:-0.61250198 12:0.29526198 13:0.071375802 14:-0.47248766 15:0.41028136 16:-0.2458151 17:-0.33238828 18:0.52521956 21:0.17 24:0.34 25:0.053458419 26:-0.21591592 27:0.77721864 28:0.10689395 29:-0.43180948 30:1.2142698 31:-0.063099287 32:-0.43865785 33:1.0676625 34:-0.23312923 35:-0.4453944 36:0.92101711 #
28.1817139309559081539191538468 2:-1.3 3:0.32438299 5:-1.3 6:0.50438303 7:0.12415706 8:-1.162871 9:0.60703909 10:0.24832088 11:-1.0258993 12:0.70969206 13:0.25946444 14:-0.65809619 15:0.52608204 16:0.27061632 17:-0.29029667 18:0.34244257 21:0.17 24:0.34 25:0.096904643 26:-0.20767654 27:0.22377695 28:0.19380397 29:-0.41534093 30:0.10750726 31:0.33917889 32:-0.51688367 33:0.13214211 34:0.48454657 35:-0.6184206 36:0.15676065 #
-38.85527605552017860190971987322 2:-1.3 3:0.32438299 5:-1.3 6:0.50438303 7:-0.076544374 8:-1.2047907 9:0.56327671 10:-0.15312158 11:-1.1055082 12:0.62232381 13:-0.0018646441 14:-0.74396378 15:0.5248158 16:0.1493016 17:-0.38218009 18:0.42719567 21:0.17 24:0.34 25:0.0025121279 26:-0.31357253 27:0.5617789 28:0.0049525551 29:-0.62715167 30:0.78324002 31:0.2678864 32:-0.50733793 33:0.63591456 34:0.530738 35:-0.3872579 36:0.4885546 #
21.195363396152668400418406235985 2:-1.3 3:0.32438299 5:-1.3 6:0.50438303 7:-0.0070962822 8:-1.2003688 9:0.42149404 10:-0.014186551 11:-1.1032966 12:0.33850181 13:-0.13691738 14:-1.0212778 15:0.67163426 16:-0.25961822 17:-0.93943113 18:1.0049978 21:0.17 24:0.34 25:-0.13825482 26:-0.24251252 27:0.48017302 28:-0.27645695 29:-0.48508349 30:0.62078762 31:0.033196546 32:-0.30689877 33:0.42261109 34:0.34293261 35:-0.12893967 36:0.22455747 #
54.430549143681332679989282041788 2:-1.3 3:0.32438299 5:-1.3 6:0.50438303 7:-0.28019521 8:-1.3311151 9:0.50043064 10:-0.56039655 11:-1.361398 12:0.49650779 13:-0.59978205 14:-1.1827923 15:0.69875324 16:-0.63918179 17:-1.0041364 18:0.90094256 21:0.17 24:0.34 25:-0.091253817 26:-0.17635782 27:0.3691358 28:-0.18252568 29:-0.35270724 30:0.39816093 31:-0.222442 32:-0.60913062 33:0.48160395 34:-0.26238123 35:-0.86549067 36:0.56502271 #
-257.85383655394031165997148491442 2:-1.3 3:0.32438299 5:-1.3 6:0.50438303 7:-0.13255194 8:-1.1254975 9:0.43602023 10:-0.26510245 11:-0.95115489 12:0.36765182 13:-0.17719062 14:-0.64306468 15:0.4613781 16:-0.089272656 17:-0.33497688 18:0.55507761 21:0.17 24:0.34 25:-0.11160856 26:-0.079072952 27:0.49141899 28:-0.22321711 29:-0.15813184 30:0.64280993 31:-0.18754892 32:-0.29125497 33:0.31040591 34:-0.15188488 35:-0.42437619 36:-0.0220147 #
-53.069711258987837254608166404068 2:-1.3 3:0.32438299 5:-1.3 6:0.50438303 7:0.12064868 8:-1.0261843 9:0.40445548 10:0.2412892 11:-0.75050867 12:0.30459979 13:0.23478955 14:-0.50045294 15:0.42482775 16:0.22826523 17:-0.25029561 18:0.5449115 21:0.17 24:0.34 25:-0.059202075 26:0.056915466 27:0.6202113 28:-0.11843587 29:0.11386125 30:0.90013856 31:-0.13770524 32:-0.22088043 33:0.6130119 34:-0.15702011 35:-0.5554859 36:0.32580236 #
101.16981560985838939359382493421 2:-1.3 3:0.32438299 5:-1.3 6:0.50438303 7:0.15704733 8:-1.1568276 9:0.5798434 10:0.3140696 11:-1.0093014 12:0.65546817 13:0.31505576 14:-0.77891433 15:0.51887721 16:0.31596807 17:-0.54827923 18:0.3820377 21:0.17 24:0.34 25:-0.065136828 26:-0.21957001 27:0.29869506 28:-0.13034859 29:-0.43909705 30:0.25686646 31:-0.17755757 32:-0.78481036 33:0.43164575 34:-0.22486146 35:-1.1302166 36:0.60630518 #
227.43800038473190738841367419809 2:-1.3 3:0.32438299 5:-1.3 6:0.50438303 7:-0.054666307 8:-1.1656256 9:0.4847801 10:-0.10928497 11:-1.0364475 12:0.46499002 13:0.16145842 14:-1.0054454 15:0.35509208 16:0.43233171 17:-0.97475392 18:0.24523972 21:0.17 24:0.34 25:0.088196017 26:-0.15201809 27:0.47728902 28:0.17647938 29:-0.30397829 30:0.61484808 31:0.26484674 32:-0.28196296 33:0.67230254 34:0.35330248 35:-0.2602725 36:0.72973037 #
100.48431487050552846085338387638 2:-1.3 3:0.32438299 5:-1.3 6:0.50438303 7:0.083636545 8:-1.0332698 9:0.4242602 10:0.16725925 11:-0.76481575 12:0.34420374 13:0.078549415 14:-0.73701948 15:0.35152045 16:-0.010186947 17:-0.70910901 18:0.35870725 21:0.17 24:0.34 25:-0.11508567 26:-0.080905527 27:0.43267035 28:-0.23019882 29:-0.16177168 30:0.52508658 31:-0.40771151 32:-0.20077534 33:0.76265097 34:-0.58527291 35:-0.23962791 36:1.0001531 #
-118.78960582553929725690977647901 2:-1.3 3:0.32438299 5:-1.3 6:0.50438303 7:0.34778053 8:-1.1760067 9:0.52122271 10:0.69554454 11:-1.0477219 12:0.53822798 13:0.3956084 14:-0.79118729 15:0.63676256 16:0.09561272 17:-0.53441811 18:0.7350015 21:0.17 24:0.34 25:0.154128 26:-0.12473978 27:0.37530711 28:0.3081837 29:-0.24940501 30:0.41001844 31:0.39477694 32:-0.59189671 33:0.67537993 34:0.48127404 35:-0.93407327 36:0.94058472 #
1.3521684109009914909194094434497 2:-1.3 3:0.32438299 5:-1.3 6:0.50438303 7:0.18243223 8:-1.0741185 9:0.44297835 10:0.36486509 11:-0.84594226 12:0.38166121 13:0.25090203 14:-0.98256505 15:0.74260736 16:0.13691555 17:-1.1190611 18:1.1033539 21:0.17 24:0.34 25:0.068168491 26:-0.11205332 27:0.53980285 28:0.13629077 29:-0.22405343 30:0.73921919 31:-0.23199809 32:-0.25177607 33:0.5241099 34:-0.60034066 35:-0.27932248 36:0.30889347 #
-174.40182498690853662992594763637 2:-1.3 3:0.32438299 5:-1.3 6:0.50438303 7:-0.022194726 8:-1.2108226 9:0.63769633 10:-0.044386093 11:-1.124184 12:0.77091151 13:-0.31040096 14:-0.96284062 15:0.75273532 16:-0.57638752 17:-0.80165511 18:0.7347737 21:0.17 24:0.34 25:0.074791662 26:-0.29968825 27:0.16222472 28:0.14963421 29:-0.59943485 30:-0.015120049 31:-0.26816776 32:-0.52210242 33:0.53559315 34:-0.68589967 35:-0.44499025 36:1.0864146 #
-15.509872449817960315954223915469 2:-1.3 3:0.32438299 5:-1.3 6:0.50438303 7:0.20276845 8:-1.0211807 9:0.46613348 10:0.40554374 11:-0.74362034 12:0.42783457 13:0.33271992 14:-1.0337275 15:0.37151429 16:0.25991994 17:-1.3239185 18:0.31524071 21:0.17 24:0.34 25:0.027500944 26:-0.26668832 27:0.40921026 28:0.055022117 29:-0.5333817 30:0.47855502 31:0.079427563 32:-0.77409232 33:0.90416962 34:0.1038589 35:-1.0149035 36:1.3298018 #
-153.21110059254417024021677207202 2:-1.3 3:0.32438299 5:-1.3 6:0.50438303 7:0.00023662321 8:-1.151147 9:0.55684668 10:0.00046724858 11:-1.0039648 12:0.60924685 13:0.030549485 14:-0.85434133 15:0.54883879 16:0.060627002 17:-0.70481557 18:0.48870263 21:0.17 24:0.34 25:0.14144218 26:-0.21026021 27:0.41550669 28:0.28291988 29:-0.42061457 30:0.49145806 31:0.22932847 32:-0.56137007 33:0.61532468 34:0.17580131 35:-0.70228851 36:0.73934031 #
-17.019371828601332907737742061727 2:-1.3 3:0.32438299 5:-1.3 6:0.50438303 7:0.14259093 8:-0.95575482 9:0.1473597 10:0.28519469 11:-0.61172628 12:-0.20966794 13:0.19868532 14:-0.85181093 15:0.097988293 16:0.11217692 17:-1.0918977 18:0.40568218 21:0.17 24:0.34 25:0.017830638 26:-0.24020287 27:0.70511645 28:0.03565399 29:-0.48042366 30:1.0702552 31:0.2786395 32:-0.59722102 33:0.94547224 34:0.52163482 35:-0.71402496 36:0.82070678 #
-77.632962751424798852895037271082 2:-1.3 3:0.32438299 5:-1.3 6:0.50438303 7:-0.23941411 8:-1.1693627 9:0.49834207 10:-0.47888264 11:-1.0350977 12:0.49241766 13:-0.11369947 14:-0.87188131 15:0.52538443 16:0.25135446 17:-0.70847833 18:0.55851358 21:0.17 24:0.34 25:0.091900028 26:-0.14545494 27:0.27902061 28:0.18375799 29:-0.29103169 30:0.21813037 31:0.26281565 32:-0.63504332 33:0.38263863 34:0.34187412 35:-0.97889572 36:0.54727769 #
-200.50557234274637607995828147978 2:-1.3 3:0.32438299 5:-1.3 6:0.50438303 7:-0.0043120845 8:-1.3080136 9:0.75351393 10:-0.0086314874 11:-1.3137188 12:1.002735 13:-0.23480457 14:-1.0579357 15:0.78822809 16:-0.46100718 17:-0.80201125 18:0.57354963 21:0.17 24:0.34 25:-0.079515822 26:-0.20756784 27:0.22388966 28:-0.15907393 29:-0.41509327 30:0.10743045 31:-0.24111049 32:-0.52480441 33:0.24674952 34:-0.3232035 35:-0.63432896 36:0.38598341 #
172.56281539418742454472521785647 2:-1.3 3:0.32438299 5:-1.3 6:0.50438303 7:-0.20676622 8:-1.1047763 9:0.49903759 10:-0.41347402 11:-0.9084208 12:0.49375212 13:-0.21782425 14:-0.66030902 15:0.36225352 16:-0.022054633 17:-0.4121182 18:0.22992469 21:0.17 24:0.34 25:-0.13998005 26:-0.095476851 27:0.4087556 28:-0.28001651 29:-0.19061238 30:0.47630554 31:0.034385193 32:-0.4722642 33:0.56010586 34:0.34863111 35:-0.75364339 36:0.64341122 #
-95.596566808357579247967805713415 2:-1.3 3:0.32438299 5:-1.3 6:0.50438303 7:0.13746542 8:-1.2603587 9:0.47235158 10:0.27494171 11:-1.2252046 12:0.44013795 13:0.20819841 14:-0.70420837 15:0.55321175 16:0.14150622 17:-0.18347387 18:0.66664577 21:0.17 24:0.34 25:0.019743359 26:-0.054736733 27:0.66118985 28:0.039558236 29:-0.10956856 30:0.98312503 31:-0.03413412 32:-0.1277377 33:1.0340962 34:-0.10772335 35:-0.14626686 36:1.0852748 #
-295.90753037882637954680831171572 2:-1.3 3:0.32438299 5:-1.3 6:0.50438303 7:0.056287255 8:-1.1619421 9:0.57207894 10:0.11258152 11:-1.0200742 12:0.63991404 13:-0.10497204 14:-0.81812102 15:0.89032829 16:-0.32250819 17:-0.61592191 18:1.1400442 21:0.17 24:0.34 25:-0.0063653556 26:-0.1592412 27:0.4826335 28:-0.012804782 29:-0.31823468 30:0.6241771 31:-0.025219306 32:-0.49872416 33:0.80868846 34:-0.037807304 35:-0.67880183 36:0.99283189 #
136.74011673381923515080416109413 2:-1.3 3:0.32438299 5:-1.3 6:0.50438303 7:0.072629079 8:-1.1295298 9:0.21814427 10:0.1452277 11:-0.95686644 12:-0.068019263 13:0.45965853 14:-1.1137087 15:0.2803587 16:0.77400196 17:-1.2704546 18:0.62891161 21:0.17 24:0.34 25:0.076725625 26:-0.21591249 27:0.28882119 28:0.15342161 29:-0.43193683 30:0.2378 31:0.092357263 32:-0.50040209 33:0.63640022 34:0.031304508 35:-0.56881088 36:1.0351173 #
366.07069159878921027484466321766 2:-1.3 3:0.32438299 5:-1.3 6:0.50438303 7:-0.092394814 8:-1.0973988 9:0.50168616 10:-0.18477292 11:-0.89579219 12:0.49894762 13:0.007581288 14:-0.59312928 15:0.35659069 16:0.20000383 17:-0.29052043 18:0.21398814 21:0.17 24:0.34 25:0.11250963 26:-0.21405317 27:0.32168987 28:0.22503658 29:-0.42798182 30:0.30312049 31:0.30442089 32:-0.28628418 33:0.42184761 34:0.38377509 35:-0.14457801 36:0.54043096 #
39.572006233590599322269554249942 2:-1.3 3:0.32438299 5:-1.3 6:0.50438303 7:0.076555789 8:-1.0411975 9:0.44498172 10:0.15307561 11:-0.78088087 12:0.38563535 13:0.33429858 14:-0.63384074 15:0.62103134 16:0.51543182 17:-0.48671749 18:0.85669219 21:0.17 24:0.34 25:0.18798085 26:-0.12532496 27:0.40998361 28:0.37594441 29:-0.25078177 30:0.48026782 31:0.36633146 32:-0.14037213 33:0.49148399 34:0.35673887 35:-0.02993991 36:0.50286841 #
106.85486263876585155685461359099 2:-1.3 3:0.32438299 5:-1.3 6:0.50438303 7:-0.16062266 8:-1.1425712 9:0.63312805 10:-0.32120836 11:-0.98091853 12:0.76205117 13:0.10180651 14:-0.76994032 15:0.51970845 16:0.52484053 17:-0.55868977 18:0.27668387 21:0.17 24:0.34 25:0.014531096 26:-0.3094078 27:0.33278772 28:0.028958537 29:-0.61859 30:0.32437757 31:-0.017705642 32:-0.67083508 33:0.24101338 34:-0.064545788 35:-0.72263914 36:0.15727174 #
35.413127438192347540280024986714 2:-1.3 3:0.32438299 5:-1.3 6:0.50438303 7:0.20921701 8:-1.1753893 9:0.3603673 10:0.41845837 11:-1.0537337 12:0.21624635 13:0.093280077 14:-0.82680637 15:0.56007719 16:-0.2317716 17:-0.59996516 18:0.90353495 21:0.17 24:0.34 25:-0.12787223 26:-0.21779117 27:0.30483779 28:-0.25570861 29:-0.43537378 30:0.26933748 31:-0.017976336 32:-0.66405988 33:0.49400997 34:0.21967679 35:-0.89274353 36:0.71847701 #
-59.253277807467107152206153841689 2:-1.3 3:0.32438299 5:-1.3 6:0.50438303 7:0.12999579 8:-1.1061479 9:0.6302011 10:0.25997689 11:-0.91224605 12:0.75601685 13:-0.11379758 14:-0.78983521 15:0.57935143 16:-0.48760393 17:-0.66743195 18:0.40284806 21:0.17 24:0.34 25:-0.49013272 26:0.095883466 27:0.40034553 28:-0.98026133 29:0.19169663 30:0.4609029 31:-0.60416877 32:-0.17838527 33:0.53533292 34:-0.22804004 35:-0.54850662 36:0.60986114 #
166.30260296279138287900423165411 2:-1.3 3:0.32438299 5:-1.3 6:0.50438303 7:-0.10779352 8:-1.1196306 9:0.58701038 10:-0.21556358 11:-0.94322497 12:0.66948593 13:-0.19127396 14:-0.79470927 15:0.66936278 16:-0.1668667 17:-0.64643019 18:0.66915846 21:0.17 24:0.34 25:0.15676168 26:-0.14044616 27:0.50641865 28:0.31359628 29:-0.28079528 30:0.672966 31:0.078434378 32:-0.22297986 33:0.67623806 34:-0.15669964 35:-0.16539904 36:0.6794368 #
-86.595547469433228116031386889517 2:-1.3 3:0.32438299 5:-1.3 6:0.50438303 7:-0.019348493 8:-0.96892095 9:0.62254202 10:-0.038694154 11:-0.63561583 12:0.74078554 13:-0.44140637 14:-0.91252851 15:0.71034801 16:-0.84412944 17:-1.1893073 18:0.67963946 21:0.17 24:0.34 25:-0.12699656 26:-0.18057589 27:0.3106786 28:-0.25403702 29:-0.36106816 30:0.2808837 31:-0.19460653 32:-0.71628743 33:0.51398575 34:-0.13524844 35:-1.0713083 36:0.74694365 #
336.5084891359869061489007435739 2:-1.3 3:0.32438299 5:-1.3 6:0.50438303 7:-0.014766348 8:-1.0358773 9:0.52423966 10:-0.029587395 11:-0.76940459 12:0.54418212 13:0.086821988 14:-0.63440198 15:0.5742172 16:0.20308645 17:-0.4992443 18:0.60466391 21:0.17 24:0.34 25:-0.18846928 26:-0.18731083 27:0.33755055 28:-0.37697241 29:-0.37483767 30:0.33553794 31:-0.18126985 32:-0.15568322 33:0.65715051 34:0.014459213 35:0.063539691 36:0.9790327 #
70.000248122364382652449421584606 2:-1.3 3:0.32438299 5:-1.3 6:0.50438303 7:-0.15385219 8:-1.170415 9:0.48032659 10:-0.30770987 11:-1.035933 12:0.45646706 13:-0.26769552 14:-0.74016643 15:0.61125296 16:-0.22780642 17:-0.44413251 18:0.7661097 21:0.17 24:0.34 25:-0.20562795 26:-0.00054493448 27:0.47478426 28:-0.41135618 29:-0.0012007954 30:0.60930777 31:-0.33157331 32:-0.08178734 33:0.60698712 34:-0.25181299 35:-0.16209562 36:0.60471851 #
-73.052146669013325208652531728148 2:-1.3 3:0.32438299 5:-1.3 6:0.50438303 7:-0.068835966 8:-1.113441 9:0.6320985 10:-0.13769075 11:-0.92465073 12:0.75989348 13:-0.33171386 14:-1.0758244 15:0.49073607 16:-0.52581245 17:-1.2268666 18:0.22165902 21:0.17 24:0.34 25:-0.018722046 26:-0.12803721 27:0.37555572 28:-0.037484098 29:-0.25614545 30:0.41111308 31:-0.13474752 32:-0.45951822 33:0.5217129 34:-0.23202236 35:-0.66277289 36:0.63238537 #
-7.5684614022024465640470225480385 2:-1.3 3:0.32438299 5:-1.3 6:0.50438303 7:0.15130173 8:-1.0405866 9:0.49796829 10:0.30260113 11:-0.77881777 12:0.49164784 13:0.21813573 14:-0.78684908 15:0.41282153 16:0.13363639 17:-0.79475099 18:0.33386362 21:0.17 24:0.34 25:0.13653485 26:-0.2229308 27:0.12126209 28:0.27302134 29:-0.44584706 30:-0.097779714 31:0.31148931 32:-0.21534792 33:0.43589467 34:0.34990796 35:0.015302186 36:0.96949887 #
-53.023307444293351409214665181935 2:-1.3 3:0.32438299 5:-1.3 6:0.50438303 7:0.083994657 8:-0.97509187 9:0.4606103 10:0.16809022 11:-0.65738738 12:0.41657442 13:0.26371768 14:-0.60784793 15:0.56011796 16:0.35969919 17:-0.55870628 18:0.70275104 21:0.17 24:0.34 25:0.085904598 26:-0.022637593 27:0.56996036 28:0.17192148 29:-0.044773776 30:0.79908353 31:0.2842882 32:-0.27906623 33:0.76823926 34:0.3965725 35:-0.51356596 36:0.73680609 #
-34.482222318142014216846291674301 2:-1.3 3:0.32438299 5:-1.3 6:0.50438303 7:0.18498094 8:-1.1544983 9:0.58453482 10:0.36992419 11:-1.0069863 12:0.66476166 13:0.20434709 14:-0.84250432 15:0.81611502 16:0.038664512 17:-0.6779303 18:0.96777284 21:0.17 24:0.34 25:-0.15483132 26:0.041370161 27:0.51787901 28:-0.30968139 29:0.082584009 30:0.69605613 31:-0.33446929 32:-0.11782418 33:0.91174567 34:-0.35921359 35:-0.31820634 36:1.127615 #
-138.43632861568087832893070299178 2:-1.3 3:0.32438299 5:-1.3 6:0.50438303 7:0.22151434 8:-1.2765166 9:0.34986433 10:0.44307083 11:-1.2583916 12:0.19514404 13:0.58169842 14:-0.90330833 15:0.38095427 16:0.72049874 17:-0.54852253 18:0.56659222 21:0.17 24:0.34 25:0.23862582 26:-0.11415877 27:0.49634278 28:0.47734544 29:-0.22816899 30:0.65274125 31:0.52086794 32:-0.41759622 33:0.49461964 34:0.56441337 35:-0.6072979 36:0.3363702 #
69.84609953381033164987456984818 2:-1.3 3:0.32438299 5:-1.3 6:0.50438303 7:-0.031403784 8:-1.1596365 9:0.68136632 10:-0.062818527 11:-1.0206686 12:0.85830313 13:0.0088488674 14:-0.56920278 15:0.84100062 16:0.080490507 17:-0.11784448 18:0.82406235 21:0.17 24:0.34 25:0.073045067 26:-0.14607555 27:0.26228479 28:0.14611565 29:-0.29228401 30:0.18510807 31:0.12198948 32:-0.56724817 33:0.47636402 34:0.097947948 35:-0.84240049 36:0.76780766 #
-336.51807599794102543455664999783 2:-1.3 3:0.32438299 5:-1.3 6:0.50438303 7:0.032275353 8:-1.1742152 9:0.41996887 10:0.064633362 11:-1.0401611 12:0.33587283 13:-0.076680094 14:-0.86277801 15:0.39877033 16:-0.21786688 17:-0.68491101 18:0.45984456 21:0.17 24:0.34 25:-0.053893164 26:-0.22364108 27:0.43707806 28:-0.10797609 29:-0.44661123 30:0.53125936 31:-0.19232631 32:-0.46939895 33:0.73296654 34:-0.27706754 35:-0.491258 36:0.93365312 #
31.224094340722352569628128549084 2:-1.3 3:0.32438299 5:-1.3 6:0.50438303 7:-0.094323285 8:-1.1671855 9:0.56950039 10:-0.18863179 11:-1.0377843 12:0.63448042 13:-0.17884436 14:-0.97659361 15:0.56852722 16:-0.16906063 17:-0.91567296 18:0.50324285 21:0.17 24:0.34 25:-0.11639791 26:-0.051775154 27:0.41607812 28:-0.23271486 29:-0.10379522 30:0.49316382 31:-0.28932285 32:-0.47365496 33:0.29915765 34:-0.3457211 35:-0.84394205 36:0.10549962 #
-87.324608406622630241145088803023 2:-1.3 3:0.32438299 5:-1.3 6:0.50438303 7:0.004781872 8:-0.99342781 9:0.49393672 10:0.0095175169 11:-0.6919843 12:0.48329833 13:-0.039705567 14:-0.97045916 15:0.71708298 16:-0.089007139 17:-1.2492101 18:0.9519884 21:0.17 24:0.34 25:-0.043644112 26:-0.062011901 27:0.56579906 28:-0.087183274 29:-0.12443084 30:0.79335558 31:0.0021506166 32:-0.20841831 33:0.86656779 34:0.091713712 35:-0.29294795 36:0.94041288 #
232.71209115510447418273543007672 2:-1.3 3:0.32438299 5:-1.3 6:0.50438303 7:-0.19202724 8:-1.1504074 9:0.53188658 10:-0.38385645 11:-0.99493378 12:0.55959779 13:-0.34795895 14:-0.76752836 15:0.65085292 16:-0.31171948 17:-0.53979957 18:0.739546 21:0.17 24:0.34 25:0.0083361352 26:-0.18102734 27:0.36280876 28:0.016504874 29:-0.36105418 30:0.38179171 31:-0.060901616 32:-0.64170855 33:0.47576243 34:-0.13872649 35:-0.92143661 36:0.5682742 #
271.65643398842627220801659859717 2:-1.3 3:0.32438299 5:-1.3 6:0.50438303 7:0.058237698 8:-1.036822 9:0.50342917 10:0.11664016 11:-0.77433896 12:0.50244009 13:0.14118083 14:-0.80913055 15:0.60146195 16:0.16595675 17:-0.84401917 18:0.69956297 21:0.17 24:0.34 25:0.13934633 26:-0.058682617 27:0.5906657 28:0.27865046 29:-0.11699969 30:0.83994478 31:0.19254075 32:-0.31245667 33:0.57651222 34:0.10637243 35:-0.50779289 36:0.31252432 #
-600.64634910127563216519774869084 2:-1.3 3:0.32438299 5:-1.3 6:0.50438303 7:0.09453164 8:-1.0353694 9:0.65549827 10:0.18934633 11:-0.75375611 12:0.80726874 13:0.026256826 14:-0.81847811 15:0.67872363 16:-0.13641343 17:-0.88228029 18:0.54572499 21:0.17 24:0.34 25:-0.018692631 26:-0.1611045 27:0.4332802 28:-0.037802771 29:-0.32056522 30:0.51949954 31:0.060642023 32:-0.46940392 33:0.48127747 34:0.15826897 35:-0.61622608 36:0.44050047 #
-8.0087324004718762893162420368753 2:-1.3 3:0.32438299 5:-1.3 6:0.50438303 7:-0.15281452 8:-1.0549959 9:0.75324982 10:-0.30526158 11:-0.79721951 12:1.0025961 13:-0.48825502 14:-0.65400767 15:0.94471496 16:-0.67062432 17:-0.5100894 18:0.88188279 21:0.17 24:0.34 25:0.070382178 26:-0.11536197 27:0.1808005 28:0.14040838 29:-0.22881368 30:0.014094559 31:0.31757346 32:-0.35327229 33:0.44864556 34:0.49389532 35:-0.47584552 36:0.88035572 #
224.00724211617824721543001942337 2:-1.3 3:0.32438299 5:-1.3 6:0.50438303 7:0.14181723 8:-1.0819354 9:0.47156817 10:0.28372034 11:-0.88058764 12:0.43812028 13:0.25944659 14:-0.81391901 15:0.42012012 16:0.23539439 17:-0.74825674 18:0.40344894 21:0.17 24:0.34 25:-0.092486337 26:-0.15886268 27:0.24378924 28:-0.18468206 29:-0.31807312 30:0.15010673 31:-0.17800595 32:-0.47013661 33:0.45709547 34:-0.17087992 35:-0.62356263 36:0.76474136 #
-112.88539142905703727137733949348 2:-1.3 3:0.32438299 5:-1.3 6:0.50438303 7:0.056384463 8:-1.325966 9:0.86604768 10:0.11279351 11:-1.3472048 12:1.227892 13:0.2048201 14:-1.2429609 15:1.0573727 16:0.29688147 17:-1.1384355 18:0.88596475 21:0.17 24:0.34 25:0.0042828717 26:-0.29368111 27:0.38287637 28:0.0084611839 29:-0.58704734 30:0.42433983 31:0.031398449 32:-0.731282 33:0.4971455 34:0.054128587 35:-0.87502402 36:0.56946409 #
-23.168083983304683215465047396719 2:-1.3 3:0.32438299 5:-1.3 6:0.50438303 7:0.10237812 8:-1.1733791 9:0.50980467 10:0.20513086 11:-1.0421622 12:0.51541531 13:0.22905973 14:-0.82948488 15:0.45249885 16:0.25353542 17:-0.61660343 18:0.38642985 21:0.17 24:0.34 25:0.41692391 26:-0.33270925 27:0.47324216 28:0.8336249 29:-0.66419148 30:0.60158706 31:0.54452789 32:-0.58857667 33:0.7379654 34:0.2550008 35:-0.51199484 36:0.8724727 #
-90.061494905783590070313948672265 2:-1.3 3:0.32438299 5:-1.3 6:0.50438303 7:-0.19789553 8:-1.0620478 9:0.56857467 10:-0.39593431 11:-0.8277396 12:0.63264954 13:-0.60804033 14:-0.77816665 15:0.74652511 16:-0.82041019 17:-0.72880691 18:0.8623029 21:0.17 24:0.34 25:-0.079420015 26:-0.29963675 27:0.42944339 28:-0.15873039 29:-0.60002464 30:0.52165335 31:-0.37058586 32:-0.56266201 33:0.56878912 34:-0.58213156 35:-0.52595079 36:0.61699152 #
-14.857617770008172186635420075618 2:-1.3 3:0.32438299 5:-1.3 6:0.50438303 7:0.10453842 8:-1.1699467 9:0.86997885 10:0.20902835 11:-1.0582306 12:1.2348791 13:0.011993179 14:-0.88286626 15:0.95649892 16:-0.18504991 17:-0.70861429 18:0.68088293 21:0.17 24:0.34 25:0.11041048 26:-0.09374696 27:0.43934616 28:0.22119643 29:-0.18841952 30:0.5433073 31:0.14688499 32:-0.38768604 33:0.72978652 34:0.073261999 35:-0.58874404 36:0.9177534 #
-33.609576172918259828747977735475 2:-1.3 3:0.32438299 5:-1.3 6:0.50438303 7:-0.26390055 8:-1.3436296 9:0.64672565 10:-0.52780443 11:-1.3925012 12:0.78885972 13:-0.48467195 14:-1.1380993 15:0.61446792 16:-0.44137338 17:-0.8839339 18:0.43970647 21:0.17 24:0.34 25:-0.13261832 26:-0.019777456 27:0.4256753 28:-0.26514068 29:-0.039300632 30:0.51129794 31:-0.42884713 32:-0.21584974 33:0.4758774 34:-0.5926246 35:-0.39258918 36:0.44024703 #
-5.6384447754741078284723698743619 2:-1.3 3:0.32438299 5:-1.3 6:0.50438303 7:0.18126141 8:-1.0991046 9:0.60193151 10:0.36251044 11:-0.91229343 12:0.6989494 13:0.27610558 14:-0.81725693 15:0.53162563 16:0.18983455 17:-0.72298288 18:0.36551291 21:0.17 24:0.34 25:0.13741326 26:-0.2134386 27:0.38361147 28:0.27510023 29:-0.42717421 30:0.42959955 31:0.24839896 32:-0.70805395 33:0.30358437 34:0.22201462 35:-0.99000663 36:0.17820658 #
92.999864527625319965409289579839 2:-1.3 3:0.32438299 5:-1.3 6:0.50438303 7:-0.11304095 8:-1.1856632 9:0.42892683 10:-0.22614963 11:-1.0793723 12:0.35317647 13:-0.41144422 14:-0.9086498 15:0.38900578 16:-0.59684306 17:-0.73839754 18:0.42655331 21:0.17 24:0.34 25:-0.10747635 26:-0.15855837 27:0.15577777 28:-0.2147741 29:-0.31773514 30:-0.02575263 31:-0.20967866 32:-0.27538958 33:0.21546979 34:-0.20421663 35:-0.23392475 36:0.45763239 #
-33.666484642320611442301014903933 2:-1.3 3:0.32438299 5:-1.3 6:0.50438303 7:-0.075619154 8:-1.1531804 9:0.68042779 10:-0.15092029 11:-1.0004261 12:0.85666597 13:-0.27840281 14:-0.79782766 15:0.85085332 16:-0.4053244 17:-0.59495288 18:0.84144855 21:0.17 24:0.34 25:-0.28570762 26:-0.12947161 27:0.21732993 28:-0.57160449 29:-0.25750256 30:0.089400403 31:-0.40207601 32:-0.31025383 33:0.42541668 34:-0.23306711 35:-0.36188227 36:0.75937188 #
152.12526184242994986561825498939 2:-1.3 3:0.32438299 5:-1.3 6:0.50438303 7:-0.066335045 8:-1.1019801 9:0.64295095 10:-0.13340671 11:-0.95202762 12:0.77971989 13:-0.18827634 14:-0.85492551 15:0.63036174 16:-0.24432661 17:-0.76059741 18:0.49390012 21:0.17 24:0.34 25:-0.078895003 26:-0.08010824 27:0.45268452 28:-0.1566311 29:-0.16501972 30:0.58539361 31:-0.13314413 32:-0.45561194 33:0.7588793 34:-0.10716807 35:-0.75205886 36:0.93961495 #
161.1956200867310258217912632972 2:-1.3 3:0.32438299 5:-1.3 6:0.50438303 7:-0.0058231181 8:-1.0583627 9:0.66319716 10:-0.011907257 11:-0.83613127 12:0.82132268 13:-0.17639121 14:-0.6763472 15:0.72883075 16:-0.34127021 17:-0.51769918 18:0.64119864 21:0.17 24:0.34 25:-0.05674183 26:0.081089363 27:0.57035965 28:-0.11302111 29:0.16039324 30:0.80822742 31:0.14129905 32:-0.09972246 33:0.94582498 34:0.39657122 35:-0.36211273 36:1.0860809 #
-15.195390343904518815065785020124 2:-1.3 3:0.32438299 5:-1.3 6:0.50438303 7:0.087301172 8:-1.1695852 9:0.34421369 10:0.17488483 11:-1.0174822 12:0.18486965 13:-0.036649246 14:-0.71933961 15:0.2778748 16:-0.24778022 17:-0.41997409 18:0.36580271 21:0.17 24:0.34 25:0.13127021 26:-0.2406846 27:0.2564649 28:0.26204029 29:-0.47951671 30:0.16483381 31:-0.06920962 32:-0.46135339 33:0.21063231 34:-0.40144375 35:-0.44072202 36:0.25356555 #
130.61742035989291821351798716933 2:-1.3 3:0.32438299 5:-1.3 6:0.50438303 7:0.081896938 8:-1.1579258 9:0.61207968 10:0.16247262 11:-1.0949616 12:0.71681118 13:0.16361779 14:-0.87241602 15:0.74923623 16:0.16276731 17:-0.65432715 18:0.80281806 21:0.17 24:0.34 25:0.12597544 26:-0.1538581 27:0.24440277 28:0.2538909 29:-0.31554621 30:0.18200667 31:0.16755313 32:-0.36439818 33:0.32932889 34:0.08515849 35:-0.42281923 36:0.4886032 #
-217.83185743334519202107912860811 2:-1.3 3:0.32438299 5:-1.3 6:0.50438303 7:-0.20056443 8:-1.244436 9:0.59930164 10:-0.39938405 11:-1.0837506 12:0.69815862 13:-0.19578627 14:-0.85600168 15:0.80670375 16:0.010564023 17:-0.62223285 18:0.88634223 21:0.17 24:0.34 25:-0.044668905 26:-0.19261007 27:0.50331414 28:-0.091916621 29:-0.37442115 30:0.62172353 31:0.031483442 32:-0.40803313 33:0.78209549 34:0.14939809 35:-0.42869806 36:0.92617881 #
267.63264458643561738426797091961 2:-1.3 3:0.32438299 5:-1.3 6:0.50438303 7:-0.0046662814 8:-1.1296424 9:0.47198665 10:-0.01321358 11:-1.136078 12:0.43300316 13:0.083207652 14:-1.0704485 15:0.43277571 16:0.17352749 17:-1.0146897 18:0.48791802 21:0.17 24:0.34 25:-0.039186217 26:-0.24498788 27:0.375696 28:-0.073740624 29:-0.51085705 30:0.4969697 31:-0.13902594 32:-0.59295231 33:0.51891953 34:-0.19443387 35:-0.69815373 36:0.57230568 #
-48.598158990390011524596047820523 2:-1.3 3:0.32438299 5:-1.3 6:0.50438303 7:0.063980877 8:-0.98342311 9:0.49460548 10:0.12761405 11:-0.6937632 12:0.48381373 13:0.048999868 14:-0.45480466 15:0.64523363 16:-0.030101966 17:-0.21740481 18:0.81296051 21:0.17 24:0.34 25:0.16059056 26:-0.14538915 27:0.55429864 28:0.32181537 29:-0.29308644 30:0.77860445 31:0.24942581 32:-0.52405298 33:1.082168 34:0.17828999 35:-0.75810713 36:1.3892591 #
140.27076696198065519638475961983 2:-1.3 3:0.32438299 5:-1.3 6:0.50438303 7:-0.09553887 8:-1.2031643 9:0.61263973 10:-0.19011886 11:-1.0465897 12:0.72313303 13:-0.010983423 14:-0.83836126 15:0.81240445 16:0.16964853 17:-0.62666523 18:0.88556147 21:0.17 24:0.34 25:-0.0064876578 26:0.016669868 27:0.63626629 28:-0.014431698 29:0.03933033 30:0.90745884 31:-0.25371915 32:-0.1815982 33:0.93958306 34:-0.49609903 35:-0.3952122 36:0.96265578 #
42.829582015103703440672688884661 2:-1.3 3:0.32438299 5:-1.3 6:0.50438303 7:-0.083545707 8:-1.0886427 9:0.39666474 10:-0.16420239 11:-0.68718284 12:0.29605359 13:0.034970082 14:-0.6020329 15:0.34121716 16:0.23840648 17:-0.50612062 18:0.33812335 21:0.17 24:0.34 25:0.045756295 26:-0.040728867 27:0.47648379 28:0.086955383 29:-0.063706636 30:0.53695202 31:-0.043372162 32:-0.31165358 33:0.72863132 34:-0.18285604 35:-0.53718501 36:0.89315706 #
95.320614484376449127012165263295 2:-1.3 3:0.32438299 5:-1.3 6:0.50438303 7:0.20423806 8:-1.189145 9:0.63876718 10:0.40750045 11:-1.0770411 12:0.77325052 13:0.12570713 14:-0.79775685 15:0.57654989 16:-0.15782011 17:-0.51819658 18:0.38807279 21:0.17 24:0.34 25:0.11114924 26:0.024273207 27:0.61101025 28:0.22257175 29:0.045133237 30:0.89367914 31:0.13284278 32:-0.26312459 33:0.81654966 34:0.044074126 35:-0.57301861 36:0.74426603 #
509.2569711518538611016992945224 2:-1.3 3:0.32438299 5:-1.3 6:0.50438303 7:-0.079176746 8:-1.1456594 9:0.33065599 10:-0.15652213 11:-0.90363431 12:0.16016796 13:-0.23505193 14:-0.6617341 15:0.38939342 16:-0.31067094 17:-0.41489482 18:0.59162414 21:0.17 24:0.34 25:0.097843565 26:-0.084304288 27:0.54286337 28:0.19343728 29:-0.15843153 30:0.70409882 31:0.27425656 32:-0.39787424 33:0.66072917 34:0.35021535 35:-0.62595654 36:0.60209632 #
-27.464890239377893976779887452722 2:-1.3 3:0.32438299 5:-1.3 6:0.50438303 7:-0.26768276 8:-1.160702 9:0.65241241 10:-0.53705734 11:-1.1139671 12:0.79697078 13:-0.45517185 14:-0.56978387 15:1.00042 16:-0.37603956 17:-0.030905232 18:1.2310332 21:0.17 24:0.34 25:0.090784676 26:-0.05804725 27:0.71487343 28:0.18388815 29:-0.12634251 30:1.1316365 31:0.27465424 32:-0.39396164 33:0.451552 34:0.37051174 35:-0.67338246 36:-0.21318591 #
-29.057291926188071329306694678962 2:-1.3 3:0.32438299 5:-1.3 6:0.50438303 7:0.22014695 8:-1.2017746 9:0.4280625 10:0.44050243 11:-1.0927032 12:0.35214996 13:0.51686996 14:-0.915555 15:0.21833517 16:0.5935446 17:-0.73779321 18:0.081510268 21:0.17 24:0.34 25:-0.16747893 26:-0.26346168 27:0.44623458 28:-0.33523715 29:-0.52581203 30:0.54770064 31:0.070839785 32:-0.49021527 33:0.27058673 34:0.47637063 35:-0.45326784 36:-0.0082301032 #
153.19335244522832795155409257859 2:-1.3 3:0.32438299 5:-1.3 6:0.50438303 7:0.10694168 8:-1.3226421 9:0.47306257 10:0.21485443 11:-1.275985 12:0.44434461 13:0.24936232 14:-0.88663405 15:0.55121404 16:0.28551668 17:-0.4933117 18:0.63966978 21:0.17 24:0.34 25:-0.12065773 26:0.0286496 27:0.5689829 28:-0.24295305 29:0.064176872 30:0.76945281 31:-0.13240017 32:-0.19681673 33:0.70267582 34:-0.025436167 35:-0.44939917 36:0.62552464 #
-45.759569348461489823876036098227 2:-1.3 3:0.32438299 5:-1.3 6:0.50438303 7:-0.16362484 8:-1.0605886 9:0.51135284 10:-0.32669461 11:-0.78881025 12:0.51953542 13:-0.028348397 14:-0.47035217 15:0.85915285 16:0.27082708 17:-0.1500535 18:1.1900431 21:0.17 24:0.34 25:-0.41657972 26:-0.13160746 27:0.55303138 28:-0.83396435 29:-0.25997499 30:0.75237727 31:-0.46974382 32:-0.23750232 33:0.69465703 34:-0.10715873 35:-0.21107963 36:0.63201654 #
71.04861710847964673121168743819 2:-1.3 3:0.32438299 5:-1.3 6:0.50438303 7:-0.22217336 8:-1.0912981 9:0.59724873 10:-0.44189286 11:-0.77163517 12:0.6942088 13:-0.1617945 14:-0.81104994 15:0.65393114 16:0.12208561 17:-0.84431219 18:0.57932121 21:0.17 24:0.34 25:-0.019921139 26:-0.14618716 27:0.54683697 28:-0.042759944 29:-0.27947524 30:0.70047373 31:0.17566584 32:-0.29436085 33:0.61137319 34:0.38799131 35:-0.2949034 36:0.50282919 #
-8.0849042272379385565272968960926 2:-1.3 3:0.32438299 5:-1.3 6:0.50438303 7:-0.097660378 8:-1.4073288 9:0.63828588 10:-0.19579345 11:-1.5593165 12:0.77055103 13:0.041318562 14:-1.5658948 15:0.97595298 16:0.27761555 17:-1.5751306 18:1.1921362 21:0.17 24:0.34 25:0.078636147 26:0.11170021 27:0.38666207 28:0.15827739 29:0.21944402 30:0.45006281 31:-0.0047359192 32:0.2879388 33:0.73062992 34:-0.16554458 35:0.35120344 36:1.0171615 #
20.923788586391196986369322985411 2:-1.3 3:0.32438299 5:-1.3 6:0.50438303 7:-0.040451992 8:-0.99830639 9:0.43310645 10:-0.082119569 11:-0.7282657 12:0.36072513 13:-0.29639703 14:-0.75781429 15:0.54126275 16:-0.51279515 17:-0.7890963 18:0.7369948 21:0.17 24:0.34 25:0.10748794 26:-0.14381373 27:0.21782279 28:0.21593666 29:-0.29358006 30:0.11818825 31:0.11411424 32:-0.45898074 33:0.19288026 34:0.014739271 35:-0.62965661 36:0.27622285 #
-38.284821566892759392430889420211 2:-1.3 3:0.32438299 5:-1.3 6:0.50438303 7:-0.15859795 8:-1.3346473 9:0.75096667 10:-0.31536821 11:-1.2678496 12:1.0013452 13:-0.13135052 14:-1.0682726 15:1.0469577 16:0.055478513 17:-0.86298484 18:1.0641791 21:0.17 24:0.34 25:0.056061801 26:-0.24917167 27:0.42224327 28:0.10959754 29:-0.48776567 30:0.46016657 31:0.24290055 32:-0.54340184 33:0.5175547 34:0.37096664 35:-0.58648759 36:0.55888903 #
130.69977493195148099403013475239 2:-1.3 3:0.32438299 5:-1.3 6:0.50438303 7:-0.0052693067 8:-0.94743073 9:0.66355312 10:-0.012555218 11:-0.71622515 12:0.81815451 13:-0.23959531 14:-0.69521362 15:0.64502507 16:-0.46952584 17:-0.68100131 18:0.50323582 21:0.17 24:0.34 25:0.098402381 26:-0.2204212 27:0.37578261 28:0.19979095 29:-0.45238033 30:0.46120897 31:-0.089721307 32:-0.58660281 33:0.49049741 34:-0.3733907 35:-0.73525453 36:0.53750831 #
224.90961586424572260511922650039 2:-1.3 3:0.32438299 5:-1.3 6:0.50438303 7:0.057037599 8:-1.081012 9:0.44141218 10:0.11080161 11:-1.0294331 12:0.37216708 13:-0.075175121 14:-0.66306293 15:0.42922089 16:-0.26635626 17:-0.30612639 18:0.53608781 21:0.17 24:0.34 25:-0.16802737 26:-0.16390646 27:0.16986318 28:-0.331792 29:-0.34654757 30:0.076898232 31:-0.21081708 32:-0.37917915 33:0.24414341 34:-0.08072383 35:-0.43319389 36:0.4396331 #
-254.83799811510303356953954789788 2:-1.3 3:0.32438299 5:-1.3 6:0.50438303 7:-0.11936298 8:-1.2818978 9:0.63087171 10:-0.23770091 11:-1.228284 12:0.75867552 13:0.059093855 14:-1.0516725 15:0.39472562 16:0.35763189 17:-0.87303859 18:0.016952988 21:0.17 24:0.34 25:0.066842623 26:-0.12373684 27:0.45131612 28:0.13266847 29:-0.24212649 30:0.54176354 31:0.16732675 32:-0.56312406 33:0.2744866 34:0.1995575 35:-0.87885165 36:-0.00066040573 #
283.95938798821288173712673597038 2:-1.3 3:0.32438299 5:-1.3 6:0.50438303 7:-0.045266572 8:-1.1968477 9:0.51689869 10:-0.091690242 11:-1.1299736 12:0.52815455 13:-0.10514219 14:-0.75586295 15:0.36806911 16:-0.12054837 17:-0.38375413 18:0.22298178 21:0.17 24:0.34 25:0.10515624 26:-0.18799154 27:0.34263885 28:0.21131168 29:-0.38176993 30:0.36772436 31:-0.11168489 32:-0.35230336 33:0.39324233 34:-0.43225035 35:-0.32832843 36:0.42722967 #
-1.8392353841205617559495522073121 2:-1.3 3:0.32438299 5:-1.3 6:0.50438303 7:0.11386713 8:-0.82709301 9:0.61814815 10:0.22679707 11:-0.41731775 12:0.72950333 13:0.14405723 14:-0.6340428 15:0.78051525 16:0.060201436 17:-0.85425156 18:0.84557807 21:0.17 24:0.34 25:-0.057881448 26:-0.10378005 27:0.53273451 28:-0.11422431 29:-0.21260257 30:0.74846333 31:-0.21675521 32:-0.53031445 33:0.78170365 34:-0.31663075 35:-0.85501707 36:0.82290483 #
-50.539386095972972157142066862434 2:-1.3 3:0.32438299 5:-1.3 6:0.50438303 7:0.084037945 8:-1.1609257 9:0.47728696 10:0.16836099 11:-1.0083752 12:0.45068997 13:-0.30005473 14:-1.0847641 15:0.25200194 16:-0.76802903 17:-1.1604024 18:0.049218502 21:0.17 24:0.34 25:0.083110049 26:-0.17799518 27:0.43162826 28:0.16586742 29:-0.35445675 30:0.51690251 31:-0.3479743 32:-0.62712157 33:0.24406138 34:-0.86255711 35:-0.89806432 36:-0.031094093 #
19.431269123739731696787202963606 2:-1.3 3:0.32438299 5:-1.3 6:0.50438303 7:-0.076820761 8:-0.98832119 9:0.79772192 10:-0.15584008 11:-0.78978276 12:1.0868703 13:0.057366326 14:-0.69870132 15:1.1049848 16:0.26708987 17:-0.6139909 18:1.1566218 21:0.17 24:0.34 25:0.061284509 26:-0.027183784 27:0.21529903 28:0.12541734 29:-0.066960335 30:0.14247629 31:-0.064119451 32:-0.16183573 33:0.33207327 34:-0.24757312 35:-0.27111474 36:0.54061598 #
-56.299791658444924280502164037898 2:-1.3 3:0.32438299 5:-1.3 6:0.50438303 7:0.057007 8:-0.98537922 9:0.50807112 10:0.11442704 11:-0.63696587 12:0.51302862 13:0.39843243 14:-0.79238856 15:0.29524827 16:0.68307561 17:-0.94583213 18:0.069394879 21:0.17 24:0.34 25:0.1365554 26:-0.12217165 27:0.48262164 28:0.27232462 29:-0.24137008 30:0.61249703 31:0.33478758 32:-0.57692862 33:0.44929081 34:0.39562592 35:-0.9085359 36:0.28156844 #
53.553882876227568488047836581245 2:-1.3 3:0.32438299 5:-1.3 6:0.50438303 7:0.026738975 8:-1.1946489 9:0.61145264 10:0.05501822 11:-0.96076179 12:0.72336751 13:0.19038098 14:-0.92559254 15:0.76316345 16:0.32791859 17:-0.88301408 18:0.77372748 21:0.17 24:0.34 25:-0.036699273 26:-0.15853843 27:0.39127249 28:-0.076368876 29:-0.3064968 30:0.39586875 31:0.2642782 32:-0.40371478 33:0.43978092 34:0.59915054 35:-0.48639235 36:0.46731865 #
-36.595255801445489396428456529975 2:-1.3 3:0.32438299 5:-1.3 6:0.50438303 7:0.2415607 8:-1.0874834 9:0.63993782 10:0.4826315 11:-0.94135427 12:0.77298445 13:0.41185996 14:-0.76780951 15:0.89535725 16:0.34064269 17:-0.59805477 18:1.0292391 21:0.17 24:0.34 25:0.010347351 26:-0.23724771 27:0.36574116 28:0.022137865 29:-0.47842965 30:0.41070125 31:0.27015311 32:-0.35971558 33:0.65159667 34:0.52059448 35:-0.24765377 36:0.89886791 #
103.6223898555890485795316635631 2:-1.3 3:0.32438299 5:-1.3 6:0.50438303 7:0.11952495 8:-1.1947807 9:0.63566744 10:0.24106008 11:-0.9817214 12:0.77098066 13:0.27239206 14:-0.88790357 15:0.85334831 16:0.30679521 17:-0.78802788 18:0.90518224 21:0.17 24:0.34 25:0.28607124 26:-0.10213488 27:0.42879355 28:0.56942999 29:-0.19288725 30:0.46996191 31:0.55347329 32:-0.30535588 33:0.65623665 34:0.5319019 35:-0.40443987 36:0.82524383 #
-69.495738595408951709941902663559 2:-1.3 3:0.32438299 5:-1.3 6:0.50438303 7:-0.19856408 8:-1.2795473 9:0.5441848 10:-0.39609474 11:-1.2592068 12:0.58388489 13:-0.3387301 14:-1.0578296 15:0.41959485 16:-0.27957231 17:-0.85664397 18:0.2465174 21:0.17 24:0.34 25:0.015163616 26:-0.22161625 27:0.24155378 28:0.030052723 29:-0.43962318 30:0.13069341 31:0.021229129 32:-0.57516825 33:0.36627063 34:0.011434413 35:-0.70894313 36:0.59673434 #
141.94044310655795015918556600809 2:-1.3 3:0.32438299 5:-1.3 6:0.50438303 7:0.12473978 8:-1.0739974 9:0.6351651 10:0.25020725 11:-0.82889104 12:0.76665366 13:0.22804773 14:-0.72438842 15:0.93435341 16:0.206967 17:-0.6188435 18:1.0941945 21:0.17 24:0.34 25:-0.030885588 26:0.05644349 27:0.7311722 28:-0.062369116 29:0.11589312 30:1.1102263 31:-0.0010007467 32:-0.11367179 33:0.88729233 34:0.05912593 35:-0.3403312 36:0.65985483 #
97.862284625058691744925454258919 2:-1.3 3:0.32438299 5:-1.3 6:0.50438303 7:-0.10440363 8:-0.99660021 9:0.54423219 10:-0.20909141 11:-0.70729321 12:0.58357155 13:-0.043558907 14:-0.51532823 15:0.435976 16:0.12155693 17:-0.32413104 18:0.29242563 21:0.17 24:0.34 25:-0.094497383 26:-0.20713219 27:0.0068874899 28:-0.18864241 29:-0.41576925 30:-0.31992489 31:-0.14618339 32:-0.57107508 33:0.17691597 34:-0.10301125 35:-0.72811723 36:0.67603165 #
-45.048163497463463045278331264853 2:-1.3 3:0.32438299 5:-1.3 6:0.50438303 7:-0.14148448 8:-1.152401 9:0.66957217 10:-0.285907 11:-1.1979208 12:0.82746416 13:-0.0069186282 14:-0.90117669 15:0.67127997 16:0.26782733 17:-0.61528367 18:0.56338632 21:0.17 24:0.34 25:0.069603302 26:-0.11248592 27:0.091354437 28:0.14389279 29:-0.2426483 30:-0.080653206 31:0.23566975 32:-0.24023096 33:0.11178698 34:0.33659837 35:-0.26042548 36:0.33153182 #
38.292516843853682928511261707172 2:-1.3 3:0.32438299 5:-1.3 6:0.50438303 7:-0.080544204 8:-1.1152438 9:0.6924777 10:-0.16046648 11:-0.92747986 12:0.88060349 13:-0.40737647 14:-0.76865184 15:0.64189893 16:-0.65327817 17:-0.60975426 18:0.39786166 21:0.17 24:0.34 25:-0.15308464 26:-0.057157241 27:0.61014831 28:-0.30636212 29:-0.11217098 30:0.87259609 31:-0.31737038 32:-0.32317224 33:0.55184501 34:-0.32894748 35:-0.53288555 36:0.22805317 #
14.110812775065427970844211813528 2:-1.3 3:0.32438299 5:-1.3 6:0.50438303 7:-0.3045817 8:-1.318203 9:0.53542048 10:-0.60872114 11:-1.3549892 12:0.56570309 13:-0.82953793 14:-1.0855916 15:0.32235494 16:-1.0494913 17:-0.81739289 18:0.077437758 21:0.17 24:0.34 25:0.084299408 26:-0.15422827 27:0.31374592 28:0.16885385 29:-0.30759671 30:0.28607741 31:0.1208846 32:-0.38854182 33:0.50676996 34:0.073094599 35:-0.47041103 36:0.72644377 #
-4.8815028187237601287051802501082 2:-1.3 3:0.32438299 5:-1.3 6:0.50438303 7:-0.017728338 8:-1.0631596 9:0.33638304 10:-0.035655476 11:-0.84178758 12:0.16781147 13:-0.18629727 14:-0.8564142 15:0.083258435 16:-0.33729601 17:-0.87195712 18:0.0028211193 21:0.17 24:0.34 25:0.12987855 26:-0.19890684 27:0.20463429 28:0.26011166 29:-0.3993535 30:0.0755983 31:0.46390396 32:-0.46319643 33:-0.035217158 34:0.66851014 35:-0.52894372 36:-0.14373672 #
16.907905931763085760621834197082 2:-1.3 3:0.32438299 5:-1.3 6:0.50438303 7:0.094720542 8:-0.90211523 9:0.36949474 10:0.18743429 11:-0.57160699 12:0.23217423 13:-0.25324035 14:-0.74722087 15:0.48855251 16:-0.69731611 17:-0.92657667 18:0.77160627 21:0.17 24:0.34 25:0.17687495 26:-0.10951386 27:0.10202824 28:0.355647 29:-0.22933635 30:-0.095753513 31:0.13049565 32:-0.15770787 33:0.11324852 34:-0.090149388 35:-0.096104652 36:0.33741522 #
35.107046478143566048402135493234 2:-1.3 3:0.32438299 5:-1.3 6:0.50438303 7:-0.095948055 8:-1.0757484 9:0.49089602 10:-0.19141689 11:-0.81875151 12:0.47864082 13:0.12097585 14:-0.63868517 15:0.62354553 16:0.43406221 17:-0.4567537 18:0.760346 21:0.17 24:0.34 25:-0.37322569 26:-0.41008961 27:0.56176811 28:-0.74723887 29:-0.81719726 30:0.77073628 31:-0.22849049 32:-0.54735506 33:0.63222665 34:0.28869122 35:-0.27368075 36:0.48916554 #
79.870510724861077278546872548759 2:-1.3 3:0.32438299 5:-1.3 6:0.50438303 7:0.10642242 8:-1.0707867 9:0.72427255 10:0.20655186 11:-1.3192719 12:0.92617345 13:0.39908916 14:-1.1435573 15:0.77565783 16:0.58250916 17:-0.99527138 18:0.73882848 21:0.17 24:0.34 25:0.043744948 26:-0.11116111 27:0.32193011 28:0.098720029 29:-0.26377761 30:0.48432797 31:0.056388639 32:-0.34291363 33:0.5108487 34:0.036282606 35:-0.47710788 36:0.60116875 #
68.998251129735464814984879922122 2:-1.3 3:0.32438299 5:-1.3 6:0.50438303 7:-0.27924466 8:-1.0772017 9:0.60183668 10:-0.55929685 11:-0.93514907 12:0.69622171 13:-0.49162382 14:-0.89799589 15:0.73585892 16:-0.42516881 17:-0.86558837 18:0.79341197 21:0.17 24:0.34 25:-0.0032859102 26:-0.11017122 27:0.51004767 28:-0.0047304356 29:-0.22684665 30:0.7084555 31:0.082361542 32:-0.74212241 33:0.91373342 34:0.17322442 35:-1.2664607 36:1.1290054 #
-92.697169498784504071409173775464 2:-1.3 3:0.32438299 5:-1.3 6:0.50438303 7:-0.024036914 8:-0.98721713 9:0.26929739 10:-0.053939972 11:-0.97246128 12:0.023027062 13:0.22916891 14:-0.85179728 15:0.18969139 16:0.50307351 17:-0.7479496 18:0.44461945 21:0.17 24:0.34 25:-0.10795449 26:-0.20569031 27:0.27123827 28:-0.20826441 29:-0.44451958 30:0.33945426 31:-0.33999363 32:-0.57962465 33:0.33087581 34:-0.45554629 35:-0.75271672 36:0.37234804 #
