SVM-light Version V6.20
2 # kernel type
3 # kernel parameter -d 
3.3 # kernel parameter -g 
1 # kernel parameter -s 
1 # kernel parameter -r 
empty# kernel parameter -u 
36 # highest feature index 
104 # number of training documents 
3001 # number of support vectors plus 1 
0 # threshold b, each following line is a SV (starting with alpha*y)
6.802860503810244097167014842853 2:-1.33 3:0.12 5:-1.33 6:0.30000001 7:-0.0013680862 8:-1.3452276 9:0.50061131 10:-0.002736168 11:-1.3604556 12:0.70122272 13:-0.0022668813 14:-1.3195117 15:0.83321482 16:0.0011456409 17:-1.2347116 18:1.0110395 21:0.17 24:0.34 25:-0.00086671213 26:-0.18594946 27:0.37689734 28:-0.0017334311 29:-0.37189862 30:0.41379374 31:-0.0020465979 32:-0.55725497 33:0.44263351 34:0.0011933715 35:-1.0438418 36:0.51930612 #
18.699341321473049504220398375764 2:-1.33 3:0.12 5:-1.33 6:0.30000001 7:-0.00027593161 8:-1.1769348 9:0.40167663 10:-0.00055186235 11:-1.0238689 12:0.50335366 13:0.0010635264 14:-0.88466811 15:0.54103947 16:0.00037023539 17:-0.6557638 18:0.57496756 21:0.17 24:0.34 25:-0.001454848 26:-0.18071093 27:0.38252571 28:-0.0029097106 29:-0.36142182 30:0.42505053 31:-0.0014715559 32:-0.5169096 33:0.4573752 34:0.00086121797 35:-0.85097718 36:0.51640767 #
-25.778676548800824264162656618282 2:-1.33 3:0.12 5:-1.33 6:0.30000001 7:-0.0052218167 8:-1.1696066 9:0.37413958 10:-0.01044362 11:-1.0092149 12:0.44827944 13:-0.015276689 14:-0.87374175 15:0.50317198 16:-0.021542162 17:-0.6334244 18:0.60020691 21:0.17 24:0.34 25:-0.0059098676 26:-0.091857731 27:0.47383568 28:-0.011819743 29:-0.18371534 30:0.60767114 31:-0.012575208 32:-0.28516892 33:0.67385179 34:-0.023034222 35:-0.4205018 36:0.73738152 #
-23.772313041856172333154972875491 2:-1.33 3:0.12 5:-1.33 6:0.30000001 7:0.10129526 8:-1.1776724 9:0.3400332 10:0.2025902 11:-1.0253478 12:0.38006648 13:0.27831447 14:-0.94999182 15:0.42733982 16:0.37229002 17:-0.94202858 18:0.48716933 21:0.17 24:0.34 25:0.032355331 26:-0.18584684 27:0.35105583 28:0.064710841 29:-0.37169379 30:0.3621107 31:0.081760608 32:-0.51097393 33:0.39962724 34:0.10398301 35:-0.80635643 36:0.5129717 #
17.973080709581932268292803200893 2:-1.33 3:0.12 5:-1.33 6:0.30000001 7:0.059075933 8:-1.1471279 9:0.34700587 10:0.11815169 11:-0.96425855 12:0.39401183 13:0.16541821 14:-0.79590052 15:0.42658401 16:0.25169286 17:-0.43043849 18:0.50051755 21:0.17 24:0.34 25:0.079217151 26:-0.14088874 27:0.41366109 28:0.15843453 29:-0.28177777 30:0.4873215 31:0.22486758 32:-0.39525846 33:0.52606434 34:0.32546961 35:-0.55475849 36:0.55717111 #
0.63618624136788137768405704264296 2:-1.33 3:0.12 5:-1.33 6:0.30000001 7:0.022134468 8:-1.1579131 9:0.35472733 10:0.04426885 11:-0.98582935 12:0.40945485 13:0.06775593 14:-0.84237421 15:0.44414499 16:0.12093566 17:-0.55295509 18:0.50366592 21:0.17 24:0.34 25:0.10539301 26:-0.053490505 27:0.45230633 28:0.21078625 29:-0.10698117 30:0.56461233 31:0.29632971 32:-0.15630029 33:0.6367411 34:0.37770838 35:-0.21201618 36:0.72570115 #
-1.1810845331599679752798692788929 2:-1.33 3:0.12 5:-1.33 6:0.30000001 7:0.032851238 8:-1.2287551 9:0.46388403 10:0.065702498 11:-1.1275049 12:0.62776887 13:0.10740831 14:-1.0487262 15:0.68130207 16:0.14167999 17:-1.0238754 18:0.65946776 21:0.17 24:0.34 25:0.012831721 26:-0.17521074 27:0.39297116 28:0.025663469 29:-0.35042125 30:0.44594148 31:0.039804731 32:-0.54653537 33:0.486595 34:0.073990077 35:-1.0833038 36:0.59910041 #
17.323653281945308179956555250101 2:-1.33 3:0.12 5:-1.33 6:0.30000001 7:-0.05663329 8:-1.1326754 9:0.31525001 10:-0.11326637 11:-0.93535554 12:0.33049992 13:-0.14873238 14:-0.7824325 15:0.3598752 16:-0.22758031 17:-0.5260455 18:0.42228809 21:0.17 24:0.34 25:-0.061754137 26:-0.17773384 27:0.36245099 28:-0.12350864 29:-0.35546818 30:0.38490099 31:-0.16384226 32:-0.48102334 33:0.4145444 34:-0.25451505 35:-0.66413146 36:0.45507136 #
1.175130375130950755035996735387 2:-1.33 3:0.12 5:-1.33 6:0.30000001 7:0.087108277 8:-1.3183838 9:0.48073438 10:0.1742162 11:-1.3067653 12:0.66146946 13:0.28829604 14:-1.2263786 15:0.74748486 16:0.480865 17:-1.0492399 18:0.89589596 21:0.17 24:0.34 25:0.02781236 26:-0.16670428 27:0.38862947 28:0.055624835 29:-0.33340856 30:0.43725818 31:0.069066338 32:-0.4919104 33:0.4883787 34:0.11679907 35:-0.8882494 36:0.6116178 #
9.0296669977997900957689125789329 2:-1.33 3:0.12 5:-1.33 6:0.30000001 7:0.035285775 8:-1.2133837 9:0.44881526 10:0.070571572 11:-1.0967647 12:0.59763116 13:0.10024719 14:-0.92492038 15:0.66762429 16:0.17455685 17:-0.48880592 18:0.83558142 21:0.17 24:0.34 25:0.03052732 26:-0.097486854 27:0.49396294 28:0.061054587 29:-0.19497325 30:0.64792579 31:0.099528715 32:-0.31307483 33:0.73096776 34:0.16066287 35:-0.55057114 36:0.84452689 #
-14.516406695694001882657175883651 2:-1.33 3:0.12 5:-1.33 6:0.30000001 7:0.093073241 8:-1.1831042 9:0.37529382 10:0.18614608 11:-1.0362109 12:0.45058793 13:0.26426709 14:-0.91878927 15:0.50084352 16:0.37679163 17:-0.70344436 18:0.56140947 21:0.17 24:0.34 25:0.1238131 26:-0.1179342 27:0.40692386 28:0.24762657 29:-0.23586914 30:0.473847 31:0.33873078 32:-0.34790951 33:0.52578861 34:0.51702112 35:-0.57871383 36:0.62797314 #
-8.6512520580654026502998021896929 2:-1.33 3:0.12 5:-1.33 6:0.30000001 7:-0.054347318 8:-1.241318 9:0.46841857 10:-0.10869468 11:-1.1526309 12:0.63683796 13:-0.15718026 14:-1.0304304 15:0.73090863 16:-0.23360653 17:-0.74169809 18:0.92565888 21:0.17 24:0.34 25:-0.023329852 26:-0.1237877 27:0.45279133 28:-0.04665973 29:-0.24757518 30:0.56558228 31:-0.082773678 32:-0.39644891 33:0.63762677 34:-0.1823962 35:-0.76999432 36:0.8015117 #
-27.126792352983862599558051442727 2:-1.33 3:0.12 5:-1.33 6:0.30000001 7:-0.1005193 8:-1.2269446 9:0.40234518 10:-0.20103835 11:-1.1238883 12:0.50469077 13:-0.28189245 14:-1.0452926 15:0.54923135 16:-0.37147972 17:-0.982907 18:0.56693244 21:0.17 24:0.34 25:-0.059728604 26:-0.16819058 27:0.37616512 28:-0.11945745 29:-0.33638141 30:0.41232938 31:-0.16124165 32:-0.4867647 33:0.44651389 34:-0.22074366 35:-0.84803391 36:0.52541792 #
6.0479954449992074927422436303459 2:-1.33 3:0.12 5:-1.33 6:0.30000001 7:-0.014436385 8:-1.1502258 9:0.35449484 10:-0.028872706 11:-0.97045451 12:0.40898982 13:-0.058913972 14:-0.7886194 15:0.44436502 16:-0.13584803 17:-0.34185585 18:0.55921799 21:0.17 24:0.34 25:-0.14895533 26:-0.066575386 27:0.39600036 28:-0.29791108 29:-0.13315096 30:0.45200002 31:-0.38913259 32:-0.19071777 33:0.51895815 34:-0.60227484 35:-0.28193191 36:0.66474128 #
2.6924315170915322781297618348617 2:-1.33 3:0.12 5:-1.33 6:0.30000001 7:-0.13355109 8:-1.1910931 9:0.35247394 10:-0.26710188 11:-1.0521882 12:0.404948 13:-0.35903087 14:-0.91323733 15:0.43535957 16:-0.52873558 17:-0.60122049 18:0.49485686 21:0.17 24:0.34 25:-0.13628884 26:-0.12295557 27:0.39934626 28:-0.27257803 29:-0.24591202 30:0.45869175 31:-0.37675917 32:-0.37751216 33:0.4861986 34:-0.56222725 35:-0.70281202 36:0.52082026 #
-11.376877733577734019831950718071 2:-1.33 3:0.12 5:-1.33 6:0.30000001 7:-0.0030376206 8:-1.1202902 9:0.33211049 10:-0.006075243 11:-0.91058177 12:0.36422089 13:-0.012919028 14:-0.71102017 15:0.40153775 16:-0.042151518 17:-0.20976867 18:0.50044006 21:0.17 24:0.34 25:-0.034617182 26:-0.12392613 27:0.46787062 28:-0.069234386 29:-0.24785207 30:0.59574097 31:-0.1074784 32:-0.31551954 33:0.66766489 34:-0.13342863 35:-0.27848378 36:0.66008478 #
-0.84597925015490282873997784918174 2:-1.33 3:0.12 5:-1.33 6:0.30000001 7:-0.1285263 8:-1.1773661 9:0.33223081 10:-0.25705203 11:-1.0247374 12:0.36446166 13:-0.33870873 14:-0.88707161 15:0.40047842 16:-0.46702537 17:-0.62962765 18:0.48906326 21:0.17 24:0.34 25:-0.039975137 26:-0.11231068 27:0.45987418 28:-0.079950474 29:-0.22462119 30:0.57974803 31:-0.11363783 32:-0.33509946 33:0.63973504 34:-0.1501334 35:-0.50703514 36:0.65989876 #
6.9060839505865683207730398862623 2:-1.33 3:0.12 5:-1.33 6:0.30000001 7:0.045865446 8:-1.2323519 9:0.46501732 10:0.091730826 11:-1.1347026 12:0.63003534 13:0.12334675 14:-1.0092815 15:0.71999007 16:0.17252982 17:-0.85211289 18:0.80774081 21:0.17 24:0.34 25:-0.062041353 26:-0.14550295 27:0.40018538 28:-0.12408285 29:-0.29100615 30:0.46037012 31:-0.15238695 32:-0.41934636 33:0.51756692 34:-0.18267193 35:-0.6686554 36:0.63351637 #
2.2015269667702863642944066668861 2:-1.33 3:0.12 5:-1.33 6:0.30000001 7:-0.14626828 8:-1.2859101 9:0.37071636 10:-0.29253608 11:-1.2418202 12:0.44143295 13:-0.39989072 14:-1.1677177 15:0.48173127 16:-0.5604167 17:-1.0339707 18:0.54589087 21:0.17 24:0.34 25:0.011714646 26:-0.19104701 27:0.37500331 28:0.023429316 29:-0.3820931 30:0.41000569 31:0.039405297 32:-0.57939857 33:0.45069858 34:0.079639949 35:-1.1119379 36:0.5701372 #
-16.788364172066128077176472288556 2:-1.33 3:0.12 5:-1.33 6:0.30000001 7:-0.029309012 8:-1.1389115 9:0.34403378 10:-0.058617905 11:-0.94782633 12:0.38806766 13:-0.088395305 14:-0.81876606 15:0.42939821 16:-0.15153134 17:-0.66071188 18:0.49423623 21:0.17 24:0.34 25:0.084283955 26:-0.17345347 27:0.36638722 28:0.16856828 29:-0.34690744 30:0.39277357 31:0.22443517 32:-0.48786092 33:0.45128781 34:0.35018086 35:-0.77886492 36:0.61370111 #
4.7734188238028290030001699051354 2:-1.33 3:0.12 5:-1.33 6:0.30000001 7:0.14621773 8:-1.3124707 9:0.40228263 10:0.29243517 11:-1.2949393 12:0.5045656 13:0.4040716 14:-1.2578738 15:0.54427737 16:0.48572379 17:-1.1898638 18:0.54688734 21:0.17 24:0.34 25:0.0028228406 26:-0.1959171 27:0.38267547 28:0.0056456793 29:-0.39183339 30:0.42534995 31:0.014392049 32:-0.60551691 33:0.44801193 34:0.033290654 35:-1.2001196 36:0.50880253 #
21.553709677870038774472050135955 2:-1.33 3:0.12 5:-1.33 6:0.30000001 7:-0.047132075 8:-1.1241895 9:0.32511669 10:-0.094264008 11:-0.91837925 12:0.35023326 13:-0.091175728 14:-0.72833282 15:0.38200629 16:-0.067760967 17:-0.30566287 18:0.47413284 21:0.17 24:0.34 25:0.041491598 26:-0.16960235 27:0.41109559 28:0.08298333 29:-0.33920473 30:0.48219046 31:0.14296357 32:-0.4336201 33:0.52243209 34:0.21228439 35:-0.47654322 36:0.54905051 #
-1.4892883379831871604181969814817 2:-1.33 3:0.12 5:-1.33 6:0.30000001 7:0.044924181 8:-1.1329657 9:0.32862413 10:0.089848183 11:-0.93593639 12:0.35724825 13:0.15546376 14:-0.80457985 15:0.38147402 16:0.27764845 17:-0.64375496 18:0.42179242 21:0.17 24:0.34 25:-0.022397667 26:-0.17688766 27:0.38662648 28:-0.044795401 29:-0.35377517 30:0.4332523 31:-0.056691822 32:-0.45462519 33:0.49774748 34:-0.11373404 35:-0.45993954 36:0.57306522 #
-5.1072570410275517360787489451468 2:-1.33 3:0.12 5:-1.33 6:0.30000001 7:-0.098591901 8:-1.2019533 9:0.43904066 10:-0.1971837 11:-1.0739032 12:0.57808214 13:-0.21344051 14:-0.90613693 15:0.62654912 16:-0.21036039 17:-0.51891351 18:0.702739 21:0.17 24:0.34 25:0.020925477 26:-0.10382393 27:0.48727134 28:0.041850954 29:-0.20764737 30:0.63454258 31:0.088194296 32:-0.32752559 33:0.68612683 34:0.15741143 35:-0.50764102 36:0.65028816 #
22.456211975037557948553512687795 2:-1.33 3:0.12 5:-1.33 6:0.30000001 7:-0.0095625222 8:-1.1344531 9:0.33057511 10:-0.019125002 11:-0.93891084 12:0.36115018 13:-0.027596833 14:-0.75403345 15:0.36492997 16:-0.041938115 17:-0.30156282 18:0.36741492 21:0.17 24:0.34 25:-0.031766117 26:0.013988737 27:0.5246172 28:-0.063532345 29:0.027977414 30:0.70923442 31:-0.095490038 32:-0.016050667 33:0.81579351 34:-0.14519078 35:-0.11022541 36:0.97110522 #
18.153826104235811556009139167145 2:-1.33 3:0.12 5:-1.33 6:0.30000001 7:0.13179415 8:-1.1968855 9:0.37042829 10:0.26358819 11:-1.0637668 12:0.44085693 13:0.33008367 14:-0.96211952 15:0.50697768 16:0.44571227 17:-0.77740288 18:0.66870624 21:0.17 24:0.34 25:0.045328174 26:-0.17795874 27:0.39347303 28:0.090656482 29:-0.3559171 30:0.44694525 31:0.10390525 32:-0.56273913 33:0.4922131 34:0.10879061 35:-1.1672292 36:0.6350888 #
-16.891883439444214332070259843022 2:-1.33 3:0.12 5:-1.33 6:0.30000001 7:-0.036081444 8:-1.1614816 9:0.38965404 10:-0.072162844 11:-0.99296445 12:0.47930849 13:-0.07215251 14:-0.8036288 15:0.55526137 16:-0.068931341 17:-0.30688092 18:0.76234651 21:0.17 24:0.34 25:-0.019222578 26:-0.10442095 27:0.50856137 28:-0.038445029 29:-0.20884117 30:0.67712283 31:-0.081303045 32:-0.29149634 33:0.8177942 34:-0.1582046 35:-0.46324936 36:1.0844517 #
-9.1604930016813224114002878195606 2:-1.33 3:0.12 5:-1.33 6:0.30000001 7:0.092414603 8:-1.1393564 9:0.30940002 10:0.18482886 11:-0.94871628 12:0.31879988 13:0.19187653 14:-0.82856774 15:0.39169943 16:0.095017768 17:-0.69242233 18:0.49738663 21:0.17 24:0.34 25:0.025777996 26:-0.16462798 27:0.4547812 28:0.051556196 29:-0.32925543 30:0.56956196 31:0.07482738 32:-0.45759758 33:0.65783268 34:0.068360932 35:-0.65438938 36:0.89645016 #
3.6982507506412716224986070301384 2:-1.33 3:0.12 5:-1.33 6:0.30000001 7:0.058113322 8:-1.2281055 9:0.4578267 10:0.11622673 11:-1.126204 12:0.61565423 13:0.14967942 14:-1.0416251 15:0.72704029 16:0.22250997 17:-0.93388075 18:0.89997596 21:0.17 24:0.34 25:-0.015803808 26:-0.098139822 27:0.4939912 28:-0.031607684 29:-0.19627923 30:0.64798224 31:0.020006331 32:-0.39529273 33:0.69405144 34:0.1668418 35:-0.96001315 36:0.81904048 #
-28.269717028382569168343252385966 2:-1.33 3:0.12 5:-1.33 6:0.30000001 7:0.025933119 8:-1.1971443 9:0.45553091 10:0.051866274 11:-1.0642849 12:0.61106265 13:0.089467332 14:-0.94984412 15:0.72641808 16:0.16797203 17:-0.71372372 18:0.97119087 21:0.17 24:0.34 25:0.063494176 26:-0.18125056 27:0.35145584 28:0.12698862 29:-0.36250165 30:0.36291075 31:0.16238259 32:-0.51561588 33:0.39171654 34:0.24609786 35:-0.88202602 36:0.46578783 #
-0.6423349835292160303623631989467 2:-1.33 3:0.12 5:-1.33 6:0.30000001 7:0.047675293 8:-1.2341936 9:0.45166078 10:0.095350564 11:-1.138383 12:0.60332239 13:0.077639401 14:-0.96872437 15:0.63552994 16:0.022090733 17:-0.61020875 18:0.67044479 21:0.17 24:0.34 25:0.058563735 26:-0.21056712 27:0.36156428 28:0.11712764 29:-0.42113391 30:0.38312748 31:0.087414041 32:-0.52002466 33:0.47681895 34:-0.0013509565 35:-0.41389602 36:0.6199885 #
-18.675899911530162711414959630929 2:-1.33 3:0.12 5:-1.33 6:0.30000001 7:-0.034174155 8:-1.330785 9:0.49366444 10:-0.068348244 11:-1.3315691 12:0.68732947 13:-0.11370841 14:-1.2645651 15:0.66520238 16:-0.14081745 17:-1.2357687 18:0.40704945 21:0.17 24:0.34 25:-0.013402575 26:-0.18489563 27:0.38272974 28:-0.026805213 29:-0.36979109 30:0.42545858 31:-0.035885833 32:-0.55356902 33:0.44913512 34:-0.069527186 35:-1.0264139 36:0.50968689 #
-24.677279250160172097139366087504 2:-1.33 3:0.12 5:-1.33 6:0.30000001 7:0.0013797738 8:-1.1123492 9:0.28720978 10:0.0027595547 11:-0.89470345 12:0.27441934 13:-0.069369443 14:-0.85071307 15:0.35676712 16:-0.18034834 17:-1.0040998 18:0.41605407 21:0.17 24:0.34 25:-0.018653713 26:-0.17960568 27:0.38628918 28:-0.037307501 29:-0.35921112 30:0.43257752 31:-0.059564188 32:-0.52624798 33:0.45712432 34:-0.06342186 35:-0.98729765 36:0.54516155 #
-4.7201955051696655729642770893406 2:-1.33 3:0.12 5:-1.33 6:0.30000001 7:0.18803619 8:-1.2535418 9:0.34968171 10:0.37607273 11:-1.1770757 12:0.39936358 13:0.50748676 14:-1.1135858 15:0.464149 16:0.72990471 17:-1.0211626 18:0.59474456 21:0.17 24:0.34 25:0.075944409 26:-0.16796306 27:0.3768687 28:0.1518892 29:-0.33592701 30:0.41373643 31:0.23865853 32:-0.51603943 33:0.43852654 34:0.49052837 35:-1.0081571 36:0.50381392 #
4.235508200393132582917132822331 2:-1.33 3:0.12 5:-1.33 6:0.30000001 7:-0.071508542 8:-1.275731 9:0.49094644 10:-0.14301696 11:-1.2214555 12:0.68189371 13:-0.23738004 14:-1.1306285 15:0.80204034 16:-0.40078777 17:-0.98174006 18:0.94322956 21:0.17 24:0.34 25:-0.012981407 26:-0.19247285 27:0.35465279 28:-0.025962902 29:-0.38494575 30:0.3693046 31:-0.050584823 32:-0.56927747 33:0.40861395 34:-0.11788181 35:-1.0454242 36:0.54692817 #
-9.0205169664989224287410252145492 2:-1.33 3:0.12 5:-1.33 6:0.30000001 7:-0.12509002 8:-1.1529002 9:0.33017004 10:-0.2501798 11:-0.97580373 12:0.36034003 13:-0.30804643 14:-0.84690815 15:0.38390034 16:-0.35802996 17:-0.635571 18:0.40033925 21:0.17 24:0.34 25:-0.010875083 26:-0.20684294 27:0.36480135 28:-0.021750161 29:-0.4136852 30:0.38960171 31:-0.029519469 32:-0.59721541 33:0.438878 34:0.01513914 35:-1.0435326 36:0.60634017 #
12.770938181740834949096097261645 2:-1.33 3:0.12 5:-1.33 6:0.30000001 7:-0.12437103 8:-1.2548681 9:0.40248421 10:-0.24874182 11:-1.1797334 12:0.50496888 13:-0.36647147 14:-1.0509199 15:0.520419 16:-0.55868572 17:-0.72746795 18:0.65532869 21:0.17 24:0.34 25:0.019009646 26:-0.16770314 27:0.39518005 28:0.038019318 29:-0.33540687 30:0.45035917 31:-0.026765885 32:-0.5271399 33:0.47848842 34:-0.27566594 35:-1.0178787 36:0.55358499 #
-10.841381705011615466105467930902 2:-1.33 3:0.12 5:-1.33 6:0.30000001 7:-0.054297991 8:-1.152658 9:0.37507269 10:-0.10859582 11:-0.97531819 12:0.45014551 13:-0.1705467 14:-0.80937093 15:0.49970648 16:-0.34151497 17:-0.43234205 18:0.56276679 21:0.17 24:0.34 25:-0.11212199 26:-0.17713247 27:0.38733241 28:-0.22424413 29:-0.3542659 30:0.43466398 31:-0.33110589 32:-0.42624936 33:0.5302453 34:-0.28771845 35:-0.27357975 36:0.73475379 #
-9.4607570854326876741424712236039 2:-1.33 3:0.12 5:-1.33 6:0.30000001 7:0.050835863 8:-1.1298896 9:0.33517721 10:0.10167152 11:-0.92978346 12:0.37035432 13:0.12782426 14:-0.72691244 15:0.40888885 16:0.19474107 17:-0.18451813 18:0.51963156 21:0.17 24:0.34 25:0.060206316 26:0.0028175479 27:0.53591061 28:0.12041288 29:0.0056352601 30:0.7318213 31:0.21497364 32:-0.053780358 33:0.78436989 34:0.34673178 35:-0.15440378 36:0.74193424 #
-15.835488816243056930943566840142 2:-1.33 3:0.12 5:-1.33 6:0.30000001 7:0.0095750988 8:-1.1225672 9:0.3355293 10:0.01915008 11:-0.91513658 12:0.37105867 13:0.046080414 14:-0.72886622 15:0.45029736 16:0.11492618 17:-0.27315453 18:0.68296361 21:0.17 24:0.34 25:0.054032352 26:-0.14878485 27:0.47929454 28:0.10806432 29:-0.29756933 30:0.61858898 31:0.17456466 32:-0.32161042 33:0.76574624 34:0.35055926 35:-0.31541473 36:1.0680705 #
-21.77682977677851994258162449114 2:-1.33 3:0.12 5:-1.33 6:0.30000001 7:0.0025402743 8:-1.21233 9:0.45748776 10:0.005080522 11:-1.0946572 12:0.61497617 13:-1.4809741e-05 14:-1.0185518 15:0.61488873 16:-0.012592302 17:-1.0544728 18:0.4455381 21:0.17 24:0.34 25:0.078017987 26:-0.12494109 27:0.42904627 28:0.15603612 29:-0.24988255 30:0.5180921 31:0.17212527 32:-0.38588923 33:0.52728409 34:0.12040018 35:-0.67471135 36:0.5150156 #
-18.560506122233725534442783100531 2:-1.33 3:0.12 5:-1.33 6:0.30000001 7:-0.1167638 8:-1.1561574 9:0.3228156 10:-0.23352699 11:-0.98232245 12:0.34563109 13:-0.29993457 14:-0.78814727 15:0.38507813 16:-0.45600027 17:-0.292799 18:0.47606531 21:0.17 24:0.34 25:-0.1672789 26:-0.10584734 27:0.35501659 28:-0.33455771 29:-0.21169525 30:0.37003204 31:-0.43603039 32:-0.27438271 33:0.43424225 34:-0.50174391 35:-0.34913677 36:0.58466715 #
29.970761766268122272549589979462 2:-1.33 3:0.12 5:-1.33 6:0.30000001 7:0.043984167 8:-1.1413045 9:0.34523919 10:0.087968141 11:-0.95261395 12:0.39047843 13:0.12699619 14:-0.8026064 15:0.38718992 16:0.19980696 17:-0.60379153 18:0.33111826 21:0.17 24:0.34 25:0.082648359 26:-0.18301006 27:0.34535795 28:0.16529721 29:-0.36602086 30:0.35071483 31:0.19893709 32:-0.52124602 33:0.345981 34:0.19682956 35:-0.78534538 36:0.32526571 #
-15.559352960008109079126370488666 2:-1.33 3:0.12 5:-1.33 6:0.30000001 7:-0.056336027 8:-1.1156946 9:0.30146283 10:-0.11267184 11:-0.90139467 12:0.30292547 13:-0.13731767 14:-0.76901525 15:0.37065524 16:-0.1410909 17:-0.56649691 18:0.52817351 21:0.17 24:0.34 25:-0.042639032 26:-0.029182009 27:0.54189348 28:-0.085277855 29:-0.058363445 30:0.74378723 31:-0.14025484 32:-0.21540853 33:0.69077665 34:-0.1398389 35:-0.503407 36:0.38147277 #
-10.644832510862027419307196396403 2:-1.33 3:0.12 5:-1.33 6:0.30000001 7:0.020970438 8:-1.1429302 9:0.35510859 10:0.041940823 11:-0.95586336 12:0.41021729 13:0.077836461 14:-0.81288958 15:0.44808978 16:0.10192771 17:-0.64181805 18:0.49940008 21:0.17 24:0.34 25:-0.007958388 26:-0.040457934 27:0.52939463 28:-0.015917026 29:-0.080915533 30:0.71878928 31:0.0054288572 32:-0.26815784 33:0.65632308 34:0.10746583 35:-0.8057093 36:0.42290622 #
-10.646860920200074573926940502133 2:-1.33 3:0.12 5:-1.33 6:0.30000001 7:0.11923429 8:-1.1674126 9:0.27998373 10:0.23846826 11:-1.0048295 12:0.25996715 13:0.30063993 14:-0.86131322 15:0.29539537 16:0.37500671 17:-0.63608462 18:0.43232429 21:0.17 24:0.34 25:0.08737237 26:-0.18900882 27:0.33827442 28:0.17474513 29:-0.37801853 30:0.33654764 31:0.27242237 32:-0.48923081 33:0.38246036 34:0.53823829 35:-0.63400602 36:0.473701 #
-6.6870495611928690848912992805708 2:-1.33 3:0.12 5:-1.33 6:0.30000001 7:-0.013567297 8:-1.1346945 9:0.33995733 10:-0.027134527 11:-0.93939161 12:0.37991476 13:-0.042929798 14:-0.80690217 15:0.41548246 16:-0.077936076 17:-0.56153423 18:0.48794889 21:0.17 24:0.34 25:-0.08110258 26:-0.12503907 27:0.45580345 28:-0.16220537 29:-0.25007814 30:0.57160652 31:-0.21530421 32:-0.39974409 33:0.64835221 34:-0.37788695 35:-0.8796097 36:0.81803054 #
37.955643948692880940143368206918 2:-1.33 3:0.12 5:-1.33 6:0.30000001 7:-0.056007463 8:-1.2418703 9:0.47533774 10:-0.11201493 11:-1.1537364 12:0.65067631 13:-0.089956865 14:-0.95306361 15:0.60802925 16:-0.051769737 17:-0.5338403 18:0.41213173 21:0.17 24:0.34 25:-0.10012133 26:-0.16033456 27:0.39601156 28:-0.20024323 29:-0.32066983 30:0.45202214 31:-0.25638038 32:-0.44569677 33:0.50743324 34:-0.26195204 35:-0.69121748 36:0.54753655 #
-15.651109081557098789971860242076 2:-1.33 3:0.12 5:-1.33 6:0.30000001 7:0.025174376 8:-1.1439878 9:0.35398686 10:0.050348688 11:-0.95797932 12:0.40797383 13:0.065008797 14:-0.80837095 15:0.40638164 16:0.098787755 17:-0.52383763 18:0.40405622 21:0.17 24:0.34 25:0.0078619085 26:-0.16955358 27:0.33687916 28:0.015723951 29:-0.33910728 30:0.33375782 31:0.15638399 32:-0.31525958 33:0.39623562 34:0.25957632 35:-0.057824634 36:0.43005529 #
-15.35736960262652672781769069843 2:-1.33 3:0.12 5:-1.33 6:0.30000001 7:0.0033967576 8:-1.1284566 9:0.31101155 10:0.0067935707 11:-0.92691803 12:0.32202303 13:-0.03168349 14:-0.76054364 15:0.33361197 16:-0.1107678 17:-0.36842224 18:0.37134939 21:0.17 24:0.34 25:0.056519277 26:-0.056166701 27:0.52396762 28:0.11303864 29:-0.11233306 30:0.70793539 31:0.13072021 32:-0.2662057 33:0.76329952 34:0.14131419 35:-0.62413067 36:0.8128283 #
-11.377408473575737701821708469652 2:-1.33 3:0.12 5:-1.33 6:0.30000001 7:0.0099922195 8:-1.1400555 9:0.35591584 10:0.019984392 11:-0.95011169 12:0.4118318 13:0.034319337 14:-0.74987954 15:0.45899501 16:0.038825817 17:-0.24983689 18:0.57345068 21:0.17 24:0.34 25:0.010876362 26:-0.025723059 27:0.53825492 28:0.021752605 29:-0.051445868 30:0.7365098 31:0.06743703 32:-0.15776107 33:0.72822452 34:0.081649981 35:-0.11447522 36:0.38743994 #
-4.6882534272862335100739983317908 2:-1.33 3:0.12 5:-1.33 6:0.30000001 7:-0.057186715 8:-1.2224606 9:0.46170413 10:-0.11437352 11:-1.1149137 12:0.62340933 13:-0.13235043 14:-0.97696489 15:0.72774225 16:-0.16199368 17:-0.60308892 18:0.99350232 21:0.17 24:0.34 25:-0.066419676 26:-0.1348471 27:0.3806895 28:-0.13283961 29:-0.26969436 30:0.42137828 31:-0.14710844 32:-0.42685241 33:0.47891036 34:-0.11578932 35:-0.8949157 36:0.58490258 #
-4.7827757743069518880929535953328 2:-1.33 3:0.12 5:-1.33 6:0.30000001 7:0.065102875 8:-1.1495556 9:0.37647504 10:0.13020571 11:-0.9691112 12:0.45295042 13:0.27091581 14:-0.91373616 15:0.56964767 16:0.53991771 17:-0.81170118 18:0.81622487 21:0.17 24:0.34 25:-0.12792215 26:-0.20263849 27:0.33666512 28:-0.25584483 29:-0.40527755 30:0.33332914 31:-0.15329759 32:-0.57812351 33:0.37592304 34:0.20669913 35:-0.98280996 36:0.45702288 #
13.828512425754350800843894830905 2:-1.33 3:0.12 5:-1.33 6:0.30000001 7:-0.0045190975 8:-1.1502678 9:0.36817062 10:-0.0090381783 11:-0.97053629 12:0.4363414 13:-0.030221421 14:-0.78108925 15:0.48663133 16:-0.075430088 17:-0.3456803 18:0.59753501 21:0.17 24:0.34 25:0.0048570237 26:-0.17454492 27:0.41054067 28:0.0097138369 29:-0.34908938 30:0.48108071 31:0.0040530609 32:-0.44599381 33:0.62707245 34:-0.052810777 35:-0.68293762 36:0.99507111 #
2.0012432554390837680102777085267 2:-1.33 3:0.12 5:-1.33 6:0.30000001 7:-0.013332229 8:-1.1823022 9:0.41337919 10:-0.026664382 11:-1.0346025 12:0.52675891 13:0.014853296 14:-0.98077708 15:0.52164882 16:0.10084083 17:-1.0868547 18:0.38416705 21:0.17 24:0.34 25:-0.12855704 26:-0.13908698 27:0.37153253 28:-0.25711444 29:-0.27817467 30:0.40306431 31:-0.30208898 32:-0.44131425 33:0.41031057 34:-0.29271474 35:-0.81913579 36:0.43905944 #
0.51908921752540182481538977299351 2:-1.33 3:0.12 5:-1.33 6:0.30000001 7:-0.018079614 8:-1.1745435 9:0.45252183 10:-0.036159266 11:-1.019086 12:0.6050446 13:-0.093650699 14:-0.89711875 15:0.70019817 16:-0.14390011 17:-0.88985503 18:0.77137715 21:0.17 24:0.34 25:-0.016818227 26:-0.20316599 27:0.33043858 28:-0.033636618 29:-0.40633237 30:0.32087612 31:-0.088046215 32:-0.59369242 33:0.38585135 34:-0.27918318 35:-1.0591044 36:0.62870425 #
-23.246959759194780303914740215987 2:-1.33 3:0.12 5:-1.33 6:0.30000001 7:0.065205455 8:-1.1266654 9:0.34490895 10:0.13041046 11:-0.92333829 12:0.38981792 13:0.2367727 14:-0.7942521 15:0.46030676 16:0.50012773 17:-0.43742672 18:0.61445034 21:0.17 24:0.34 25:-0.0051315357 26:-0.18742868 27:0.34310153 28:-0.010262989 29:-0.37485701 30:0.3462024 31:0.05208749 32:-0.4975107 33:0.35978371 34:0.023529001 35:-0.63332301 36:0.50564116 #
10.241310346112134865848020126577 2:-1.33 3:0.12 5:-1.33 6:0.30000001 7:-0.024653181 8:-1.1484736 9:0.37105307 10:-0.049306307 11:-0.96694851 12:0.44210643 13:-0.10455647 14:-0.80861384 15:0.49754596 16:-0.2339645 17:-0.40401348 18:0.618173 21:0.17 24:0.34 25:-0.026740834 26:-0.18842483 27:0.37141046 28:-0.053481851 29:-0.37684953 30:0.40282008 31:-0.12799764 32:-0.56296992 33:0.42523545 34:-0.38505045 35:-1.0716803 36:0.50157917 #
3.285640985451828033347965174471 2:-1.33 3:0.12 5:-1.33 6:0.30000001 7:0.039825775 8:-1.2213529 9:0.4477599 10:0.079651453 11:-1.112703 12:0.59552062 13:0.1035699 14:-0.99478948 15:0.69625866 16:0.14453615 17:-0.76294249 18:0.86028981 21:0.17 24:0.34 25:-0.0019937314 26:-0.058336783 27:0.51929885 28:-0.003987479 29:-0.11667328 30:0.69859773 31:0.043892749 32:-0.18155231 33:0.83092743 34:0.16905479 35:-0.32583675 36:1.1022006 #
12.27867371313900868301516311476 2:-1.33 3:0.12 5:-1.33 6:0.30000001 7:-0.086168371 8:-1.1734501 9:0.34361684 10:-0.1723365 11:-1.0169019 12:0.38723385 13:-0.22693214 14:-0.91821027 15:0.41140252 16:-0.23851651 17:-0.83963579 18:0.46112391 21:0.17 24:0.34 25:-0.096811071 26:-0.15692511 27:0.34266424 28:-0.19362248 29:-0.31385043 30:0.34532768 31:-0.22817589 32:-0.36535084 33:0.42346925 34:-0.24499145 35:-0.27298561 36:0.46796268 #
-4.2921007864922220420567100518383 2:-1.33 3:0.12 5:-1.33 6:0.30000001 7:0.068106353 8:-1.1300007 9:0.33034486 10:0.13621248 11:-0.93000364 12:0.36068958 13:0.093041815 14:-0.77439272 15:0.42123905 16:-0.10780172 17:-0.49549943 18:0.48342842 21:0.17 24:0.34 25:-0.061975949 26:-0.18641162 27:0.36928964 28:-0.12395246 29:-0.37282416 30:0.39857817 31:-0.25568637 32:-0.47530729 33:0.41739213 34:-0.58037239 35:-0.60372514 36:0.5025301 #
-7.3977151136984140578078950056806 2:-1.33 3:0.12 5:-1.33 6:0.30000001 7:0.091789246 8:-1.2057831 9:0.41927716 10:0.18357818 11:-1.0815634 12:0.53855497 13:0.21306174 14:-0.98384476 15:0.49607641 16:0.22878665 17:-0.87941426 18:0.39713424 21:0.17 24:0.34 25:-0.036297891 26:-0.17844266 27:0.40538013 28:-0.072595969 29:-0.35688451 30:0.4707596 31:-0.070846282 32:-0.53293705 33:0.46914899 34:-0.18422575 35:-0.98929113 36:0.44993779 #
15.412692422261342173328557692003 2:-1.33 3:0.12 5:-1.33 6:0.30000001 7:0.11910865 8:-1.2521921 9:0.40921804 10:0.23821728 11:-1.1743802 12:0.51843655 13:0.22631262 14:-0.9905467 15:0.4414756 16:0.062694274 17:-0.78039521 18:0.2831381 21:0.17 24:0.34 25:-0.014290376 26:-0.17888398 27:0.38220465 28:-0.028580667 29:-0.35776827 30:0.42440829 31:0.017546413 32:-0.51015031 33:0.46583897 34:0.26985893 35:-0.85463017 36:0.5314303 #
7.409119338702400803242653637426 2:-1.33 3:0.12 5:-1.33 6:0.30000001 7:0.01383513 8:-1.1248811 9:0.34347141 10:0.027670257 11:-0.91976833 12:0.38694292 13:0.028332936 14:-0.80232602 15:0.52991045 16:0.034731295 17:-0.51519126 18:0.86370975 21:0.17 24:0.34 25:0.041024819 26:-0.13074702 27:0.44882628 28:0.082049869 29:-0.2614941 30:0.55765218 31:0.063618414 32:-0.2668547 33:0.66487402 34:-0.050491098 35:-0.08182317 36:0.74539113 #
-4.9513345952154024232072515587788 2:-1.33 3:0.12 5:-1.33 6:0.30000001 7:-0.15597054 8:-1.1761678 9:0.30467218 10:-0.31194109 11:-1.0223368 12:0.30934408 13:-0.39419705 14:-0.9502846 15:0.38029018 16:-0.47091421 17:-0.9608649 18:0.46317869 21:0.17 24:0.34 25:-0.061541338 26:-0.18911523 27:0.35029164 28:-0.1230832 29:-0.37823153 30:0.36058226 31:-0.16201055 32:-0.5592854 33:0.37203291 34:-0.34024319 35:-0.98546416 36:0.37249327 #
1.5457249333201770191692503431113 2:-1.33 3:0.12 5:-1.33 6:0.30000001 7:-0.046661265 8:-1.2250991 9:0.45589009 10:-0.093322463 11:-1.1201949 12:0.61178088 13:-0.15518416 14:-0.9852587 15:0.68004608 16:-0.27055487 17:-0.69964445 18:0.80176049 21:0.17 24:0.34 25:-0.08684621 26:-0.049059238 27:0.52325988 28:-0.17369239 29:-0.098118439 30:0.70651984 31:-0.2407303 32:-0.20387833 33:0.78932506 34:-0.40660042 35:-0.46548024 36:0.9860521 #
-10.393736683384846131161793891806 2:-1.33 3:0.12 5:-1.33 6:0.30000001 7:0.0068425741 8:-1.2295507 9:0.45586449 10:0.013685144 11:-1.1291012 12:0.61172956 13:-0.043441452 14:-0.94940495 15:0.66698313 16:-0.15469578 17:-0.57058364 18:0.81843227 21:0.17 24:0.34 25:0.072719932 26:-0.012971101 27:0.53224224 28:0.14543986 29:-0.025941983 30:0.72448456 31:0.084325776 32:-0.18423398 33:0.77285409 34:-0.17802365 35:-0.56629264 36:0.77913404 #
-4.3877121850821616533266933402047 2:-1.33 3:0.12 5:-1.33 6:0.30000001 7:0.096715249 8:-1.152472 9:0.3359932 10:0.19343004 11:-0.97495013 12:0.37198636 13:0.27600062 14:-0.79563326 15:0.40377009 16:0.48653239 17:-0.34831342 18:0.48966536 21:0.17 24:0.34 25:0.17578685 26:-0.080677949 27:0.38253433 28:0.35157359 29:-0.16135632 30:0.42506781 31:0.46805125 32:-0.22672652 33:0.4620651 34:0.59315902 35:-0.28664032 36:0.50093639 #
-3.5037129175949766057840406574542 2:-1.33 3:0.12 5:-1.33 6:0.30000001 7:-0.048216775 8:-1.2877766 9:0.47901121 10:-0.096433416 11:-1.2455503 12:0.65802288 13:-0.15795709 14:-1.209181 15:0.75621384 16:-0.28181037 17:-1.220256 18:0.86960667 21:0.17 24:0.34 25:-0.032546893 26:-0.093499064 27:0.50254601 28:-0.065093741 29:-0.18699782 30:0.66509199 31:-0.091984585 32:-0.36459756 33:0.71112102 34:-0.14746933 35:-0.83985561 36:0.82363892 #
-11.965661679197905797877865552437 2:-1.33 3:0.12 5:-1.33 6:0.30000001 7:-0.036916867 8:-1.1704217 9:0.43511578 10:-0.073833786 11:-1.0108383 12:0.57023257 13:-0.034727324 14:-1.0062768 15:0.75306761 16:0.057918407 17:-1.0320754 18:1.0975887 21:0.17 24:0.34 25:-0.0060823304 26:-0.1890543 27:0.40125513 28:-0.012164581 29:-0.37810802 30:0.46250942 31:-0.024332341 32:-0.55542272 33:0.52699125 34:-0.047078729 35:-1.0630414 36:0.66900748 #
18.333828673594140923341910820454 2:-1.33 3:0.12 5:-1.33 6:0.30000001 7:-0.051174242 8:-1.1305134 9:0.32087088 10:-0.10234838 11:-0.93102992 12:0.34174162 13:-0.067923814 14:-0.91114056 15:0.51710397 16:0.019260038 17:-0.9993732 18:0.81660122 21:0.17 24:0.34 25:-0.0058515565 26:-0.20406713 27:0.37306866 28:-0.011703259 29:-0.40813446 30:0.40613627 31:-0.062178906 32:-0.54763001 33:0.42574441 34:-0.0978707 35:-0.6492188 36:0.48847651 #
2.03398575851038154738148477918 2:-1.33 3:0.12 5:-1.33 6:0.30000001 7:-0.091025792 8:-1.1653926 9:0.35720545 10:-0.18205096 11:-1.0007908 12:0.41441101 13:-0.35960343 14:-0.93251282 15:0.41760269 16:-0.78951275 17:-0.81819338 18:0.40888691 21:0.17 24:0.34 25:-0.048863675 26:-0.18437983 27:0.36008552 28:-0.097727574 29:-0.36875963 30:0.38017014 31:-0.1729708 32:-0.45397577 33:0.39540577 34:-0.19480081 35:-0.59659529 36:0.49698645 #
-4.6075103201483091908130518277176 2:-1.33 3:0.12 5:-1.33 6:0.30000001 7:0.13694665 8:-1.1727568 9:0.30301881 10:0.27389279 11:-1.0155214 12:0.30603728 13:0.40211838 14:-0.89006168 15:0.32430705 16:0.59567404 17:-0.59916925 18:0.35776046 21:0.17 24:0.34 25:0.0045782272 26:-0.16427699 27:0.42310292 28:0.0091564925 29:-0.32855359 30:0.50620496 31:0.011295306 32:-0.50021851 33:0.52827024 34:0.06154944 35:-0.97453922 36:0.51856124 #
1.8387305609307968978782810154371 2:-1.33 3:0.12 5:-1.33 6:0.30000001 7:-0.14743298 8:-1.202983 9:0.34239635 10:-0.29486695 11:-1.0759578 12:0.38479275 13:-0.46997347 14:-1.0275042 15:0.44701856 16:-0.9057281 17:-1.0222548 18:0.5152331 21:0.17 24:0.34 25:-0.071165942 26:-0.14201753 27:0.41659039 28:-0.14233208 29:-0.28403521 30:0.4931801 31:-0.19799486 32:-0.47427297 33:0.4943198 34:-0.40540928 35:-1.0010817 36:0.46863282 #
-18.705636948796900753677618922666 2:-1.33 3:0.12 5:-1.33 6:0.30000001 7:-0.033162903 8:-1.1685532 9:0.39870927 10:-0.066325761 11:-1.0071076 12:0.49741879 13:-0.15601766 14:-0.8651213 15:0.51959962 16:-0.33569482 17:-0.82590759 18:0.4850342 21:0.17 24:0.34 25:0.076363429 26:-0.17103282 27:0.37065548 28:0.15272707 29:-0.34206569 30:0.40131021 31:0.093650848 32:-0.47924349 33:0.42200005 34:-0.17206605 35:-0.71197492 36:0.48651996 #
8.5595387846595798464477411471307 2:-1.33 3:0.12 5:-1.33 6:0.30000001 7:0.089526057 8:-1.2682514 9:0.46735412 10:0.17905198 11:-1.2064972 12:0.63470882 13:0.24829358 14:-1.1146868 15:0.76208019 16:0.44588318 17:-1.0528872 18:1.1498966 21:0.17 24:0.34 25:-0.011233517 26:-0.19106376 27:0.36331961 28:-0.022467123 29:-0.38212702 30:0.38663816 31:-0.028707251 32:-0.58772731 33:0.40847898 34:-0.049577132 35:-1.1410391 36:0.49225986 #
13.352194761171793047083156125154 2:-1.33 3:0.12 5:-1.33 6:0.30000001 7:-0.0071433447 8:-1.1337389 9:0.34081993 10:-0.014286635 11:-0.93748003 12:0.38163987 13:-0.0028557966 14:-0.7530309 15:0.39488474 16:0.021603653 17:-0.30497858 18:0.42582211 21:0.17 24:0.34 25:0.1979236 26:-0.024904944 27:0.36898223 28:0.39584798 29:-0.04981003 30:0.39796355 31:0.49542564 32:-0.10671514 33:0.44043919 34:0.69195235 35:-0.2710205 36:0.5529874 #
4.6678094084110073325177836522926 2:-1.33 3:0.12 5:-1.33 6:0.30000001 7:0.042623449 8:-1.2206371 9:0.48097429 10:0.08524666 11:-1.111269 12:0.66194946 13:-0.067643337 14:-0.97370678 15:0.65688974 16:-0.39227039 17:-0.77008605 18:0.52346224 21:0.17 24:0.34 25:-0.12497243 26:-0.13789776 27:0.38063681 28:-0.24994522 29:-0.27579576 30:0.42127296 31:-0.23354548 32:-0.44020396 33:0.49722931 34:-0.088915542 35:-0.90081102 36:0.65793377 #
9.6917535867591428910827744402923 2:-1.33 3:0.12 5:-1.33 6:0.30000001 7:-0.074427262 8:-1.135286 9:0.29786703 10:-0.14885418 11:-0.94057685 12:0.29573381 13:-0.08778353 14:-0.80183709 15:0.34039941 16:0.085213758 17:-0.72344315 18:0.48580104 21:0.17 24:0.34 25:-0.085681781 26:-0.16490322 27:0.38438031 28:-0.17136382 29:-0.32980663 30:0.42875978 31:-0.14328352 32:-0.45757389 33:0.50288182 34:0.1771895 35:-0.66595918 36:0.55571246 #
-6.2061405190892831029714216128923 2:-1.33 3:0.12 5:-1.33 6:0.30000001 7:0.048050556 8:-1.1657382 9:0.37971291 10:0.096101001 11:-1.0014791 12:0.45942608 13:0.094773158 14:-0.8211422 15:0.49596748 16:0.086125575 17:-0.37180784 18:0.58427215 21:0.17 24:0.34 25:0.029412501 26:-0.018317183 27:0.52774674 28:0.058825132 29:-0.036634445 30:0.71549338 31:0.080417469 32:-0.08951544 33:0.87295514 34:0.1207468 35:-0.12981854 36:1.2697572 #
0.63081758500126472455349357915111 2:-1.33 3:0.12 5:-1.33 6:0.30000001 7:-0.09425959 8:-1.2766492 9:0.47044116 10:-0.18851903 11:-1.2232964 12:0.64088309 13:-0.16887894 14:-1.0956105 15:0.73714298 16:-0.019628339 17:-0.89965785 18:0.86877126 21:0.17 24:0.34 25:-0.13923334 26:-0.12840915 27:0.42381495 28:-0.278467 29:-0.25681859 30:0.50762951 31:-0.25075066 32:-0.44076753 33:0.58712667 34:-0.1367474 35:-0.93035525 36:0.84258091 #
-4.9456396665306314730514714028686 2:-1.33 3:0.12 5:-1.33 6:0.30000001 7:0.055500317 8:-1.2117498 9:0.45782846 10:0.11100068 11:-1.093495 12:0.61565769 13:0.1013699 14:-1.0167184 15:0.74887168 16:0.042408723 17:-1.0438672 18:0.87882036 21:0.17 24:0.34 25:0.023389272 26:-0.2015745 27:0.39516699 28:0.046778768 29:-0.40314969 30:0.45033303 31:0.14755362 32:-0.53860211 33:0.53716719 34:0.47535878 35:-0.89750135 36:0.70546395 #
5.5504975843992836459506179380696 2:-1.33 3:0.12 5:-1.33 6:0.30000001 7:0.065773562 8:-1.1504866 9:0.32344472 10:0.13154696 11:-0.97097707 12:0.34688941 13:0.18282957 14:-0.82667077 15:0.3464199 16:0.2637251 17:-0.59957427 18:0.37020126 21:0.17 24:0.34 25:0.11930507 26:-0.14246576 27:0.4133817 28:0.23861039 29:-0.28493226 30:0.48676267 31:0.36906072 32:-0.33066794 33:0.58778298 34:0.68667752 35:-0.3611376 36:0.76868427 #
-4.2072042366630917342718021245673 2:-1.33 3:0.12 5:-1.33 6:0.30000001 7:-0.10475325 8:-1.2777127 9:0.43443665 10:-0.20950623 11:-1.2254212 12:0.56887382 13:-0.26324877 14:-1.1733674 15:0.64313173 16:-0.30473974 17:-1.0576154 18:0.82431376 21:0.17 24:0.34 25:-0.11739238 26:-0.15512352 27:0.38471305 28:-0.23478527 29:-0.31024796 30:0.42942506 31:-0.32291502 32:-0.47445986 33:0.46114409 34:-0.59369528 35:-0.91329086 36:0.52643573 #
2.9753115302576182976679319835966 2:-1.33 3:0.12 5:-1.33 6:0.30000001 7:-0.064263701 8:-1.2278006 9:0.46624103 10:-0.12852754 11:-1.1255925 12:0.63248301 13:-0.23289113 14:-1.0044775 15:0.70356953 16:-0.44555828 17:-0.73608607 18:0.7767157 21:0.17 24:0.34 25:-0.12292621 26:-0.14585096 27:0.37985086 28:-0.24585298 29:-0.29170296 30:0.41970089 31:-0.31934887 32:-0.43305281 33:0.53594929 34:-0.46208516 35:-0.79502147 36:0.87794191 #
-22.728490081808974565547032398172 2:-1.33 3:0.12 5:-1.33 6:0.30000001 7:0.020468464 8:-1.3099211 9:0.49505505 10:0.040936906 11:-1.2898403 12:0.69011062 13:0.068899833 14:-1.1456883 15:0.76983738 16:0.15264872 17:-0.82640433 18:0.86020476 21:0.17 24:0.34 25:0.11185586 26:-0.094923586 27:0.42876768 28:0.22371192 29:-0.18984726 30:0.51753491 31:0.23369928 32:-0.3364239 33:0.59978467 34:0.1933914 35:-0.71815044 36:0.86914384 #
-5.3833306175189123976565497287083 2:-1.33 3:0.12 5:-1.33 6:0.30000001 7:-0.10057224 8:-1.3061062 9:0.45983204 10:-0.20114431 11:-1.2822068 12:0.61966437 13:-0.14340319 14:-1.1125417 15:0.64028543 16:0.033459559 17:-0.77176934 18:0.64910328 21:0.17 24:0.34 25:0.046651725 26:-0.16411427 27:0.37655365 28:0.093303502 29:-0.32822892 30:0.41310638 31:0.057148073 32:-0.48711836 33:0.48707876 34:0.010678581 35:-0.85723227 36:0.68168765 #
7.3472126205920913477598332974594 2:-1.33 3:0.12 5:-1.33 6:0.30000001 7:-0.055906527 8:-1.2933589 9:0.49637365 10:-0.11181303 11:-1.2567164 12:0.69274747 13:-0.06797456 14:-1.1258464 15:0.8189255 16:0.034758881 17:-0.78428745 18:1.0842843 21:0.17 24:0.34 25:0.011664062 26:-0.097643599 27:0.50687182 28:0.023328023 29:-0.19528697 30:0.67374349 31:0.015714569 32:-0.31623963 33:0.79246312 34:-0.046862721 35:-0.56279278 36:1.038518 #
-5.6807972782287121660260709177237 2:-1.33 3:0.12 5:-1.33 6:0.30000001 7:-0.18919821 8:-1.1840714 9:0.34157813 10:-0.37839583 11:-1.0381491 12:0.38315636 13:-0.3118341 14:-0.87918895 15:0.43505263 16:-0.058449347 17:-0.56078017 18:0.62666219 21:0.17 24:0.34 25:0.026676711 26:-0.20085582 27:0.38361865 28:0.0533535 29:-0.40171126 30:0.42723641 31:0.027132291 32:-0.51460677 33:0.46856916 34:-0.19899085 35:-0.57052952 36:0.55795401 #
5.967643356474773064235250785714 2:-1.33 3:0.12 5:-1.33 6:0.30000001 7:0.09398561 8:-1.1231778 9:0.34101182 10:0.18797095 11:-0.91635752 12:0.38202366 13:0.10796538 14:-0.77493036 15:0.42797104 16:-0.155029 17:-0.70866728 18:0.45028108 21:0.17 24:0.34 25:-0.058164842 26:-0.16624752 27:0.35375413 28:-0.11633005 29:-0.33249518 30:0.36750734 31:-0.10220551 32:-0.47535086 33:0.41741577 34:-0.0091883242 35:-0.52299792 36:0.41402277 #
10.270694452300954679913047584705 2:-1.33 3:0.12 5:-1.33 6:0.30000001 7:-0.011578978 8:-1.1223568 9:0.30642563 10:-0.023157926 11:-0.9147194 12:0.31285107 13:-0.031753313 14:-0.75057507 15:0.30563998 16:-0.044959154 17:-0.4067688 18:0.26967952 21:0.17 24:0.34 25:-0.018103437 26:0.016142344 27:0.48641396 28:-0.036206845 29:0.032284513 30:0.63282776 31:-0.0030380725 32:-0.012774182 33:0.6206128 34:0.099851757 35:-0.10622405 36:0.46493345 #
-3.486848831111835522733599646017 2:-1.33 3:0.12 5:-1.33 6:0.30000001 7:-0.032341227 8:-1.1560731 9:0.409695 10:-0.064682543 11:-0.98214245 12:0.51939076 13:-0.16718765 14:-1.0724342 15:0.59829414 16:-0.22319101 17:-1.3183624 18:0.69011408 21:0.17 24:0.34 25:0.062527381 26:-0.18171357 27:0.37963784 28:0.12505503 29:-0.36342707 30:0.41927466 31:0.092149101 32:-0.57109702 33:0.44038883 34:-0.025378918 35:-1.1775916 36:0.45924646 #
-4.5211372083320080506041449552868 2:-1.33 3:0.12 5:-1.33 6:0.30000001 7:0.076446123 8:-1.1754756 9:0.3309949 10:0.15289207 11:-1.0209529 12:0.36198986 13:0.16837202 14:-1.0808887 15:0.41655594 16:0.11032385 17:-1.3734133 18:0.35820335 21:0.17 24:0.34 25:0.0078645293 26:-0.15708746 27:0.40183514 28:0.015729116 29:-0.31417492 30:0.46366963 31:0.060053691 32:-0.46936113 33:0.46653944 34:0.16745892 35:-0.85144353 36:0.48990771 #
3.1367816191612538645472341158893 2:-1.33 3:0.12 5:-1.33 6:0.30000001 7:0.015907867 8:-1.2080808 9:0.45989409 10:0.03181573 11:-1.086159 12:0.61978906 13:0.0042779176 14:-0.92104554 15:0.69299537 16:-0.043617692 17:-0.53903985 18:0.83983576 21:0.17 24:0.34 25:-0.12764101 26:-0.038563762 27:0.49776962 28:-0.25528198 29:-0.077127591 30:0.65553904 31:-0.19678077 32:-0.20396723 33:0.72832882 34:0.052588642 35:-0.49920121 36:0.72872806 #
-5.9434674840320962374562441254966 2:-1.33 3:0.12 5:-1.33 6:0.30000001 7:-0.17278844 8:-1.2277217 9:0.41784292 10:-0.34557655 11:-1.1254337 12:0.53568685 13:-0.38863865 14:-1.12217 15:0.71291065 16:-0.45288271 17:-1.1612029 18:1.0631248 21:0.17 24:0.34 25:-0.0021421905 26:-0.16123347 27:0.42283052 28:-0.0042843348 29:-0.3224664 30:0.5056603 31:-0.0035305035 32:-0.5036943 33:0.53891397 34:0.0043431115 35:-1.0008266 36:0.59796059 #
2.6911214944543089266915103507927 2:-1.33 3:0.12 5:-1.33 6:0.30000001 7:-0.016838912 8:-1.1268942 9:0.35657445 10:-0.033677526 11:-0.92379409 12:0.41314906 13:-0.090295717 14:-0.80629355 15:0.48089179 16:-0.35762265 17:-0.66075134 18:0.62394655 21:0.17 24:0.34 25:-0.13106591 26:-0.090119295 27:0.43723729 28:-0.26213208 29:-0.18023893 30:0.53447419 31:-0.32323802 32:-0.29597428 33:0.53143638 34:-0.48096833 35:-0.60829687 36:0.43465772 #
3.4151884512358390288966347725363 2:-1.33 3:0.12 5:-1.33 6:0.30000001 7:0.11783408 8:-1.2264483 9:0.38766477 10:0.23566803 11:-1.1228938 12:0.47533002 13:0.28756392 14:-1.0267625 15:0.5268352 16:0.27793735 17:-0.95005858 18:0.51096761 21:0.17 24:0.34 25:0.1079227 26:-0.15514596 27:0.39255109 28:0.21584603 29:-0.31029317 30:0.44510123 31:0.27332622 32:-0.52203947 33:0.4854542 34:0.43757501 35:-1.1269037 36:0.60291827 #
-2.9832477226959621674495792831294 2:-1.33 3:0.12 5:-1.33 6:0.30000001 7:-0.055146396 8:-1.1472954 9:0.34449908 10:-0.11029261 11:-0.96459323 12:0.38899827 13:-0.13071142 14:-0.76600802 15:0.40157676 16:-0.19841468 17:-0.23948926 18:0.42470825 21:0.17 24:0.34 25:-0.047540627 26:-0.17949253 27:0.40254608 28:-0.095081665 29:-0.35898539 30:0.46509147 31:-0.24980851 32:-0.44125399 33:0.50655037 34:-0.66547537 35:-0.56162971 36:0.85991436 #
-20.702317543886039175049518235028 2:-1.33 3:0.12 5:-1.33 6:0.30000001 7:-0.043078687 8:-1.1651279 9:0.33504483 10:-0.086157411 11:-1.0002568 12:0.37008974 13:-0.11014165 14:-0.86493331 15:0.39645427 16:-0.096360318 17:-0.70206136 18:0.37592852 21:0.17 24:0.34 25:0.015460257 26:-0.19880855 27:0.35227785 28:0.030920511 29:-0.39761642 30:0.36455491 31:0.01147893 32:-0.50043094 33:0.38883772 34:0.049041864 35:-0.46602699 36:0.64953876 #
6.0726788764835664125030234572478 2:-1.33 3:0.12 5:-1.33 6:0.30000001 7:0.1150865 8:-1.3012406 9:0.4192836 10:0.23017251 11:-1.2724791 12:0.5385676 13:0.35000101 14:-1.2776289 15:0.547535 16:0.42322028 17:-1.3042616 18:0.49372625 21:0.17 24:0.34 25:0.12351835 26:-0.13660604 27:0.37051588 28:0.24703702 29:-0.27321252 30:0.40103093 31:0.31445733 32:-0.42931873 33:0.43069875 34:0.47582608 35:-0.82907552 36:0.52126724 #
-2.3396052231606589977275234559784 2:-1.33 3:0.12 5:-1.33 6:0.30000001 7:0.11753825 8:-1.1439636 9:0.31644046 10:0.23507626 11:-0.95792985 12:0.33288085 13:0.17975663 14:-0.77630657 15:0.45323345 16:0.038730565 17:-0.32411519 18:0.75321364 21:0.17 24:0.34 25:0.010242089 26:-0.081610866 27:0.49637714 28:0.020484196 29:-0.16322091 30:0.65275425 31:0.010517781 32:-0.20319584 33:0.72016835 34:-0.026883058 35:-0.46670112 36:0.89523304 #
2.8335466280466143906835441157455 2:-1.33 3:0.12 5:-1.33 6:0.30000001 7:0.11108918 8:-1.2067629 9:0.41478401 10:0.2221781 11:-1.0835268 12:0.52956843 13:0.23873739 14:-0.94226706 15:0.56632876 16:0.22668593 17:-0.51782149 18:0.59431458 21:0.17 24:0.34 25:0.010478103 26:-0.071006164 27:0.51502001 28:0.020956341 29:-0.14201224 30:0.69004005 31:0.0047688787 32:-0.29116651 33:0.68612319 34:-0.059304494 35:-0.38739851 36:0.4265258 #
14.625132436514370226632308913395 2:-1.33 3:0.12 5:-1.33 6:0.30000001 7:0.026285037 8:-1.2881126 9:0.48536006 10:0.052570116 11:-1.2462295 12:0.67071998 13:-0.10527273 14:-1.1498113 15:0.70253086 16:-0.3630594 17:-0.93004841 18:0.86149973 21:0.17 24:0.34 25:0.039430499 26:-0.16065668 27:0.40775517 28:0.07886108 29:-0.3213132 30:0.47550941 31:0.094754443 32:-0.51479292 33:0.44803688 34:0.15652229 35:-0.9478389 36:0.37999496 #
-20.507014618567176000851759454235 2:-1.33 3:0.12 5:-1.33 6:0.30000001 7:0.19539513 8:-1.2390393 9:0.31157678 10:0.39078984 11:-1.1480808 12:0.3231535 13:0.37021431 14:-0.94633615 15:0.38078099 16:0.15496233 17:-0.61768895 18:0.54112476 21:0.17 24:0.34 25:0.037226133 26:-0.16946687 27:0.3690792 28:0.07445243 29:-0.33893409 30:0.39815751 31:0.036634915 32:-0.43505779 33:0.44098407 34:0.055339504 35:-0.60700142 36:0.51390159 #
-7.5384862841631168350886582629755 2:-1.33 3:0.12 5:-1.33 6:0.30000001 7:-0.028120389 8:-1.3641148 9:0.52954108 10:-0.056240775 11:-1.398231 12:0.75908166 13:-0.011037554 14:-1.1822078 15:0.78883731 16:0.079124324 17:-0.77317834 18:0.8261804 21:0.17 24:0.34 25:-0.023420272 26:-0.20752203 27:0.38619903 28:-0.046840645 29:-0.41504359 30:0.43239689 31:-0.05298939 32:-0.62375033 33:0.46056104 34:-0.081729539 35:-1.208939 36:0.51194382 #
-3.3870243395841210798380416235887 2:-1.33 3:0.12 5:-1.33 6:0.30000001 7:-0.15058896 8:-1.1959938 9:0.32613108 10:-0.3011775 11:-1.0619904 12:0.35226217 13:-0.34882972 14:-0.98214495 15:0.38214824 16:-0.24559842 17:-1.0089312 18:0.41555178 21:0.17 24:0.34 25:-0.069648609 26:-0.065059215 27:0.49309036 28:-0.13929726 29:-0.13011837 30:0.64618051 31:-0.20682412 32:-0.24579026 33:0.62294263 34:-0.44655836 35:-0.65111578 36:0.50922698 #
-5.2249656243484619011496761231683 2:-1.33 3:0.12 5:-1.33 6:0.30000001 7:0.0035253891 8:-1.1387721 9:0.35449839 10:0.0070507424 11:-0.94754815 12:0.40899691 13:-0.050828099 14:-0.77625972 15:0.4357557 16:-0.18894756 17:-0.35638681 18:0.47389066 21:0.17 24:0.34 25:-0.099207632 26:-0.035657149 27:0.52415508 28:-0.19841558 29:-0.071314521 30:0.70831019 31:-0.32055941 32:-0.12186342 33:0.84300435 34:-0.54361814 35:-0.21577084 36:1.0418696 #
4.5302858843515263487233823980205 2:-1.33 3:0.12 5:-1.33 6:0.30000001 7:-0.0030151037 8:-1.1327041 9:0.31510821 10:-0.0060304161 11:-0.93541104 12:0.3302162 13:-0.039645068 14:-0.76242572 15:0.41201451 16:-0.16764908 17:-0.35752279 18:0.57940036 21:0.17 24:0.34 25:-0.18812738 26:-0.12032248 27:0.3787837 28:-0.37625524 29:-0.24064626 30:0.41756627 31:-0.34114218 32:-0.35264122 33:0.48136351 34:-0.067761682 35:-0.70754069 36:0.57527804 #
5.9552908507007247251863191195298 2:-1.33 3:0.12 5:-1.33 6:0.30000001 7:-0.11271332 8:-1.3530256 9:0.47042525 10:-0.22542594 11:-1.3760535 12:0.6408512 13:-0.34029213 14:-1.4189682 15:0.75828075 16:-0.44038227 17:-1.4193951 18:0.93282282 21:0.17 24:0.34 25:0.0028119728 26:-0.20669639 27:0.36605096 28:0.0056239534 29:-0.41339177 30:0.39210087 31:-0.0052607809 32:-0.61379707 33:0.43035877 34:-0.036237944 35:-1.1522033 36:0.53146821 #
0.54670051421905230260023245136836 2:-1.33 3:0.12 5:-1.33 6:0.30000001 7:-0.16700029 8:-1.2483103 9:0.30284435 10:-0.33400041 11:-1.1666174 12:0.30568877 13:-0.33919039 14:-1.1530126 15:0.34714383 16:-0.050211344 17:-1.2300409 18:0.35751781 21:0.17 24:0.34 25:0.01021738 26:-0.1767592 27:0.39777794 28:0.020434843 29:-0.35351765 30:0.45555508 31:0.010329051 32:-0.54769057 33:0.47769603 34:0.005713555 35:-1.0942609 36:0.52627391 #
9.7469101627529326492549444083124 2:-1.33 3:0.12 5:-1.33 6:0.30000001 7:0.0017042164 8:-1.222923 9:0.48713678 10:0.0034082332 11:-1.1158408 12:0.67427438 13:-0.076829731 14:-1.0320338 15:0.79894716 16:-0.2517806 17:-1.0196377 18:0.81037283 21:0.17 24:0.34 25:-0.068198562 26:-0.16795741 27:0.32596043 28:-0.1363972 29:-0.3359156 30:0.31191999 31:-0.18391925 32:-0.42836344 33:0.36136854 34:-0.143879 35:-0.62691432 36:0.52281344 #
5.4849527756862777039259526645765 2:-1.33 3:0.12 5:-1.33 6:0.30000001 7:0.043010894 8:-1.1225973 9:0.3194733 10:0.086021706 11:-0.91519606 12:0.33894643 13:0.077294268 14:-0.71720552 15:0.35693949 16:0.016565509 17:-0.22669007 18:0.42356458 21:0.17 24:0.34 25:-0.048531257 26:-0.13571425 27:0.48180252 28:-0.097062223 29:-0.27142811 30:0.62360495 31:-0.16787308 32:-0.35366353 33:0.7581839 34:-0.31316257 35:-0.52199751 36:1.1227393 #
18.774203496047029204873979324475 2:-1.33 3:0.12 5:-1.33 6:0.30000001 7:-0.038129557 8:-1.1682994 9:0.4419578 10:-0.076258972 11:-1.0065933 12:0.58391654 13:0.085578054 14:-0.95443088 15:0.64307082 16:0.45747054 17:-0.92349386 18:0.7558648 21:0.17 24:0.34 25:0.0407148 26:-0.16240689 27:0.40512624 28:0.081429735 29:-0.3248139 30:0.47025177 31:0.098181464 32:-0.47219464 33:0.52620709 34:0.19616127 35:-0.78665125 36:0.70232356 #
6.019575712265113232035673718201 2:-1.33 3:0.12 5:-1.33 6:0.30000001 7:0.03131716 8:-1.1446216 9:0.31097212 10:0.062634178 11:-0.95924896 12:0.32194418 13:0.037497442 14:-0.81045115 15:0.40186867 16:-0.092523217 17:-0.48445833 18:0.66318327 21:0.17 24:0.34 25:0.058324195 26:-0.16101833 27:0.26062563 28:0.11664876 29:-0.32203707 30:0.18125115 31:0.10120665 32:-0.41506061 33:0.29677168 34:0.020468798 35:-0.36317149 36:0.49232933 #
-18.273789620268214406451079412363 2:-1.33 3:0.12 5:-1.33 6:0.30000001 7:0.0039819544 8:-1.1036295 9:0.2907629 10:0.007963988 11:-0.8772611 12:0.28152558 13:0.033436552 14:-0.69994444 15:0.29988202 16:0.11125476 17:-0.45174533 18:0.48135772 21:0.17 24:0.34 25:-0.0025511421 26:-0.20604084 27:0.32531029 28:-0.0051024007 29:-0.41208148 30:0.31061947 31:-0.027140096 32:-0.59307975 33:0.34388578 34:0.031921457 35:-0.92855293 36:0.60054123 #
10.224837794643864441468394943513 2:-1.33 3:0.12 5:-1.33 6:0.30000001 7:0.042382881 8:-1.2552956 9:0.46511525 10:0.084765755 11:-1.1805933 12:0.63023114 13:0.022515025 14:-1.033516 15:0.69406158 16:-0.1156697 17:-0.76406384 18:0.74959821 21:0.17 24:0.34 25:0.036046002 26:-0.092530094 27:0.53394347 28:0.072092094 29:-0.18505903 30:0.72788739 31:0.068794593 32:-0.37138703 33:0.74094552 34:-0.024319803 35:-0.87837029 36:0.77689797 #
4.8563056609680366193515510531142 2:-1.33 3:0.12 5:-1.33 6:0.30000001 7:0.025418565 8:-1.1332667 9:0.32035762 10:0.050836984 11:-0.93653673 12:0.34071502 13:0.090243168 14:-0.75827682 15:0.3880184 16:0.14323211 17:-0.32473615 18:0.47323698 21:0.17 24:0.34 25:0.16431849 26:-0.044420961 27:0.36404413 28:0.32863677 29:-0.088842243 30:0.38808754 31:0.33337894 32:-0.24735327 33:0.49511337 34:0.079937607 35:-0.41018891 36:0.65777498 #
12.820214281730027749972578021698 2:-1.33 3:0.12 5:-1.33 6:0.30000001 7:-0.094244316 8:-1.2433715 9:0.43797013 10:-0.18848856 11:-1.1567374 12:0.57594091 13:-0.26704335 14:-0.99342585 15:0.57015342 16:-0.35913894 17:-0.679425 18:0.5529027 21:0.17 24:0.34 25:-0.13839681 26:-0.10046948 27:0.38040969 28:-0.27679393 29:-0.20093912 30:0.42081851 31:-0.40095982 32:-0.26755941 33:0.44079965 34:-0.64602077 35:-0.32045278 36:0.47430953 #
3.6018786727104288303280554828234 2:-1.33 3:0.12 5:-1.33 6:0.30000001 7:0.0082132481 8:-1.2543912 9:0.50418425 10:0.016426519 11:-1.1787782 12:0.70836902 13:0.086811982 14:-1.0937984 15:0.82161969 16:0.14150614 17:-1.0617605 18:0.7275219 21:0.17 24:0.34 25:-0.025878815 26:0.0010823332 27:0.53682953 28:-0.051757623 29:0.002164349 30:0.73365897 31:-0.048406061 32:-0.20830019 33:0.76724344 34:-0.0097010499 35:-0.71406144 36:0.86448532 #
-3.6483024596317807919376718928106 2:-1.33 3:0.12 5:-1.33 6:0.30000001 7:-0.024577744 8:-1.1482688 9:0.36614418 10:-0.049155369 11:-0.96653843 12:0.43228859 13:-0.089456148 14:-0.77499902 15:0.47437736 16:-0.27131876 17:-0.1511444 18:0.56757265 21:0.17 24:0.34 25:-0.042469889 26:-0.15151389 27:0.39303729 28:-0.084940068 29:-0.30302766 30:0.44607398 31:-0.12085604 32:-0.40408546 33:0.45255354 34:-0.27030137 35:-0.59876776 36:0.40140668 #
-1.1783573454929237023236510140123 2:-1.33 3:0.12 5:-1.33 6:0.30000001 7:-0.13644627 8:-1.2069464 9:0.42104453 10:-0.27289221 11:-1.0838919 12:0.54208952 13:-0.18867935 14:-0.89350986 15:0.53115588 16:0.046554405 17:-0.48009866 18:0.53352278 21:0.17 24:0.34 25:-0.033293542 26:-0.092954509 27:0.48207992 28:-0.066587187 29:-0.185909 30:0.62415957 31:-0.044681109 32:-0.22090524 33:0.74414033 34:0.020627897 35:-0.089057498 36:0.83315372 #
-14.22053505466443468208126432728 2:-1.33 3:0.12 5:-1.33 6:0.30000001 7:-0.082591228 8:-1.2011821 9:0.35392037 10:-0.16518217 11:-1.072366 12:0.40784094 13:-0.19889283 14:-0.92677301 15:0.40436816 16:-0.44496265 17:-0.54054481 18:0.42706275 21:0.17 24:0.34 25:-0.094056509 26:0.021462666 27:0.49544308 28:-0.18811299 29:0.042925101 30:0.65088624 31:-0.24812965 32:-0.10834406 33:0.5840022 34:-0.41171384 35:-0.53878379 36:0.48586628 #
-4.7623107815993819258437724784017 2:-1.33 3:0.12 5:-1.33 6:0.30000001 7:0.07927122 8:-1.1500897 9:0.36136827 10:0.15854214 11:-0.97018468 12:0.42273667 13:0.20984937 14:-0.77946299 15:0.4094694 16:0.41769934 17:-0.34796327 18:0.33990255 21:0.17 24:0.34 25:0.087287165 26:-0.12745282 27:0.45175818 28:0.17457485 29:-0.25490564 30:0.56351584 31:0.204082 32:-0.29805815 33:0.68823671 34:0.08735089 35:-0.20068759 36:0.88552421 #
8.4533965400498622955183236626908 2:-1.33 3:0.12 5:-1.33 6:0.30000001 7:0.038111974 8:-1.1797824 9:0.42750129 10:0.076223917 11:-1.0295659 12:0.55500317 13:-0.015984295 14:-0.8659246 15:0.47586128 16:-0.15721433 17:-0.59491313 18:0.25010851 21:0.17 24:0.34 25:-0.04284526 26:-0.12823661 27:0.48866487 28:-0.08569067 29:-0.25647309 30:0.63732934 31:-0.131943 32:-0.35975978 33:0.67478633 34:-0.18306185 35:-0.30870464 36:0.56731111 #
9.9071764824090795542588239186443 2:-1.33 3:0.12 5:-1.33 6:0.30000001 7:0.0069900709 8:-1.1119844 9:0.26488549 10:0.013980068 11:-0.89397323 12:0.2297706 13:0.041310571 14:-0.78577644 15:0.3243055 16:-0.013246587 17:-0.72372884 18:0.49938458 21:0.17 24:0.34 25:0.10600105 26:-0.1671003 27:0.43537816 28:0.2120024 29:-0.33420044 30:0.53075558 31:0.20031694 32:-0.43229663 33:0.55966079 34:-0.042360976 35:-0.68010789 36:0.40530258 #
-6.2408701889461513090395783365238 2:-1.33 3:0.12 5:-1.33 6:0.30000001 7:0.056165248 8:-1.2653472 9:0.52560401 10:0.1123305 11:-1.2006898 12:0.75120956 13:0.059798609 14:-1.1587095 15:0.8940239 16:-0.093799613 17:-1.0167043 18:1.0092447 21:0.17 24:0.34 25:0.054043166 26:-0.18606199 27:0.40047461 28:0.10808662 29:-0.37212303 30:0.46094885 31:0.069588706 32:-0.5144974 33:0.5910452 34:-0.0060833711 35:-0.96932256 36:0.95029455 #
11.781155752206737830078964179847 2:-1.33 3:0.12 5:-1.33 6:0.30000001 7:-0.022646528 8:-1.1742162 9:0.46891207 10:-0.045293041 11:-1.0184337 12:0.63782513 13:-0.090678714 14:-0.91411048 15:0.70233488 16:-0.12959847 17:-0.83359671 18:0.80452526 21:0.17 24:0.34 25:-0.008573682 26:-0.18130402 27:0.43806553 28:-0.017147394 29:-0.36260787 30:0.53613031 31:0.032403771 32:-0.47992742 33:0.64047462 34:0.12927257 35:-0.56369001 36:1.0294744 #
-3.6934260810211809733516474807402 2:-1.33 3:0.12 5:-1.33 6:0.30000001 7:0.11186849 8:-1.1795729 9:0.39326712 10:0.22373635 11:-1.0291482 12:0.48653489 13:0.23037876 14:-0.87620723 15:0.5798071 16:0.25120679 17:-0.48471567 18:0.7725445 21:0.17 24:0.34 25:0.17543447 26:-0.083945692 27:0.48036361 28:0.35086873 29:-0.16789237 30:0.62072718 31:0.42522934 32:-0.22545609 33:0.75528473 34:0.32989287 35:-0.450454 36:0.82891554 #
8.1176408579819376853947687777691 2:-1.33 3:0.12 5:-1.33 6:0.30000001 7:0.0051745712 8:-1.3430364 9:0.51316082 10:0.010348988 11:-1.3560745 12:0.726322 13:0.19192439 14:-1.3587197 15:0.79547006 16:0.4179095 17:-1.3976569 18:0.74946791 21:0.17 24:0.34 25:0.014838087 26:-0.19936229 27:0.3733426 28:0.02967626 29:-0.39872405 30:0.40668422 31:0.024862187 32:-0.60045362 33:0.44418088 34:0.005071701 35:-1.1508702 36:0.54789591 #
-8.6534482251234621230651100631803 2:-1.33 3:0.12 5:-1.33 6:0.30000001 7:-0.074825101 8:-1.1441181 9:0.31960347 10:-0.14965001 11:-0.95824069 12:0.33920693 13:-0.21777084 14:-0.80738544 15:0.34132761 16:-0.19316898 17:-0.69124943 18:0.39072138 21:0.17 24:0.34 25:-0.080897138 26:-0.16241008 27:0.39860165 28:-0.16179468 29:-0.32482076 30:0.4572024 31:-0.31568229 32:-0.43695945 33:0.46834058 34:-0.79635793 35:-0.65138477 36:0.49691719 #
-3.1104806299721241558131623605732 2:-1.33 3:0.12 5:-1.33 6:0.30000001 7:-0.022696476 8:-1.4004097 9:0.51123971 10:-0.045392856 11:-1.4708188 12:0.7224794 13:-0.073992826 14:-1.2645222 15:0.71391606 16:-0.1364796 17:-0.71976674 18:0.73100603 21:0.17 24:0.34 25:-0.034899443 26:-0.10261828 27:0.47352698 28:-0.069798961 29:-0.20523657 30:0.60705364 31:-0.11047366 32:-0.33422932 33:0.64978009 34:-0.19134356 35:-0.60686171 36:0.62622523 #
-17.401888023764769286572118289769 2:-1.33 3:0.12 5:-1.33 6:0.30000001 7:-0.010061698 8:-1.1848358 9:0.3752104 10:-0.020123342 11:-1.0396708 12:0.45042118 13:0.10484877 14:-0.88694918 15:0.52850598 16:0.3227022 17:-0.56898499 18:0.72845334 21:0.17 24:0.34 25:0.064055279 26:-0.1457119 27:0.44092077 28:0.12811059 29:-0.29142359 30:0.54184079 31:0.021771684 32:-0.44219592 33:0.58784419 34:-0.26599747 35:-0.81599474 36:0.64679265 #
-3.7260044296450276490872965950985 2:-1.33 3:0.12 5:-1.33 6:0.30000001 7:-0.0063133896 8:-1.1209279 9:0.30586243 10:-0.012626587 11:-0.91186225 12:0.31172457 13:0.10064388 14:-0.83252048 15:0.38964868 16:0.34669158 17:-0.95634788 18:0.40097037 21:0.17 24:0.34 25:-0.043531585 26:-0.13751528 27:0.40060675 28:-0.087063186 29:-0.27503014 30:0.46121299 31:-0.071772315 32:-0.45797077 33:0.44764853 34:-0.052475598 35:-0.90654409 36:0.35716057 #
30.31394079441826860943365318235 2:-1.33 3:0.12 5:-1.33 6:0.30000001 7:0.0034430262 8:-1.1342514 9:0.38023427 10:0.0068861083 11:-0.93850392 12:0.46046895 13:-0.015395394 14:-0.8162933 15:0.6175288 16:-0.010170799 17:-0.49519122 18:1.0400834 21:0.17 24:0.34 25:0.051184483 26:-0.17079018 27:0.38905028 28:0.10236918 29:-0.34158093 30:0.43809965 31:0.081278764 32:-0.52541214 33:0.5432303 34:0.1657345 35:-0.9782815 36:0.70087606 #
0.80154011773433464504989842680516 2:-1.33 3:0.12 5:-1.33 6:0.30000001 7:0.094969526 8:-1.1914898 9:0.35709354 10:0.18993886 11:-1.0529798 12:0.41418728 13:0.27886698 14:-1.0411234 15:0.52313709 16:0.36259469 17:-1.1185435 18:0.64001691 21:0.17 24:0.34 25:0.019060211 26:-0.044490524 27:0.52521265 28:0.038120426 29:-0.088980652 30:0.71042538 31:0.09261357 32:-0.24746054 33:0.6733976 34:0.20298998 35:-0.6816572 36:0.56570995 #
12.584175874746012624427748960443 2:-1.33 3:0.12 5:-1.33 6:0.30000001 7:-0.097987428 8:-1.1402631 9:0.23529002 10:-0.19597454 11:-0.95053381 12:0.17057972 13:-0.17833036 14:-0.78749621 15:0.27394927 16:-0.21273552 17:-0.50973397 18:0.55153108 21:0.17 24:0.34 25:-0.04780687 26:-0.12553066 27:0.44857329 28:-0.095613793 29:-0.25106087 30:0.55714619 31:-0.09588629 32:-0.27434918 33:0.66581124 34:-0.19332647 35:-0.2702851 36:0.89220399 #
-16.832952452955659339295380050316 2:-1.33 3:0.12 5:-1.33 6:0.30000001 7:0.0011066536 8:-1.1779759 9:0.45277253 10:0.0022135351 11:-1.0259504 12:0.60554588 13:0.048747241 14:-0.92095172 15:0.75231367 16:0.16579558 17:-0.64913851 18:1.2212346 21:0.17 24:0.34 25:0.0047082426 26:-0.20464091 27:0.29803288 28:0.0094164787 29:-0.40928215 30:0.25606498 31:0.023219313 32:-0.55132318 33:0.3374458 34:0.17390655 35:-0.87436026 36:0.56298727 #
-0.88941792921288054252215715678176 2:-1.33 3:0.12 5:-1.33 6:0.30000001 7:0.056075286 8:-1.2010162 9:0.44826245 10:0.11215061 11:-1.0720303 12:0.59652561 13:0.14381419 14:-0.93456042 15:0.6262508 16:0.20865728 17:-0.711447 18:0.64989322 21:0.17 24:0.34 25:0.17227754 26:-0.08598727 27:0.3753593 28:0.34455538 29:-0.17197579 30:0.41071802 31:0.28674358 32:-0.35082921 33:0.45391694 34:0.13600743 35:-0.82028359 36:0.60982728 #
-10.897872481583284809403266990557 2:-1.33 3:0.12 5:-1.33 6:0.30000001 7:0.035419665 8:-1.1048027 9:0.30338553 10:0.070838898 11:-0.87961417 12:0.30677089 13:0.13970476 14:-0.76060355 15:0.37446818 16:0.30145699 17:-0.84538889 18:0.60261935 21:0.17 24:0.34 25:0.065128691 26:-0.19192609 27:0.39413044 28:0.13025795 29:-0.3838532 30:0.4482598 31:0.14878008 32:-0.55263251 33:0.4763054 34:0.31901279 35:-0.49416134 36:0.53695679 #
-3.0810386051544691454751045966987 2:-1.33 3:0.12 5:-1.33 6:0.30000001 7:-0.066193961 8:-1.2934046 9:0.51412475 10:-0.13238789 11:-1.2568046 12:0.72825056 13:-0.20193748 14:-1.110605 15:0.66887254 16:-0.24854036 17:-0.93695879 18:0.38094726 21:0.17 24:0.34 25:-0.11291776 26:-0.12966034 27:0.28860241 28:-0.22583576 29:-0.25932151 30:0.23720445 31:-0.29576778 32:-0.4298642 33:0.24556464 34:-0.26181415 35:-0.85817713 36:0.43336868 #
12.880277714299470659398139105178 2:-1.33 3:0.12 5:-1.33 6:0.30000001 7:-0.068580575 8:-1.2407588 9:0.48348194 10:-0.13716123 11:-1.1515092 12:0.66696507 13:-0.35260314 14:-1.1113038 15:0.62336981 16:-0.53583509 17:-1.2254786 18:0.47351259 21:0.17 24:0.34 25:-0.079881914 26:-0.20046182 27:0.3659963 28:-0.15976456 29:-0.4009248 30:0.39199147 31:-0.21396758 32:-0.59182543 33:0.45630544 34:-0.40402004 35:-1.1192117 36:0.59373015 #
10.277027207071819603356743755285 2:-1.33 3:0.12 5:-1.33 6:0.30000001 7:-0.11790144 8:-1.1810665 9:0.27833572 10:-0.23580271 11:-1.0321367 12:0.25667134 13:-0.22195363 14:-0.89220405 15:0.35388163 16:-0.11286832 17:-0.67743659 18:0.58930993 21:0.17 24:0.34 25:0.011959041 26:-0.11979306 27:0.42752442 28:0.023918286 29:-0.2395869 30:0.51504838 31:0.031421762 32:-0.40704122 33:0.46892548 34:-0.060996495 35:-0.94931424 36:0.3678059 #
10.118788469718987599321735615376 2:-1.33 3:0.12 5:-1.33 6:0.30000001 7:-0.018873421 8:-1.3045681 9:0.51499087 10:-0.037746944 11:-1.279132 12:0.72998226 13:-0.039796315 14:-1.0584065 15:0.74361163 16:-0.092810065 17:-0.50106233 18:0.79260224 21:0.17 24:0.34 25:-0.038104612 26:-0.11986915 27:0.47911981 28:-0.076209158 29:-0.23973784 30:0.61823946 31:-0.1415298 32:-0.29357454 33:0.74865824 34:-0.16633916 35:-0.24713624 36:0.9191345 #
-6.9494155792014273842482907639351 2:-1.33 3:0.12 5:-1.33 6:0.30000001 7:-0.088728219 8:-1.1562904 9:0.34389621 10:-0.17745613 11:-0.98258525 12:0.38779232 13:-0.095085852 14:-0.82748574 15:0.4414984 16:0.13798591 17:-0.78873074 18:0.49709561 21:0.17 24:0.34 25:-0.053741522 26:-0.18522593 27:0.32985699 28:-0.10748357 29:-0.37045258 30:0.31971306 31:-0.18957189 32:-0.55832028 33:0.32869178 34:-0.36227694 35:-0.9562121 36:0.46808851 #
6.3392858848919360070794937200844 2:-1.33 3:0.12 5:-1.33 6:0.30000001 7:-0.00088081608 8:-1.3158536 9:0.48930943 10:-0.0017617078 11:-1.301704 12:0.67861891 13:-0.031782474 14:-1.1826357 15:0.82847393 16:-0.14298269 17:-0.91020119 18:1.3752548 21:0.17 24:0.34 25:-0.064449564 26:-0.17762639 27:0.38621199 28:-0.12889937 29:-0.3552531 30:0.43242306 31:-0.11103299 32:-0.54770941 33:0.45642221 34:-0.072750472 35:-1.0047264 36:0.52142322 #
-19.465524117165635686887981137261 2:-1.33 3:0.12 5:-1.33 6:0.30000001 7:-0.028759034 8:-1.2276871 9:0.48304671 10:-0.057518005 11:-1.1253682 12:0.66609436 13:-0.0011935279 14:-0.9661091 15:0.58114839 16:0.093770817 17:-0.67879325 18:0.28239682 21:0.17 24:0.34 25:-0.017335478 26:-0.11745434 27:0.48199847 28:-0.034670852 29:-0.23490804 30:0.62399679 31:-0.033660021 32:-0.40254357 33:0.70519835 34:-0.02937825 35:-0.79897159 36:0.94451338 #
0.50823853925961959276946799946018 2:-1.33 3:0.12 5:-1.33 6:0.30000001 7:-0.22668222 8:-1.3213955 9:0.33228067 10:-0.4533636 11:-1.3127891 12:0.36456135 13:-0.59646124 14:-1.3071742 15:0.39782247 16:-0.7706517 17:-1.2744002 18:0.46970004 21:0.17 24:0.34 25:-0.023188859 26:-0.19815855 27:0.37052119 28:-0.046377797 29:-0.39631659 30:0.4010413 31:-0.075433098 32:-0.575486 33:0.42899829 34:-0.14815693 35:-1.0291777 36:0.50313342 #
2.9338067970640402393200929509476 2:-1.33 3:0.12 5:-1.33 6:0.30000001 7:-0.053424191 8:-1.1282529 9:0.32377526 10:-0.10684804 11:-0.92651308 12:0.34755039 13:-0.1574107 14:-0.79958034 15:0.49660322 16:-0.26098585 17:-0.82671762 18:0.75797242 21:0.17 24:0.34 25:-0.1237095 26:-0.14243095 27:0.32383546 28:-0.24741927 29:-0.28486294 30:0.30767033 31:-0.262523 32:-0.39394975 33:0.42835999 34:-0.15093873 35:-0.78163177 36:0.66940266 #
-4.1815120087868429266109160380438 2:-1.33 3:0.12 5:-1.33 6:0.30000001 7:-0.11664627 8:-1.1744784 9:0.38756555 10:-0.2332923 11:-1.0189584 12:0.47513112 13:-0.24594358 14:-0.88358355 15:0.4920339 16:-0.19123207 17:-0.58479893 18:0.42363313 21:0.17 24:0.34 25:-0.08540576 26:-0.12865646 27:0.40897793 28:-0.17081176 29:-0.2573134 30:0.4779551 31:-0.2126862 32:-0.34205884 33:0.61406499 34:-0.30519742 35:-0.51188427 36:1.0953771 #
-16.053825553961260652613418642431 2:-1.33 3:0.12 5:-1.33 6:0.30000001 7:0.094902329 8:-1.4197119 9:0.45815584 10:0.18980432 11:-1.5094279 12:0.61631233 13:0.26726258 14:-1.421775 15:0.57843339 16:0.098395675 17:-1.2345247 18:0.40351525 21:0.17 24:0.34 25:-0.0034900184 26:-0.18343063 27:0.38247079 28:-0.0069800317 29:-0.36686093 30:0.42494065 31:0.010227257 32:-0.5454793 33:0.46079841 34:0.071327746 35:-0.99053013 36:0.56829703 #
-26.29516767218632722347138042096 2:-1.33 3:0.12 5:-1.33 6:0.30000001 7:0.1167811 8:-1.1636428 9:0.33917373 10:0.23356193 11:-0.99728769 12:0.37834752 13:0.34315813 14:-0.91533536 15:0.40293965 16:0.40796506 17:-0.9224214 18:0.37691623 21:0.17 24:0.34 25:0.161128 26:-0.095584847 27:0.36226079 28:0.32225621 29:-0.19116999 30:0.38452089 31:0.40024644 32:-0.31422913 33:0.36863312 34:0.32291719 35:-0.54835331 36:0.38088372 #
10.190599148143597574289742624387 2:-1.33 3:0.12 5:-1.33 6:0.30000001 7:0.080280341 8:-1.1509734 9:0.35959449 10:0.1605605 11:-0.9719525 12:0.4191891 13:0.19996123 14:-0.80607367 15:0.43901995 16:0.18692933 17:-0.6152702 18:0.43552682 21:0.17 24:0.34 25:-0.085410833 26:-0.16755483 27:0.2820797 28:-0.17082211 29:-0.33510968 30:0.22415869 31:-0.21029206 32:-0.51804656 33:0.2803511 34:-0.029317163 35:-0.77558124 36:0.64032936 #
-0.80940023296576668609958460365306 2:-1.33 3:0.12 5:-1.33 6:0.30000001 7:-0.03536531 8:-1.1440082 9:0.35560104 10:-0.0707305 11:-0.9580183 12:0.41120213 13:-0.074587591 14:-0.76214075 15:0.44575432 16:-0.089900933 17:-0.26452827 18:0.53152245 21:0.17 24:0.34 25:-0.09351138 26:0.027692668 27:0.48659402 28:-0.18702312 29:0.055385441 30:0.63318777 31:-0.30252019 32:0.059044939 33:0.68268079 34:-0.36999792 35:0.046710961 36:0.48586753 #
-0.43396146496855569907324934320059 2:-1.33 3:0.12 5:-1.33 6:0.30000001 7:-0.12796526 8:-1.1977196 9:0.33351812 10:-0.25592998 11:-1.0654416 12:0.36703631 13:-0.4019565 14:-1.0337369 15:0.40979248 16:-0.60235357 17:-1.0360305 18:0.59439844 21:0.17 24:0.34 25:-0.17948027 26:-0.064111449 27:0.35191041 28:-0.3589609 29:-0.12822337 30:0.36381975 31:-0.44654521 32:-0.27129799 33:0.40812206 34:-0.43488455 35:-0.70026463 36:0.50208467 #
12.907578872992438334676990052685 2:-1.33 3:0.12 5:-1.33 6:0.30000001 7:0.16443995 8:-1.361603 9:0.3825869 10:0.32887948 11:-1.3932042 12:0.4651742 13:0.33546871 14:-1.2046329 15:0.38841832 16:0.14817777 17:-1.058622 18:0.27884725 21:0.17 24:0.34 25:0.070059977 26:-0.21078219 27:0.34737399 28:0.14012037 29:-0.42156395 30:0.35474688 31:0.11029953 32:-0.61317277 33:0.37492216 34:0.0072910665 35:-1.058506 36:0.46928298 #
-2.119703920740026337199424233404 2:-1.33 3:0.12 5:-1.33 6:0.30000001 7:-0.062041745 8:-1.1237377 9:0.38046929 10:-0.12408328 11:-0.91747499 12:0.46093896 13:-0.089475237 14:-0.75667095 15:0.44297972 16:0.045017213 17:-0.52482957 18:0.4258379 21:0.17 24:0.34 25:-0.056250792 26:-0.16632088 27:0.25813359 28:-0.11250181 29:-0.3326427 30:0.1762666 31:-0.16008906 32:-0.38722184 33:0.32087356 34:-0.20172673 35:-0.23803116 36:0.42756003 #
9.8186290293243683180435255053453 2:-1.33 3:0.12 5:-1.33 6:0.30000001 7:-0.062483426 8:-1.1777133 9:0.43419948 10:-0.12496668 11:-1.0254225 12:0.5684002 13:-0.13566026 14:-0.90700954 15:0.68898195 16:-0.023728848 17:-0.81499243 18:0.92931885 21:0.17 24:0.34 25:0.10490536 26:-0.010232401 27:0.54226649 28:0.20981085 29:-0.020464608 30:0.744533 31:0.1844686 32:-0.2507056 33:0.75149852 34:0.093866669 35:-0.90831608 36:0.94027716 #
4.7239697331002892255469305382576 2:-1.33 3:0.12 5:-1.33 6:0.30000001 7:-0.033228047 8:-1.2211938 9:0.49006727 10:-0.066456124 11:-1.1123835 12:0.68013561 13:-0.078912333 14:-0.94743186 15:0.62727088 16:-0.088391975 17:-0.77220571 18:0.37024236 21:0.17 24:0.34 25:0.0062230132 26:-0.21568331 27:0.34223834 28:0.012446058 29:-0.43136546 30:0.34447566 31:0.044071008 32:-0.62657595 33:0.36751866 34:0.080598719 35:-1.1940233 36:0.42635736 #
-23.234615872367079703053605044261 2:-1.33 3:0.12 5:-1.33 6:0.30000001 7:-0.013893182 8:-1.1231574 9:0.30503634 10:-0.027786331 11:-0.91631615 12:0.31007245 13:-0.026347708 14:-0.72257328 15:0.33888459 16:0.06810157 17:-0.23699565 18:0.43769169 21:0.17 24:0.34 25:0.096522957 26:-0.16639945 27:0.38697103 28:0.19304663 29:-0.33280003 30:0.4339411 31:0.32047713 32:-0.46543905 33:0.45402735 34:0.5030002 35:-0.92336035 36:0.54947519 #
2.5456913618213170558135516330367 2:-1.33 3:0.12 5:-1.33 6:0.30000001 7:-0.094462253 8:-1.1716057 9:0.39980498 10:-0.18892433 11:-1.013209 12:0.49961057 13:-0.24528389 14:-0.87150776 15:0.62637562 16:-0.3755663 17:-0.50084817 18:0.97485024 21:0.17 24:0.34 25:-0.064660959 26:-0.060098443 27:0.49711114 28:-0.12932216 29:-0.12019701 30:0.65422213 31:-0.22454272 32:-0.19069563 33:0.73335105 34:-0.33699825 35:-0.26636165 36:0.63216794 #
-1.039491065818708426249372678285 2:-1.33 3:0.12 5:-1.33 6:0.30000001 7:0.039658193 8:-1.219461 9:0.48922545 10:0.079316586 11:-1.1089149 12:0.67845196 13:0.14228995 14:-0.98734784 15:0.78645414 16:0.25071195 17:-0.72012901 18:1.0620149 21:0.17 24:0.34 25:0.093722627 26:-0.034381449 27:0.5036099 28:0.18744537 29:-0.068762861 30:0.66721964 31:0.26655948 32:-0.18061535 33:0.71915644 34:0.38160756 35:-0.42259201 36:0.75792313 #
10.844332018261223282706851023249 2:-1.33 3:0.12 5:-1.33 6:0.30000001 7:-0.010788606 8:-1.1692817 9:0.40837967 10:-0.021577248 11:-1.0085608 12:0.51675987 13:-0.06721776 14:-0.94405818 15:0.56162512 16:-0.15236799 17:-1.0385083 18:0.54685676 21:0.17 24:0.34 25:0.021216622 26:-0.1613697 27:0.44937685 28:0.042433161 29:-0.32273912 30:0.55875319 31:-0.075219594 32:-0.46920761 33:0.65690958 34:-0.36213517 35:-0.68774813 36:0.83912665 #
10.16355352264667999406810849905 2:-1.33 3:0.12 5:-1.33 6:0.30000001 7:0.091758765 8:-1.1543236 9:0.34021151 10:0.18351728 11:-0.97865158 12:0.38042313 13:0.1505968 14:-0.87225723 15:0.52963006 16:0.030610017 17:-0.77223289 18:0.87949848 21:0.17 24:0.34 25:-0.030018684 26:-0.12563142 27:0.46010473 28:-0.060037453 29:-0.25126198 30:0.5802092 31:0.050169695 32:-0.39695278 33:0.56189662 34:0.26091605 35:-0.62833631 36:0.44587708 #
-22.110316488805402457273885374889 2:-1.33 3:0.12 5:-1.33 6:0.30000001 7:0.0097401226 8:-1.3116692 9:0.54029721 10:0.019480316 11:-1.2933332 12:0.780595 13:0.11763163 14:-1.190202 15:0.8016519 16:0.24760181 17:-1.0215687 18:0.55124116 21:0.17 24:0.34 25:0.10143728 26:-0.18041974 27:0.33698916 28:0.202875 29:-0.36084035 30:0.33397737 31:0.24077971 32:-0.53820819 33:0.36230671 34:0.33140084 35:-0.95737177 36:0.48108411 #
13.297280928265299948520805628505 2:-1.33 3:0.12 5:-1.33 6:0.30000001 7:0.1605131 8:-1.2280779 9:0.40236202 10:0.32102555 11:-1.1261576 12:0.50472432 13:0.39727119 14:-0.99950421 15:0.55029988 16:0.46475026 17:-0.61151755 18:0.54864526 21:0.17 24:0.34 25:0.064412445 26:-0.17232606 27:0.40106523 28:0.12882534 29:-0.34465274 30:0.46212968 31:0.23746143 32:-0.45876396 33:0.46001941 34:0.36105928 35:-0.81725883 36:0.31433409 #
10.419398556975005831759517604951 2:-1.33 3:0.12 5:-1.33 6:0.30000001 7:-0.17262594 8:-1.1614615 9:0.27917308 10:-0.34525159 11:-0.99292672 12:0.25834587 13:-0.45843402 14:-0.91494322 15:0.37034982 16:-0.6740455 17:-0.77306187 18:0.63753766 21:0.17 24:0.34 25:-0.035168923 26:-0.18998164 27:0.39811176 28:-0.070337854 29:-0.37996206 30:0.45622268 31:-0.028871339 32:-0.55330074 33:0.49000591 34:0.081936926 35:-1.0777898 36:0.55319196 #
6.4771469258801612767229016753845 2:-1.33 3:0.12 5:-1.33 6:0.30000001 7:-0.1107638 8:-1.2112529 9:0.46880707 10:-0.22152816 11:-1.0924928 12:0.63761526 13:-0.28825161 14:-1.0015614 15:0.80729055 16:-0.2966941 17:-0.9689728 18:0.70916903 21:0.17 24:0.34 25:0.016078604 26:-0.11414834 27:0.50325549 28:0.032157291 29:-0.22829616 30:0.66651082 31:-0.079441346 32:-0.42959267 33:0.72554499 34:-0.37585595 35:-1.011526 36:0.85139483 #
1.7239274668761290776330952212447 2:-1.33 3:0.12 5:-1.33 6:0.30000001 7:0.05380908 8:-1.1536676 9:0.36526757 10:0.10761803 11:-0.97733855 12:0.43053532 13:0.17922293 14:-0.79041928 15:0.47206274 16:0.36464104 17:-0.33197457 18:0.5852083 21:0.17 24:0.34 25:0.1271424 26:-0.02339365 27:0.47751686 28:0.2542856 29:-0.046787299 30:0.61503351 31:0.36688799 32:-0.049116362 33:0.7327975 34:0.67292905 35:-0.090549961 36:1.0022672 #
0.78473831189220244475279741891427 2:-1.33 3:0.12 5:-1.33 6:0.30000001 7:-0.15725467 8:-1.3012856 9:0.44187695 10:-0.314509 11:-1.2725626 12:0.5837546 13:-0.40943918 14:-1.159309 15:0.61368203 16:-0.52327061 17:-0.91714698 18:0.6679852 21:0.17 24:0.34 25:-0.0034803459 26:-0.061072614 27:0.5180583 28:-0.0069605708 29:-0.12214462 30:0.69611669 31:-0.075412542 32:-0.27126029 33:0.71877772 34:-0.22996514 35:-0.6608904 36:0.73037702 #
25.556272722309607559054711600766 2:-1.33 3:0.12 5:-1.33 6:0.30000001 7:-0.041243918 8:-1.380517 9:0.53750664 10:-0.082487673 11:-1.4310323 12:0.77501386 13:-0.26465276 14:-1.2921203 15:0.7477752 16:-0.61375123 17:-1.0127317 18:0.466995 21:0.17 24:0.34 25:0.016284579 26:-0.22218834 27:0.36708793 28:0.032569312 29:-0.4443756 30:0.39417472 31:0.032872867 32:-0.63641274 33:0.4296346 34:0.022244504 35:-1.151209 36:0.50632614 #
-0.18622888280153074291867199008266 2:-1.33 3:0.12 5:-1.33 6:0.30000001 7:0.0038364362 8:-1.1376783 9:0.31570423 10:0.0076728105 11:-0.94535941 12:0.33140841 13:-0.048070453 14:-0.76645881 15:0.34817547 16:-0.18445303 17:-0.29392946 18:0.39627492 21:0.17 24:0.34 25:-0.13846676 26:-0.13959943 27:0.3690823 28:-0.27693382 29:-0.27919933 30:0.39816359 31:-0.30153811 32:-0.31856087 33:0.448688 34:-0.17878564 35:-0.07972011 36:0.40060642 #
-2.2854797091541283471372025815072 2:-1.33 3:0.12 5:-1.33 6:0.30000001 7:-0.0059310547 8:-1.1904678 9:0.46806684 10:-0.01186212 11:-1.0509382 12:0.63613403 13:0.007584013 14:-0.83531028 15:0.63387954 16:0.067067243 17:-0.2737056 18:0.69913626 21:0.17 24:0.34 25:-0.11387469 26:-0.041723453 27:0.4776282 28:-0.22774915 29:-0.083447881 30:0.61525637 31:-0.29921299 32:-0.21489021 33:0.71547329 34:-0.53669828 35:-0.6219461 36:0.99461377 #
-14.966094494527732550182008708362 2:-1.33 3:0.12 5:-1.33 6:0.30000001 7:-0.07025414 8:-1.1411266 9:0.35143337 10:-0.14050803 11:-0.95225662 12:0.40286669 13:-0.15367758 14:-0.81177551 15:0.47558963 16:-0.1898904 17:-0.68412554 18:0.58066756 21:0.17 24:0.34 25:-0.11544039 26:-0.16375308 27:0.42182446 28:-0.23088096 29:-0.32750598 30:0.50364816 31:-0.026573388 32:-0.43464506 33:0.52473545 34:0.15424657 35:-0.17996871 36:0.41155049 #
12.98690133981804351037681044545 2:-1.33 3:0.12 5:-1.33 6:0.30000001 7:0.11266455 8:-1.1727289 9:0.31909862 10:0.22532864 11:-1.0154632 12:0.33819717 13:0.38902804 14:-0.90927792 15:0.34542087 16:0.75082654 17:-0.69973499 18:0.42137611 21:0.17 24:0.34 25:0.11473115 26:-0.14679362 27:0.39485177 28:0.22946283 29:-0.29358792 30:0.44970277 31:0.28324479 32:-0.4168646 33:0.51866913 34:0.30972478 35:-0.61183923 36:0.65608126 #
19.045500900185068360315199242905 2:-1.33 3:0.12 5:-1.33 6:0.30000001 7:0.041715499 8:-1.127053 9:0.35010809 10:0.083430894 11:-0.92410862 12:0.40021616 13:0.10729932 14:-0.73061472 15:0.42233428 16:0.13582641 17:-0.22636521 18:0.46325678 21:0.17 24:0.34 25:-0.028710444 26:-0.16926518 27:0.43244708 28:-0.057421003 29:-0.33853054 30:0.52489328 31:-0.042330883 32:-0.4923676 33:0.54339796 34:-0.18838884 35:-0.77258128 36:0.41347572 #
8.4743809052227625500108842970803 2:-1.33 3:0.12 5:-1.33 6:0.30000001 7:0.10561208 8:-1.1321146 9:0.29996336 10:0.2112235 11:-0.9342376 12:0.29992655 13:0.25772128 14:-0.78979242 15:0.29055548 16:0.36268592 17:-0.74410355 18:0.46848541 21:0.17 24:0.34 25:0.11255596 26:-0.054693636 27:0.41382241 28:0.22511195 29:-0.10938793 30:0.48764446 31:0.23287596 32:-0.30159569 33:0.46816897 34:0.2465051 35:-0.81189066 36:0.58876139 #
-3.9961383967112205084504239493981 2:-1.33 3:0.12 5:-1.33 6:0.30000001 7:-0.031038823 8:-1.2713219 9:0.51781619 10:-0.062077917 11:-1.2126384 12:0.73563385 13:0.091922872 14:-1.0601079 15:0.75207531 16:0.43428966 17:-0.79934591 18:1.0282966 21:0.17 24:0.34 25:0.10892077 26:-0.19718421 27:0.30828559 28:0.21784195 29:-0.39436823 30:0.27656996 31:0.24240942 32:-0.56732965 33:0.43611091 34:0.13394164 35:-1.153668 36:0.87634444 #
7.6945115746424708191852914751507 2:-1.33 3:0.12 5:-1.33 6:0.30000001 7:-0.17869134 8:-1.2275929 9:0.36876148 10:-0.35738212 11:-1.1251874 12:0.43752316 13:-0.37316126 14:-0.9459334 15:0.38801044 16:-0.27013442 17:-0.57656151 18:0.31961533 21:0.17 24:0.34 25:-0.14351729 26:-0.17520504 27:0.3913216 28:-0.28703558 29:-0.35041133 30:0.44264212 31:-0.23175889 32:-0.51363349 33:0.45765561 34:-0.18489726 35:-0.72255158 36:0.39785358 #
14.895660094608032864016422536224 2:-1.33 3:0.12 5:-1.33 6:0.30000001 7:-0.076218382 8:-1.1647661 9:0.3780258 10:-0.15243645 11:-0.99953073 12:0.45605215 13:-0.058831509 14:-0.94518429 15:0.53291631 16:0.13629386 17:-1.1122706 18:0.44541988 21:0.17 24:0.34 25:0.064730562 26:-0.19084141 27:0.30967271 28:0.1294615 29:-0.38168329 30:0.27934441 31:0.18540977 32:-0.49714521 33:0.31355134 34:0.24900511 35:-0.77882302 36:0.44191137 #
9.3039780538290450806471199030057 2:-1.33 3:0.12 5:-1.33 6:0.30000001 7:0.0047660195 8:-1.3069519 9:0.51217806 10:0.0095322328 11:-1.2838979 12:0.72435659 13:0.11966307 14:-1.1314648 15:0.65338522 16:0.3337771 17:-0.84861052 18:0.41852054 21:0.17 24:0.34 25:-0.052750744 26:-0.17817163 27:0.42419291 28:-0.10550157 29:-0.35634309 30:0.50838512 31:-0.042478073 32:-0.47942045 33:0.54172045 34:0.18279646 35:-0.71348876 36:0.48767427 #
-8.4971175668961258509170875186101 2:-1.33 3:0.12 5:-1.33 6:0.30000001 7:0.010745691 8:-1.1355312 9:0.36915788 10:0.021491433 11:-0.94106609 12:0.4383159 13:-0.07749112 14:-0.78775305 15:0.46918812 16:-0.37598667 17:-0.61728418 18:0.44599941 21:0.17 24:0.34 25:0.12440053 26:-0.12805238 27:0.3857035 28:0.24880171 29:-0.25610572 30:0.43140605 31:0.13131367 32:-0.32612652 33:0.58320647 34:-0.16162688 35:-0.24851534 36:0.57382172 #
-7.216040637459309792234307678882 2:-1.33 3:0.12 5:-1.33 6:0.30000001 7:-0.00025087816 8:-1.1199846 9:0.32768962 10:-0.00050169544 11:-0.90996981 12:0.35537913 13:0.0010771098 14:-0.71866381 15:0.39814445 16:-0.019385543 17:-0.20326598 18:0.46696246 21:0.17 24:0.34 25:-0.016963186 26:-0.13994448 27:0.47176275 28:-0.033926424 29:-0.2798883 30:0.60352534 31:0.02050842 32:-0.14539184 33:0.70246243 34:0.16065709 35:-0.060005248 36:1.0379947 #
4.2288758336266454307406092993915 2:-1.33 3:0.12 5:-1.33 6:0.30000001 7:0.029278664 8:-1.3032027 9:0.49190798 10:0.058557231 11:-1.2764026 12:0.68381613 13:0.17321171 14:-1.230978 15:0.79218185 16:0.34855866 17:-1.2176485 18:0.8470872 21:0.17 24:0.34 25:0.075323693 26:-0.11005197 27:0.51891088 28:0.15064728 29:-0.22010371 30:0.69782174 31:0.19012663 32:-0.41836986 33:0.75257438 34:0.30112901 35:-0.93386447 36:0.89237165 #
1.5639076158096985036394244161784 2:-1.33 3:0.12 5:-1.33 6:0.30000001 7:0.055344652 8:-1.129483 9:0.33361 10:0.11068916 11:-0.9289704 12:0.36721998 13:0.11016219 14:-0.79328704 15:0.40745115 16:0.073842704 17:-0.54645395 18:0.43711516 21:0.17 24:0.34 25:-0.10164113 26:-0.16444361 27:0.47650501 28:-0.20328231 29:-0.32888639 30:0.61300987 31:-0.084054701 32:-0.37709519 33:0.77735448 34:0.24856855 35:-0.240475 36:0.80694705 #
18.348504692845416741420194739476 2:-1.33 3:0.12 5:-1.33 6:0.30000001 7:0.0059208195 8:-1.1558931 9:0.42399532 10:0.011841595 11:-0.98178273 12:0.54799175 13:0.024024559 14:-0.92452335 15:0.72305816 16:0.070368104 17:-0.80777389 18:1.1454023 21:0.17 24:0.34 25:-0.02546294 26:0.0039862073 27:0.52797735 28:-0.050925862 29:0.0079722758 30:0.71595472 31:-0.055637553 32:-0.14900675 33:0.7797792 34:-0.055656668 35:-0.71706003 36:0.72489482 #
-4.8261859733157299601202794292476 2:-1.33 3:0.12 5:-1.33 6:0.30000001 7:-0.027361756 8:-1.1396096 9:0.31086126 10:-0.054723136 11:-0.94922096 12:0.32172257 13:0.020318089 14:-0.78871602 15:0.32590771 16:0.28127283 17:-0.54730344 18:0.48593828 21:0.17 24:0.34 25:0.10972995 26:-0.13163103 27:0.44270301 28:0.21945994 29:-0.26326221 30:0.54540563 31:0.21378067 32:-0.27973449 33:0.5410369 34:0.12466732 35:-0.6017043 36:0.96266413 #
-9.6314516422982414667330886004493 2:-1.33 3:0.12 5:-1.33 6:0.30000001 7:0.1323947 8:-1.3160092 9:0.47283792 10:0.26478902 11:-1.3020121 12:0.64567655 13:0.2726303 14:-1.102985 15:0.64660484 16:0.24549928 17:-0.72826439 18:0.69107562 21:0.17 24:0.34 25:0.017806651 26:-0.13366488 27:0.49011955 28:0.035613209 29:-0.26732907 30:0.64023918 31:0.082924716 32:-0.35273135 33:0.65756261 34:0.074087605 35:-0.54123688 36:0.86803633 #
6.8815093343871422959523442841601 2:-1.33 3:0.12 5:-1.33 6:0.30000001 7:-0.028523859 8:-1.10446 9:0.328922 10:-0.057047751 11:-0.87892216 12:0.35784391 13:-0.14055212 14:-0.70001644 15:0.3923018 16:-0.39862484 17:-0.26407394 18:0.47387183 21:0.17 24:0.34 25:-0.090751961 26:-0.12455349 27:0.44727671 28:-0.18150392 29:-0.24910735 30:0.55455291 31:-0.36729476 32:-0.27859926 33:0.57811087 34:-0.75073451 35:-0.43672898 36:0.4266775 #
0.39536980435463264793582993661403 2:-1.33 3:0.12 5:-1.33 6:0.30000001 7:0.13037629 8:-1.1412605 9:0.23907657 10:0.26075217 11:-0.95253557 12:0.17815283 13:0.13107987 14:-0.80830139 15:0.24070694 16:-0.24658751 17:-0.61358011 18:0.45327738 21:0.17 24:0.34 25:-0.14520706 26:-0.092881449 27:0.39100865 28:-0.2904132 29:-0.1857627 30:0.44201639 31:-0.50967181 32:-0.23679449 33:0.4874492 34:-1.1720715 35:-0.44024691 36:0.51626354 #
8.9281930086721903450097670429386 2:-1.33 3:0.12 5:-1.33 6:0.30000001 7:0.012926178 8:-1.3763674 9:0.45137742 10:0.02585239 11:-1.4227358 12:0.60275489 13:-0.050510634 14:-1.3882266 15:0.57719988 16:-0.058521152 17:-1.4282483 18:0.37693495 21:0.17 24:0.34 25:0.02047823 26:-0.21954942 27:0.35417217 28:0.040956549 29:-0.43909737 30:0.36834311 31:0.047006242 32:-0.66107047 33:0.41250306 34:0.077578843 35:-1.3033947 36:0.52806175 #
-18.57347088086973485587805043906 2:-1.33 3:0.12 5:-1.33 6:0.30000001 7:0.0014664198 8:-1.2505044 9:0.48695013 10:0.0029329283 11:-1.1710054 12:0.67390126 13:0.015001763 14:-1.0080333 15:0.61052734 16:0.099135645 17:-0.78284723 18:0.58687866 21:0.17 24:0.34 25:0.0071607474 26:-0.16213661 27:0.32343355 28:0.014321761 29:-0.32427332 30:0.30686653 31:0.071474999 32:-0.45621741 33:0.23539308 34:0.066641435 35:-0.58245736 36:0.29011038 #
-0.2703910943373250552745901131857 2:-1.33 3:0.12 5:-1.33 6:0.30000001 7:0.10941374 8:-1.1646389 9:0.25589532 10:0.21882704 11:-0.99928296 12:0.21179056 13:0.21381585 14:-0.87091887 15:0.31492114 16:0.060168963 17:-0.86666191 18:0.52978885 21:0.17 24:0.34 25:-0.00013765978 26:-0.20639871 27:0.38919768 28:-0.00027526572 29:-0.41279674 30:0.43839425 31:0.022889186 32:-0.62520325 33:0.44981617 34:0.09456566 35:-1.1787727 36:0.53357053 #
-7.4828789678948091079746518516913 2:-1.33 3:0.12 5:-1.33 6:0.30000001 7:0.16135928 8:-1.1974893 9:0.25826234 10:0.32271862 11:-1.0649793 12:0.21652424 13:0.42869076 14:-1.0732632 15:0.31448072 16:0.45829365 17:-1.2292526 18:0.36248162 21:0.17 24:0.34 25:0.086816482 26:-0.16869789 27:0.37001646 28:0.1736334 29:-0.33739677 30:0.40003195 31:0.24545068 32:-0.51418316 33:0.43676248 34:0.37643149 35:-1.055838 36:0.45816997 #
4.51842402439308354900049380376 2:-1.33 3:0.12 5:-1.33 6:0.30000001 7:0.12473423 8:-1.1462334 9:0.33210456 10:0.24946812 11:-0.9624716 12:0.36420903 13:0.34645575 14:-0.86140758 15:0.44909996 16:0.45779017 17:-0.71432656 18:0.55582106 21:0.17 24:0.34 25:0.10476173 26:-0.064292356 27:0.50653982 28:0.20952353 29:-0.12858444 30:0.67307931 31:0.16870555 32:-0.23807709 33:0.62550735 34:0.074775636 35:-0.58659464 36:0.46479461 #
-6.9687333702897271692222602723632 2:-1.33 3:0.12 5:-1.33 6:0.30000001 7:0.02364237 8:-1.1454208 9:0.37809613 10:0.047284774 11:-0.96084237 12:0.45619264 13:-0.10281023 14:-0.92171043 15:0.49629268 16:-0.22807878 17:-1.0337461 18:0.47603402 21:0.17 24:0.34 25:-0.066265225 26:-0.082456291 27:0.53654087 28:-0.13253024 29:-0.16491218 30:0.7330817 31:-0.087609872 32:-0.2857869 33:0.64935887 34:0.037999317 35:-0.67866004 36:0.44774851 #
-6.6561513905672713420358377334196 2:-1.33 3:0.12 5:-1.33 6:0.30000001 7:-0.15472597 8:-1.2032511 9:0.33575606 10:-0.30945155 11:-1.0765003 12:0.37151214 13:-0.26661897 14:-0.91796178 15:0.44625995 16:-0.067924201 17:-0.55537927 18:0.66914731 21:0.17 24:0.34 25:-0.069415532 26:-0.074478775 27:0.54571193 28:-0.1388305 29:-0.14895678 30:0.75142431 31:-0.13779858 32:-0.28819692 33:0.72670853 34:-0.19569154 35:-0.67270696 36:0.74834323 #
-6.0672298601577576704357852577232 2:-1.33 3:0.12 5:-1.33 6:0.30000001 7:0.032466426 8:-1.1872815 9:0.47492811 10:0.064932786 11:-1.0445609 12:0.64985728 13:0.010268167 14:-0.94052696 15:0.81884319 16:-0.20520942 17:-0.75912905 18:1.1811557 21:0.17 24:0.34 25:-0.047598079 26:-0.12670083 27:0.49449533 28:-0.095196143 29:-0.25340083 30:0.64899081 31:-0.097932622 32:-0.39346382 33:0.7610305 34:-0.13507941 35:-0.74158019 36:1.1381259 #
-6.5801950975326448656232969369739 2:-1.33 3:0.12 5:-1.33 6:0.30000001 7:-0.050204281 8:-1.1285124 9:0.35402456 10:-0.10040836 11:-0.92702711 12:0.4080494 13:-0.27578384 14:-0.93587351 15:0.48270577 16:-0.42782161 17:-1.1841959 18:0.57092571 21:0.17 24:0.34 25:-0.027488301 26:-0.19207534 27:0.33101028 28:-0.054976642 29:-0.38415039 30:0.32201967 31:-0.05612551 32:-0.51768804 33:0.38979763 34:0.11777763 35:-0.74883723 36:0.5220015 #
-5.1175515276477003823174527497031 2:-1.33 3:0.12 5:-1.33 6:0.30000001 7:0.066376708 8:-1.2685492 9:0.49606442 10:0.13275349 11:-1.2070857 12:0.69212991 13:0.30815035 14:-1.0462075 15:0.70567328 16:0.47760543 17:-0.93760622 18:0.44771829 21:0.17 24:0.34 25:0.043430902 26:-0.17416912 27:0.41438308 28:0.086861849 29:-0.34833854 30:0.48876539 31:0.014043655 32:-0.52408206 33:0.54137248 34:-0.048216574 35:-0.93750697 36:0.73920953 #
0.66368206805284091220897835228243 2:-1.33 3:0.12 5:-1.33 6:0.30000001 7:-0.049672112 8:-1.2671922 9:0.49468052 10:-0.099344037 11:-1.204383 12:0.68936151 13:0.063380606 14:-1.1604593 15:0.5610252 16:0.15176994 17:-1.227536 18:0.36021081 21:0.17 24:0.34 25:0.050302044 26:-0.16878317 27:0.43461007 28:0.10060453 29:-0.33756673 30:0.52921939 31:0.15961261 32:-0.5265972 33:0.57008857 34:0.38117531 35:-1.0840547 36:0.5958814 #
4.3867049409350569177945544652175 2:-1.33 3:0.12 5:-1.33 6:0.30000001 7:0.050858635 8:-1.3195909 9:0.47992101 10:0.10171725 11:-1.3091767 12:0.65984213 13:0.034418762 14:-1.1687064 15:0.73123151 16:-0.12689339 17:-0.74956185 18:0.81307209 21:0.17 24:0.34 25:0.029963464 26:0.022908248 27:0.51502609 28:0.05992708 29:0.045815859 30:0.69005197 31:0.08954189 32:-0.094506115 33:0.68966967 34:0.20363332 35:-0.38779038 36:0.70224077 #
2.1213498389178986336389698408311 2:-1.33 3:0.12 5:-1.33 6:0.30000001 7:-0.090411022 8:-1.1735945 9:0.43207461 10:-0.18082194 11:-1.0171803 12:0.56415051 13:-0.21987671 14:-0.97075498 15:0.69646215 16:-0.26078036 17:-0.83014047 18:0.88765323 21:0.17 24:0.34 25:0.14957719 26:-0.12336471 27:0.38092321 28:0.29915428 29:-0.24672975 30:0.42184559 31:0.22781581 32:-0.43803549 33:0.46266735 34:0.064698264 35:-0.92659175 36:0.57659769 #
6.2247987813639369392149092163891 2:-1.33 3:0.12 5:-1.33 6:0.30000001 7:0.038646095 8:-1.1456261 9:0.34373787 10:0.077292077 11:-0.96125317 12:0.38747591 13:0.07474108 14:-0.76964164 15:0.40212068 16:0.078089774 17:-0.31549609 18:0.47220084 21:0.17 24:0.34 25:0.10218558 26:-0.16818143 27:0.41149834 28:0.20437148 29:-0.33636305 30:0.48299584 31:0.04963959 32:-0.27323732 33:0.60578716 34:-0.23488881 35:0.0029483538 36:0.45675275 #
-2.7352715106357132768266637867782 2:-1.33 3:0.12 5:-1.33 6:0.30000001 7:-0.049118076 8:-1.1937735 9:0.46028575 10:-0.098236084 11:-1.0575459 12:0.62057239 13:-0.023023965 14:-0.88952094 15:0.57298666 16:0.22307777 17:-0.4335219 18:0.40513834 21:0.17 24:0.34 25:0.031723071 26:-0.17450868 27:0.39155689 28:0.063446566 29:-0.34901762 30:0.44311297 31:0.1917413 32:-0.45717585 33:0.48613045 34:0.59090364 35:-0.5419212 36:0.56356812 #
7.8760198794489131302043460891582 2:-1.33 3:0.12 5:-1.33 6:0.30000001 7:-0.050439805 8:-1.1621573 9:0.3215808 10:-0.10087915 11:-0.99432135 12:0.34316155 13:-0.11396538 14:-0.826141 15:0.31568021 16:-0.22695771 17:-0.58018714 18:0.37712958 21:0.17 24:0.34 25:-0.12967958 26:-0.1189101 27:0.25173503 28:-0.25935909 29:-0.23782034 30:0.16347021 31:-0.40329799 32:-0.32573125 33:0.19155362 34:-0.38293537 35:-0.59425735 36:0.54883409 #
-1.2546775200692470431107494732714 2:-1.33 3:0.12 5:-1.33 6:0.30000001 7:-0.10228313 8:-1.1400756 9:0.32437572 10:-0.20456573 11:-0.9501586 12:0.34875134 13:-0.25108856 14:-0.80277544 15:0.3527213 16:-0.43621609 17:-0.41658458 18:0.328949 21:0.17 24:0.34 25:-0.16856961 26:-0.052316997 27:0.40200463 28:-0.33713979 29:-0.10463439 30:0.46400854 31:-0.50229138 32:-0.066759415 33:0.49632043 34:-0.81235373 35:-0.037331298 36:0.54859716 #
-5.6933761747778239836748070956673 2:-1.33 3:0.12 5:-1.33 6:0.30000001 7:-0.0035341005 8:-1.1581649 9:0.28231394 10:-0.0070681041 11:-0.98633283 12:0.26462746 13:0.065079555 14:-0.81957215 15:0.29875642 16:0.29446572 17:-0.42817837 18:0.50761992 21:0.17 24:0.34 25:0.094501965 26:-0.053403787 27:0.21628405 28:0.18900333 29:-0.10680719 30:0.092568479 31:0.34430194 32:-0.24872813 33:0.15778366 34:0.28388092 35:-0.43676692 36:0.42659488 #
7.3332374002256042189173967926763 2:-1.33 3:0.12 5:-1.33 6:0.30000001 7:-0.022643039 8:-1.179335 9:0.48248881 10:-0.045286022 11:-1.0286647 12:0.66497886 13:-0.13048543 14:-0.91525239 15:0.61483884 16:-0.32381132 17:-0.59984946 18:0.4527165 21:0.17 24:0.34 25:-0.056231763 26:-0.19483371 27:0.2922304 28:-0.11246376 29:-0.389667 30:0.2444602 31:-0.16168165 32:-0.50009954 33:0.23129322 34:-0.33440229 35:-0.62146753 36:0.55242586 #
16.41079858947944813962749321945 2:-1.33 3:0.12 5:-1.33 6:0.30000001 7:0.08173161 8:-1.0914673 9:0.32974568 10:0.16346309 11:-0.85294056 12:0.35949114 13:0.21184103 14:-0.76959068 15:0.44346616 16:-0.023475004 17:-0.52709496 18:0.5922758 21:0.17 24:0.34 25:0.074813746 26:-0.21486515 27:0.3512179 28:0.1496283 29:-0.42973033 30:0.36243433 31:0.27861914 32:-0.56876212 33:0.40509006 34:0.072476067 35:-0.69321835 36:0.63051206 #
-11.8285406198104094954715037602 2:-1.33 3:0.12 5:-1.33 6:0.30000001 7:0.10692836 8:-1.1290861 9:0.30640742 10:0.21385621 11:-0.92817706 12:0.31281453 13:0.28758594 14:-0.80776441 15:0.43288389 16:0.43578827 17:-0.46912932 18:0.66864938 21:0.17 24:0.34 25:0.061034687 26:-0.10514598 27:0.44668555 28:0.12206864 29:-0.21029156 30:0.55337077 31:0.26717606 32:-0.3190935 33:0.61427873 34:0.38481361 35:-0.29889119 36:0.86953741 #
10.529867034533960890030357404612 2:-1.33 3:0.12 5:-1.33 6:0.30000001 7:-0.02212858 8:-1.1092459 9:0.33099067 10:-0.044257164 11:-0.88849318 12:0.36198109 13:0.0015090001 14:-0.68341988 15:0.40052417 16:0.10955804 17:-0.16367655 18:0.52373165 21:0.17 24:0.34 25:-0.056102235 26:-0.0018398758 27:0.54097849 28:-0.11220466 29:-0.0036796352 30:0.74195707 31:-0.027080424 32:-0.25590631 33:0.73111266 34:0.17509127 35:-0.46675575 36:0.58213532 #
-15.202806711535467698581669537816 2:-1.33 3:0.12 5:-1.33 6:0.30000001 7:0.01754139 8:-1.1959471 9:0.4742361 10:0.035082769 11:-1.0618902 12:0.64847356 13:0.0068627424 14:-0.84593636 15:0.67648292 16:-0.0057625226 17:-0.34570739 18:0.75519502 21:0.17 24:0.34 25:0.009832806 26:-0.0056372271 27:0.52267373 28:0.019665411 29:-0.011274101 30:0.70534736 31:0.012325929 32:-0.13237423 33:0.85014915 34:-0.028881086 35:-0.1959846 36:0.79679126 #
9.7967185241321761424160285969265 2:-1.33 3:0.12 5:-1.33 6:0.30000001 7:0.10953528 8:-1.1767476 9:0.42594007 10:0.21907078 11:-1.0234935 12:0.55188113 13:0.17007141 14:-1.0035795 15:0.66493976 16:0.00040878943 17:-0.79163748 18:0.9811089 21:0.17 24:0.34 25:-0.0037227715 26:-0.21941032 27:0.35051516 28:-0.0074454285 29:-0.43881917 30:0.36102915 31:-0.027096447 32:-0.62423992 33:0.39448842 34:-0.024140701 35:-1.1585293 36:0.43193749 #
-11.278696051353838569752952025738 2:-1.33 3:0.12 5:-1.33 6:0.30000001 7:-0.046772093 8:-1.2918205 9:0.4942103 10:-0.093544126 11:-1.2536389 12:0.68842149 13:-0.18500446 14:-1.0598146 15:0.74480712 16:-0.1349538 17:-0.73101902 18:0.86452067 21:0.17 24:0.34 25:-0.060632043 26:0.032118425 27:0.5561226 28:-0.12126442 29:0.0642379 30:0.77224547 31:-0.097872935 32:-0.13952641 33:0.80405396 34:-0.080980331 35:-0.70571351 36:0.86168122 #
-0.69370422479784155100901443802286 2:-1.33 3:0.12 5:-1.33 6:0.30000001 7:0.0043931534 8:-1.1295319 9:0.31234387 10:0.0087862089 11:-0.92906988 12:0.32468763 13:0.11167624 14:-0.80127561 15:0.39787367 16:0.36858621 17:-0.59285885 18:0.59258091 21:0.17 24:0.34 25:0.04317937 26:-0.03262667 27:0.52316946 28:0.08635927 29:-0.065253474 30:0.70633906 31:0.19995263 32:-0.17925607 33:0.65706772 34:0.39856058 35:-0.35638139 36:0.34260419 #
7.5977159739712387676036087214015 2:-1.33 3:0.12 5:-1.33 6:0.30000001 7:-0.13858086 8:-1.2652962 9:0.44563016 10:-0.2771616 11:-1.2005835 12:0.59126103 13:-0.31012967 14:-1.0600283 15:0.67447424 16:-0.37684336 17:-0.65795672 18:0.7957859 21:0.17 24:0.34 25:-0.14255434 26:-0.13753228 27:0.37959582 28:-0.28510877 29:-0.27506527 30:0.41919065 31:-0.26722428 32:-0.40452707 33:0.49429396 34:-0.011425604 35:-0.55267316 36:0.55958438 #
8.7091162980736847032403602497652 2:-1.33 3:0.12 5:-1.33 6:0.30000001 7:0.074131697 8:-1.2590874 9:0.45435518 10:0.14826353 11:-1.1881658 12:0.608711 13:0.21324104 14:-1.0348251 15:0.67756277 16:0.45348817 17:-0.60034686 18:0.87228298 21:0.17 24:0.34 25:0.11304232 26:-0.16333401 27:0.35532728 28:0.22608501 29:-0.32666898 30:0.37065339 31:0.2840791 32:-0.46914443 33:0.4874402 34:0.59162587 35:-0.64248478 36:0.77530301 #
-10.398946873336949892063785227947 2:-1.33 3:0.12 5:-1.33 6:0.30000001 7:0.15792222 8:-1.196135 9:0.31896231 10:0.31584388 11:-1.0622745 12:0.33792457 13:0.43009016 14:-0.89973408 15:0.37241605 16:0.75049013 17:-0.52347511 18:0.53556919 21:0.17 24:0.34 25:0.15952204 26:-0.11626183 27:0.37649018 28:0.3190437 29:-0.23252448 30:0.41297948 31:0.4240163 32:-0.34086862 33:0.45191064 34:0.68372172 35:-0.51038539 36:0.52866685 #
-6.7704020477371580355452351795975 2:-1.33 3:0.12 5:-1.33 6:0.30000001 7:-0.064755097 8:-1.1687961 9:0.43660247 10:-0.12951018 11:-1.0075901 12:0.57320583 13:-0.013543329 14:-0.96521264 15:0.5746156 16:0.081894659 17:-1.2196157 18:0.29815218 21:0.17 24:0.34 25:-0.020094054 26:-0.19077237 27:0.39759493 28:-0.040188111 29:-0.3815442 30:0.45518896 31:-0.039016575 32:-0.5969612 33:0.48286387 34:-0.084416911 35:-1.1222732 36:0.53717303 #
-6.8434782588489824206590128596872 2:-1.33 3:0.12 5:-1.33 6:0.30000001 7:0.1238293 8:-1.1695725 9:0.36240873 10:0.24765816 11:-1.0091454 12:0.42481771 13:0.23760377 14:-0.85810107 15:0.45985714 16:0.074080184 17:-0.73429161 18:0.33449733 21:0.17 24:0.34 25:-0.05712815 26:-0.001966591 27:0.50577074 28:-0.11425631 29:-0.0039335196 30:0.67154151 31:0.0021086989 32:-0.20821135 33:0.61101371 34:0.10195519 35:-0.59728378 36:0.36283517 #
-0.13738334316709141513790370936476 2:-1.33 3:0.12 5:-1.33 6:0.30000001 7:0.086862519 8:-1.2256509 9:0.45556432 10:0.17372471 11:-1.1213031 12:0.61112928 13:0.075456217 14:-1.0193882 15:0.58534312 16:-0.11102527 17:-0.63128287 18:0.55429357 21:0.17 24:0.34 25:-0.14291349 26:-0.13215099 27:0.36606696 28:-0.28582701 29:-0.26430252 30:0.392133 31:-0.32546362 32:-0.34106791 33:0.38623616 34:-0.4538461 35:-0.5053755 36:0.35191253 #
0.68702556787731272613939381699311 2:-1.33 3:0.12 5:-1.33 6:0.30000001 7:-0.039408866 8:-1.1959553 9:0.44806939 10:-0.07881777 11:-1.0619025 12:0.59613973 13:-0.15336272 14:-1.1626241 15:0.75801641 16:-0.36599684 17:-1.2472972 18:1.0792044 21:0.17 24:0.34 25:-0.10335016 26:-0.15950321 27:0.34137481 28:-0.20670077 29:-0.31900734 30:0.34274888 31:-0.23142469 32:-0.49918327 33:0.43658194 34:-0.35362357 35:-0.95580119 36:0.69601053 #
23.566177179329891089309967355803 2:-1.33 3:0.12 5:-1.33 6:0.30000001 7:-0.036112286 8:-1.120846 9:0.35989767 10:-0.072224341 11:-0.91169822 12:0.41979551 13:-0.016546274 14:-0.77759057 15:0.51838589 16:0.19066224 17:-0.46957576 18:0.77010292 21:0.17 24:0.34 25:-0.10509495 26:-0.12403737 27:0.45080081 28:-0.21019009 29:-0.24807487 30:0.5616011 31:-0.2277779 32:-0.28652933 33:0.53657711 34:-0.27680331 35:-0.47553134 36:0.74879402 #
4.9633852364182917682455808972009 2:-1.33 3:0.12 5:-1.33 6:0.30000001 7:-0.043129936 8:-1.1247373 9:0.34442273 10:-0.08625973 11:-0.91948193 12:0.38884526 13:-0.07406839 14:-0.79841709 15:0.53163308 16:-0.079555586 17:-0.51197195 18:0.80998641 21:0.17 24:0.34 25:-0.020850589 26:-0.024213031 27:0.54625851 28:-0.041701291 29:-0.048425984 30:0.75251687 31:0.044085458 32:-0.16627041 33:0.74540573 34:0.24388829 35:-0.56226254 36:1.0110817 #
18.528081362417832878008994157426 2:-1.33 3:0.12 5:-1.33 6:0.30000001 7:0.019186897 8:-1.2770867 9:0.47517571 10:0.038373847 11:-1.224171 12:0.65035194 13:0.057729337 14:-1.0669038 15:0.70051217 16:0.1094571 17:-0.61856985 18:0.86667883 21:0.17 24:0.34 25:-0.041141488 26:-0.11982153 27:0.47474402 28:-0.082282759 29:-0.23964269 30:0.60948783 31:-0.13161246 32:-0.40040252 33:0.72603536 34:-0.21328741 35:-0.88288522 36:1.0734209 #
0.47484356108927056050461601444113 2:-1.33 3:0.12 5:-1.33 6:0.30000001 7:0.049167842 8:-1.1402975 9:0.32901496 10:0.098335482 11:-0.95059979 12:0.35802984 13:0.12491194 14:-0.77517921 15:0.38563845 16:0.20177957 17:-0.36165977 18:0.48048308 21:0.17 24:0.34 25:0.13094431 26:-0.057337206 27:0.43591684 28:0.26188922 29:-0.11467464 30:0.53183317 31:0.29672974 32:0.033036433 33:0.45902941 34:0.085839972 35:0.086560711 36:0.33386689 #
-8.2730263783382103071062374510802 2:-1.33 3:0.12 5:-1.33 6:0.30000001 7:0.13776928 8:-1.2495964 9:0.45380068 10:0.2755385 11:-1.1691935 12:0.60760134 13:0.19121975 14:-1.0722421 15:0.53934985 16:-0.096049882 17:-1.2758564 18:0.38126165 21:0.17 24:0.34 25:0.082858481 26:-0.16469307 27:0.37885371 28:0.16571748 29:-0.32938626 30:0.41770667 31:0.18899389 32:-0.52809328 33:0.46544969 34:0.19187751 35:-1.1377125 36:0.56435573 #
13.575940976103311186307109892368 2:-1.33 3:0.12 5:-1.33 6:0.30000001 7:-0.05016033 8:-1.2480707 9:0.47759163 10:-0.10032056 11:-1.1661332 12:0.65518332 13:0.10923494 14:-1.1506402 15:0.74415219 16:0.29327226 17:-1.2337701 18:0.71295917 21:0.17 24:0.34 25:-0.0034545076 26:-0.17693019 27:0.36378774 28:-0.0069090994 29:-0.35386103 30:0.3875744 31:-0.056641903 32:-0.52123833 33:0.41666543 34:-0.16848668 35:-0.87340415 36:0.5110448 #
18.845958639482340402082627406344 2:-1.33 3:0.12 5:-1.33 6:0.30000001 7:-0.1070496 8:-1.1199545 9:0.31426662 10:-0.21409877 11:-0.909917 12:0.32853296 13:-0.30462411 14:-0.71173161 15:0.35727924 16:-0.46021238 17:-0.25656533 18:0.44604132 21:0.17 24:0.34 25:-0.12563379 26:-0.033013083 27:0.50814331 28:-0.25126845 29:-0.066025749 30:0.6762867 31:-0.33804759 32:-0.16353296 33:0.75641358 34:-0.43276221 35:-0.19005094 36:0.71594024 #
