SVM-light Version V6.20
2 # kernel type
3 # kernel parameter -d 
0.9298 # kernel parameter -g 
1 # kernel parameter -s 
1 # kernel parameter -r 
empty# kernel parameter -u 
36 # highest feature index 
113 # number of training documents 
3001 # number of support vectors plus 1 
0 # threshold b, each following line is a SV (starting with alpha*y)
233.5968484075658579968148842454 2:-1.3 3:0.32438299 5:-1.3 6:0.50438303 7:-0.00097771874 8:-1.1651127 9:0.60824519 10:-0.0019554461 11:-1.0302289 12:0.71210766 13:-0.0029754741 14:-0.9566071 15:0.771761 16:-0.0039955042 17:-0.88298535 18:0.83141452 21:0.17 24:0.34 25:-0.0016640286 26:-0.091167077 27:0.47486684 28:-0.0033280519 29:-0.18233398 30:0.60973352 31:-0.0027534734 32:-0.25995627 33:0.69480568 34:-0.0021788881 35:-0.33757868 36:0.77987802 #
1062.2950344895630223618354648352 2:-1.3 3:0.32438299 5:-1.3 6:0.50438303 7:0.0012746382 8:-1.0969144 9:0.49387753 10:0.0025492783 11:-0.89383292 12:0.48337206 13:0.0044027618 14:-0.69576776 15:0.47789228 16:0.0062562446 17:-0.4977026 18:0.47241241 21:0.17 24:0.34 25:0.0012127087 26:-0.18630873 27:0.37994114 28:0.0024254164 29:-0.37261739 30:0.41988194 31:0.0041945637 32:-0.55496711 33:0.45882562 34:0.0059637129 35:-0.73731691 36:0.49776927 #
185.00527814116856006876332685351 2:-1.3 3:0.32438299 5:-1.3 6:0.50438303 7:-0.0078494316 8:-1.0968153 9:0.63026613 10:-0.015698824 11:-0.89363372 12:0.75614947 13:-0.019493159 14:-0.60290527 15:0.81313902 16:-0.023287466 17:-0.31217685 18:0.87012863 21:0.17 24:0.34 25:-0.006808456 26:-0.1322826 27:0.5292455 28:-0.013616905 29:-0.26456428 30:0.7184906 31:-0.017969593 32:-0.51941067 33:0.80785298 34:-0.022322288 35:-0.77425706 36:0.89721531 #
138.08147519105472156297764740884 2:-1.3 3:0.32438299 5:-1.3 6:0.50438303 7:-0.093660265 8:-1.0823771 9:0.49695626 10:-0.18732013 11:-0.86476326 12:0.48952934 13:-0.27554566 14:-0.70865518 15:0.54965115 16:-0.36377096 17:-0.55254751 18:0.60977286 21:0.17 24:0.34 25:-0.10303754 26:-0.13042282 27:0.45387313 28:-0.20607513 29:-0.26084557 30:0.5677461 31:-0.31576911 32:-0.32534719 33:0.66586471 34:-0.42546299 35:-0.38984886 36:0.76398355 #
-68.933914906295541413783212192357 2:-1.3 3:0.32438299 5:-1.3 6:0.50438303 7:0.14437516 8:-1.1346178 9:0.55323189 10:0.2887499 11:-0.96924096 12:0.602081 13:0.38668814 14:-0.83923048 15:0.64256477 16:0.48462614 17:-0.70922011 18:0.68304878 21:0.17 24:0.34 25:0.12659056 26:-0.1561166 27:0.40342948 28:0.25318131 29:-0.31223315 30:0.46685869 31:0.36088249 32:-0.4436087 33:0.53505105 34:0.46858379 35:-0.57498425 36:0.60324353 #
-84.929496946289020797848934307694 2:-1.3 3:0.32438299 5:-1.3 6:0.50438303 7:-0.030053623 8:-1.1673497 9:0.69170016 10:-0.060107064 11:-1.0347099 12:0.87901795 13:-0.081531666 14:-1.0571423 15:1.0801889 16:-0.10295617 17:-1.0795747 18:1.2813605 21:0.17 24:0.34 25:0.0036555196 26:-0.13233036 27:0.47923967 28:0.0073110783 29:-0.26465988 30:0.61847943 31:-0.0085002109 32:-0.23309386 33:0.82211977 34:-0.024311382 35:-0.2015273 36:1.0257604 #
283.38189022777044101530918851495 2:-1.3 3:0.32438299 5:-1.3 6:0.50438303 7:-0.041608479 8:-1.1396134 9:0.64295906 10:-0.083216898 11:-0.97922903 12:0.78153569 13:-0.098823152 14:-0.95458496 15:0.80316013 16:-0.11442942 17:-0.92994082 18:0.82478505 21:0.17 24:0.34 25:0.016771084 26:-0.24943805 27:0.33422899 28:0.03354213 29:-0.49887535 30:0.32845768 31:0.031820424 32:-0.65694153 33:0.41953439 34:0.030098645 35:-0.81500715 36:0.51061118 #
161.17855726387637105290195904672 2:-1.3 3:0.32438299 5:-1.3 6:0.50438303 7:-0.15829934 8:-1.2097021 9:0.56902009 10:-0.31659824 11:-1.1194072 12:0.63365692 13:-0.46585229 14:-0.94697613 15:0.61421806 16:-0.61510605 17:-0.77454513 18:0.59477854 21:0.17 24:0.34 25:-0.11367541 26:-0.13327873 27:0.38881722 28:-0.22735114 29:-0.26655868 30:0.43763375 31:-0.3196767 32:-0.53073758 33:0.44948167 34:-0.4120023 35:-0.79491723 36:0.46132925 #
21.815121095163600983823926071636 2:-1.3 3:0.32438299 5:-1.3 6:0.50438303 7:0.059298564 8:-1.050038 9:0.4649303 10:0.11859684 11:-0.80008197 12:0.42547712 13:0.18009131 14:-0.61025965 15:0.39288694 16:0.24158572 17:-0.42043757 18:0.36029616 21:0.17 24:0.34 25:0.02217973 26:-0.084882371 27:0.54849958 28:0.044359505 29:-0.16976434 30:0.75699878 31:0.062430676 32:-0.26800504 33:0.82123321 34:0.080501907 35:-0.36624584 36:0.88546789 #
122.06296181866358097067859489471 2:-1.3 3:0.32438299 5:-1.3 6:0.50438303 7:-0.015592658 8:-1.154225 9:0.32891005 10:-0.031185444 11:-1.0084488 12:0.15343745 13:0.01107739 14:-0.88941777 15:0.21190538 16:0.053340025 17:-0.77038616 18:0.27037403 21:0.17 24:0.34 25:0.068327084 26:-0.1335697 27:0.34259906 28:0.13665414 29:-0.26713964 30:0.34519804 31:0.1660286 32:-0.32435745 33:0.40624431 34:0.19540295 35:-0.38157547 36:0.46729055 #
-74.672755152836217007461527828127 2:-1.3 3:0.32438299 5:-1.3 6:0.50438303 7:-0.0043759723 8:-1.050198 9:0.46290177 10:-0.00875198 11:-0.80039132 12:0.42142072 13:0.070355929 14:-0.73547012 15:0.51808232 16:0.14946383 17:-0.67054838 18:0.61474407 21:0.17 24:0.34 25:0.024497068 26:-0.28649241 27:0.29169762 28:0.048994377 29:-0.5729847 30:0.24339388 31:-0.052078549 32:-0.52621591 33:0.6554023 34:-0.15315112 35:-0.47944677 36:1.0674105 #
638.17003869447546549054095521569 2:-1.3 3:0.32438299 5:-1.3 6:0.50438303 7:0.14898524 8:-1.1715429 9:0.49085739 10:0.29796994 11:-1.0431067 12:0.47733134 13:0.37913877 14:-0.79910856 15:0.60452086 16:0.46030721 17:-0.55511159 18:0.73171043 21:0.17 24:0.34 25:-0.11219901 26:-0.15112877 27:0.36861485 28:-0.22439873 29:-0.30225715 30:0.39723176 31:-0.27274761 32:-0.43408909 33:0.53835362 34:-0.32109711 35:-0.56592143 36:0.67947626 #
0.093256305924067750545702892850386 2:-1.3 3:0.32438299 5:-1.3 6:0.50438303 7:-0.13503693 8:-1.094327 9:0.50836694 10:-0.27007332 11:-0.88866168 12:0.5123508 13:-0.32649958 14:-0.69973445 15:0.52244443 16:-0.38292554 17:-0.51080745 18:0.53253812 21:0.17 24:0.34 25:0.1202387 26:-0.13228707 27:0.4519591 28:0.24047755 29:-0.26457372 30:0.56391817 31:0.30257723 32:-0.39719751 33:0.60598075 34:0.36467695 35:-0.52982134 36:0.64804351 #
156.24727447154626247538544703275 2:-1.3 3:0.32438299 5:-1.3 6:0.50438303 7:0.040566996 8:-1.1677421 9:0.63013631 10:0.081133954 11:-1.0354878 12:0.75588918 13:0.086054675 14:-0.71875882 15:0.68671298 16:0.090975583 17:-0.40203062 18:0.61753553 21:0.17 24:0.34 25:0.079377018 26:-0.15280281 27:0.33006412 28:0.15875398 29:-0.30560738 30:0.32012838 31:0.20843141 32:-0.36018699 33:0.47506681 34:0.258109 35:-0.41476765 36:0.63000506 #
-201.51647322785231608577305451035 2:-1.3 3:0.32438299 5:-1.3 6:0.50438303 7:-0.033019383 8:-1.1470062 9:0.40381765 10:-0.066038683 11:-0.99400634 12:0.30325237 13:-0.094492488 14:-0.96321112 15:0.35451022 16:-0.12294623 17:-0.93241531 18:0.40576792 21:0.17 24:0.34 25:-0.086539432 26:-0.11772322 27:0.55459064 28:-0.17307937 29:-0.23544598 30:0.76917976 31:-0.17492156 32:-0.5097751 33:0.57907164 34:-0.176764 35:-0.78410387 36:0.3889631 #
530.91580010088114249811042100191 2:-1.3 3:0.32438299 5:-1.3 6:0.50438303 7:-0.031308882 8:-1.1795064 9:0.67950857 10:-0.062617667 11:-1.0590289 12:0.85463488 13:-0.060079157 14:-0.94062257 15:0.46971208 16:-0.057540622 17:-0.82221657 18:0.084789589 21:0.17 24:0.34 25:-0.0046212538 26:-0.14907713 27:0.43172666 28:-0.0092416592 29:-0.29815274 30:0.52345544 31:-0.095876113 32:-0.45081675 33:0.64545166 34:-0.18251039 35:-0.60348129 36:0.76744866 #
377.81994053067035110871074721217 2:-1.3 3:0.32438299 5:-1.3 6:0.50438303 7:0.011191869 8:-1.0462586 9:0.39609298 10:0.022383586 11:-0.79254019 12:0.28780252 13:0.01813969 14:-0.71857917 15:0.69168687 16:0.013895512 17:-0.64461923 18:1.0955719 21:0.17 24:0.34 25:0.094089873 26:-0.15756902 27:0.40778527 28:0.18818039 29:-0.31513718 30:0.47557205 31:0.30164427 32:-0.49002123 33:0.47665209 34:0.41510805 35:-0.66490549 36:0.47773284 #
-132.04018782607548132546071428806 2:-1.3 3:0.32438299 5:-1.3 6:0.50438303 7:0.062359929 8:-0.99618632 9:0.30644703 10:0.12471993 11:-0.69241428 12:0.10851093 13:0.037813555 14:-0.66535461 15:0.92514414 16:-0.049093261 17:-0.63829565 18:1.7417791 21:0.17 24:0.34 25:0.15521279 26:-0.042772677 27:0.38442433 28:0.31042805 29:-0.085543804 30:0.42885306 31:0.48724577 32:-0.3569684 33:0.33513007 34:0.66406363 35:-0.62839532 36:0.24140829 #
-11.753911064206238989982011844404 2:-1.3 3:0.32438299 5:-1.3 6:0.50438303 7:0.048801985 8:-1.086251 9:0.67757714 10:0.097603381 11:-0.87248719 12:0.8507722 13:0.068180121 14:-0.81689668 15:0.71176565 16:0.038756475 17:-0.76130444 18:0.57275987 21:0.17 24:0.34 25:0.184085 26:-0.18431297 27:0.52482951 28:0.36816978 29:-0.36862487 30:0.70965642 31:0.32803684 32:-0.60116297 33:0.67633134 34:0.28790408 35:-0.83369964 36:0.64300597 #
-295.8487844987579933331289794296 2:-1.3 3:0.32438299 5:-1.3 6:0.50438303 7:-0.075281002 8:-1.1053582 9:0.5379495 10:-0.15056206 11:-0.91071117 12:0.57151628 13:-0.13497052 14:-0.70248348 15:0.50398082 16:-0.11937916 17:-0.49425501 18:0.43644565 21:0.17 24:0.34 25:-0.17275955 26:-0.19034977 27:0.2030319 28:-0.34552023 29:-0.38070047 30:0.06606368 31:-0.2587781 32:-0.40776721 33:0.24879833 34:-0.17203695 35:-0.43483388 36:0.43153298 #
163.62133969702196623074996750802 2:-1.3 3:0.32438299 5:-1.3 6:0.50438303 7:0.00905718 8:-1.0636866 9:0.60180354 10:0.0181151 11:-0.82739127 12:0.69922453 13:0.023845056 14:-0.71110356 15:0.68853486 16:0.029575588 17:-0.59481651 18:0.67784578 21:0.17 24:0.34 25:-0.15489361 26:-0.073676191 27:0.5153634 28:-0.3097865 29:-0.14735197 30:0.69072723 31:-0.1953617 32:-0.28373647 33:0.3970027 34:-0.080936037 35:-0.42012191 36:0.10327829 #
587.33387082523620392748853191733 2:-1.3 3:0.32438299 5:-1.3 6:0.50438303 7:0.12754747 8:-1.1784251 9:0.57981765 10:0.25509495 11:-1.0568347 12:0.65525246 13:0.33602646 14:-1.0586507 15:0.62785691 16:0.41695833 17:-1.0604656 18:0.60046053 21:0.17 24:0.34 25:-0.026755536 26:-0.15466471 27:0.43007505 28:-0.053510629 29:-0.30933046 30:0.52014768 31:-0.0054102633 32:-0.60840058 33:0.48639762 34:0.042690597 35:-0.907471 36:0.45264667 #
142.79541387273400232515996322036 2:-1.3 3:0.32438299 5:-1.3 6:0.50438303 7:0.021564852 8:-1.1403607 9:0.60049057 10:0.043129198 11:-0.98070961 12:0.69659853 13:0.061092839 14:-0.79578871 15:0.62282234 16:0.079056107 17:-0.61086649 18:0.5490455 21:0.17 24:0.34 25:0.14577225 26:0.15742773 27:0.56098419 28:0.29154441 29:0.31485316 30:0.78196609 31:0.30945495 32:-0.090952791 33:0.53704906 34:0.32736501 35:-0.49675959 36:0.2921313 #
-184.94764796711899634829023852944 2:-1.3 3:0.32438299 5:-1.3 6:0.50438303 7:0.029775601 8:-1.102962 9:0.58456051 10:0.059551056 11:-0.90593201 12:0.66473764 13:-0.037313215 14:-0.73628473 15:0.59461594 16:-0.13417733 17:-0.56663692 18:0.52449375 21:0.17 24:0.34 25:-0.062527046 26:-0.15435225 27:0.48109618 28:-0.125054 29:-0.30870345 30:0.62219304 31:-0.22795844 32:-0.16022003 33:0.93969893 34:-0.33086273 35:-0.01173621 36:1.2572057 #
221.76092681462853306584293022752 2:-1.3 3:0.32438299 5:-1.3 6:0.50438303 7:0.097597741 8:-1.1331513 9:0.65086508 10:0.1951949 11:-0.96631068 12:0.79734772 13:0.36390218 14:-0.8030948 15:0.82290977 16:0.53260899 17:-0.63987929 18:0.84847248 21:0.17 24:0.34 25:0.0042428542 26:-0.055108007 27:0.59258062 28:0.0084849838 29:-0.11021379 30:0.84516132 31:0.12612182 32:-0.29453093 33:0.78409404 34:0.24375775 35:-0.47884738 36:0.72302705 #
517.90135222997980690706754103303 2:-1.3 3:0.32438299 5:-1.3 6:0.50438303 7:-0.044590317 8:-1.1149311 9:0.42739481 10:-0.089180857 11:-0.92987007 12:0.35040545 13:-0.17384215 14:-0.88446933 15:0.70287991 16:-0.25850365 17:-0.83906865 18:1.0553533 21:0.17 24:0.34 25:0.06152533 26:-0.077392243 27:0.47677925 28:0.12305032 29:-0.15478469 30:0.61355925 31:-0.084959142 32:-0.44084319 33:0.55224538 34:-0.29296911 35:-0.72690213 36:0.4909319 #
274.45972469872992860473459586501 2:-1.3 3:0.32438299 5:-1.3 6:0.50438303 7:0.018423773 8:-1.0381315 9:0.50243378 10:0.036847536 11:-0.77626711 12:0.50048447 13:-0.051681019 14:-0.7027179 15:0.47082141 16:-0.1402096 17:-0.6291697 18:0.44115832 21:0.17 24:0.34 25:0.16545543 26:-0.15766656 27:0.41690996 28:0.3309111 29:-0.31533265 30:0.493819 31:-0.018749516 32:-0.26390326 33:0.41760546 34:-0.36840999 35:-0.21247362 36:0.34139183 #
362.77734389675697457278147339821 2:-1.3 3:0.32438299 5:-1.3 6:0.50438303 7:-0.22499159 8:-1.129447 9:0.44629452 10:-0.44998249 11:-0.95890713 12:0.38820541 13:-0.17213872 14:-0.953107 15:0.45908991 16:0.10570549 17:-0.94730824 18:0.52997398 21:0.17 24:0.34 25:-0.084186912 26:-0.23091917 27:0.37397781 28:-0.16837393 29:-0.46183854 30:0.40795475 31:0.039779644 32:-0.66421145 33:0.50188541 34:0.2479333 35:-0.86658454 36:0.59581584 #
245.08786090206868379937077406794 2:-1.3 3:0.32438299 5:-1.3 6:0.50438303 7:-0.26703247 8:-1.23263 9:0.61195928 10:-0.53406447 11:-1.1652474 12:0.71953613 13:-0.15043886 14:-0.87603641 15:0.77591687 16:0.23318726 17:-0.58682364 18:0.83229673 21:0.17 24:0.34 25:-0.010868689 26:-0.12252521 27:0.38204548 28:-0.021736981 29:-0.24505207 30:0.42408982 31:-0.092268027 32:-0.36367053 33:0.46474397 34:-0.16279835 35:-0.48228997 36:0.50539762 #
-107.44913766776591046436806209385 2:-1.3 3:0.32438299 5:-1.3 6:0.50438303 7:0.14329109 8:-1.1412158 9:0.6842013 10:0.28658196 11:-0.9824236 12:0.86402088 13:-0.010901063 14:-0.81181186 15:0.84481066 16:-0.30838424 17:-0.64119971 18:0.8256011 21:0.17 24:0.34 25:-0.080303572 26:-0.20070629 27:0.36955324 28:-0.16060652 29:-0.40141347 30:0.39910433 31:-0.34610683 32:-0.50148606 33:0.51004225 34:-0.53160691 35:-0.60155928 36:0.62097979 #
80.696347127867213089302822481841 2:-1.3 3:0.32438299 5:-1.3 6:0.50438303 7:0.1132085 8:-0.99862939 9:0.44415522 10:0.2264163 11:-0.69726253 12:0.38392699 13:0.3641988 14:-0.50852066 15:0.28161761 16:0.5019809 17:-0.31977901 18:0.17930767 21:0.17 24:0.34 25:0.040295735 26:-0.047292817 27:0.70638841 28:0.080591209 29:-0.094583668 30:1.072776 31:0.017832352 32:-0.23688211 33:1.1190233 34:-0.044926822 35:-0.37918004 36:1.165271 #
-319.43931497103096717182779684663 2:-1.3 3:0.32438299 5:-1.3 6:0.50438303 7:0.078461468 8:-1.1645285 9:0.47017518 10:0.15692359 11:-1.0290658 12:0.43596923 13:0.062665522 14:-0.84590256 15:0.5466702 16:-0.031592254 17:-0.66273808 18:0.65737379 21:0.17 24:0.34 25:0.016686127 26:-0.054793674 27:0.53358322 28:0.033372853 29:-0.10958558 30:0.72716612 31:-0.048528768 32:-0.40144295 33:0.81338495 34:-0.13043016 35:-0.69329929 36:0.89960361 #
-8.7006865615471191688357066595927 2:-1.3 3:0.32438299 5:-1.3 6:0.50438303 7:-0.12203728 8:-1.1612899 9:0.57573509 10:-0.24407236 11:-1.0226095 12:0.64708835 13:-0.11149865 14:-0.78990585 15:0.70564467 16:0.021076364 17:-0.55720317 18:0.76420307 21:0.17 24:0.34 25:0.20065041 26:0.0047611888 27:0.56396955 28:0.40130171 29:0.0095237009 30:0.78794044 31:0.11837552 32:-0.22001694 33:0.91076148 34:-0.16455029 35:-0.44955742 36:1.033583 #
-93.723136752754484746219532098621 2:-1.3 3:0.32438299 5:-1.3 6:0.50438303 7:0.064569503 8:-1.2201207 9:0.38832983 10:0.12913759 11:-1.1402327 12:0.2722747 13:0.15422691 14:-0.87571579 15:0.45334727 16:0.17931558 17:-0.6111986 18:0.63441694 21:0.17 24:0.34 25:0.25941432 26:-0.14225808 27:0.32120115 28:0.51882935 29:-0.2845208 30:0.30240056 31:0.26172408 32:-0.56460905 33:0.44417611 34:0.0046191774 35:-0.84470016 36:0.58595103 #
376.46580526133317334824823774397 2:-1.3 3:0.32438299 5:-1.3 6:0.50438303 7:0.20389959 8:-1.1427774 9:0.49690706 10:0.40779793 11:-0.98554528 12:0.48943037 13:0.11855206 14:-0.82030278 15:0.51512039 16:-0.17069453 17:-0.65506053 18:0.5408088 21:0.17 24:0.34 25:-0.20375057 26:-0.23149498 27:0.37767914 28:-0.40750158 29:-0.46299076 30:0.41535684 31:-0.03443113 32:-0.50081289 33:0.53805751 34:0.33863935 35:-0.53863555 36:0.66075778 #
-137.26236794938662910681159701198 2:-1.3 3:0.32438299 5:-1.3 6:0.50438303 7:-0.071520209 8:-1.0314969 9:0.47004324 10:-0.14304113 11:-0.76299089 12:0.43570352 13:0.2681213 14:-0.6608488 15:0.41460273 16:0.67928326 17:-0.55870616 18:0.39350185 21:0.17 24:0.34 25:0.10376868 26:-0.19057098 27:0.42696217 28:0.20753726 29:-0.38114232 30:0.51392257 31:0.29466793 32:-0.5221402 33:0.41790918 34:0.38179833 35:-0.66313773 36:0.32189542 #
103.23151489217927689878706587479 2:-1.3 3:0.32438299 5:-1.3 6:0.50438303 7:-0.12653238 8:-1.1156443 9:0.65064979 10:-0.25306457 11:-0.93129599 12:0.79691684 13:-0.40968156 14:-0.82561344 15:0.83619589 16:-0.56629837 17:-0.71993232 18:0.87547559 21:0.17 24:0.34 25:-0.10662377 26:-0.13691607 27:0.58555311 28:-0.2132477 29:-0.27382991 30:0.83110553 31:-0.11242568 32:-0.40463418 33:0.79347235 34:-0.011603925 35:-0.53543705 36:0.75583941 #
-378.21185294454915037931641563773 2:-1.3 3:0.32438299 5:-1.3 6:0.50438303 7:-0.061324693 8:-1.2461497 9:0.68269646 10:-0.12265009 11:-1.1922784 12:0.86100924 13:-0.21975569 14:-0.80495411 15:0.75071275 16:-0.31686196 17:-0.41762882 18:0.64041394 21:0.17 24:0.34 25:-0.065582827 26:-0.021783993 27:0.37616348 28:-0.13116549 29:-0.043571729 30:0.4123252 31:-0.11514298 32:-0.38392392 33:0.55592203 34:-0.099120215 35:-0.72427779 36:0.69951808 #
56.8971841013813062204462767113 2:-1.3 3:0.32438299 5:-1.3 6:0.50438303 7:0.058147442 8:-1.0883937 9:0.70088792 10:0.11629386 11:-0.87677699 12:0.89739162 13:-0.0074188085 14:-0.71773452 15:0.99939257 16:-0.1311321 17:-0.55869269 18:1.1013912 21:0.17 24:0.34 25:0.013229634 26:-0.045537408 27:0.48191833 28:0.026458539 29:-0.091077559 30:0.62383431 31:0.21690778 32:-0.2003556 33:0.74969542 34:0.40735653 35:-0.30963403 36:0.87555635 #
81.240371465951582763409533072263 2:-1.3 3:0.32438299 5:-1.3 6:0.50438303 7:-0.0597325 8:-1.2565975 9:0.79284984 10:-0.11946479 11:-1.2131972 12:1.0813195 13:-0.0032434289 14:-0.97884768 15:0.99286169 16:0.1129775 17:-0.74449694 18:0.90440804 21:0.17 24:0.34 25:-0.22081995 26:-0.13953395 27:0.4285377 28:-0.44164124 29:-0.2790648 30:0.51707655 31:-0.26341003 32:-0.48159179 33:0.62846589 34:-0.085180588 35:-0.68411648 36:0.73985654 #
-180.67429227841179795177595224231 2:-1.3 3:0.32438299 5:-1.3 6:0.50438303 7:0.030310439 8:-1.0609126 9:0.42332011 10:0.060621075 11:-0.82183868 12:0.34225684 13:0.015048135 14:-0.8387748 15:0.26176029 16:-0.030524645 17:-0.85571212 18:0.1812631 21:0.17 24:0.34 25:-0.067503132 26:-0.21712357 27:0.31461212 28:-0.13500644 29:-0.43424812 30:0.28922418 31:-0.3132582 32:-0.64106137 33:0.23664838 34:-0.49150977 35:-0.84787518 36:0.18407264 #
132.13832934682216091459849849343 2:-1.3 3:0.32438299 5:-1.3 6:0.50438303 7:0.199185 8:-1.1379474 9:0.48731327 10:0.39836958 11:-0.97590882 12:0.47024384 13:0.44626835 14:-0.84613591 15:0.38818857 16:0.49416688 17:-0.71636254 18:0.30613399 21:0.17 24:0.34 25:0.097995773 26:-0.06911929 27:0.34346318 28:0.1959914 29:-0.13823782 30:0.34692746 31:0.26582801 32:-0.14466548 33:0.44342154 34:0.33566409 35:-0.15109295 36:0.53991604 #
493.65102683324545296272845007479 2:-1.3 3:0.32438299 5:-1.3 6:0.50438303 7:0.075325139 8:-1.1268741 9:0.42694932 10:0.15064959 11:-0.95373088 12:0.34951627 13:0.15896951 14:-0.63832802 15:0.34910294 16:0.16728866 17:-0.32292303 18:0.34869024 21:0.17 24:0.34 25:0.075490922 26:-0.12136247 27:0.4640294 28:0.15098259 29:-0.24272552 30:0.58805555 31:0.435606 32:-0.36677539 33:0.43111691 34:0.72022963 35:-0.49082556 36:0.27417737 #
167.64378331745152195253467652947 2:-1.3 3:0.32438299 5:-1.3 6:0.50438303 7:-0.01555326 8:-1.2607945 9:0.54016572 10:-0.031107357 11:-1.221588 12:0.57594901 13:-0.37501138 14:-1.2065402 15:0.58042181 16:-0.71891606 17:-1.1914933 18:0.58489442 21:0.17 24:0.34 25:0.0085337693 26:-0.18952943 27:0.36702523 28:0.017067607 29:-0.37905967 30:0.3940523 31:-0.036617689 32:-0.41971725 33:0.49316224 34:-0.09030275 35:-0.46037653 36:0.59227222 #
45.458716170115152976904937531799 2:-1.3 3:0.32438299 5:-1.3 6:0.50438303 7:-0.1470675 8:-1.0667733 9:0.44274461 10:-0.29413345 11:-0.83355749 12:0.38110709 13:-0.43949428 14:-0.6929093 15:0.51525366 16:-0.58485401 17:-0.55225974 18:0.64940172 21:0.17 24:0.34 25:0.054059576 26:-0.29166341 27:0.28495672 28:0.10812008 29:-0.58332509 30:0.22991289 31:-0.041194964 32:-0.57853514 33:0.42713627 34:-0.19050953 35:-0.57374418 36:0.62436002 #
72.518975528914765504850947763771 2:-1.3 3:0.32438299 5:-1.3 6:0.50438303 7:0.0093527278 8:-1.1700215 9:0.61970049 10:0.018703511 11:-1.0400022 12:0.73501605 13:0.023459604 14:-0.80827141 15:0.56296402 16:0.028213432 17:-0.57653677 18:0.39090881 21:0.17 24:0.34 25:0.0049931528 26:-0.18476795 27:0.54430544 28:0.0099844113 29:-0.36953452 30:0.74860787 31:-0.13248594 32:-0.48702604 33:0.51511574 34:-0.27495807 35:-0.60451615 36:0.28162372 #
32.709132963048681119744287570938 2:-1.3 3:0.32438299 5:-1.3 6:0.50438303 7:-0.048063006 8:-1.2257373 9:0.15580274 10:-0.096126504 11:-1.1514622 12:-0.19277695 13:-0.018593436 14:-1.0879242 15:-0.099434718 16:0.058939021 17:-1.024384 18:-0.0060914913 21:0.17 24:0.34 25:0.067291044 26:-0.10868272 27:0.40910351 28:0.13458167 29:-0.21736588 30:0.47820613 31:0.18816687 32:-0.26803961 33:0.50350738 34:0.24175148 35:-0.31871384 36:0.52880824 #
-9.426322641390529000204878684599 2:-1.3 3:0.32438299 5:-1.3 6:0.50438303 7:-0.089600466 8:-1.0488827 9:0.43319461 10:-0.17920184 11:-0.79773533 12:0.36200273 13:-0.1040779 14:-0.69484228 15:0.70169342 16:-0.028954882 17:-0.59194905 18:1.0413795 21:0.17 24:0.34 25:-0.17807361 26:-0.094935127 27:0.35763982 28:-0.35614973 29:-0.18987234 30:0.37527835 31:-0.10471789 32:-0.32300398 33:0.67289847 34:0.14671241 35:-0.45613652 36:0.97051895 #
103.02751184208638335348950931802 2:-1.3 3:0.32438299 5:-1.3 6:0.50438303 7:-0.16630977 8:-1.1373272 9:0.4942866 10:-0.33261916 11:-0.97466028 12:0.48418972 13:-0.30195463 14:-0.67917454 15:0.40521038 16:-0.27128986 17:-0.38369119 18:0.32623062 21:0.17 24:0.34 25:-0.048832644 26:-0.22878109 27:0.41378769 28:-0.097667553 29:-0.45756394 30:0.48757324 31:-0.27770245 32:-0.69299507 33:0.55003756 34:-0.45773897 35:-0.92842579 36:0.61250144 #
4.1334561179408755293707145028748 2:-1.3 3:0.32438299 5:-1.3 6:0.50438303 7:0.037097119 8:-1.1185801 9:0.53925782 10:0.074194238 11:-0.93714011 12:0.57413304 13:0.32078195 14:-0.89552915 15:0.64439666 16:0.56736881 17:-0.85391635 18:0.71466112 21:0.17 24:0.34 25:-0.018925587 26:-0.26471868 27:0.15700699 28:-0.037851218 29:-0.52943462 30:-0.025986496 31:0.10944524 32:-0.65413034 33:0.20460713 34:0.25674278 35:-0.77882397 36:0.43520096 #
-148.57713445756922965301782824099 2:-1.3 3:0.32438299 5:-1.3 6:0.50438303 7:0.1885175 8:-1.3298205 9:0.70675278 10:0.37703457 11:-1.359638 12:0.90912229 13:0.10612429 14:-1.0712609 15:0.80346131 16:-0.16478619 17:-0.7828846 18:0.69779778 21:0.17 24:0.34 25:0.1212823 26:-0.16449843 27:0.41441685 28:0.24256264 29:-0.32899711 30:0.48883653 31:0.10813721 32:-0.49197724 33:0.72069341 34:-0.026288958 35:-0.6549592 36:0.95255095 #
-142.60824411450076354412885848433 2:-1.3 3:0.32438299 5:-1.3 6:0.50438303 7:-0.18437159 8:-1.041238 9:0.42254147 10:-0.36874273 11:-0.78249568 12:0.34069973 13:-0.28549948 14:-0.68911332 15:0.36971897 16:-0.20225576 17:-0.59573162 18:0.39873812 21:0.17 24:0.34 25:0.01579421 26:-0.1685663 27:0.60586166 28:0.031589098 29:-0.33713186 30:0.87172252 31:-0.078849487 32:-0.37500167 33:1.0116194 34:-0.18928777 35:-0.41287088 36:1.1515169 #
-477.89683203249836651593795977533 2:-1.3 3:0.32438299 5:-1.3 6:0.50438303 7:-0.088657714 8:-1.2053401 9:0.46817535 10:-0.17731482 11:-1.1106801 12:0.43196812 13:-0.24408454 14:-0.80999517 15:0.40847281 16:-0.3108536 17:-0.5093081 18:0.38497761 21:0.17 24:0.34 25:-0.14342085 26:0.087823868 27:0.46616837 28:-0.28684169 29:0.17564768 30:0.59233743 31:-0.38882902 32:-0.08547011 33:0.45183674 34:-0.49081624 35:-0.34658888 36:0.31133616 #
-130.81847407432610452815424650908 2:-1.3 3:0.32438299 5:-1.3 6:0.50438303 7:0.099601142 8:-1.1055995 9:0.63143671 10:0.19920285 11:-0.91122818 12:0.75849199 13:0.17199141 14:-0.66009253 15:0.88672858 16:0.14478104 17:-0.40895873 18:1.0149676 21:0.17 24:0.34 25:0.033630084 26:-0.18820263 27:0.3466329 28:0.067260481 29:-0.37640616 30:0.35326535 31:0.022546079 32:-0.59783697 33:0.27172101 34:-0.022168586 35:-0.81926739 36:0.19017644 #
317.13265569625224316041567362845 2:-1.3 3:0.32438299 5:-1.3 6:0.50438303 7:-0.010717792 8:-1.1051661 9:0.5216468 10:-0.021435436 11:-0.91033864 12:0.53891087 13:0.15269603 14:-0.9025104 15:0.52166128 16:0.32682756 17:-0.89468265 18:0.50441164 21:0.17 24:0.34 25:0.1242884 26:-0.15097138 27:0.43522981 28:0.24857651 29:-0.30194286 30:0.5304597 31:0.44726878 32:-0.31417802 33:0.77032697 34:0.64596045 35:-0.32641384 36:1.0101942 #
-6.8141047979778939236439327942207 2:-1.3 3:0.32438299 5:-1.3 6:0.50438303 7:-0.0088740997 8:-1.0962809 9:0.55228251 10:-0.017748214 11:-0.89260256 12:0.60018134 13:-0.099522613 14:-0.86686146 15:0.65558189 16:-0.18129645 17:-0.84111911 18:0.71098286 21:0.17 24:0.34 25:-0.086914934 26:-0.19865623 27:0.37762928 28:-0.17383087 29:-0.39730832 30:0.41526601 31:-0.20503399 32:-0.58327287 33:0.59747684 34:-0.23623659 35:-0.76923901 36:0.77968901 #
184.46788039569696593389380723238 2:-1.3 3:0.32438299 5:-1.3 6:0.50438303 7:-0.15757695 8:-1.1967188 9:0.51771504 10:-0.31515354 11:-1.0934887 12:0.5310452 13:-0.13001187 14:-0.76100767 15:0.50201941 16:0.055130541 17:-0.42852372 18:0.47299266 21:0.17 24:0.34 25:-0.068258949 26:-0.043111123 27:0.61557734 28:-0.13651916 29:-0.086216465 30:0.8911649 31:0.06701792 32:-0.19797657 33:0.67060763 34:0.27055633 35:-0.30973962 36:0.45005238 #
25.119514581760586935388346319087 2:-1.3 3:0.32438299 5:-1.3 6:0.50438303 7:0.035658613 8:-1.2585213 9:0.6210295 10:0.071318693 11:-1.2170196 12:0.73767829 13:0.25023022 14:-1.1781801 15:0.62717569 16:0.42914265 17:-1.139348 18:0.51667362 21:0.17 24:0.34 25:0.043136444 26:-0.17476764 27:0.41042501 28:0.086273916 29:-0.34954146 30:0.48084077 31:0.38117394 32:-0.41061136 33:0.4009465 34:0.67607212 35:-0.47167915 36:0.32105055 #
-485.87558003388591032489784993231 2:-1.3 3:0.32438299 5:-1.3 6:0.50438303 7:-0.012003039 8:-1.0082363 9:0.53952956 10:-0.024003627 11:-0.71656406 12:0.57468033 13:0.14081129 14:-0.73750478 15:0.6552968 16:0.30562857 17:-0.75844562 18:0.73592281 21:0.17 24:0.34 25:0.11794094 26:-0.092616163 27:0.39997563 28:0.23588327 29:-0.18522294 30:0.45996225 31:0.12761118 32:-0.29264352 33:0.52828771 34:0.019339599 35:-0.40006274 36:0.59661651 #
450.65153719612851546116871759295 2:-1.3 3:0.32438299 5:-1.3 6:0.50438303 7:0.012172951 8:-1.1519041 9:0.50447547 10:0.024347406 11:-1.003888 12:0.50456822 13:0.26555663 14:-0.87456864 15:0.45749822 16:0.50676757 17:-0.74525058 18:0.41043091 21:0.17 24:0.34 25:-0.045271069 26:-0.19389352 27:0.48158082 28:-0.090540379 29:-0.38778213 30:0.62316972 31:0.053440437 32:-0.56939423 33:0.86595994 34:0.19742228 35:-0.75100577 36:1.1087527 #
84.271869846441134654924098867923 2:-1.3 3:0.32438299 5:-1.3 6:0.50438303 7:0.055060022 8:-1.0679352 9:0.55296206 10:0.11011895 11:-0.83584899 12:0.60154128 13:-0.017321477 14:-0.62722129 15:0.70051289 16:-0.14476286 17:-0.41859558 18:0.79948366 21:0.17 24:0.34 25:-0.019996034 26:0.11184333 27:0.58898902 28:-0.039991908 29:0.22368288 30:0.83797133 31:-0.067124784 32:0.032765646 33:0.76645052 34:-0.09425839 35:-0.15815075 36:0.69492882 #
-70.285862325884593815317202825099 2:-1.3 3:0.32438299 5:-1.3 6:0.50438303 7:0.19591928 8:-1.285512 9:0.68527073 10:0.39183977 11:-1.2710155 12:0.86616278 13:0.28034502 14:-1.0540998 15:0.77924216 16:0.16884981 17:-0.83718437 18:0.69232857 21:0.17 24:0.34 25:0.10989547 26:-0.15717573 27:0.35919705 28:0.21979506 29:-0.31434807 30:0.37839016 31:0.11441351 32:-0.44161311 33:0.27932626 34:0.0090325922 35:-0.56887388 36:0.18026339 #
30.336577737954073086257267277688 2:-1.3 3:0.32438299 5:-1.3 6:0.50438303 7:0.0089070071 8:-1.1180871 9:0.60400301 10:0.017813129 11:-0.93614048 12:0.70362318 13:0.078261018 14:-0.78724825 15:0.91544795 16:0.13870786 17:-0.63835508 18:1.1272708 21:0.17 24:0.34 25:0.028547509 26:-0.30678594 27:0.4435592 28:0.057096411 29:-0.61357558 30:0.54711151 31:0.016385069 32:-0.5384388 33:0.71181369 34:-0.024325602 35:-0.46330237 36:0.87651378 #
409.18968551385546561505179852247 2:-1.3 3:0.32438299 5:-1.3 6:0.50438303 7:0.062473275 8:-1.1997308 9:0.44854382 10:0.12494469 11:-1.0993659 12:0.39270344 13:-0.092960611 14:-0.71054876 15:0.58144981 16:-0.31086791 17:-0.32173797 18:0.7701925 21:0.17 24:0.34 25:0.040810365 26:-0.21251647 27:0.45428717 28:0.081619032 29:-0.42504275 30:0.56855422 31:0.031758904 32:-0.37236252 33:0.58720303 34:-0.018105473 35:-0.31967902 36:0.60584873 #
-150.74856853286320301776868291199 2:-1.3 3:0.32438299 5:-1.3 6:0.50438303 7:-0.13111007 8:-1.0979284 9:0.60948437 10:-0.2622191 11:-0.89582926 12:0.71458691 13:-0.027834767 14:-0.7494446 15:0.66672075 16:0.2065496 17:-0.60306871 18:0.61885333 21:0.17 24:0.34 25:-0.13558306 26:-0.084995359 27:0.45921245 28:-0.27116519 29:-0.17000142 30:0.57840908 31:-0.48470795 32:-0.38982695 33:0.61803007 34:-0.69825125 35:-0.60965085 36:0.65764713 #
224.151041118077387181983795017 2:-1.3 3:0.32438299 5:-1.3 6:0.50438303 7:-0.10681348 8:-1.1747544 9:0.54295248 10:-0.21362659 11:-1.0494697 12:0.5815239 13:-0.30568427 14:-0.65675014 15:0.6598168 16:-0.39774209 17:-0.2640278 18:0.73811185 21:0.17 24:0.34 25:-0.26883307 26:-0.095001057 27:0.46807593 28:-0.5376671 29:-0.1900014 30:0.59614962 31:-0.56848514 32:-0.50819522 33:0.58654243 34:-0.5993064 35:-0.82638741 36:0.57693636 #
227.61845836617865757034451235086 2:-1.3 3:0.32438299 5:-1.3 6:0.50438303 7:-0.013662358 8:-1.0627019 9:0.49583885 10:-0.027321275 11:-0.8254618 12:0.48730129 13:0.18130942 14:-0.6455195 15:0.52891046 16:0.38994265 17:-0.4655745 18:0.57053041 21:0.17 24:0.34 25:-0.15163167 26:-0.2553753 27:0.47898367 28:-0.3032603 29:-0.51074052 30:0.61797589 31:0.068105146 32:-0.34871447 33:0.63635039 34:0.43947324 35:-0.18668716 36:0.65472633 #
-38.227232038237659139667812269181 2:-1.3 3:0.32438299 5:-1.3 6:0.50438303 7:0.19064023 8:-1.0516886 9:0.49595711 10:0.3812767 11:-0.80327231 12:0.48752496 13:0.24947432 14:-0.81212676 15:0.42695504 16:0.11766831 17:-0.8209849 18:0.36637059 21:0.17 24:0.34 25:0.031917147 26:-0.11399142 27:0.32615578 28:0.063832104 29:-0.22799799 30:0.31229421 31:0.20746529 32:-0.47834525 33:0.34612048 34:0.35109627 35:-0.72869265 36:0.37994307 #
-20.411796070610339626227869302966 2:-1.3 3:0.32438299 5:-1.3 6:0.50438303 7:0.073225558 8:-1.1005973 9:0.40488392 10:0.14645109 11:-0.90110922 12:0.30538675 13:0.26866066 14:-0.62074417 15:0.41210318 16:0.39086929 17:-0.34038225 18:0.5188188 21:0.17 24:0.34 25:0.19832079 26:-0.01318531 27:0.24643618 28:0.39664286 29:-0.026378341 30:0.15285937 31:0.38612923 32:-0.31357625 33:0.39009237 34:0.375615 35:-0.60077143 36:0.62732261 #
-32.919601695550461784023354994133 2:-1.3 3:0.32438299 5:-1.3 6:0.50438303 7:-0.029001953 8:-0.99805003 9:0.60905385 10:-0.058003969 11:-0.69602621 12:0.71372354 13:-0.23090464 14:-0.75576937 15:0.49826983 16:-0.403806 17:-0.81551391 18:0.28280941 21:0.17 24:0.34 25:0.015998498 26:-0.067956723 27:0.3821077 28:0.031998098 29:-0.1359233 30:0.42420068 31:0.011329576 32:-0.44586676 33:0.37074402 34:-0.0093396064 35:-0.75580913 36:0.31728414 #
20.943259078407887585626667714678 2:-1.3 3:0.32438299 5:-1.3 6:0.50438303 7:-0.14200629 8:-1.199785 9:0.57790715 10:-0.28401044 11:-1.0996755 12:0.65143329 13:-0.34229445 14:-0.88047302 15:0.72521627 16:-0.40057683 17:-0.66126841 18:0.7990039 21:0.17 24:0.34 25:-0.10442483 26:-0.219863 27:0.37218192 28:-0.20884837 29:-0.43971729 30:0.40438062 31:-0.079116583 32:-0.36504525 33:0.34974903 34:0.050617293 35:-0.29037499 36:0.29512104 #
36.5327882220109430022603191901 2:-1.3 3:0.32438299 5:-1.3 6:0.50438303 7:0.21726453 8:-1.27839 9:0.39210421 10:0.4345361 11:-1.2570035 12:0.2798366 13:0.45461285 14:-0.9573319 15:0.25983548 16:0.47469622 17:-0.65765291 18:0.23986062 21:0.17 24:0.34 25:0.012448438 26:-0.28758776 27:0.45699188 28:0.024901519 29:-0.5751453 30:0.57401842 31:0.15037289 32:-0.64492399 33:0.50655591 34:0.27584863 35:-0.71470106 36:0.43910137 #
-27.990834482917268388746379059739 2:-1.3 3:0.32438299 5:-1.3 6:0.50438303 7:-0.30678472 8:-1.2607493 9:0.666309 10:-0.61356753 11:-1.2215679 12:0.82823664 13:-0.078591123 14:-0.90901661 15:0.94510674 16:0.45638743 17:-0.59646022 18:1.0619798 21:0.17 24:0.34 25:-0.054306723 26:-0.032906059 27:0.44535822 28:-0.10861268 29:-0.065806709 30:0.55072868 31:-0.085892245 32:-0.060576644 33:0.4725877 34:-0.06316942 35:-0.055349994 36:0.39444903 #
333.22687434379946580520481802523 2:-1.3 3:0.32438299 5:-1.3 6:0.50438303 7:0.066277601 8:-1.1953852 9:0.40794846 10:0.13254239 11:-1.0904402 12:0.31149414 13:0.24866462 14:-0.8700524 15:0.53762317 16:0.3647759 17:-0.64967328 18:0.76371008 21:0.17 24:0.34 25:0.062320866 26:-0.16639835 27:0.52505463 28:0.12463368 29:-0.33284208 30:0.71005791 31:0.092881665 32:-0.39744648 33:0.53486258 34:0.061123595 35:-0.46205756 36:0.3596549 #
-62.761448206549147244004416279495 2:-1.3 3:0.32438299 5:-1.3 6:0.50438303 7:-0.068503998 8:-1.0326977 9:0.46679315 10:-0.13700934 11:-0.76537848 12:0.42919973 13:-0.30295169 14:-0.74802655 15:0.63954902 16:-0.46889481 17:-0.73067719 18:0.84989321 21:0.17 24:0.34 25:-0.26459035 26:-0.043524291 27:0.28394103 28:-0.52918321 29:-0.087055132 30:0.22787669 31:-0.4759981 32:-0.30881777 33:0.29056674 34:-0.42281288 35:-0.53058124 36:0.3532545 #
246.27702974026087190395628567785 2:-1.3 3:0.32438299 5:-1.3 6:0.50438303 7:0.21586291 8:-1.1391159 9:0.47841671 10:0.43175194 11:-0.97906238 12:0.4524928 13:0.17173067 14:-0.85194421 15:0.51498497 16:-0.088266782 17:-0.72480333 18:0.5775727 21:0.17 24:0.34 25:0.098113991 26:-0.16901334 27:0.43109146 28:0.19624427 29:-0.33791941 30:0.52231222 31:0.17592505 32:-0.49822047 33:0.60075897 34:0.15562311 35:-0.65851587 36:0.67923516 #
66.762963644469678570203541312367 2:-1.3 3:0.32438299 5:-1.3 6:0.50438303 7:-0.093364693 8:-1.1743448 9:0.73455936 10:-0.18670964 11:-1.0492845 12:0.96476561 13:0.13149948 14:-0.9826746 15:0.92688161 16:0.4497261 17:-0.91604781 18:0.88906491 21:0.17 24:0.34 25:0.062665552 26:-0.17444205 27:0.32316071 28:0.12534045 29:-0.34880316 30:0.30642247 31:0.20625815 32:-0.63227826 33:0.57513183 34:0.28718901 35:-0.9157514 36:0.84386343 #
12.650624614803840373156162968371 2:-1.3 3:0.32438299 5:-1.3 6:0.50438303 7:-0.097019568 8:-1.0025024 9:0.71552503 10:-0.19403809 11:-0.70504779 12:0.92667097 13:-0.059981529 14:-0.65590638 15:0.80146158 16:0.074074894 17:-0.60676765 18:0.67625803 21:0.17 24:0.34 25:-0.12202536 26:-0.094156519 27:0.52386463 28:-0.24405077 29:-0.18831249 30:0.70772547 31:-0.014202088 32:-0.23560321 33:0.8629415 34:0.21564695 35:-0.28289384 36:1.0181562 #
401.34229555545357470691669732332 2:-1.3 3:0.32438299 5:-1.3 6:0.50438303 7:-0.052304488 8:-1.1762097 9:0.39633691 10:-0.10461642 11:-1.0521759 12:0.28827941 13:-0.23229425 14:-0.82162791 15:0.28635255 16:-0.35997921 17:-0.59108549 18:0.28439945 21:0.17 24:0.34 25:-0.15667585 26:-0.068164043 27:0.37674522 28:-0.31335625 29:-0.13635662 30:0.41345707 31:-0.092502818 32:-0.3479813 33:0.70314127 34:0.12834591 35:-0.55960655 36:0.99281865 #
-233.83163750755963405936199706048 2:-1.3 3:0.32438299 5:-1.3 6:0.50438303 7:0.19813631 8:-1.1762677 9:0.73828661 10:0.39626035 11:-1.0521345 12:0.97217017 13:0.34034202 14:-0.83530802 15:0.76914573 16:0.2844137 17:-0.61849785 18:0.56607431 21:0.17 24:0.34 25:-0.091923438 26:-0.20350344 27:0.37543961 28:-0.18385299 29:-0.40706268 30:0.41081256 31:0.065971553 32:-0.60903567 33:0.55550551 34:0.31578919 35:-0.81101316 36:0.70018303 #
82.797184213892975890303205233067 2:-1.3 3:0.32438299 5:-1.3 6:0.50438303 7:0.044406768 8:-1.1367446 9:0.335233 10:0.088814355 11:-0.9734928 12:0.16608366 13:-0.024512362 14:-0.67975521 15:0.2450566 16:-0.13783859 17:-0.38601336 18:0.32403019 21:0.17 24:0.34 25:-0.10517673 26:-0.22311775 27:0.41573703 28:-0.21035074 29:-0.44623405 30:0.49147481 31:-0.34414104 32:-0.46304029 33:0.51089942 34:-0.47792941 35:-0.4798491 36:0.53032452 #
149.04647114312678013448021374643 2:-1.3 3:0.32438299 5:-1.3 6:0.50438303 7:0.13170587 8:-1.0833614 9:0.42330626 10:0.2633974 11:-0.8663407 12:0.34220874 13:0.13525319 14:-0.83423454 15:0.55669659 16:0.0070970734 17:-0.8021422 18:0.77113932 21:0.17 24:0.34 25:0.0051011182 26:-0.16921973 27:0.16973607 28:0.010193529 29:-0.33849451 30:-0.00059184211 31:-0.030638361 32:-0.32096386 33:0.22713985 34:-0.071481541 35:-0.30343416 36:0.45485783 #
-168.86328887124594189117487985641 2:-1.3 3:0.32438299 5:-1.3 6:0.50438303 7:0.10500392 8:-1.1796116 9:0.47402996 10:0.20999573 11:-1.0588374 12:0.44365814 13:0.19204077 14:-0.86396497 15:0.75048804 16:0.17407337 17:-0.66909575 18:1.0572755 21:0.17 24:0.34 25:-0.025635039 26:0.010918659 27:0.37309119 28:-0.051279664 29:0.021793924 30:0.40612528 31:0.056528226 32:-0.45452696 33:0.5939362 34:0.16432711 35:-0.93084651 36:0.78173465 #
-77.596827507273275159604963846505 2:-1.3 3:0.32438299 5:-1.3 6:0.50438303 7:0.13184759 8:-1.1762229 9:0.64791483 10:0.26368323 11:-1.0521476 12:0.79142398 13:0.12221003 14:-0.96643174 15:0.49054873 16:-0.019272327 17:-0.88072366 18:0.18962428 21:0.17 24:0.34 25:0.062183362 26:-0.27428365 27:0.25594014 28:0.12435409 29:-0.54860842 30:0.17184219 31:0.07713259 32:-0.54250062 33:0.32649851 34:0.029908286 35:-0.53640562 36:0.48114207 #
87.163870483536001643187773879617 2:-1.3 3:0.32438299 5:-1.3 6:0.50438303 7:-0.29677629 8:-1.0642763 9:0.42048129 10:-0.59355444 11:-0.82846135 12:0.33657521 13:-0.66438848 14:-0.64879686 15:0.39124197 16:-0.73522472 17:-0.46913669 18:0.44589952 21:0.17 24:0.34 25:0.18044429 26:-0.14913714 27:0.50942308 28:0.36088681 29:-0.29828557 30:0.67882782 31:0.40982169 32:-0.31171328 33:0.64324826 34:0.45875382 35:-0.32513976 36:0.60766512 #
-520.76065241315848197700688615441 2:-1.3 3:0.32438299 5:-1.3 6:0.50438303 7:0.066734597 8:-0.98597872 9:0.49250126 10:0.13345982 11:-0.67176628 12:0.4806039 13:0.10744406 14:-0.54693818 15:0.42055392 16:0.081420332 17:-0.42211226 18:0.3604736 21:0.17 24:0.34 25:0.19135143 26:-0.32277998 27:0.32686767 28:0.38269642 29:-0.64558578 30:0.31370687 31:0.41374713 32:-0.6164332 33:0.54133219 34:0.44479457 35:-0.58728558 36:0.76895106 #
-568.66331534785535950504709035158 2:-1.3 3:0.32438299 5:-1.3 6:0.50438303 7:0.1078561 8:-1.0838356 9:0.56939477 10:0.2157177 11:-0.86775231 12:0.63442159 13:0.41576073 14:-0.71214509 15:0.45392853 16:0.61580652 17:-0.55653894 18:0.27346101 21:0.17 24:0.34 25:0.093717791 26:-0.16870257 27:0.33477616 28:0.18744475 29:-0.33739474 30:0.32954955 31:0.02334672 32:-0.51164901 33:0.44831246 34:-0.14075357 35:-0.68589079 36:0.56707793 #
-53.387791464493339788077719276771 2:-1.3 3:0.32438299 5:-1.3 6:0.50438303 7:0.18895353 8:-1.1308821 9:0.46878028 10:0.37791035 11:-0.96189094 12:0.43318319 13:0.33011997 14:-0.85635608 15:0.7533232 16:0.28233257 17:-0.75081891 18:1.0734775 21:0.17 24:0.34 25:0.077707946 26:-0.10644095 27:0.45983654 28:0.15541886 29:-0.21286725 30:0.57969052 31:0.16561097 32:-0.2111202 33:0.89443517 34:0.17580512 35:-0.20937197 36:1.2091845 #
6.6661131839455176617548204376362 2:-1.3 3:0.32438299 5:-1.3 6:0.50438303 7:-0.13725658 8:-1.3199699 9:0.6091758 10:-0.27455568 11:-1.338648 12:0.71390384 13:-0.061645478 14:-0.98496413 15:0.67199647 16:0.15122584 17:-0.63131577 18:0.62994277 21:0.17 24:0.34 25:0.086207293 26:-0.26067072 27:0.49900046 28:0.17238826 29:-0.52150851 30:0.6577974 31:0.13382426 32:-0.52149075 33:0.76529932 34:0.095232978 35:-0.52148157 36:0.87275517 #
130.69940258461767257358587812632 2:-1.3 3:0.32438299 5:-1.3 6:0.50438303 7:0.16386798 8:-1.1387386 9:0.50321293 10:0.32773462 11:-0.97750318 12:0.50204134 13:0.3639006 14:-0.82979977 15:0.53566915 16:0.40006512 17:-0.68209141 18:0.56929618 21:0.17 24:0.34 25:0.38331187 26:0.028439928 27:0.4028607 28:0.76662242 29:0.056882828 30:0.46572563 31:0.72867215 32:-0.1694625 33:0.49209946 34:0.69072199 35:-0.39580983 36:0.51847416 #
254.46487351539374799358483869582 2:-1.3 3:0.32438299 5:-1.3 6:0.50438303 7:0.058086921 8:-1.3296121 9:0.75252509 10:0.11617519 11:-1.3592249 12:1.0006692 13:-0.021542691 14:-0.83258367 15:0.96640795 16:-0.15925927 17:-0.30593979 18:0.93214875 21:0.17 24:0.34 25:-0.0013577021 26:-0.21080242 27:0.48700252 28:-0.0027170673 29:-0.4216046 30:0.63400316 31:0.25369731 32:-0.61500376 33:0.49580672 34:0.51011014 35:-0.80840248 36:0.35760936 #
346.64252003476144636806566268206 2:-1.3 3:0.32438299 5:-1.3 6:0.50438303 7:0.12463672 8:-1.1148617 9:0.57053655 10:0.24926691 11:-0.92955816 12:0.63667881 13:0.21288893 14:-0.73948228 15:0.61421967 16:0.17650455 17:-0.54940915 18:0.59173763 21:0.17 24:0.34 25:-0.067151658 26:-0.018235508 27:0.55339909 28:-0.13430564 29:-0.036493745 30:0.76676869 31:0.17992176 32:-0.088556692 33:0.63570088 34:0.49414343 35:-0.14061737 36:0.50462979 #
-0.12882233479964066980016923480434 2:-1.3 3:0.32438299 5:-1.3 6:0.50438303 7:0.32688907 8:-1.1242949 9:0.38810655 10:0.65378183 11:-0.94877768 12:0.27183729 13:0.57675338 14:-0.81412148 15:0.77956825 16:0.4997285 17:-0.67946059 18:1.2873201 21:0.17 24:0.34 25:0.120552 26:-0.05553836 27:0.49832767 28:0.24110727 29:-0.11105388 30:0.65668237 31:0.25677267 32:-0.031515874 33:1.0677 34:0.27244043 35:0.04802414 36:1.478725 #
42.549372767102290993079805048183 2:-1.3 3:0.32438299 5:-1.3 6:0.50438303 7:-0.047251489 8:-0.96516311 9:0.80814183 10:-0.094505928 11:-0.63027698 12:1.1118957 13:-0.20068185 14:-0.69871235 15:1.1487495 16:-0.30685928 17:-0.76715726 18:1.185593 21:0.17 24:0.34 25:-0.10253321 26:-0.10515833 27:0.65467006 28:-0.20506583 29:-0.21033028 30:0.96932328 31:0.18532255 32:-0.079958692 33:0.95048815 34:0.57570928 35:0.050411578 36:0.93165064 #
138.13124780965969762291933875531 2:-1.3 3:0.32438299 5:-1.3 6:0.50438303 7:-0.17552921 8:-1.2683167 9:0.51332116 10:-0.35105729 11:-1.2366897 12:0.52226102 13:-0.37005195 14:-0.95629311 15:0.62885118 16:-0.38904512 17:-0.67589211 18:0.73544693 21:0.17 24:0.34 25:-0.12636216 26:-0.15876189 27:0.28380248 28:-0.25272495 29:-0.31751195 30:0.22762229 31:-0.47070542 32:-0.3199625 33:0.5331434 34:-0.68868542 35:-0.32241482 36:0.838669 #
16.468905432349259854163392446935 2:-1.3 3:0.32438299 5:-1.3 6:0.50438303 7:-0.22359277 8:-1.247903 9:0.54109412 10:-0.44717452 11:-1.1960626 12:0.57782334 13:-0.32987949 14:-1.0574278 15:0.73162699 16:-0.21257602 17:-0.91878301 18:0.88546789 21:0.17 24:0.34 25:-0.079008192 26:-0.046190061 27:0.52385747 28:-0.15800734 29:-0.092343502 30:0.7077527 31:-0.25984469 32:-0.32501945 33:0.82814336 34:-0.36167544 35:-0.55769151 36:0.94854313 #
257.72462134873944705759640783072 2:-1.3 3:0.32438299 5:-1.3 6:0.50438303 7:0.089318022 8:-1.171736 9:0.70789838 10:0.17862263 11:-1.0430907 12:0.91139323 13:0.15004662 14:-0.86647207 15:0.42152381 16:0.12145737 17:-0.68985164 18:-0.068388142 21:0.17 24:0.34 25:0.15462594 26:-0.19427626 27:0.66230899 28:0.30924115 29:-0.38858271 30:0.98457193 31:-0.097820483 32:-0.43388724 33:0.51224709 34:-0.50488991 35:-0.47919267 36:0.039912794 #
195.9143454025672212992503773421 2:-1.3 3:0.32438299 5:-1.3 6:0.50438303 7:-0.021874303 8:-1.2716793 9:0.73896378 10:-0.043747962 11:-1.2434082 12:0.97354668 13:-0.047499519 14:-0.99589384 15:1.0921705 16:-0.05124848 17:-0.74837935 18:1.2107974 21:0.17 24:0.34 25:0.082040347 26:-0.063896619 27:0.56674725 28:0.16408394 29:-0.12779236 30:0.79349887 31:0.034347005 32:-0.45164597 33:0.74359083 34:-0.095387056 35:-0.77550352 36:0.69368356 #
51.167210284470492354103043908253 2:-1.3 3:0.32438299 5:-1.3 6:0.50438303 7:-0.066874117 8:-1.0200154 9:0.4764156 10:-0.13375162 11:-0.73997557 12:0.44844115 13:-0.42952597 14:-0.60955089 15:0.56104499 16:-0.72530317 17:-0.47913161 18:0.67363679 21:0.17 24:0.34 25:-0.22082768 26:-0.054896094 27:0.51706791 28:-0.44165808 29:-0.10980218 30:0.69412589 31:-0.46588495 32:-0.088434152 33:0.79958922 34:-0.49011308 35:-0.067066491 36:0.90505087 #
399.03694126746279380313353613019 2:-1.3 3:0.32438299 5:-1.3 6:0.50438303 7:0.0055687963 8:-1.0922378 9:0.38306653 10:0.011093999 11:-0.88308632 12:0.26167968 13:0.040913943 14:-1.1181197 15:0.57898277 16:0.070694029 17:-1.3531909 18:0.89612693 21:0.17 24:0.34 25:0.027586645 26:-0.27439454 27:0.33174029 28:0.055148046 29:-0.54896945 30:0.32325909 31:0.073211797 32:-0.59334916 33:0.48584163 34:0.091247737 35:-0.63773841 36:0.6483739 #
-245.85349318493854298139922320843 2:-1.3 3:0.32438299 5:-1.3 6:0.50438303 7:0.06451501 8:-1.0608038 9:0.44778904 10:0.12902728 11:-0.8216095 12:0.39119318 13:0.084826738 14:-0.65219122 15:0.23087141 16:0.040625382 17:-0.48278069 18:0.070547163 21:0.17 24:0.34 25:-0.25714865 26:-0.014025664 27:0.50362837 28:-0.51429933 29:-0.028056858 30:0.66725123 31:-0.26608357 32:-0.34761304 33:0.59395522 34:-0.017869301 35:-0.66716999 36:0.52065724 #
587.87852007394201336865080520511 2:-1.3 3:0.32438299 5:-1.3 6:0.50438303 7:-0.0043647606 8:-0.99690413 9:0.67180228 10:-0.0087701753 11:-0.69268483 12:0.83914822 13:-0.12345552 14:-0.65662408 15:0.80266523 16:-0.23817563 17:-0.62060118 18:0.76602399 21:0.17 24:0.34 25:0.0850702 26:-0.1617917 27:0.44748822 28:0.17011122 29:-0.32373476 30:0.55481148 31:-0.067411087 32:-0.38941208 33:0.70066094 34:-0.30495799 35:-0.45510563 36:0.84647274 #
164.00561923386143803327286150306 2:-1.3 3:0.32438299 5:-1.3 6:0.50438303 7:-0.022639954 8:-1.2116857 9:0.65985751 10:-0.045238439 11:-1.1245198 12:0.81540322 13:-0.07186465 14:-0.80411667 15:0.96714652 16:-0.098454982 17:-0.48367524 18:1.1190457 21:0.17 24:0.34 25:-0.11179706 26:-0.070941098 27:0.54597199 28:-0.22356635 29:-0.14172189 30:0.75212389 31:-0.28115952 32:-0.22203512 33:0.86770886 34:-0.33872786 35:-0.3023316 36:0.98333633 #
-37.724079635276957844780554296449 2:-1.3 3:0.32438299 5:-1.3 6:0.50438303 7:-0.0829399 8:-1.1741332 9:0.47389764 10:-0.16581529 11:-1.0499285 12:0.4435195 13:-0.080073088 14:-0.85335714 15:0.660788 16:0.0057214289 17:-0.65673494 18:0.87828743 21:0.17 24:0.34 25:-0.12505564 26:-0.17568061 27:0.37699822 28:-0.25006172 29:-0.35113025 30:0.41424301 31:-0.23442213 32:-0.51652753 33:0.40074867 34:-0.2187428 35:-0.68190295 36:0.38731399 #
47.287654990934541388014622498304 2:-1.3 3:0.32438299 5:-1.3 6:0.50438303 7:0.14223418 8:-1.2801279 9:0.8117463 10:0.28448975 11:-1.2608021 12:1.1191429 13:0.13484564 14:-0.65667415 15:0.80370855 16:-0.014780455 17:-0.052532777 18:0.48834547 21:0.17 24:0.34 25:0.10676996 26:-0.22122055 27:0.2011281 28:0.21355511 29:-0.44237015 30:0.062339671 31:0.36361256 32:-0.39030841 33:0.34266412 34:0.51368511 35:-0.33824414 36:0.62300754 #
-132.84915512357136435639404226094 2:-1.3 3:0.32438299 5:-1.3 6:0.50438303 7:0.0084964233 8:-1.2121471 9:0.55962145 10:0.01698694 11:-1.1237932 12:0.6148538 13:0.14003453 14:-0.83944678 15:0.52942216 16:0.26307219 17:-0.55511528 18:0.44396731 21:0.17 24:0.34 25:0.075922333 26:-0.066589594 27:0.47801593 28:0.15185288 29:-0.13322788 30:0.61594278 31:0.27562562 32:-0.43733013 33:0.61711633 34:0.39939025 35:-0.74142617 36:0.61827439 #
-100.09853082306591431915876455605 2:-1.3 3:0.32438299 5:-1.3 6:0.50438303 7:0.30682388 8:-1.1608282 9:0.54226685 10:0.613702 11:-1.0229008 12:0.58024931 13:0.68716252 14:-0.99818826 15:0.67698872 16:0.76066387 17:-0.97342843 18:0.77392966 21:0.17 24:0.34 25:0.086751051 26:-0.26574755 27:0.4777461 28:0.17355229 29:-0.53130239 30:0.6156733 31:0.3601177 32:-0.56458944 33:0.76081556 34:0.54671216 35:-0.59784639 36:0.90600842 #
255.47857817843222960618732031435 2:-1.3 3:0.32438299 5:-1.3 6:0.50438303 7:-0.028613072 8:-1.2150351 9:0.55643928 10:-0.057230458 11:-1.1298221 12:0.60849559 13:-0.23835623 14:-0.76202077 15:0.71928674 16:-0.41948643 17:-0.39423841 18:0.83006799 21:0.17 24:0.34 25:-0.06395746 26:-0.27225104 27:0.40407166 28:-0.12791109 29:-0.54454416 30:0.46806976 31:-0.070121072 32:-0.56153888 33:0.81845826 34:-0.012338122 35:-0.57852358 36:1.1688336 #
33.109685055138221798642916837707 2:-1.3 3:0.32438299 5:-1.3 6:0.50438303 7:0.1227112 8:-0.93880427 9:0.51290715 10:0.24546723 11:-0.5790444 12:0.52149892 13:0.60173571 14:-0.44568086 15:0.34165627 16:0.95804513 17:-0.31226817 18:0.16197075 21:0.17 24:0.34 25:0.031753846 26:0.007433834 27:0.90283251 28:0.063530818 29:0.015062155 30:1.465902 31:-0.035305183 32:-0.17537102 33:1.3674403 34:-0.13410926 35:-0.36579826 36:1.2690314 #
-55.020439606739863336315465858206 2:-1.3 3:0.32438299 5:-1.3 6:0.50438303 7:-0.21320501 8:-1.2081097 9:0.39233443 10:-0.42639357 11:-1.1167086 12:0.28031281 13:-0.41658464 14:-0.896851 15:0.24187511 16:-0.40676093 17:-0.67698532 18:0.20349886 21:0.17 24:0.34 25:0.086584672 26:-0.22007425 27:0.39647871 28:0.17317948 29:-0.44008398 30:0.45302859 31:-0.017417766 32:-0.5119282 33:0.34291366 34:-0.20800517 35:-0.58376616 36:0.23281544 #
190.20850126205976948767784051597 2:-1.3 3:0.32438299 5:-1.3 6:0.50438303 7:0.21595804 8:-1.1916612 9:0.32854831 10:0.43188584 11:-1.0826846 12:0.1526643 13:0.29840332 14:-0.97699457 15:0.24804877 16:0.16489707 17:-0.8713243 18:0.34333059 21:0.17 24:0.34 25:0.0074719694 26:-0.045283295 27:0.34906328 28:0.01491279 29:-0.090661049 30:0.35803631 31:0.092867039 32:-0.46665949 33:0.66905677 34:0.17080759 35:-0.84267116 36:0.98005277 #
137.32121647767544914131576661021 2:-1.3 3:0.32438299 5:-1.3 6:0.50438303 7:-0.048513286 8:-1.3940411 9:0.63491249 10:-0.097105093 11:-1.4854716 12:0.76532114 13:0.16905461 14:-1.2306782 15:0.54880279 16:0.43513954 17:-0.97596186 18:0.33200705 21:0.17 24:0.34 25:0.14146322 26:-0.11850264 27:0.5406152 28:0.28288978 29:-0.23733769 30:0.74080855 31:0.27891037 32:-0.26588443 33:0.89596963 34:0.27487758 35:-0.29444349 36:1.0510392 #
34.633636864038827241074613993987 2:-1.3 3:0.32438299 5:-1.3 6:0.50438303 7:0.23172559 8:-1.1384495 9:0.7050401 10:0.46341568 11:-0.9758656 12:0.90563798 13:0.29506356 14:-1.0264962 15:1.0152001 16:0.12668116 17:-1.0771664 18:1.124632 21:0.17 24:0.34 25:-0.14987725 26:-0.12744771 27:0.48997131 28:-0.29977584 29:-0.25503764 30:0.63977355 31:-0.14373153 32:-0.55632704 33:0.7999022 34:0.012291177 35:-0.85762757 36:0.95999289 #
-43.255420282745291160608758218586 2:-1.3 3:0.32438299 5:-1.3 6:0.50438303 7:-0.040001664 8:-1.1394253 9:0.82972926 10:-0.079996631 11:-0.97902948 12:1.1550816 13:0.24991079 14:-1.0365883 15:1.0719578 16:0.57982415 17:-1.0941466 18:0.98884749 21:0.17 24:0.34 25:-0.094684705 26:-0.15845957 27:0.29094717 28:-0.18936963 29:-0.31689352 30:0.24193116 31:0.092025988 32:-0.87928712 33:0.61085433 34:0.3734262 35:-1.4416844 36:0.97978503 #
219.32749565635114663564309012145 2:-1.3 3:0.32438299 5:-1.3 6:0.50438303 7:-0.087075941 8:-1.1066892 9:0.5740456 10:-0.17417666 11:-0.91250986 12:0.64366674 13:0.10543782 14:-0.73386598 15:0.52106488 16:0.38502803 17:-0.55524153 18:0.39836976 21:0.17 24:0.34 25:-0.22968103 26:-0.19469248 27:0.39509305 28:-0.45937666 29:-0.38948095 30:0.45005709 31:-0.24757357 32:-0.63880569 33:0.37866169 34:-0.03579253 35:-0.88812953 36:0.30724019 #
53.432465436942884196014347253367 2:-1.3 3:0.32438299 5:-1.3 6:0.50438303 7:0.091992997 8:-0.96978265 9:0.53945702 10:0.18385218 11:-0.63605309 12:0.57430422 13:-0.010813533 14:-0.84627533 15:0.51742059 16:-0.20559199 17:-1.0566077 18:0.46005058 21:0.17 24:0.34 25:-0.071583465 26:-0.11749312 27:0.37572664 28:-0.14326891 29:-0.23546574 30:0.41092792 31:-0.29693249 32:-0.2754336 33:0.42027175 34:-0.45067915 35:-0.3154414 36:0.42949387 #
116.70697997371993892556929495186 2:-1.3 3:0.32438299 5:-1.3 6:0.50438303 7:-0.18449925 8:-1.1021757 9:0.66170287 10:-0.36901987 11:-0.90372199 12:0.81898546 13:-0.41296166 14:-0.92555332 15:0.67789251 16:-0.45692301 17:-0.94740683 18:0.53671974 21:0.17 24:0.34 25:0.0037475452 26:-0.053010337 27:0.58298516 28:0.0074818716 29:-0.10610189 30:0.82587224 31:-0.24665971 32:-0.147507 33:0.61612928 34:-0.50081241 35:-0.18891975 36:0.4063651 #
-90.069701700414896095026051625609 2:-1.3 3:0.32438299 5:-1.3 6:0.50438303 7:0.25243476 8:-1.2509689 9:0.46628159 10:0.50483054 11:-1.2009177 12:0.42811346 13:0.57669324 14:-1.1908234 15:0.51356977 16:0.64852333 17:-1.1807678 18:0.59888387 21:0.17 24:0.34 25:0.11955655 26:-0.17245278 27:0.24255022 28:0.23908475 29:-0.34505183 30:0.14494324 31:0.16865212 32:-0.49929285 33:0.35317469 34:0.098195158 35:-0.65354872 36:0.561369 #
181.31878027767805861003580503166 2:-1.3 3:0.32438299 5:-1.3 6:0.50438303 7:-0.035378795 8:-0.96352232 9:0.50087363 10:-0.070665546 11:-0.62988663 12:0.49751127 13:-0.12746944 14:-0.72877997 15:0.57969093 16:-0.18419077 17:-0.82759112 18:0.66220069 21:0.17 24:0.34 25:0.03252656 26:-0.21502781 27:0.4925549 28:0.065103874 29:-0.4296875 30:0.64555913 31:0.18196152 32:-0.61112601 33:0.81014371 34:0.29887584 35:-0.79254347 36:0.97482896 #
204.34394816399139926943462342024 2:-1.3 3:0.32438299 5:-1.3 6:0.50438303 7:0.088019155 8:-1.2071962 9:0.64293838 10:0.17601208 11:-1.1129915 12:0.78145719 13:0.11663233 14:-0.69705629 15:0.5763436 16:0.057220727 17:-0.28115043 18:0.37113151 21:0.17 24:0.34 25:-0.088011906 26:-0.095222808 27:0.38223517 28:-0.17601761 29:-0.19059254 30:0.42424068 31:-0.20799156 32:-0.28378779 33:0.62804502 34:-0.23999083 35:-0.37697515 36:0.831806 #
-139.90804341848959779781580436975 2:-1.3 3:0.32438299 5:-1.3 6:0.50438303 7:0.10784561 8:-1.073138 9:0.43634468 10:0.21575019 11:-0.84801954 12:0.36840168 13:0.1024031 14:-0.51852876 15:0.24623887 16:-0.010891923 17:-0.188989 18:0.12428661 21:0.17 24:0.34 25:0.039890982 26:-0.18587643 27:0.41942862 28:0.079817899 29:-0.37152526 30:0.49912521 31:0.061613325 32:-0.75559837 33:0.45251712 34:0.043448847 35:-1.1396595 36:0.40596876 #
-250.37568649261245923298702109605 2:-1.3 3:0.32438299 5:-1.3 6:0.50438303 7:-0.10007985 8:-1.1141489 9:0.47464252 10:-0.20015745 11:-0.92790425 12:0.44491181 13:-0.20741439 14:-0.65350604 15:0.39008284 16:-0.21467675 17:-0.37911913 18:0.33526462 21:0.17 24:0.34 25:0.001561963 26:-0.23737307 27:0.26831815 28:0.0031455406 29:-0.47476715 30:0.19656183 31:0.25358129 32:-0.53070414 33:0.17394641 34:0.50401443 35:-0.58662885 36:0.15132155 #
-46.187345168805592265925952233374 2:-1.3 3:0.32438299 5:-1.3 6:0.50438303 7:-0.11332578 8:-1.1622555 9:0.56685919 10:-0.22670521 11:-1.0230147 12:0.62924099 13:-0.04963709 14:-0.79975325 15:0.86585128 16:0.12738365 17:-0.57654119 18:1.1022614 21:0.17 24:0.34 25:-0.0084133511 26:0.00014120743 27:0.55094659 28:-0.016856708 29:7.8763609e-05 30:0.76165819 31:0.096029833 32:-0.30293161 33:0.747298 34:0.20888762 35:-0.60596442 36:0.73288643 #
3.6758782919875749861660096939886 2:-1.3 3:0.32438299 5:-1.3 6:0.50438303 7:0.17783076 8:-1.2092366 9:0.83282912 10:0.35564712 11:-1.1180385 12:1.161256 13:0.097980291 14:-0.48527783 15:1.0534935 16:-0.15969905 17:0.1474693 18:0.94568461 21:0.17 24:0.34 25:-0.1650859 26:-0.018908214 27:0.49998105 28:-0.33018026 29:-0.037872732 30:0.6598947 31:-0.15013635 32:-0.55851138 33:0.81677067 34:0.029898725 35:-1.0791558 36:0.97363061 #
361.19220099912212162962532602251 2:-1.3 3:0.32438299 5:-1.3 6:0.50438303 7:-0.017831398 8:-1.0321337 9:0.48217583 10:-0.035645243 11:-0.76504982 12:0.45999619 13:-0.014358825 14:-0.59267402 15:0.38915369 16:0.0069452962 17:-0.42028183 18:0.31838182 21:0.17 24:0.34 25:-0.02797311 26:-0.24627061 27:0.29583213 28:-0.055940643 29:-0.49245143 30:0.25178221 31:-0.046560191 32:-0.15927951 33:0.55122507 34:-0.037165273 35:0.17389235 36:0.85069323 #
2.9843482955353439756152056361316 2:-1.3 3:0.32438299 5:-1.3 6:0.50438303 7:-0.12914784 8:-1.1043429 9:0.3140755 10:-0.25831944 11:-0.90789282 12:0.1237299 13:-0.47962111 14:-0.92500854 15:0.23548235 16:-0.70094508 17:-0.94214451 18:0.34714726 21:0.17 24:0.34 25:-0.13009071 26:-0.15071073 27:0.46914577 28:-0.26019737 29:-0.30151999 30:0.59817094 31:-0.33908334 32:-0.32101676 33:0.50581044 34:-0.4179872 35:-0.34051681 36:0.41342339 #
-75.729369987508889039418136235327 2:-1.3 3:0.32438299 5:-1.3 6:0.50438303 7:-0.11461253 8:-1.072857 9:0.60626602 10:-0.22916174 11:-0.84724545 12:0.70825732 13:-0.35076779 14:-0.69922662 15:0.46806461 16:-0.47232237 17:-0.55116779 18:0.22809708 21:0.17 24:0.34 25:-0.11477111 26:-0.13856834 27:0.36982101 28:-0.22948954 29:-0.27693033 30:0.39985359 31:-0.48294801 32:-0.4118174 33:0.34494102 34:-0.73636812 35:-0.54668057 36:0.29007867 #
482.04879978770503612395259551704 2:-1.3 3:0.32438299 5:-1.3 6:0.50438303 7:-0.19687253 8:-1.1537036 9:0.56727314 10:-0.3938776 11:-1.0037429 12:0.62993771 13:-0.23621053 14:-0.89922714 15:0.5463919 16:-0.078654848 17:-0.79481471 18:0.46235728 21:0.17 24:0.34 25:0.09331286 26:-0.16942926 27:0.38009158 28:0.18652658 29:-0.33935434 30:0.41963601 31:-0.055132367 32:-0.44235107 33:0.50261819 34:-0.29688147 35:-0.54538459 36:0.58547395 #
13.301872933803101872740626276936 2:-1.3 3:0.32438299 5:-1.3 6:0.50438303 7:0.25580084 8:-1.2172436 9:0.85123473 10:0.51157576 11:-1.1337959 12:1.1980453 13:0.27149424 14:-1.2002736 15:1.3229295 16:0.031392958 17:-1.2667844 18:1.4477227 21:0.17 24:0.34 25:-0.24798071 26:-0.16203117 27:0.53418183 28:-0.49597633 29:-0.32416189 30:0.72824687 31:-0.24793619 32:-0.60288209 33:0.94810355 34:9.2568043e-05 35:-0.88161373 36:1.167933 #
-77.148317368405770366734941489995 2:-1.3 3:0.32438299 5:-1.3 6:0.50438303 7:-0.22873545 8:-1.1782391 9:0.58015031 10:-0.45755646 11:-1.0537394 12:0.65576869 13:-0.51868248 14:-0.75239795 15:0.69987506 16:-0.57988614 17:-0.45112285 18:0.74365246 21:0.17 24:0.34 25:0.084317409 26:-0.12570643 27:0.50149882 28:0.16857623 29:-0.25176305 30:0.66257989 31:-0.18681473 32:-0.50082606 33:0.70831096 34:-0.54226875 35:-0.74990666 36:0.75394839 #
187.52681968595098283003608230501 2:-1.3 3:0.32438299 5:-1.3 6:0.50438303 7:-0.0028956949 8:-1.0403792 9:0.49496284 10:-0.005869403 11:-0.77861774 12:0.48541203 13:-0.33855742 14:-0.89420205 15:0.62056231 16:-0.67131269 17:-1.0098612 18:0.75542486 21:0.17 24:0.34 25:-0.059331775 26:-0.25140631 27:0.54595196 28:-0.11871488 29:-0.50311106 30:0.751562 31:-0.35125482 32:-0.52768648 33:0.67791152 34:-0.58384407 35:-0.55228233 36:0.60418236 #
49.639420289373319405967777129263 2:-1.3 3:0.32438299 5:-1.3 6:0.50438303 7:0.066079676 8:-1.0763524 9:0.42759889 10:0.13202327 11:-0.849271 12:0.35058478 13:-0.25784394 14:-0.68271184 15:0.52433771 16:-0.64782351 17:-0.5162493 18:0.69760072 21:0.17 24:0.34 25:-0.089055367 26:-0.14516304 27:0.35707849 28:-0.17822039 29:-0.29080877 30:0.37364608 31:-0.13394351 32:-0.57746726 33:0.32159588 34:-0.089751102 35:-0.86417323 36:0.26942301 #
408.89808291003436124810832552612 2:-1.3 3:0.32438299 5:-1.3 6:0.50438303 7:-0.12817988 8:-1.0346239 9:0.70163012 10:-0.25627774 11:-0.77206028 12:0.89900702 13:-0.03486735 14:-0.75772732 15:0.72539437 16:0.1866194 17:-0.74331963 18:0.5520817 21:0.17 24:0.34 25:-0.10290474 26:-0.21492429 27:0.41758439 28:-0.20576367 29:-0.42949894 30:0.49560225 31:0.015298653 32:-0.51138365 33:0.56125885 34:0.23643149 35:-0.59326535 36:0.62700933 #
191.16235848647241368780669290572 2:-1.3 3:0.32438299 5:-1.3 6:0.50438303 7:-0.090330951 8:-1.2707565 9:0.48908886 10:-0.18031964 11:-1.2507037 12:0.47438094 13:-0.23179841 14:-1.0269506 15:0.4679679 16:-0.28299245 17:-0.80293787 18:0.46281803 21:0.17 24:0.34 25:-0.019741025 26:-0.12933201 27:0.20734112 28:-0.039213728 29:-0.25739914 30:0.076050058 31:-0.055193558 32:-0.60827047 33:0.16849633 34:-0.07094802 35:-0.95903498 36:0.26126501 #
-54.487797200738171454759140033275 2:-1.3 3:0.32438299 5:-1.3 6:0.50438303 7:-0.046472751 8:-1.0801166 9:0.60613346 10:-0.092955343 11:-0.85999113 12:0.70786661 13:-0.020608194 14:-0.40235218 15:0.98957181 16:0.051731046 17:0.055280481 18:1.2712426 21:0.17 24:0.34 25:0.12678488 26:-0.24889874 27:0.6092397 28:0.25356963 29:-0.49782231 30:0.87844449 31:0.13838282 32:-0.71255499 33:0.95189196 34:0.023196921 35:-0.92729408 36:1.0253319 #
-247.20265190425379842054098844528 2:-1.3 3:0.32438299 5:-1.3 6:0.50438303 7:-0.16779284 8:-0.99206209 9:0.34263307 10:-0.33567199 11:-0.68206996 12:0.18072987 13:-0.2895366 14:-0.71141011 15:0.44148374 16:-0.24346656 17:-0.74084175 18:0.70191443 21:0.17 24:0.34 25:-0.069788121 26:-0.11921144 27:0.32220015 28:-0.13965595 29:-0.23873381 30:0.30409923 31:-0.25409049 32:-0.47539487 33:0.3202945 34:-0.36857703 35:-0.71209663 36:0.33641163 #
482.5788796685226884619623888284 2:-1.3 3:0.32438299 5:-1.3 6:0.50438303 7:-0.24328177 8:-1.1641219 9:0.44230366 10:-0.48657191 11:-1.0278882 12:0.38022175 13:-0.35004708 14:-0.81348628 15:0.63350433 16:-0.21353279 17:-0.59907192 18:0.88677573 21:0.17 24:0.34 25:-0.05064249 26:-0.15371667 27:0.36915082 28:-0.10127371 29:-0.30744314 30:0.39825332 31:-0.036864012 32:-0.48966759 33:0.647017 34:0.02754955 35:-0.67188859 36:0.89577341 #
-76.927887635769124585749523248523 2:-1.3 3:0.32438299 5:-1.3 6:0.50438303 7:-0.10577852 8:-0.99851805 9:0.50845146 10:-0.21162021 11:-0.69570845 12:0.51240844 13:-0.17096093 14:-0.42747864 15:0.55956894 16:-0.13034792 17:-0.15929876 18:0.60649055 21:0.17 24:0.34 25:0.026214702 26:-0.077318318 27:0.51388967 28:0.052354801 29:-0.15486775 30:0.68758422 31:0.0067596519 32:-0.46579629 33:0.49112266 34:-0.038879622 35:-0.77675396 36:0.29460478 #
-163.33392328171828467020532116294 2:-1.3 3:0.32438299 5:-1.3 6:0.50438303 7:0.052185148 8:-1.0742776 9:0.33121672 10:0.10396762 11:-0.83765757 12:0.15736772 13:-0.023262685 14:-0.90752411 15:0.32536206 16:-0.15082957 17:-0.97768211 18:0.49188122 21:0.17 24:0.34 25:0.072589561 26:-0.26330084 27:0.39695033 28:0.14486925 29:-0.52807236 30:0.45229024 31:0.20108914 32:-0.75438178 33:0.32411897 34:0.25704104 35:-0.98079872 36:0.19557373 #
-57.974628745534921847593068378046 2:-1.3 3:0.32438299 5:-1.3 6:0.50438303 7:0.22249492 8:-1.2279284 9:0.55293888 10:0.44494513 11:-1.1549361 12:0.60140908 13:0.42201543 14:-0.88515413 15:0.40919229 16:0.39905325 17:-0.6153903 18:0.21680371 21:0.17 24:0.34 25:0.15154931 26:-0.018095976 27:0.56688398 28:0.30304781 29:-0.036325675 30:0.79366118 31:0.23538478 32:-0.35300496 33:0.56512183 34:0.16769993 35:-0.66971058 36:0.3365517 #
251.43238159840421985791181214154 2:-1.3 3:0.32438299 5:-1.3 6:0.50438303 7:-0.1697565 8:-1.0695618 9:0.65082175 10:-0.33959612 11:-0.83651996 12:0.7971341 13:-0.32270896 14:-0.6458571 15:0.83354378 16:-0.30589598 17:-0.45527107 18:0.86966419 21:0.17 24:0.34 25:-0.01843149 26:-0.24365889 27:0.31389633 28:-0.036911462 29:-0.48764935 30:0.28738433 31:-0.2849541 32:-0.58967906 33:0.35997427 34:-0.53305697 35:-0.69171929 36:0.43247297 #
6.0797876666155374891786777880043 2:-1.3 3:0.32438299 5:-1.3 6:0.50438303 7:0.11332355 8:-1.003863 9:0.50092995 10:0.2263633 11:-0.70074779 12:0.49698544 13:0.28686914 14:-0.65730292 15:0.635584 16:0.34714898 17:-0.61404532 18:0.77314496 21:0.17 24:0.34 25:0.0045786332 26:-0.24890499 27:0.47347662 28:0.0089103626 29:-0.49876952 30:0.60598147 31:0.016471006 32:-0.68543428 33:0.65651423 34:0.023851626 35:-0.87219989 36:0.7068103 #
33.844428999077933895023306831717 2:-1.3 3:0.32438299 5:-1.3 6:0.50438303 7:0.21448489 8:-1.0795887 9:0.60182869 10:0.42894292 11:-0.85846788 12:0.69924277 13:0.18118139 14:-0.75682867 15:0.5607667 16:-0.066602781 17:-0.65521854 18:0.42220882 21:0.17 24:0.34 25:-0.11146332 26:-0.10372072 27:0.52472627 28:-0.22295058 29:-0.20757237 30:0.70930612 31:-0.30724344 32:-0.59367496 33:0.82921493 34:-0.39157206 35:-0.97977072 36:0.94908535 #
314.52517922357264978927560150623 2:-1.3 3:0.32438299 5:-1.3 6:0.50438303 7:0.030402822 8:-1.1461892 9:0.51505309 10:0.060767628 11:-0.99095654 12:0.52567005 13:-0.16588992 14:-0.64715576 15:0.36042988 16:-0.39258707 17:-0.30337173 18:0.19506492 21:0.17 24:0.34 25:0.1726594 26:-0.050886281 27:0.46228817 28:0.34531954 29:-0.10191653 30:0.58436215 31:0.14836451 32:-0.20436467 33:0.70633125 34:-0.048609853 35:-0.30681521 36:0.82825893 #
-0.8257040366785107776692598235968 2:-1.3 3:0.32438299 5:-1.3 6:0.50438303 7:0.18146144 8:-1.220674 9:0.48954785 10:0.36287519 11:-1.1399432 12:0.47463459 13:0.32741198 14:-0.67532897 15:0.20114474 16:0.29190722 17:-0.21074408 18:-0.072515376 21:0.17 24:0.34 25:0.14856344 26:0.058022495 27:0.48969945 28:0.29709172 29:0.11586677 30:0.6391952 31:0.56267864 32:-0.17497818 33:0.3373898 34:0.82823223 35:-0.46583325 36:0.035538998 #
-241.64743311584001617120520677418 2:-1.3 3:0.32438299 5:-1.3 6:0.50438303 7:0.034833275 8:-1.1686015 9:0.46574169 10:0.069662862 11:-1.0370048 12:0.42708772 13:-0.19293295 14:-0.84912074 15:0.40611842 16:-0.45553195 17:-0.66121966 18:0.38512233 21:0.17 24:0.34 25:-0.039280593 26:-0.019706788 27:0.22197063 28:-0.078565367 29:-0.039427731 30:0.10392879 31:-0.2957471 32:-0.41530785 33:0.38035136 34:-0.51294076 35:-0.79118377 36:0.6567753 #
-126.35491666042396730063046561554 2:-1.3 3:0.32438299 5:-1.3 6:0.50438303 7:-0.035194367 8:-1.1452342 9:0.682998 10:-0.070361003 11:-0.99141407 12:0.8616643 13:0.24056998 14:-0.89141202 15:0.6535418 16:0.55152643 17:-0.79138261 18:0.44553319 21:0.17 24:0.34 25:0.18909995 26:-0.18435971 27:0.28238675 28:0.37822339 29:-0.36860415 30:0.22491275 31:0.45751324 32:-0.55913323 33:0.14406487 34:0.53682649 35:-0.74966025 36:0.063244998 #
36.033450149772797033165261382237 2:-1.3 3:0.32438299 5:-1.3 6:0.50438303 7:0.012589482 8:-1.3499707 9:0.77310997 10:0.02513475 11:-1.3990687 12:1.041759 13:0.053071018 14:-1.2228124 15:0.90811336 16:0.080972902 17:-1.0465558 18:0.77431053 21:0.17 24:0.34 25:-0.0072268797 26:-0.19050008 27:0.46161178 28:-0.014493828 29:-0.38111031 30:0.58312237 31:0.083306938 32:-0.50726807 33:0.63268805 34:0.18108279 35:-0.63343531 36:0.6822288 #
248.91299945788895797704753931612 2:-1.3 3:0.32438299 5:-1.3 6:0.50438303 7:0.10523416 8:-1.1836324 9:0.37411359 10:0.2104096 11:-1.0659864 12:0.24373595 13:0.33987138 14:-0.78818619 15:0.30121592 16:0.46929106 17:-0.51042622 18:0.35847288 21:0.17 24:0.34 25:-0.0014662661 26:-0.15655664 27:0.23251219 28:-0.0029970047 29:-0.31330687 30:0.12486625 31:-0.018655516 32:-0.44800517 33:0.15303175 34:-0.034350168 35:-0.58273828 36:0.18115363 #
498.1487424806421699940983671695 2:-1.3 3:0.32438299 5:-1.3 6:0.50438303 7:-0.027717587 8:-1.111486 9:0.5416162 10:-0.055311415 11:-0.92685413 12:0.57906389 13:-0.12877207 14:-0.70604211 15:0.69174844 16:-0.20211959 17:-0.48510578 18:0.80490422 21:0.17 24:0.34 25:0.08125639 26:-0.1115162 27:0.51151061 28:0.16257872 29:-0.22253266 30:0.6836217 31:0.19191706 32:-0.22377953 33:0.89594609 34:0.22133626 35:-0.2249935 36:1.1083976 #
-98.878935341423783711434225551784 2:-1.3 3:0.32438299 5:-1.3 6:0.50438303 7:-0.023282001 8:-1.1332434 9:0.40283403 10:-0.046524145 11:-0.96751827 12:0.30135104 13:0.16703752 14:-0.64281577 15:0.23499249 16:0.38063297 17:-0.31809449 18:0.16877253 21:0.17 24:0.34 25:0.046434384 26:0.027728328 27:0.61464882 28:0.092893705 29:0.055584762 30:0.88943863 31:0.25865754 32:0.0082338564 33:0.75454831 34:0.42444095 35:-0.039103378 36:0.61968905 #
-343.35814104447172212530858814716 2:-1.3 3:0.32438299 5:-1.3 6:0.50438303 7:0.049821861 8:-1.1188616 9:0.41603443 10:0.099875033 11:-0.94458681 12:0.3280654 13:0.058879983 14:-0.64454561 15:0.43625432 16:0.018088831 17:-0.3443329 18:0.54527265 21:0.17 24:0.34 25:0.043749351 26:0.099177659 27:0.37538633 28:0.087644324 29:0.19922139 30:0.41179791 31:0.034173824 32:-0.092714041 33:0.4102881 34:-0.019131493 35:-0.38460633 36:0.40900031 #
-41.889608566637257069942279485986 2:-1.3 3:0.32438299 5:-1.3 6:0.50438303 7:0.039902069 8:-1.2131659 9:0.73741186 10:0.079980157 11:-1.1310005 12:0.97073454 13:-0.22690359 14:-0.95049953 15:0.77631414 16:-0.53364152 17:-0.76987666 18:0.58253098 21:0.17 24:0.34 25:-0.15675241 26:-0.16225763 27:0.33300751 28:-0.31335866 29:-0.32387939 30:0.32668906 31:-0.267602 32:-0.64897138 33:0.22331215 34:-0.22172509 35:-0.97400856 36:0.12009691 #
16.62625046095637415533019520808 2:-1.3 3:0.32438299 5:-1.3 6:0.50438303 7:0.1037275 8:-1.1491334 9:0.71690607 10:0.20756049 11:-1.001798 12:0.929609 13:0.34586942 14:-0.82549298 15:0.80517048 16:0.48427436 17:-0.6490801 18:0.68113452 21:0.17 24:0.34 25:-0.21925147 26:0.07306695 27:0.69503438 28:-0.43844619 29:0.14657436 30:1.0506039 31:-0.081712395 32:-0.1182946 33:0.75510561 34:0.27509382 35:-0.38313958 36:0.45972288 #
-53.612176867013353387392271542922 2:-1.3 3:0.32438299 5:-1.3 6:0.50438303 7:0.057765778 8:-1.1937972 9:0.60587341 10:0.11567246 11:-1.0914197 12:0.70760304 13:0.28781527 14:-1.1145414 15:1.0155153 16:0.46007499 17:-1.1375612 18:1.3239477 21:0.17 24:0.34 25:0.064094745 26:-0.21865299 27:0.42092746 28:0.12830521 29:-0.4367871 30:0.50240868 31:0.012194472 32:-0.53804284 33:0.45094803 34:-0.10381645 35:-0.63925695 36:0.39962074 #
129.7471958230269137857249006629 2:-1.3 3:0.32438299 5:-1.3 6:0.50438303 7:-0.047175817 8:-1.0613209 9:0.45126364 10:-0.094160095 11:-0.82816452 12:0.39846054 13:9.8555131e-05 14:-0.58870411 15:0.35341412 16:0.094523191 17:-0.34909767 18:0.30907068 21:0.17 24:0.34 25:0.098274291 26:-0.14260913 27:0.54924256 28:0.19668065 29:-0.2844708 30:0.75933737 31:-0.16877383 32:-0.46048146 33:0.73917913 34:-0.53408951 35:-0.63645065 36:0.71921474 #
75.190226508730120258405804634094 2:-1.3 3:0.32438299 5:-1.3 6:0.50438303 7:-0.032326389 8:-1.3968049 9:0.50633192 10:-0.064845584 11:-1.4879476 12:0.50794554 13:0.023455434 14:-1.0542181 15:0.55808878 16:0.11159232 17:-0.62065136 18:0.60750169 21:0.17 24:0.34 25:0.030977605 26:-0.10135832 27:0.65742481 28:0.061811611 29:-0.20345172 30:0.9740271 31:0.11273584 32:-0.69136292 33:0.71640068 34:0.16352215 35:-1.1793299 36:0.45858592 #
18.599234657902059097978053614497 2:-1.3 3:0.32438299 5:-1.3 6:0.50438303 7:-0.075747341 8:-0.99250716 9:0.48589346 10:-0.15201229 11:-0.66924828 12:0.46654308 13:-0.15039986 14:-0.68504292 15:0.39763948 16:-0.14924723 17:-0.70126939 18:0.32683179 21:0.17 24:0.34 25:0.0013432376 26:0.029342838 27:0.55849171 28:0.0023655789 29:0.056677837 30:0.77460772 31:0.015969057 32:-0.077431791 33:0.66099006 34:0.029202573 35:-0.21163777 36:0.54685605 #
204.94590537581723310722736641765 2:-1.3 3:0.32438299 5:-1.3 6:0.50438303 7:-0.075984046 8:-1.1277769 9:0.43118495 10:-0.15161943 11:-0.9654029 12:0.35857359 13:-0.39030448 14:-0.55035746 15:0.41416284 16:-0.62869418 17:-0.13500579 18:0.47103813 21:0.17 24:0.34 25:-0.014933731 26:-0.1899859 27:0.46073207 28:-0.029621473 29:-0.37863207 30:0.58296114 31:-0.31920588 32:-0.22417943 33:0.55238533 34:-0.60855711 35:-0.069631018 36:0.52215505 #
43.524472171434148037860722979531 2:-1.3 3:0.32438299 5:-1.3 6:0.50438303 7:0.22041868 8:-1.1488457 9:0.50654107 10:0.44079325 11:-0.99649739 12:0.50862789 13:0.40659684 14:-0.79912651 15:0.49520412 16:0.37236127 17:-0.60177869 18:0.48162782 21:0.17 24:0.34 25:0.58480376 26:0.20847273 27:0.43659237 28:1.169577 29:0.41679084 30:0.53300536 31:0.99084276 32:-0.021522149 33:0.45825312 34:0.8120802 35:-0.45984828 36:0.38345999 #
-120.17974471645440814882022095844 2:-1.3 3:0.32438299 5:-1.3 6:0.50438303 7:0.024053741 8:-1.1439013 9:0.5554598 10:0.048371106 11:-0.99402565 12:0.60698807 13:0.18175527 14:-0.636428 15:0.73530984 16:0.31534758 17:-0.27868268 18:0.86457533 21:0.17 24:0.34 25:0.17092536 26:-0.13578992 27:0.35993007 28:0.34208289 29:-0.27073562 30:0.38069299 31:0.289942 32:-0.46115306 33:0.72192043 34:0.23796019 35:-0.65146905 36:1.0633529 #
-186.93613818241178137213864829391 2:-1.3 3:0.32438299 5:-1.3 6:0.50438303 7:0.10500493 8:-1.0298867 9:0.56993121 10:0.2090888 11:-0.73319155 12:0.63388956 13:0.095756479 14:-0.66822165 15:0.84365523 16:-0.018375784 17:-0.60409623 18:1.0499641 21:0.17 24:0.34 25:0.022604279 26:-0.062856384 27:0.56325287 28:0.044586193 29:-0.12923378 30:0.78249395 31:0.028145215 32:-0.30717647 33:0.81501591 34:0.011093936 35:-0.48537633 36:0.84665394 #
202.18913690496927415551908779889 2:-1.3 3:0.32438299 5:-1.3 6:0.50438303 7:0.12604131 8:-1.3127923 9:0.43756029 10:0.25228718 11:-1.3318123 12:0.37107328 13:0.21758349 14:-1.0462548 15:0.4170759 16:0.18306063 17:-0.76050425 18:0.463828 21:0.17 24:0.34 25:0.11839087 26:-0.16847534 27:0.2443525 28:0.236913 29:-0.33614394 30:0.14965954 31:0.46652028 32:-0.57355946 33:0.33158234 34:0.69626451 35:-0.81092638 36:0.51371938 #
272.80211689095028759766137227416 2:-1.3 3:0.32438299 5:-1.3 6:0.50438303 7:-0.18401009 8:-1.1061287 9:0.52401847 10:-0.36709449 11:-0.93782115 12:0.54523921 13:-0.14348531 14:-0.66798508 15:0.59623951 16:0.080910295 17:-0.39737204 18:0.65065044 21:0.17 24:0.34 25:0.075456895 26:-0.16802661 27:0.33272502 28:0.15157843 29:-0.33264393 30:0.32923245 31:0.062656552 32:-0.34827071 33:0.58352572 34:-0.025672663 35:-0.36360225 36:0.83866727 #
58.812676158597028575059084687382 2:-1.3 3:0.32438299 5:-1.3 6:0.50438303 7:0.14807972 8:-1.1928667 9:0.74897355 10:0.29658106 11:-1.0972983 12:0.99429291 13:0.3161647 14:-0.79197675 15:1.0531546 16:0.33610415 17:-0.48631254 18:1.1135796 21:0.17 24:0.34 25:0.090543956 26:-0.21123843 27:0.32134739 28:0.18140012 29:-0.42093241 30:0.30439055 31:0.016875098 32:-0.59817731 33:-0.031888861 34:-0.14737992 35:-0.77528322 36:-0.36778429 #
347.72192418038281402914435602725 2:-1.3 3:0.32438299 5:-1.3 6:0.50438303 7:0.0096220551 8:-1.0348812 9:0.61989492 10:0.022253562 11:-0.85693723 12:0.74056298 13:0.087855719 14:-0.69330639 15:0.71998388 16:0.15607367 17:-0.52705806 18:0.71061248 21:0.17 24:0.34 25:-0.066886157 26:-0.040363591 27:0.46437094 28:-0.13174926 29:-0.069296025 30:0.60180438 31:-0.12908475 32:-0.34476367 33:0.59549892 34:-0.12443597 35:-0.61939299 36:0.59207326 #
56.447101948241297009190020617098 2:-1.3 3:0.32438299 5:-1.3 6:0.50438303 7:0.11272484 8:-1.1272714 9:0.25047439 10:0.22417113 11:-0.91853684 12:-0.0056293742 13:0.38857225 14:-0.54266679 15:0.05634151 16:0.55187911 17:-0.16786468 18:0.11356589 21:0.17 24:0.34 25:0.050949667 26:-0.22509512 27:0.6242581 28:0.10099167 29:-0.4549571 30:0.90317476 31:0.44291383 32:-0.59691572 33:0.56518561 34:0.78400278 35:-0.73925918 36:0.22599936 #
180.11355140687123821408022195101 2:-1.3 3:0.32438299 5:-1.3 6:0.50438303 7:0.00056444475 8:-1.1244515 9:0.64164805 10:-0.0001521017 11:-0.91241562 12:0.77671206 13:-0.20512472 14:-0.93976146 15:0.79518336 16:-0.41119984 17:-0.96820688 18:0.80888617 21:0.17 24:0.34 25:-0.23295005 26:0.053837437 27:0.42798927 28:-0.46677166 29:0.10284982 30:0.51052266 31:-0.39217532 32:-0.18606426 33:0.63850892 34:-0.31840885 35:-0.47536591 36:0.76528424 #
254.96856821096289991146477404982 2:-1.3 3:0.32438299 5:-1.3 6:0.50438303 7:0.016352108 8:-1.2482963 9:0.47918332 10:0.021971822 11:-0.88648182 12:0.43558362 13:-0.073789932 14:-0.6626938 15:0.57926613 16:-0.17886576 17:-0.44823208 18:0.68297988 21:0.17 24:0.34 25:-0.25312644 26:-0.12229277 27:0.60845906 28:-0.51350045 29:-0.28530037 30:0.83047807 31:-0.22859643 32:-0.39391479 33:0.69617164 34:0.049244922 35:-0.50555354 36:0.55161536 #
339.18078309516198487472138367593 2:-1.3 3:0.32438299 5:-1.3 6:0.50438303 7:0.034612652 8:-1.2163826 9:0.63855153 10:0.066243887 11:-1.0442497 12:0.76761323 13:-0.14940473 14:-0.88243532 15:0.65998238 16:-0.36768228 17:-0.72340477 18:0.54117519 21:0.17 24:0.34 25:-0.089805976 26:-0.15194137 27:0.44085255 28:-0.18155101 29:-0.31544551 30:0.52829993 31:-0.1698806 32:-0.42334828 33:0.51547617 34:-0.16021447 35:-0.53201562 36:0.49973157 #
245.77697425813991571885708253831 2:-1.3 3:0.32438299 5:-1.3 6:0.50438303 7:-0.14124316 8:-0.95576251 9:0.39267093 10:-0.28062752 11:-0.663059 12:0.28414306 13:-0.14915271 14:-0.77577144 15:0.63454044 16:-0.01610169 17:-0.88695276 18:0.99179769 21:0.17 24:0.34 25:-0.16737062 26:-0.34220123 27:0.27377173 28:-0.33341369 29:-0.67752451 30:0.21518213 31:-0.085424684 32:-1.0296088 33:0.53477126 34:0.16375399 35:-1.3811022 36:0.85608286 #
2.6327001745520823838830892782426 2:-1.3 3:0.32438299 5:-1.3 6:0.50438303 7:-0.3573747 8:-1.2224739 9:0.28290582 10:-0.71425676 11:-1.1593764 12:0.062270146 13:-0.63306713 14:-0.9294433 15:0.055506941 16:-0.55144632 17:-0.69909298 18:0.050582327 21:0.17 24:0.34 25:0.11404446 26:-0.30248687 27:0.36465794 28:0.22841209 29:-0.6030857 30:0.39147958 31:-0.14494634 32:-0.63784635 33:0.21899314 34:-0.5179798 35:-0.67246926 36:0.046983205 #
-90.374743032153403987649653572589 2:-1.3 3:0.32438299 5:-1.3 6:0.50438303 7:0.062622599 8:-1.4687707 9:0.64509684 10:0.10645348 11:-1.0875618 12:0.7536037 13:-0.25417432 14:-0.88412482 15:0.70431268 16:-0.63123155 17:-0.69757271 18:0.58482289 21:0.17 24:0.34 25:-0.3826879 26:-0.21985026 27:0.66883016 28:-0.77784771 29:-0.51172763 30:0.914868 31:-0.33721617 32:-0.38763493 33:0.65819991 34:0.090926923 35:-0.26861838 36:0.38336942 #
3.2864013205956976726440643687965 2:-1.3 3:0.32438299 5:-1.3 6:0.50438303 7:0.25276849 8:-1.125468 9:0.57012254 10:0.50369573 11:-0.89758003 12:0.63271308 13:0.11728892 14:-0.93224394 15:0.5647074 16:-0.27072063 17:-0.96852714 18:0.48985034 21:0.17 24:0.34 25:0.32014197 26:-0.212523 27:0.67570436 28:0.63905001 29:-0.43203419 30:1.0034137 31:0.45850053 32:-0.71121615 33:0.90148914 34:0.27673763 35:-0.99090576 36:0.79780531 #
126.4751357625002157192284357734 2:-1.3 3:0.32438299 5:-1.3 6:0.50438303 7:-0.011194883 8:-0.94755155 9:0.8099494 10:-0.007845154 11:-1.0195076 12:1.1404335 13:0.068468601 14:-0.89547372 15:0.82501769 16:0.15747686 17:-0.75849718 18:0.56387961 21:0.17 24:0.34 25:-0.064051256 26:-0.013578651 27:0.37672931 28:-0.11842343 29:0.028453445 30:0.47728193 31:-0.28139976 32:-0.33921263 33:0.36405072 34:-0.43472838 35:-0.70292163 36:0.26484188 #
76.616454328278706498167593963444 2:-1.3 3:0.32438299 5:-1.3 6:0.50438303 7:0.078441985 8:-1.1390997 9:0.51221043 10:0.15504971 11:-0.9265092 12:0.51690692 13:0.15151227 14:-0.72285062 15:0.37795484 16:0.14640634 17:-0.52066815 18:0.23223609 21:0.17 24:0.34 25:0.31283379 26:-0.14196628 27:0.38945755 28:0.62438482 29:-0.29074401 30:0.43126887 31:0.41026381 32:-0.48184904 33:0.32630128 34:0.19493987 35:-0.67348832 36:0.21962844 #
-388.51584742885961532010696828365 2:-1.3 3:0.32438299 5:-1.3 6:0.50438303 7:0.15171944 8:-1.2134445 9:0.46718135 10:0.29576433 11:-0.90509081 12:0.41683808 13:0.21884517 14:-0.59622896 15:0.53697091 16:0.13526373 17:-0.29395226 18:0.62856972 21:0.17 24:0.34 25:0.12525705 26:-0.15274578 27:0.51481807 28:0.24536425 29:-0.33455804 30:0.65644318 31:-0.11806448 32:-0.18356441 33:0.73060727 34:-0.48652783 35:-0.034736503 36:0.79745162 #
115.30837192447395977978885639459 2:-1.3 3:0.32438299 5:-1.3 6:0.50438303 7:0.12080598 8:-1.3266323 9:0.84012604 10:0.24048206 11:-1.3221328 12:1.1739519 13:0.042211816 14:-0.89268559 15:0.94741511 16:-0.15701453 17:-0.46401349 18:0.71676093 21:0.17 24:0.34 25:-0.000268303 26:-0.10496435 27:0.55052787 28:-0.0013396647 29:-0.21398586 30:0.7565583 31:0.066084981 32:-0.33103114 33:0.9646852 34:0.13280068 35:-0.44843933 36:1.1717906 #
154.73343367896077893419715110213 2:-1.3 3:0.32438299 5:-1.3 6:0.50438303 7:0.029974438 8:-0.95299405 9:0.6018343 10:0.058560375 11:-0.56862223 12:0.69688779 13:0.03173757 14:-0.48823437 15:0.67923981 16:0.0037569036 17:-0.40885398 18:0.65646976 21:0.17 24:0.34 25:-0.031837612 26:-0.32076818 27:0.33189815 28:-0.064713709 29:-0.64652026 30:0.31839505 31:-0.25297359 32:-0.57576036 33:0.4999744 34:-0.44211513 35:-0.50546616 36:0.68031901 #
-8.2626105554642812478505220497027 2:-1.3 3:0.32438299 5:-1.3 6:0.50438303 7:0.047938216 8:-1.1882528 9:0.67877769 10:0.096964039 11:-1.1083479 12:0.85503554 13:0.15195417 14:-1.1662199 15:0.87878519 16:0.20789516 17:-1.2231002 18:0.90659738 21:0.17 24:0.34 25:0.0034762989 26:-0.36134529 27:0.1754678 28:0.0076730759 29:-0.71850556 30:0.015740102 31:0.15880963 32:-0.93238109 33:0.14245629 34:0.31067127 35:-1.1459541 36:0.27022672 #
-74.091668352763761618007265496999 2:-1.3 3:0.32438299 5:-1.3 6:0.50438303 7:-0.019183544 8:-0.99049562 9:0.43906772 10:-0.040911704 11:-0.61108881 12:0.36944225 13:0.20900404 14:-0.70700371 15:0.58004928 16:0.45677558 17:-0.80466032 18:0.78139657 21:0.17 24:0.34 25:-0.099446096 26:-0.17638884 27:0.58454508 28:-0.20070574 29:-0.36197603 30:0.81888038 31:-0.19210857 32:-0.35959661 33:0.78586841 34:-0.18513501 35:-0.35801917 36:0.75054389 #
-21.984077759837081345040132873692 2:-1.3 3:0.32438299 5:-1.3 6:0.50438303 7:-0.21845886 8:-1.2899501 9:0.32273704 10:-0.43392074 11:-1.3693836 12:0.14620744 13:-0.34957728 14:-1.1496133 15:0.42497355 16:-0.26258075 17:-0.9270497 18:0.71495456 21:0.17 24:0.34 25:0.012462609 26:-0.21233439 27:0.482214 28:0.026846092 29:-0.41303694 30:0.63799161 31:-0.078080945 32:-0.55752295 33:0.61198092 34:-0.18099691 35:-0.70126492 36:0.58891904 #
47.10126400104817889769037719816 2:-1.3 3:0.32438299 5:-1.3 6:0.50438303 7:0.12012563 8:-1.2252082 9:0.72507495 10:0.23684303 11:-1.0480999 12:0.93992358 13:0.28272426 14:-0.95815599 15:0.84775239 16:0.32558438 17:-0.87148112 18:0.74275768 21:0.17 24:0.34 25:0.040151101 26:0.11980845 27:0.5461725 28:0.07810799 29:0.22627555 30:0.73679268 31:-0.11837059 32:-0.16564885 33:0.82603365 34:-0.31715927 35:-0.55841804 36:0.91189593 #
-82.935024400563804647390497848392 2:-1.3 3:0.32438299 5:-1.3 6:0.50438303 7:0.10167093 8:-1.2574073 9:0.64503002 10:0.20188126 11:-1.1731428 12:0.7832045 13:0.19200321 14:-0.81913942 15:0.70879638 16:0.18087327 17:-0.46615219 18:0.62905169 21:0.17 24:0.34 25:-0.10145763 26:-0.18466 27:0.61177218 28:-0.20391552 29:-0.37470785 30:0.87742692 31:0.0092347031 32:-0.45502713 33:0.64560521 34:0.22140075 35:-0.53573823 36:0.41243598 #
-49.094471232992674458728288300335 2:-1.3 3:0.32438299 5:-1.3 6:0.50438303 7:0.081956185 8:-1.2373703 9:0.45030645 10:0.16447152 11:-1.1915029 12:0.39718473 13:0.44846827 14:-0.80015057 15:0.63916689 16:0.73296291 17:-0.408241 18:0.88324654 21:0.17 24:0.34 25:-0.17504597 26:-0.12163298 27:0.30237052 28:-0.34974334 29:-0.24107265 30:0.26731914 31:-0.51357639 32:-0.40223968 33:0.27841577 34:-0.67704314 35:-0.5632655 36:0.29007483 #
-404.39530087834310734251630492508 2:-1.3 3:0.32438299 5:-1.3 6:0.50438303 7:-0.078634337 8:-1.1718531 9:0.49800408 10:-0.16987614 11:-0.67404312 12:0.46998408 13:-0.20072752 14:-0.71944112 15:0.65068156 16:-0.2426161 17:-0.77635527 18:0.78418064 21:0.17 24:0.34 25:0.064637519 26:-0.18627311 27:0.45215139 28:0.12091388 29:-0.42100766 30:0.50857598 31:0.13071325 32:-0.52002311 33:0.3805939 34:0.13214169 35:-0.6224522 36:0.24039537 #
-4.6044735668304799247607661527582 2:-1.3 3:0.32438299 5:-1.3 6:0.50438303 7:-0.045905419 8:-1.3385103 9:0.26393521 10:-0.10127594 11:-1.1028451 12:0.0072298129 13:-0.063155092 14:-0.90698552 15:0.047038242 16:-0.033259269 17:-0.71945804 18:0.051506445 21:0.17 24:0.34 25:-0.1028216 26:-0.27537945 27:0.35963595 28:-0.21204057 29:-0.58676952 30:0.33819538 31:-0.043451343 32:-0.64370835 33:0.49745145 34:0.118882 35:-0.70328838 36:0.64765894 #
18.633092932028688437640084885061 2:-1.3 3:0.32438299 5:-1.3 6:0.50438303 7:0.065596804 8:-1.0653509 9:0.53230399 10:0.13594161 11:-0.9693839 12:0.56836462 13:0.17300515 14:-0.7735768 15:0.56180716 16:0.21421812 17:-0.57350099 18:0.57299101 21:0.17 24:0.34 25:0.1134299 26:-0.3086279 27:0.31514412 28:0.23002954 29:-0.59909177 30:0.3111341 31:0.3639147 32:-0.23636153 33:0.4158935 34:0.50094563 35:0.12765467 36:0.52523375 #
142.02113243597131031492608599365 2:-1.3 3:0.32438299 5:-1.3 6:0.50438303 7:-0.086621746 8:-1.1508458 9:0.65204048 10:-0.1673667 11:-1.1745346 12:0.8097626 13:-0.26074153 14:-0.8708989 15:0.74503869 16:-0.34897044 17:-0.56204158 18:0.70227075 21:0.17 24:0.34 25:0.084040359 26:-0.01250493 27:0.59810174 28:0.171968 29:-0.0024438787 30:0.88217884 31:0.032609448 32:-0.2316649 33:0.67650211 34:-0.10281616 35:-0.45934486 36:0.47651297 #
26.429313785521650004284310853109 2:-1.3 3:0.32438299 5:-1.3 6:0.50438303 7:0.11160645 8:-1.1335068 9:0.24123169 10:0.22215305 11:-0.93578023 12:-0.023719 13:0.38111043 14:-0.5549857 15:0.29402989 16:0.53913867 17:-0.17513457 18:0.60784227 21:0.17 24:0.34 25:0.39292279 26:0.052402489 27:0.15399742 28:0.78514856 29:0.1007332 30:-0.03670406 31:0.50515413 32:-0.39642736 33:0.30019283 34:0.22444195 35:-0.89385098 36:0.6360622 #
-315.7210606479167722682177554816 2:-1.3 3:0.32438299 5:-1.3 6:0.50438303 7:-0.18990178 8:-0.91011924 9:0.51783752 10:-0.36327788 11:-1.0062863 12:0.55963629 13:-0.43889469 14:-1.0544648 15:0.4800826 16:-0.50001425 17:-1.0874087 18:0.46241152 21:0.17 24:0.34 25:-0.1049014 26:-0.17837267 27:0.39168018 28:-0.19890352 29:-0.29306629 30:0.51675308 31:-0.043133911 32:-0.51915967 33:0.48170859 34:0.12363935 35:-0.74083513 36:0.46272784 #
258.85543495730235008522868156433 2:-1.3 3:0.32438299 5:-1.3 6:0.50438303 7:-0.013093683 8:-1.0591799 9:0.60109729 10:-0.021832611 11:-0.94545883 12:0.70529115 13:-0.026243445 14:-0.66532552 15:1.0507886 16:-0.026851827 17:-0.38131404 18:1.4125684 21:0.17 24:0.34 25:-0.027115515 26:-0.25926742 27:0.28424966 28:-0.05133865 29:-0.50188071 30:0.24760349 31:-0.2311552 32:-0.80320626 33:0.1975209 34:-0.4081015 35:-1.1033266 36:0.15163393 #
5.5598256992766161843633199168835 2:-1.3 3:0.32438299 5:-1.3 6:0.50438303 7:0.012626849 8:-1.0394185 9:0.3912175 10:0.030526455 11:-0.9354862 12:0.28711393 13:0.14836836 14:-0.79246664 15:0.49709666 16:0.27085909 17:-0.64447784 18:0.7268818 21:0.17 24:0.34 25:0.18205778 26:-0.12086952 27:0.61263812 28:0.36750302 29:-0.22125261 30:0.90904868 31:0.30582806 32:-0.34733576 33:0.76282781 34:0.24766755 35:-0.47202283 36:0.6217767 #
-149.64484574635764602135168388486 2:-1.3 3:0.32438299 5:-1.3 6:0.50438303 7:0.23029003 8:-1.1534687 9:0.44122976 10:0.46067578 11:-1.0091454 12:0.37823662 13:0.60710275 14:-0.8682031 15:0.56858867 16:0.75360513 17:-0.72716266 18:0.75929624 21:0.17 24:0.34 25:-0.046453658 26:-0.056581471 27:0.41877267 28:-0.092796989 29:-0.11283487 30:0.49785039 31:0.086176716 32:-0.62931156 33:0.41244116 34:0.26521134 35:-1.1457623 36:0.32711986 #
-181.82937912015535175669356249273 2:-1.3 3:0.32438299 5:-1.3 6:0.50438303 7:-0.023716591 8:-0.90739858 9:0.53332138 10:-0.031174289 11:-1.004994 12:0.59008318 13:-0.16380501 14:-0.72556841 15:0.56535256 16:-0.28197578 17:-0.4302325 18:0.6018135 21:0.17 24:0.34 25:-0.017781982 26:-0.14247166 27:0.36074618 28:-0.025186868 29:-0.22099331 30:0.45627338 31:-0.26440036 32:-0.43101269 33:0.37921375 34:-0.4925344 35:-0.63712066 36:0.31836158 #
340.08165526357527141954051330686 2:-1.3 3:0.32438299 5:-1.3 6:0.50438303 7:-0.19616179 8:-1.1080197 9:0.41159123 10:-0.39436048 11:-0.85738575 12:0.31534174 13:-0.45217934 14:-0.6253522 15:0.4344492 16:-0.51175565 17:-0.39493406 18:0.54602879 21:0.17 24:0.34 25:-0.13366772 26:0.014993968 27:0.49644375 28:-0.26873353 29:0.022305325 30:0.64416474 31:-0.094961777 32:-0.20904079 33:0.43758532 34:0.077447288 35:-0.4409233 36:0.22906296 #
-62.418535747601431751263589831069 2:-1.3 3:0.32438299 5:-1.3 6:0.50438303 7:-0.049285796 8:-1.0582848 9:0.4762181 10:-0.099305488 11:-0.79090846 12:0.44678506 13:-0.22566466 14:-0.66332519 15:0.23857544 16:-0.35273412 17:-0.53686893 18:0.02744247 21:0.17 24:0.34 25:-0.077015333 26:-0.27761319 27:0.5096972 28:-0.15441421 29:-0.55857271 30:0.67520177 31:-0.017324338 32:-0.52279043 33:0.55910003 34:0.11919212 35:-0.48709011 36:0.44213572 #
223.58638160954600948571169283241 2:-1.3 3:0.32438299 5:-1.3 6:0.50438303 7:-0.14699146 8:-1.4761577 9:0.64149445 10:-0.31291851 11:-1.1008081 12:0.74613595 13:-0.37899661 14:-0.97872633 15:0.55808437 16:-0.46159101 17:-0.8735168 18:0.29933909 21:0.17 24:0.34 25:0.0051990533 26:-0.17500505 27:0.52406865 28:-0.0022558379 29:-0.42231297 30:0.62528861 31:0.034859963 32:-0.66788089 33:0.61691642 34:0.059453521 35:-0.91866505 36:0.59033304 #
102.11406701340318647908134153113 2:-1.3 3:0.32438299 5:-1.3 6:0.50438303 7:-0.045551237 8:-0.97160321 9:0.7465173 10:-0.091626689 11:-0.62730324 12:0.98777395 13:0.10073312 14:-0.65836841 15:0.70312971 16:0.29262543 17:-0.68992126 18:0.41654044 21:0.17 24:0.34 25:0.11342266 26:-0.14078301 27:0.50566113 28:0.22650796 29:-0.28360003 30:0.66893065 31:0.24904102 32:-0.16259275 33:0.5129742 34:0.27121434 35:-0.041697122 36:0.35649091 #
36.391650050216107104006368899718 2:-1.3 3:0.32438299 5:-1.3 6:0.50438303 7:-0.030910654 8:-1.0091588 9:0.37332359 10:-0.056026623 11:-0.89967078 12:0.25215945 13:0.080085881 14:-0.51651776 15:0.38282251 16:0.22145548 17:-0.12713963 18:0.53549391 21:0.17 24:0.34 25:-0.072808899 26:-0.28570244 27:0.1970952 28:-0.14209886 29:-0.5478664 30:0.082266636 31:0.029842278 32:-0.63517839 33:0.29925221 34:0.20589459 35:-0.72134131 36:0.5222258 #
-105.50453469279426599314319901168 2:-1.3 3:0.32438299 5:-1.3 6:0.50438303 7:-0.12664795 8:-1.3913422 9:0.43061826 10:-0.2689352 11:-1.0150424 12:0.33007592 13:-0.37791389 14:-0.80925006 15:0.39381284 16:-0.50074679 17:-0.61845702 18:0.39881006 21:0.17 24:0.34 25:-0.11041858 26:-0.22745153 27:0.23566572 28:-0.23091216 29:-0.51597238 30:0.060219157 31:-0.36520201 32:-0.45272174 33:0.20893162 34:-0.51004541 35:-0.39338702 36:0.34218562 #
-131.06830162558804886430152691901 2:-1.3 3:0.32438299 5:-1.3 6:0.50438303 7:0.17381926 8:-1.309285 9:0.20875104 10:0.34636387 11:-1.2797418 12:-0.089065731 13:0.12384888 14:-0.99833381 15:0.29516742 16:-0.099810414 17:-0.71823061 18:0.67458749 21:0.17 24:0.34 25:0.19399831 26:-0.037625339 27:0.37948146 28:0.38720819 29:-0.080295935 30:0.41301218 31:0.1773892 32:-0.649993 33:0.78213376 34:-0.033290382 35:-1.2199948 36:1.1499792 #
-73.181394674636194963568414095789 2:-1.3 3:0.32438299 5:-1.3 6:0.50438303 7:-0.01612754 8:-0.81845891 9:0.49753222 10:-0.0063016303 11:-1.1217608 12:0.53501648 13:-0.20712963 14:-0.78608203 15:0.56486189 16:-0.38484654 17:-0.42500782 18:0.69231892 21:0.17 24:0.34 25:-0.057783153 26:0.056849778 27:0.58329564 28:-0.099077657 29:0.21595323 30:0.94640452 31:-0.29707989 32:-0.34466922 33:0.75037032 34:-0.47734329 35:-0.89915496 36:0.58029574 #
184.68241771497824288417177740484 2:-1.3 3:0.32438299 5:-1.3 6:0.50438303 7:0.033527192 8:-0.96710259 9:0.41867775 10:0.083341569 11:-1.1199921 12:0.36086592 13:0.11474438 14:-0.94697374 15:0.45717573 16:0.1605417 17:-0.75851399 18:0.61462086 21:0.17 24:0.34 25:-0.18800895 26:-0.1182199 27:0.29496941 28:-0.36545682 29:-0.17299075 30:0.32365662 31:-0.10102286 32:-0.37529773 33:0.3515406 34:0.17442311 35:-0.57352775 36:0.3954663 #
52.861884468584541707514290465042 2:-1.3 3:0.32438299 5:-1.3 6:0.50438303 7:0.071629681 8:-1.1892102 9:0.52515119 10:0.13567907 11:-0.85235029 12:0.53292775 13:0.27299109 14:-0.63523972 15:0.52407789 16:0.4035998 17:-0.42532337 18:0.48673505 21:0.17 24:0.34 25:0.044843353 26:-0.14517768 27:0.16403371 28:0.084737837 29:-0.31988108 30:-0.046199892 31:0.3559972 32:-0.28266647 33:0.16386773 34:0.62214059 35:-0.24734265 36:0.36646169 #
75.903128841423239236974040977657 2:-1.3 3:0.32438299 5:-1.3 6:0.50438303 7:-0.2410796 8:-1.3223348 9:0.63186038 10:-0.48413771 11:-1.2887266 12:0.75596255 13:-0.29379341 14:-1.0663037 15:0.52752626 16:-0.10514247 17:-0.84534818 18:0.29182282 21:0.17 24:0.34 25:-0.21517718 26:-0.21127482 27:0.38685095 28:-0.43172073 29:-0.42983237 30:0.42550281 31:-0.3155441 32:-0.50660652 33:0.50133091 34:-0.20065704 35:-0.58396047 36:0.57534385 #
-84.526077649212282949520158581436 2:-1.3 3:0.32438299 5:-1.3 6:0.50438303 7:-0.25347462 8:-1.248541 9:0.40627062 10:-0.51388645 11:-0.98956043 12:0.29627669 13:-0.1569536 14:-0.68383229 15:0.51260203 16:0.19383951 17:-0.38463584 18:0.70288765 21:0.17 24:0.34 25:-0.15725102 26:0.038885407 27:0.44724131 28:-0.31898063 29:0.050746039 30:0.52303964 31:-0.23000078 32:-0.30837381 33:0.74878287 34:-0.14571951 35:-0.66920567 36:0.96770221 #
-343.1080925343433136731619015336 2:-1.3 3:0.32438299 5:-1.3 6:0.50438303 7:-0.063103981 8:-1.0165703 9:0.59808242 10:-0.12352796 11:-0.80758232 12:0.69636828 13:-0.062770605 14:-0.7704289 15:0.6337077 16:0.00025881096 17:-0.73128951 18:0.58090889 21:0.17 24:0.34 25:0.20376031 26:-0.058821768 27:0.16018738 28:0.40944716 29:-0.10787431 30:-0.0087791169 31:0.29282081 32:-0.32115757 33:0.24126256 34:0.17792355 35:-0.53363138 36:0.49374691 #
-93.909771690281672817945946007967 2:-1.3 3:0.32438299 5:-1.3 6:0.50438303 7:-0.13300098 8:-1.1330254 9:0.52460635 10:-0.26333216 11:-1.0492198 12:0.54938138 13:-0.27646047 14:-1.2126255 15:0.57336199 16:-0.2871654 17:-1.3733308 18:0.60740906 21:0.17 24:0.34 25:-0.12454133 26:-0.16956224 27:0.29331729 28:-0.24748994 29:-0.32843319 30:0.25941643 31:-0.3790265 32:-0.48269147 33:0.25347602 34:-0.50870323 35:-0.63639373 36:0.25024879 #
391.75252188340493830764899030328 2:-1.3 3:0.32438299 5:-1.3 6:0.50438303 7:0.081837751 8:-0.92478514 9:0.54289162 10:0.17605627 11:-0.92780805 12:0.60259736 13:-0.16019779 14:-0.83419895 15:0.6212908 16:-0.48535314 17:-0.72796667 18:0.6867696 21:0.17 24:0.34 25:0.054703169 26:-0.17888454 27:0.23223655 28:0.1171384 29:-0.30848986 30:0.18256301 31:0.13307449 32:-0.44564563 33:0.51584184 34:0.15751715 35:-0.57994425 36:0.86163372 #
-142.93710222854761582311766687781 2:-1.3 3:0.32438299 5:-1.3 6:0.50438303 7:0.24274412 8:-1.354079 9:0.53276134 10:0.48014989 11:-1.2499743 12:0.55198747 13:0.33245072 14:-0.95457727 15:0.70468926 16:0.18005155 17:-0.66418892 18:0.83737302 21:0.17 24:0.34 25:0.18182056 26:0.05388895 27:0.52653307 28:0.36017001 29:0.087075338 30:0.68909687 31:0.34169129 32:-0.21414424 33:0.75292933 34:0.31965032 35:-0.51676834 36:0.81152624 #
28.2454970324365142175793153001 2:-1.3 3:0.32438299 5:-1.3 6:0.50438303 7:0.018484857 8:-1.1998411 9:0.69595289 10:0.038699221 11:-1.1577541 12:0.89046872 13:0.10593388 14:-0.95369124 15:0.79886323 16:0.17481311 17:-0.74758232 18:0.7139101 21:0.17 24:0.34 25:0.013241119 26:-0.15461309 27:0.4013336 28:0.027386982 29:-0.30188 30:0.47181898 31:-0.072858483 32:-0.47051615 33:0.73423308 34:-0.17180774 35:-0.63895953 36:0.99853247 #
-96.657734696388658335308718960732 2:-1.3 3:0.32438299 5:-1.3 6:0.50438303 7:-0.14759111 8:-0.93897444 9:0.59477866 10:-0.27683884 11:-1.1218503 12:0.71652746 13:-0.18160787 14:-0.78600544 15:0.51445234 16:-0.070222378 17:-0.43340978 18:0.38093561 21:0.17 24:0.34 25:-0.1180312 26:-0.15320623 27:0.38885921 28:-0.22414225 29:-0.23554948 30:0.51988614 31:-0.077693641 32:-0.50917768 33:0.63607639 34:0.081102595 35:-0.77815908 36:0.7701456 #
-215.13762994108478210364410188049 2:-1.3 3:0.32438299 5:-1.3 6:0.50438303 7:0.079292871 8:-1.1289932 9:0.59099001 10:0.15403441 11:-0.81956577 12:0.66978723 13:0.20114601 14:-0.86957204 15:0.46246946 16:0.24417141 17:-0.92421603 18:0.23796792 21:0.17 24:0.34 25:0.014572764 26:-0.21895739 27:0.51256853 28:0.02634049 29:-0.4559502 30:0.66384798 31:0.17397889 32:-0.43651941 33:0.60659367 34:0.31855077 35:-0.41817829 36:0.54474777 #
-93.808629258941508055613667238504 2:-1.3 3:0.32438299 5:-1.3 6:0.50438303 7:-0.077859826 8:-1.2986306 9:0.5375551 10:-0.17562945 11:-0.69588035 12:0.53675658 13:-0.29528105 14:-0.71268189 15:0.48594257 16:-0.43265975 17:-0.74858183 18:0.36041918 21:0.17 24:0.34 25:-0.14903823 26:-0.22264116 27:0.33781925 28:-0.31068689 29:-0.52339596 30:0.24406782 31:-0.15001021 32:-0.66882873 33:0.42427483 34:-0.0029358896 35:-0.8189401 36:0.5847019 #
89.767778104597823585208971053362 2:-1.3 3:0.32438299 5:-1.3 6:0.50438303 7:0.24418466 8:-1.0897006 9:0.66610175 10:0.48628935 11:-0.81471699 12:0.82424408 13:0.24060345 14:-1.0018183 15:0.26912847 16:-0.006981886 17:-1.1912236 18:-0.29390591 21:0.17 24:0.34 25:0.07183668 26:-0.28879386 27:0.21846344 28:0.14245068 29:-0.58601141 30:0.086833507 31:0.057169277 32:-0.37854859 33:0.26272291 34:-0.029515127 35:-0.17155844 36:0.43644774 #
160.49561268943989489343948662281 2:-1.3 3:0.32438299 5:-1.3 6:0.50438303 7:-0.064644068 8:-1.141901 9:0.77025419 10:-0.12841746 11:-1.0104589 12:1.0376474 13:-0.089772962 14:-1.1597379 15:0.8052215 16:-0.05035425 17:-1.307995 18:0.57616293 21:0.17 24:0.34 25:0.0079509541 26:-0.32707447 27:0.37731093 28:0.016481485 29:-0.65058339 30:0.41876066 31:-0.15428889 32:-0.81920648 33:0.45809865 34:-0.32445094 35:-0.98760933 36:0.49833792 #
213.07923077168177883322641719133 2:-1.3 3:0.32438299 5:-1.3 6:0.50438303 7:0.059720363 8:-1.1067884 9:0.5264647 10:0.11597347 11:-0.82514954 12:0.54263186 13:0.21949381 14:-0.92104864 15:0.61235768 16:0.320207 17:-1.0187572 18:0.66965187 21:0.17 24:0.34 25:0.0023878552 26:-0.35848045 27:0.3049832 28:0.0020891486 29:-0.72870398 30:0.25761992 31:-0.15883264 32:-0.78776509 33:0.35723785 34:-0.32183549 35:-0.84814477 36:0.4539685 #
-3.0384629860264307232853298046393 2:-1.3 3:0.32438299 5:-1.3 6:0.50438303 7:-0.4464798 8:-1.1323876 9:0.32548338 10:-0.89052397 11:-1.0360186 12:0.15074036 13:-0.95454532 14:-0.86325008 15:0.38466224 16:-1.0164415 17:-0.68830204 18:0.62766474 21:0.17 24:0.34 25:0.21403791 26:-0.27464953 27:0.48575333 28:0.42970121 29:-0.53995728 30:0.64223057 31:0.27444956 32:-0.37539572 33:0.6140179 34:0.12081777 35:-0.21017772 36:0.5881651 #
-112.07458100108381415793701307848 2:-1.3 3:0.32438299 5:-1.3 6:0.50438303 7:0.18109836 8:-1.2741109 9:0.58227319 10:0.3484304 11:-0.87253666 12:0.6365568 13:0.28702435 14:-0.79684478 15:0.77907866 16:0.21404691 17:-0.73105896 18:0.87109733 21:0.17 24:0.34 25:0.13927029 26:-0.35657972 27:0.29508677 28:0.26857963 29:-0.76284873 30:0.19552876 31:0.28531638 32:-0.75356823 33:0.35158655 34:0.2934151 35:-0.74886644 36:0.49526915 #
-17.310525026722039854121248936281 2:-1.3 3:0.32438299 5:-1.3 6:0.50438303 7:-0.071577623 8:-1.1186117 9:0.54772127 10:-0.14547282 11:-0.88373142 12:0.58707863 13:-0.078202054 14:-0.50562274 15:0.51427662 16:-0.012693292 17:-0.12826051 18:0.43326667 21:0.17 24:0.34 25:0.06910643 26:-0.090092413 27:0.34734052 28:0.1361606 29:-0.18747452 30:0.34773806 31:0.37723944 32:-0.1252216 33:0.57728362 34:0.61697048 35:-0.063987322 36:0.80510074 #
-11.899166211188868302883747674059 2:-1.3 3:0.32438299 5:-1.3 6:0.50438303 7:0.14279169 8:-1.2514787 9:0.69372636 10:0.289983 11:-1.3142787 12:0.89064378 13:0.38759589 14:-0.89413548 15:1.1996751 16:0.48874557 17:-0.47159278 18:1.5246097 21:0.17 24:0.34 25:0.11164184 26:-0.16236237 27:0.23353353 28:0.22677487 29:-0.30979627 30:0.14256865 31:-0.041665386 32:-0.60620815 33:-0.37917778 34:-0.30746105 35:-0.90088493 36:-0.89728367 #
-169.61081116143560620912467129529 2:-1.3 3:0.32438299 5:-1.3 6:0.50438303 7:0.072396144 8:-1.3977804 9:0.54960042 10:0.12945242 11:-1.0583518 12:0.56852627 13:0.05871715 14:-0.62755078 15:0.40076974 16:-0.025234083 17:-0.20949061 18:0.17618243 21:0.17 24:0.34 25:0.052794356 26:-0.21491995 27:0.48536354 28:0.095190227 29:-0.4872824 30:0.56559491 31:0.090828829 32:-0.60179371 33:0.73470753 34:0.076573513 35:-0.72089332 36:0.88941377 #
61.583113668107223759307089494541 2:-1.3 3:0.32438299 5:-1.3 6:0.50438303 7:0.022584474 8:-1.0127169 9:0.37996793 10:0.049211603 11:-0.84718883 12:0.26248384 13:-0.10921385 14:-0.69637108 15:0.2970551 16:-0.26404262 17:-0.54152387 18:0.34685159 21:0.17 24:0.34 25:0.055580407 26:0.19547769 27:0.27232528 28:0.11372915 29:0.40688214 30:0.22329009 31:0.00014184031 32:0.13761008 33:0.15185381 34:-0.11070686 35:-0.13066033 36:0.084454 #
84.742045938607134303310886025429 2:-1.3 3:0.32438299 5:-1.3 6:0.50438303 7:-0.29805112 8:-1.0951988 9:0.76135898 10:-0.58685893 11:-1.1660484 12:1.0341196 13:-0.35218158 14:-1.0432502 15:0.91156352 16:-0.10932702 17:-0.91199756 18:0.82356691 21:0.17 24:0.34 25:0.052974164 26:-0.19588311 27:0.38700724 28:0.11189935 29:-0.35597989 30:0.47568554 31:0.14251769 32:-0.53711265 33:0.7463634 34:0.17939398 35:-0.71598929 36:1.0260849 #
383.04081544432438022340647876263 2:-1.3 3:0.32438299 5:-1.3 6:0.50438303 7:-0.043601278 8:-0.93965173 9:0.51294959 10:-0.074179135 11:-0.9716633 12:0.54386145 13:0.30728465 14:-0.90611452 15:0.53241235 16:0.70034605 17:-0.8277719 18:0.57005084 21:0.17 24:0.34 25:-0.013475778 26:-0.048304558 27:0.41252518 28:-0.018670609 29:-0.045426864 30:0.54493171 31:0.2080698 32:-0.24591266 33:0.32909212 34:0.44359189 35:-0.44319543 36:0.12624055 #
-47.921064840233981385608785785735 2:-1.3 3:0.32438299 5:-1.3 6:0.50438303 7:0.11554343 8:-1.1945632 9:0.33285636 10:0.22565229 11:-0.93008101 12:0.15200292 13:0.4893972 14:-0.96998835 15:0.28108695 16:0.74839133 17:-1.0148395 18:0.38983697 21:0.17 24:0.34 25:0.18764816 26:-0.14447916 27:0.39568302 28:0.37169835 29:-0.30983418 30:0.42738876 31:0.4475615 32:-0.50199735 33:0.39310694 34:0.51983231 35:-0.6956594 36:0.35355872 #
26.687384082208680524672672618181 2:-1.3 3:0.32438299 5:-1.3 6:0.50438303 7:-0.15129811 8:-1.1072121 9:0.56886059 10:-0.30254638 11:-0.91621941 12:0.63339877 13:-0.27572489 14:-0.69169724 15:0.70735151 16:-0.24885865 17:-0.46713132 18:0.78145564 21:0.17 24:0.34 25:0.10528214 26:-0.057984762 27:0.6618048 28:0.21059784 29:-0.11576737 30:0.98386431 31:-0.060519066 32:-0.03430824 33:1.3444074 34:-0.33158731 35:0.047135424 36:1.705001 #
