SVM-light Version V6.20
2 # kernel type
3 # kernel parameter -d 
0.9298 # kernel parameter -g 
1 # kernel parameter -s 
1 # kernel parameter -r 
empty# kernel parameter -u 
36 # highest feature index 
122 # number of training documents 
3001 # number of support vectors plus 1 
0 # threshold b, each following line is a SV (starting with alpha*y)
-198.83773473433487311012868303806 2:-1.3 3:0.32438299 5:-1.3 6:0.50438303 7:0.0012057321 8:-1.1670481 9:0.60863119 10:0.0024114617 11:-1.0340996 12:0.71287972 13:0.0038876177 14:-0.96150184 15:0.77622449 16:0.0053637722 17:-0.88890398 18:0.83956951 21:0.17 24:0.34 25:0.00062169041 26:-0.091397263 27:0.47478601 28:0.0012433785 29:-0.18279435 30:0.60957181 31:0.0017219044 32:-0.26319402 33:0.6929543 34:0.0022004328 35:-0.34359375 36:0.77633703 #
-1458.3581183747962768393335863948 2:-1.3 3:0.32438299 5:-1.3 6:0.50438303 7:-0.001895521 8:-1.0959735 9:0.49380457 10:-0.0037910365 11:-0.89195114 12:0.48322609 13:-0.0057093333 14:-0.69381934 15:0.47624388 16:-0.0076276255 17:-0.4956876 18:0.46926156 21:0.17 24:0.34 25:-0.0015888364 26:-0.18515499 27:0.38065925 28:-0.003177674 29:-0.37030992 30:0.42131817 31:-0.0051095705 32:-0.55083764 33:0.46101987 34:-0.0070414692 35:-0.73136544 36:0.50072151 #
108.7969241285424430998318712227 2:-1.3 3:0.32438299 5:-1.3 6:0.50438303 7:0.0075552063 8:-1.0953463 9:0.63241839 10:0.015110394 11:-0.89069569 12:0.76045394 13:0.016268265 14:-0.60419691 15:0.81622612 16:0.017426116 17:-0.31769827 18:0.87199837 21:0.17 24:0.34 25:0.0062219733 26:-0.13419263 27:0.52680588 28:0.012443953 29:-0.26838434 30:0.71361142 31:0.015525233 32:-0.52197903 33:0.80669928 34:0.018606504 35:-0.77557373 36:0.89978701 #
-283.23447041958604586397996172309 2:-1.3 3:0.32438299 5:-1.3 6:0.50438303 7:0.086005308 8:-1.0786214 9:0.48818734 10:0.1720102 11:-0.85725218 12:0.47199151 13:0.2560164 14:-0.69528872 15:0.5287599 16:0.34002239 17:-0.53332567 18:0.58552819 21:0.17 24:0.34 25:0.096737534 26:-0.12371787 27:0.46397129 28:0.1934751 29:-0.24743564 30:0.58794248 31:0.3022733 32:-0.30206499 33:0.69208121 34:0.41107148 35:-0.3566944 36:0.79622024 #
102.86565759125011254582204855978 2:-1.3 3:0.32438299 5:-1.3 6:0.50438303 7:-0.12539943 8:-1.1358504 9:0.54716885 10:-0.25079849 11:-0.97170538 12:0.58995485 13:-0.34748769 14:-0.83847731 15:0.61637527 16:-0.4441767 17:-0.70524937 18:0.64279562 21:0.17 24:0.34 25:-0.11627095 26:-0.15321307 27:0.404093 28:-0.23254207 29:-0.30642617 30:0.46818578 31:-0.33240584 32:-0.44461286 33:0.53402567 34:-0.43226966 35:-0.58279967 36:0.59986556 #
-813.11400245385027574229752644897 2:-1.3 3:0.32438299 5:-1.3 6:0.50438303 7:-0.035022277 8:-1.1577128 9:0.4423916 10:-0.070044294 11:-1.0154247 12:0.38040027 13:-0.085131027 14:-0.86988431 15:0.33167455 16:-0.10021763 17:-0.72434354 18:0.28294891 21:0.17 24:0.34 25:-0.0015174225 26:-0.033144332 27:0.45068786 28:-0.0030348264 29:-0.06628947 30:0.56137526 31:-0.028830433 32:-0.17891756 33:0.48347083 34:-0.054626085 35:-0.2915464 36:0.4055663 #
207.59427640854627838962187524885 2:-1.3 3:0.32438299 5:-1.3 6:0.50438303 7:-0.0017681521 8:-1.0248965 9:0.50836265 10:-0.003536477 11:-0.74980158 12:0.51234233 13:-0.0071699703 14:-0.55690914 15:0.5288316 16:-0.010803494 17:-0.36401749 18:0.54532081 21:0.17 24:0.34 25:-0.01708862 26:-0.070586972 27:0.60093457 28:-0.034177184 29:-0.14117265 30:0.86186916 31:-0.043135948 32:-0.21151507 33:0.81247044 34:-0.052094534 35:-0.28185731 36:0.76307207 #
-63.806655643931840415916667552665 2:-1.3 3:0.32438299 5:-1.3 6:0.50438303 7:-0.012684871 8:-1.1177715 9:0.42049259 10:-0.025369264 11:-0.93554497 12:0.33660147 13:-0.054956485 14:-0.62008566 15:0.37788218 16:-0.084543481 17:-0.30462551 18:0.41916242 21:0.17 24:0.34 25:-0.08322835 26:-0.15270554 27:0.35260779 28:-0.16645706 29:-0.30541235 30:0.36521462 31:-0.22242048 32:-0.43727469 33:0.65937006 34:-0.2783843 35:-0.56913751 36:0.95352536 #
699.7425449487500372924841940403 2:-1.3 3:0.32438299 5:-1.3 6:0.50438303 7:-0.10388768 8:-1.1153417 9:0.57535034 10:-0.20777494 11:-0.93069017 12:0.64631724 13:-0.29263625 14:-0.74349523 15:0.68336838 16:-0.37749738 17:-0.5563001 18:0.72041923 21:0.17 24:0.34 25:0.098466642 26:-0.079793505 27:0.4852547 28:0.19693334 29:-0.15958747 30:0.63050842 31:0.26125827 32:-0.40629244 33:0.49100497 34:0.32558316 35:-0.65299761 36:0.35150144 #
207.10002765655204370887076947838 2:-1.3 3:0.32438299 5:-1.3 6:0.50438303 7:0.12051786 8:-1.1083473 9:0.52690792 10:0.2410353 11:-0.91670263 12:0.54943246 13:0.36466756 14:-0.72527862 15:0.54492927 16:0.48829955 17:-0.53385448 18:0.54042572 21:0.17 24:0.34 25:-0.089584939 26:-0.11544448 27:0.47591439 28:-0.17917015 29:-0.23088905 30:0.61182797 31:-0.23118868 32:-0.47430471 33:0.51531786 34:-0.28320742 35:-0.71772039 36:0.41880757 #
-325.39454020642381237848894670606 2:-1.3 3:0.32438299 5:-1.3 6:0.50438303 7:-0.054706633 8:-1.0437365 9:0.44010568 10:-0.10941307 11:-0.7874797 12:0.37582785 13:-0.15710564 14:-0.46609232 15:0.30805016 16:-0.20479813 17:-0.1447051 18:0.24027196 21:0.17 24:0.34 25:0.0055125775 26:-0.21078496 27:0.40679857 28:0.011025042 29:-0.42156965 30:0.47359657 31:0.009239044 32:-0.72014433 33:0.44867843 34:0.0074529909 35:-1.018719 36:0.42376 #
-74.876836520111140771405189298093 2:-1.3 3:0.32438299 5:-1.3 6:0.50438303 7:0.085989557 8:-1.2102358 9:0.64852041 10:0.17197904 11:-1.12047 12:0.79265839 13:0.21813947 14:-1.0713178 15:0.76230478 16:0.2642999 17:-1.0221654 18:0.73195148 21:0.17 24:0.34 25:0.078499146 26:-0.21922408 27:0.30941257 28:0.1569985 29:-0.43844822 30:0.27882513 31:0.19161965 32:-0.62053579 33:0.40611827 34:0.2262409 35:-0.80262351 36:0.53341126 #
302.47951300140368857682915404439 2:-1.3 3:0.32438299 5:-1.3 6:0.50438303 7:-0.11152332 8:-1.0970045 9:0.41866797 10:-0.22304557 11:-0.89401293 12:0.33295271 13:-0.38265711 14:-0.55424303 15:0.31886983 16:-0.54226834 17:-0.21447176 18:0.30478674 21:0.17 24:0.34 25:-0.15754034 26:-0.13055377 27:0.49236897 28:-0.31508139 29:-0.26110828 30:0.64473599 31:-0.42112982 32:-0.56557542 33:0.63585466 34:-0.52717888 35:-0.87004262 36:0.62697321 #
-22.677938081094065836396111990325 2:-1.3 3:0.32438299 5:-1.3 6:0.50438303 7:-0.016350025 8:-1.1118543 9:0.65142643 10:-0.03270017 11:-0.92371917 12:0.7984699 13:-0.06023271 14:-0.92748594 15:0.88272119 16:-0.087765366 17:-0.93125337 18:0.96697271 21:0.17 24:0.34 25:-0.043341063 26:-0.27089533 27:0.2789436 28:-0.086682461 29:-0.54179043 30:0.21788737 31:-0.14949478 32:-0.64371324 33:0.34304032 34:-0.21230733 35:-0.74563545 36:0.46819356 #
8.0820138637774707746075364411809 2:-1.3 3:0.32438299 5:-1.3 6:0.50438303 7:-0.053551152 8:-1.1953992 9:0.60552335 10:-0.10710207 11:-1.0907903 12:0.70666456 13:-0.13053866 14:-0.89070827 15:0.57563889 16:-0.15397501 17:-0.69062519 18:0.4446137 21:0.17 24:0.34 25:-0.10362008 26:-0.12645189 27:0.46130741 28:-0.20724037 29:-0.25290385 30:0.58261383 31:-0.21803819 32:-0.55675143 33:0.43385404 34:-0.22883631 35:-0.86059952 36:0.28509411 #
-458.39830604663944768617511726916 2:-1.3 3:0.32438299 5:-1.3 6:0.50438303 7:-0.0013290733 8:-1.0896317 9:0.46877518 10:-0.0026581897 11:-0.87925744 12:0.43316773 13:0.045566812 14:-0.63356763 15:0.66004986 16:0.093791895 17:-0.38787732 18:0.88693237 21:0.17 24:0.34 25:0.10030535 26:-0.1412888 27:0.26591513 28:0.20061094 29:-0.28257892 30:0.19182989 31:0.11052667 32:-0.25349867 33:0.34248438 34:0.020442484 35:-0.22441947 36:0.49313888 #
452.82411767768451227311743423343 2:-1.3 3:0.32438299 5:-1.3 6:0.50438303 7:-0.034997229 8:-1.0825388 9:0.62212467 10:-0.069994316 11:-0.86509401 12:0.7398659 13:-0.057598494 14:-0.68501818 15:0.58378357 16:-0.045202587 17:-0.50494289 18:0.42770061 21:0.17 24:0.34 25:-0.14667392 26:-0.12025177 27:0.35425723 28:-0.2933479 29:-0.2405038 30:0.36851543 31:-0.41111526 32:-0.23653492 33:0.37795508 34:-0.52888232 35:-0.23256595 36:0.38739505 #
419.15656315901247808142215944827 2:-1.3 3:0.32438299 5:-1.3 6:0.50438303 7:-0.084556825 8:-1.1068631 9:0.38543025 10:-0.16911344 11:-0.91373324 12:0.26647726 13:-0.17543797 14:-0.81001854 15:0.40587288 16:-0.18176234 17:-0.70630372 18:0.54526854 21:0.17 24:0.34 25:0.10160469 26:-0.17083998 27:0.47151348 28:0.20320992 29:-0.34167865 30:0.60302764 31:0.15901497 32:-0.4168053 33:0.87420243 34:0.11482033 35:-0.49193138 36:1.1453778 #
-532.17862627011095355555880814791 2:-1.3 3:0.32438299 5:-1.3 6:0.50438303 7:-0.10967465 8:-1.1002694 9:0.49927545 10:-0.21934901 11:-0.90052456 12:0.49416968 13:-0.19641161 14:-0.83169252 15:0.66014957 16:-0.17347397 17:-0.76286018 18:0.82613128 21:0.17 24:0.34 25:0.10487479 26:-0.25326067 27:0.3783929 28:0.20974895 29:-0.50652009 30:0.41678482 31:0.0093997903 32:-0.55873734 33:0.62850642 34:-0.19094977 35:-0.6109553 36:0.8402276 #
-1618.2050456512140499398810788989 2:-1.3 3:0.32438299 5:-1.3 6:0.50438303 7:-0.032651875 8:-1.0473113 9:0.65355641 10:-0.065304361 11:-0.79464883 12:0.80272901 13:0.11232588 14:-0.67902064 15:0.59601671 16:0.28995571 17:-0.56339401 18:0.38930339 21:0.17 24:0.34 25:0.057812054 26:-0.27952775 27:0.33827209 28:0.1156249 29:-0.55905449 30:0.33654562 31:-0.12847222 32:-0.50320613 33:0.57075769 34:-0.37256905 35:-0.4473567 36:0.80497044 #
-100.73881525201390729762351838872 2:-1.3 3:0.32438299 5:-1.3 6:0.50438303 7:-0.13333938 8:-1.1766644 9:0.49062628 10:-0.26667881 11:-1.0533642 12:0.47686738 13:-0.35711512 14:-1.0667019 15:0.49985459 16:-0.44755161 17:-1.0800411 18:0.52283967 21:0.17 24:0.34 25:0.00092395657 26:-0.21849167 27:0.32661 28:0.0018494186 29:-0.43698338 30:0.31322211 31:0.1085424 32:-0.5694167 33:0.38879099 34:0.21523649 35:-0.70184857 36:0.46436071 #
706.57064452612769400730030611157 2:-1.3 3:0.32438299 5:-1.3 6:0.50438303 7:-0.12024121 8:-1.221516 9:0.71763897 10:-0.24048156 11:-1.1429985 12:0.93089736 13:-0.1417186 14:-0.90844947 15:0.57378787 16:-0.042955112 17:-0.67389911 18:0.21667972 21:0.17 24:0.34 25:0.046265911 26:-0.1491859 27:0.32230881 28:0.092529751 29:-0.29837254 30:0.30461496 31:0.061568569 32:-0.44853759 33:0.51907164 34:0.030606236 35:-0.59870398 36:0.73352742 #
-21.625895067353241074670222587883 2:-1.3 3:0.32438299 5:-1.3 6:0.50438303 7:0.15807059 8:-1.1430011 9:0.42399901 10:0.31614101 11:-0.98601806 12:0.34361428 13:0.3542479 14:-0.93573654 15:0.31574467 16:0.3923547 17:-0.88545579 18:0.28787434 21:0.17 24:0.34 25:0.10143434 26:-0.18181184 27:0.40631691 28:0.20287007 29:-0.36362338 30:0.47263464 31:0.23179492 32:-0.48426014 33:0.39952826 34:0.26072064 35:-0.60489631 36:0.3264226 #
-131.01249624297392415428475942463 2:-1.3 3:0.32438299 5:-1.3 6:0.50438303 7:0.18550721 8:-1.1551628 9:0.50394332 10:0.37101388 11:-1.010311 12:0.50350434 13:0.48208696 14:-0.80087364 15:0.58927286 16:0.59315968 17:-0.59143513 18:0.67504215 21:0.17 24:0.34 25:0.099416152 26:-0.11658401 27:0.21835455 28:0.19883111 29:-0.23317042 30:0.096706703 31:0.26664326 32:-0.48762545 33:0.33401224 34:0.33445454 35:-0.74208212 36:0.57131654 #
233.74801580006851509097032248974 2:-1.3 3:0.32438299 5:-1.3 6:0.50438303 7:0.10250992 8:-1.032328 9:0.54620814 10:0.20502006 11:-0.76464307 12:0.58803397 13:-0.047174402 14:-0.65221602 15:0.67558122 16:-0.29936904 17:-0.53978854 18:0.7631287 21:0.17 24:0.34 25:-0.19727866 26:-0.041048843 27:0.38924542 28:-0.39455855 29:-0.082099684 30:0.43848884 31:-0.19884273 32:-0.31969789 33:0.49104959 34:-0.0031277719 35:-0.55729783 36:0.54360944 #
-42.43530473617115461593130021356 2:-1.3 3:0.32438299 5:-1.3 6:0.50438303 7:-0.016062701 8:-1.084253 9:0.50198853 10:-0.032124098 11:-0.86847633 12:0.49959534 13:0.19897026 14:-0.81250197 15:0.6423431 16:0.43006548 17:-0.75652629 18:0.78509176 21:0.17 24:0.34 25:0.17231566 26:-0.15932953 27:0.53194952 28:0.34462896 29:-0.31865919 30:0.72389549 31:0.22464733 32:-0.62294537 33:0.71978515 34:0.10466481 35:-0.92723221 36:0.71567416 #
-89.928362044172033051836478989571 2:-1.3 3:0.32438299 5:-1.3 6:0.50438303 7:-0.16005009 8:-1.1142961 9:0.41844609 10:-0.32010049 11:-0.9286347 12:0.33250725 13:-0.17133521 14:-0.81690979 15:0.43832844 16:-0.022569917 17:-0.70518583 18:0.54414833 21:0.17 24:0.34 25:-0.1022396 26:0.00014617057 27:0.58270711 28:-0.20447683 29:0.00029481744 30:0.82541722 31:-0.30572265 32:-0.28039247 33:0.76199603 34:-0.40696701 35:-0.56107795 36:0.69857603 #
99.954850665683451893528399523348 2:-1.3 3:0.32438299 5:-1.3 6:0.50438303 7:-0.029587751 8:-1.1033064 9:0.49060768 10:-0.059174646 11:-0.90662003 12:0.47683185 13:0.061314531 14:-0.66888332 15:0.44558874 16:0.18180422 17:-0.43114707 18:0.41434479 21:0.17 24:0.34 25:0.11217346 26:-0.17873791 27:0.23696662 28:0.22434923 29:-0.35747555 30:0.13393538 31:-0.02247774 32:-0.63648832 33:0.18308827 34:-0.2693032 35:-0.91550177 36:0.23224166 #
-837.00027014135162062302697449923 2:-1.3 3:0.32438299 5:-1.3 6:0.50438303 7:-0.20029896 8:-1.2304471 9:0.63116944 10:-0.40059775 11:-1.1609262 12:0.75795376 13:-0.19900209 14:-0.81662327 15:0.85469484 16:0.0025934391 17:-0.47232091 18:0.95143366 21:0.17 24:0.34 25:-0.065576725 26:-0.098022982 27:0.40917975 28:-0.13115232 29:-0.19604799 30:0.4783608 31:-0.052033298 32:-0.39562818 33:0.65448624 34:0.027086163 35:-0.59520763 36:0.83061236 #
90.430877050170707320830842945725 2:-1.3 3:0.32438299 5:-1.3 6:0.50438303 7:-0.046858918 8:-1.1641139 9:0.72978419 10:-0.093718 11:-1.0282383 12:0.95518571 13:-0.33992058 14:-0.8723256 15:0.85448587 16:-0.58612317 17:-0.71641403 18:0.75378591 21:0.17 24:0.34 25:-0.086611055 26:-0.18770358 27:0.5261274 28:-0.1732208 29:-0.37540466 30:0.71225578 31:-0.21652435 32:-0.42971134 33:0.82531905 34:-0.25982687 35:-0.4840171 36:0.93838298 #
-454.03310638546986410801764577627 2:-1.3 3:0.32438299 5:-1.3 6:0.50438303 7:0.2282995 8:-1.2606083 9:0.56464201 10:0.45659855 11:-1.2212029 12:0.62490278 13:0.22107421 14:-0.92478597 15:0.66432369 16:-0.014450109 17:-0.62836725 18:0.70374554 21:0.17 24:0.34 25:-0.078046627 26:-0.17297654 27:0.41919827 28:-0.15609311 29:-0.34595153 30:0.49839696 31:-0.1049154 32:-0.50047016 33:0.66238302 34:-0.053737633 35:-0.65498888 36:0.82636893 #
-31.677270157980572662381746340543 2:-1.3 3:0.32438299 5:-1.3 6:0.50438303 7:0.1187406 8:-1.1428579 9:0.86264884 10:0.23748076 11:-0.98573673 12:1.2209141 13:0.12912916 14:-0.82614565 15:1.0582309 16:0.020777101 17:-0.66655737 18:0.89554697 21:0.17 24:0.34 25:0.011292553 26:-0.15352105 27:0.59150618 28:0.022586431 29:-0.30703941 30:0.84301293 31:0.17028822 32:-0.3455146 33:0.98736864 34:0.31799093 35:-0.38398841 36:1.1317252 #
-261.02096066634760518354596570134 2:-1.3 3:0.32438299 5:-1.3 6:0.50438303 7:-0.027675455 8:-1.1318674 9:0.61995125 10:-0.055350378 11:-0.96369386 12:0.73552239 13:-0.041034576 14:-0.74727643 15:0.8760134 16:-0.026718471 17:-0.5308578 18:1.0165066 21:0.17 24:0.34 25:0.061408293 26:0.082884908 27:0.56502992 28:0.12281421 29:0.16576914 30:0.79005539 31:-0.13202031 32:-0.13687056 33:0.69402927 34:-0.38685617 35:-0.43951204 36:0.59800178 #
573.5138574604355881092487834394 2:-1.3 3:0.32438299 5:-1.3 6:0.50438303 7:-0.16102527 8:-1.1077812 9:0.32421994 10:-0.32204822 11:-0.91549999 12:0.14406011 13:-0.30861333 14:-0.87941617 15:0.24204165 16:-0.29517719 17:-0.84332824 18:0.3400259 21:0.17 24:0.34 25:-0.064531878 26:-0.061619166 27:0.50562781 28:-0.12906611 29:-0.12324081 30:0.67124897 31:-0.2043325 32:-0.14594041 33:0.41988659 34:-0.27960098 35:-0.16864309 36:0.16852209 #
193.8356052335682306875241920352 2:-1.3 3:0.32438299 5:-1.3 6:0.50438303 7:0.03593339 8:-1.1570797 9:0.66562217 10:0.071867272 11:-1.0141699 12:0.82686049 13:-0.11182941 14:-1.1204908 15:0.77294171 16:-0.29552621 17:-1.2268116 18:0.71902168 21:0.17 24:0.34 25:0.018193666 26:-0.15406975 27:0.40447119 28:0.036387831 29:-0.30814072 30:0.46894163 31:-0.087165438 32:-0.14415184 33:0.53860086 34:-0.21071924 35:0.019837072 36:0.60826021 #
-117.30478020399965544129372574389 2:-1.3 3:0.32438299 5:-1.3 6:0.50438303 7:0.17412311 8:-1.098263 9:0.50141424 10:0.34824553 11:-0.89654434 12:0.49844527 13:0.013824036 14:-0.82493496 15:0.54448771 16:-0.3205981 17:-0.7533263 18:0.59053046 21:0.17 24:0.34 25:0.21831945 26:-0.18107457 27:0.28694731 28:0.4366383 29:-0.36214882 30:0.23389691 31:0.32087296 32:-0.42240256 33:0.48144689 34:0.20510721 35:-0.48265597 36:0.72899723 #
-220.66593358059441243312903679907 2:-1.3 3:0.32438299 5:-1.3 6:0.50438303 7:-0.005456937 8:-1.0899675 9:0.53141576 10:-0.010913658 11:-0.87994671 12:0.55844796 13:-0.17355847 14:-0.67768216 15:0.42717034 16:-0.33620301 17:-0.47541907 18:0.29589209 21:0.17 24:0.34 25:-0.040620174 26:-0.27344605 27:0.18208595 28:-0.0812397 29:-0.54689205 30:0.024173385 31:-0.046623286 32:-0.40102246 33:0.27266946 34:-0.012006632 35:-0.25515208 36:0.52116662 #
-359.71912003006787017511669546366 2:-1.3 3:0.32438299 5:-1.3 6:0.50438303 7:-0.018406978 8:-1.155852 9:0.57784563 10:-0.036814671 11:-1.0117155 12:0.65130824 13:0.11467904 14:-0.73763514 15:0.51378036 16:0.2661725 17:-0.4635545 18:0.37625185 21:0.17 24:0.34 25:0.19268258 26:-0.04976264 27:0.39566693 28:0.38536757 29:-0.099527337 30:0.45133397 31:0.43156525 32:-0.38657755 33:0.38769683 34:0.47776368 35:-0.67362845 36:0.32405943 #
-116.92070521856277309780125506222 2:-1.3 3:0.32438299 5:-1.3 6:0.50438303 7:0.11123843 8:-1.0583302 9:0.57010186 10:0.22247586 11:-0.81668389 12:0.63581836 13:0.087270059 14:-0.8703714 15:0.51779091 16:-0.047937214 17:-0.92406112 18:0.39976084 21:0.17 24:0.34 25:0.069426849 26:-0.0030006813 27:0.46334696 28:0.13885623 29:-0.0060063484 30:0.58669358 31:-0.030120818 32:-0.43034738 33:0.71935916 34:-0.19909796 35:-0.8546896 36:0.85202461 #
214.56485533271128929300175514072 2:-1.3 3:0.32438299 5:-1.3 6:0.50438303 7:-0.014164364 8:-1.0318705 9:0.39462367 10:-0.028328689 11:-0.76374298 12:0.28486416 13:0.063891545 14:-0.63001931 15:0.48548976 16:0.15611188 17:-0.49629611 18:0.68611544 21:0.17 24:0.34 25:-0.085254662 26:-0.28606555 27:0.39956179 28:-0.17050834 29:-0.5721308 30:0.459122 31:0.22785826 32:-0.44122791 33:0.57251292 34:0.62622523 35:-0.31032544 36:0.68590379 #
285.84624628831744530543801374733 2:-1.3 3:0.32438299 5:-1.3 6:0.50438303 7:-0.050105963 8:-1.0445591 9:0.52653754 10:-0.10021161 11:-0.78912467 12:0.54869205 13:0.0098219421 14:-0.84269005 15:0.49503553 16:0.11985568 17:-0.89625353 18:0.4413788 21:0.17 24:0.34 25:-0.13651089 26:-0.14464167 27:0.42335528 28:-0.27302274 29:-0.28928056 30:0.50671184 31:0.025621161 32:-0.38533658 33:0.71626031 34:0.3242653 35:-0.4813911 36:0.92580926 #
181.00378293710738830668560694903 2:-1.3 3:0.32438299 5:-1.3 6:0.50438303 7:0.18651055 8:-1.1735703 9:0.61154938 10:0.37302041 11:-1.0471684 12:0.71871436 13:0.30032569 14:-0.85115099 15:0.80390447 16:0.22763053 17:-0.65513563 18:0.88909346 21:0.17 24:0.34 25:0.057412807 26:-0.19500877 27:0.50245219 28:0.11482657 29:-0.39001667 30:0.66490549 31:0.31867677 32:-0.45997947 33:0.47218874 34:0.52252793 35:-0.52994132 36:0.27947292 #
267.93418185737465364582021720707 2:-1.3 3:0.32438299 5:-1.3 6:0.50438303 7:0.11037478 8:-1.0859889 9:0.7686789 10:0.22075005 11:-0.87197822 12:1.0329756 13:0.21096396 14:-0.79002857 15:0.72851121 16:0.20117852 17:-0.70807874 18:0.42404711 21:0.17 24:0.34 25:0.035788786 26:-0.14835027 27:0.49466595 28:0.071577571 29:-0.29669854 30:0.64933014 31:0.10732545 32:-0.46518663 33:0.53810763 34:0.14307374 35:-0.63367498 36:0.4268851 #
416.71599078219685452495468780398 2:-1.3 3:0.32438299 5:-1.3 6:0.50438303 7:-0.044551618 8:-1.1298938 9:0.31689835 10:-0.089103676 11:-0.95978546 12:0.12941432 13:-0.12777966 14:-0.93128556 15:0.24602921 16:-0.16645594 17:-0.90278596 18:0.36264539 21:0.17 24:0.34 25:-0.10339818 26:-0.162653 27:0.26380494 28:-0.206798 29:-0.32530737 30:0.18760785 31:-0.25399595 32:-0.57601333 33:0.32087177 34:-0.30119503 35:-0.8267206 36:0.45413497 #
-361.80166607099727116292342543602 2:-1.3 3:0.32438299 5:-1.3 6:0.50438303 7:0.13953666 8:-1.1451249 9:0.46465799 10:0.27907062 11:-0.9903003 12:0.42493114 13:0.41890833 14:-0.72321117 15:0.64206016 16:0.55874377 17:-0.45612171 18:0.85918719 21:0.17 24:0.34 25:-0.12068254 26:-0.2189109 27:0.45966598 28:-0.24135979 29:-0.43781903 30:0.57933694 31:0.091578647 32:-0.54600108 33:0.64087647 34:0.42451847 35:-0.65418106 36:0.7024163 #
254.53379056407169400699785910547 2:-1.3 3:0.32438299 5:-1.3 6:0.50438303 7:0.033941589 8:-1.0867925 9:0.57051361 10:0.067883573 11:-0.87357461 12:0.63664573 13:0.15400337 14:-0.77665913 15:0.85839438 16:0.24012367 17:-0.67974526 18:1.0801448 21:0.17 24:0.34 25:-0.13776921 26:-0.15797323 27:0.45631045 28:-0.27553922 29:-0.31594771 30:0.5726189 31:-0.33665788 32:-0.32573476 33:0.8272782 34:-0.39777675 35:-0.33552304 36:1.0819379 #
1115.454104577645694007514975965 2:-1.3 3:0.32438299 5:-1.3 6:0.50438303 7:0.11347785 8:-1.1449678 9:0.45528278 10:0.22695577 11:-0.98997438 12:0.40617973 13:-0.051756285 14:-0.8332957 15:0.62416112 16:-0.330468 17:-0.67661643 18:0.84214026 21:0.17 24:0.34 25:0.089129806 26:-0.17950636 27:0.52632827 28:0.17826076 29:-0.35901085 30:0.71265817 31:-0.10011034 32:-0.50131327 33:0.49188697 34:-0.37848037 35:-0.64361292 36:0.27111718 #
-81.515512329777578770517720840871 2:-1.3 3:0.32438299 5:-1.3 6:0.50438303 7:-0.01996712 8:-1.1472237 9:0.59715927 10:-0.039934177 11:-0.99444801 12:0.68993556 13:0.21259895 14:-0.77173287 15:0.57035679 16:0.46513206 17:-0.54902029 18:0.45077798 21:0.17 24:0.34 25:-0.060166344 26:0.11997903 27:0.48115921 28:-0.12033227 29:0.23995461 30:0.62231839 31:0.032364272 32:-0.016505836 33:0.56637949 34:0.18506035 35:-0.27296716 36:0.51044095 #
-217.21133720246689335908740758896 2:-1.3 3:0.32438299 5:-1.3 6:0.50438303 7:-0.088746563 8:-0.95072889 9:0.61813486 10:-0.17749316 11:-0.6014924 12:0.73188561 13:0.16685575 14:-0.68203127 15:0.84745198 16:0.5112043 17:-0.76256967 18:0.96301657 21:0.17 24:0.34 25:0.0035991878 26:-0.099601686 27:0.4824931 28:0.0071996064 29:-0.1992017 30:0.62498784 31:0.11282767 32:-0.34383634 33:0.57620555 34:0.21845646 35:-0.48847058 36:0.5274232 #
-356.14669160451836660286062397063 2:-1.3 3:0.32438299 5:-1.3 6:0.50438303 7:-0.19778587 8:-1.2476947 9:0.60035616 10:-0.39557147 11:-1.1953987 12:0.69632781 13:-0.29599512 14:-0.76791888 15:0.70547688 16:-0.19641939 17:-0.34043771 18:0.71462411 21:0.17 24:0.34 25:-0.11426888 26:-0.021932283 27:0.48021942 28:-0.22853678 29:-0.043867018 30:0.62043524 31:-0.083301648 32:-0.15016262 33:0.69617873 34:0.061934244 35:-0.25646043 36:0.77192146 #
147.24151733565358313171600457281 2:-1.3 3:0.32438299 5:-1.3 6:0.50438303 7:-0.0095441844 8:-1.1810193 9:0.55288088 10:-0.019087402 11:-1.062032 12:0.60137814 13:-0.16670829 14:-0.81344938 15:0.54391992 16:-0.31432882 17:-0.56486744 18:0.48646203 21:0.17 24:0.34 25:0.0074583418 26:-0.16895477 27:0.5285033 28:0.01491454 29:-0.33791041 30:0.7170065 31:-0.22900513 32:-0.20874511 33:0.83089 34:-0.47292653 35:-0.079579614 36:0.94477338 #
-145.58611666075529456065851263702 2:-1.3 3:0.32438299 5:-1.3 6:0.50438303 7:0.042618014 8:-0.94769579 9:0.37819269 10:0.085234925 11:-0.59541714 12:0.25200135 13:0.27794293 14:-0.4653466 15:0.42935321 16:0.47065037 17:-0.33527753 18:0.60670435 21:0.17 24:0.34 25:0.11968337 26:-0.19725512 27:0.51210797 28:0.23936799 29:-0.39451012 30:0.68421608 31:0.36420971 32:-0.24092601 33:0.87991595 34:0.489052 35:-0.087341413 36:1.0756166 #
-188.79299093676041820799582637846 2:-1.3 3:0.32438299 5:-1.3 6:0.50438303 7:-0.18578438 8:-1.0872104 9:0.45488805 10:-0.37156847 11:-0.87444443 12:0.40539238 13:0.035247717 14:-0.93066442 15:0.45381379 16:0.44206426 17:-0.98688674 18:0.50223494 21:0.17 24:0.34 25:0.065498009 26:-0.2460411 27:0.35186386 28:0.13099858 29:-0.49208152 30:0.36372796 31:0.1582379 32:-0.57606518 33:0.33422676 34:0.18547903 35:-0.66004664 36:0.30472642 #
-203.76950455514636928455729503185 2:-1.3 3:0.32438299 5:-1.3 6:0.50438303 7:0.004935083 8:-1.2510709 9:0.71935904 10:0.0098702395 11:-1.2021073 12:0.93433833 13:0.10177308 14:-0.87084585 15:0.93790561 16:0.19367607 17:-0.53958201 18:0.94147491 21:0.17 24:0.34 25:0.20967074 26:-0.043203361 27:0.45879421 28:0.41934025 29:-0.086407028 30:0.57758725 31:0.43916515 32:-0.35671854 33:0.70176345 34:0.45898926 35:-0.62703115 36:0.82593852 #
278.12798106789756502621457912028 2:-1.3 3:0.32438299 5:-1.3 6:0.50438303 7:0.11942928 8:-1.2103574 9:0.65629733 10:0.23885868 11:-1.1207261 12:0.80821115 13:0.32779145 14:-1.0487216 15:1.0034918 16:0.41672432 17:-0.97671938 18:1.1987724 21:0.17 24:0.34 25:0.081808232 26:-0.22781049 27:0.42656776 28:0.16361679 29:-0.45562142 30:0.51313502 31:0.13806094 32:-0.48717576 33:0.74195164 34:0.11250519 35:-0.51872993 36:0.97076899 #
196.86267610696319252383545972407 2:-1.3 3:0.32438299 5:-1.3 6:0.50438303 7:0.046796475 8:-1.0920378 9:0.53496027 10:0.093593128 11:-0.88409871 12:0.56553608 13:0.092357188 14:-0.72996211 15:0.7253117 16:0.091121897 17:-0.57582814 18:0.88508654 21:0.17 24:0.34 25:-0.026542621 26:0.071421824 27:0.610057 28:-0.053085625 29:0.14284243 30:0.88011324 31:0.10160401 32:-0.031110026 33:1.0125479 34:0.25629395 35:-0.20506218 36:1.1449838 #
212.78641228704447030395385809243 2:-1.3 3:0.32438299 5:-1.3 6:0.50438303 7:-0.1046399 8:-1.3445292 9:0.71051902 10:-0.20928009 11:-1.3890425 12:0.91665632 13:-0.12908439 14:-1.1615678 15:0.81299311 16:-0.048889492 17:-0.93409395 18:0.7093308 21:0.17 24:0.34 25:0.025551895 26:-0.22940052 27:0.55171347 28:0.051103365 29:-0.45880088 30:0.76342583 31:-0.047349665 32:-0.58727199 33:0.69522095 34:-0.14580302 35:-0.71574336 36:0.62701625 #
273.5645645674614456765993963927 2:-1.3 3:0.32438299 5:-1.3 6:0.50438303 7:-0.14370626 8:-1.3292325 9:0.70844412 10:-0.28741205 11:-1.3584785 12:0.91250437 13:-0.24530903 14:-1.2772559 15:0.45159218 16:-0.20320635 17:-1.1960335 18:-0.00932186 21:0.17 24:0.34 25:0.1126262 26:-0.16690205 27:0.33370328 28:0.22525324 29:-0.33380461 30:0.32740736 31:0.34196922 32:-0.43575466 33:0.61807621 34:0.45868587 35:-0.53770334 36:0.90874553 #
-108.77110011254680443926190491766 2:-1.3 3:0.32438299 5:-1.3 6:0.50438303 7:0.17578715 8:-1.2057757 9:0.66599792 10:0.35157344 11:-1.1116009 12:0.82761139 13:0.12660481 14:-0.84616363 15:0.57476068 16:-0.098364264 17:-0.58072495 18:0.32190725 21:0.17 24:0.34 25:-0.079197675 26:-0.018858561 27:0.5357613 28:-0.15839295 29:-0.037716158 30:0.73152411 31:0.0014911282 32:-0.18360937 33:0.75890064 34:0.16137686 35:-0.32949913 36:0.78627825 #
-39.118674587773817563629563665017 2:-1.3 3:0.32438299 5:-1.3 6:0.50438303 7:0.15505841 8:-1.2539977 9:0.49314454 10:0.31011742 11:-1.2080339 12:0.48190349 13:0.47644699 14:-0.98820716 15:0.47248712 16:0.64277756 17:-0.76838648 18:0.46306914 21:0.17 24:0.34 25:0.067695901 26:-0.25073612 27:0.40000442 28:0.13539414 29:-0.5014748 30:0.46000955 31:0.11744027 32:-0.48990786 33:0.63689727 34:0.099488363 35:-0.47834045 36:0.81378758 #
270.19283878955639011110179126263 2:-1.3 3:0.32438299 5:-1.3 6:0.50438303 7:0.00094433333 8:-1.0544215 9:0.60711396 10:0.0018885044 11:-0.80886859 12:0.70984501 13:0.096647695 14:-0.59718359 15:0.67306423 16:0.19140729 17:-0.38549823 18:0.63628399 21:0.17 24:0.34 25:0.015311008 26:-0.28407496 27:0.26238519 28:0.030620575 29:-0.56814963 30:0.18477397 31:0.29007989 32:-0.65052205 33:0.25368944 34:0.54953843 35:-0.73289293 36:0.32260677 #
47.7148094487146678943645383697 2:-1.3 3:0.32438299 5:-1.3 6:0.50438303 7:-0.06663736 8:-1.0640161 9:0.47741246 10:-0.13327311 11:-0.82803363 12:0.45044124 13:0.045158673 14:-0.47631314 15:0.21692954 16:0.2235913 17:-0.12459181 18:-0.016584095 21:0.17 24:0.34 25:0.22508353 26:-0.18275249 27:0.12183965 28:0.45017043 29:-0.3655028 30:-0.096317708 31:0.13391501 32:-0.80812079 33:0.033251517 34:-0.18233788 35:-1.2507395 36:0.16282097 #
-553.13080229436059198633302003145 2:-1.3 3:0.32438299 5:-1.3 6:0.50438303 7:-0.07330136 8:-1.0487158 9:0.44199082 10:-0.14660144 11:-0.79740465 12:0.37959799 13:0.017884195 14:-0.79369098 15:0.46084598 16:0.18236987 17:-0.78997511 18:0.54209262 21:0.17 24:0.34 25:0.15436876 26:-0.090226263 27:0.24384853 28:0.30873668 29:-0.1804563 30:0.14769505 31:0.26820469 32:-0.39478987 33:0.42402965 34:0.22767214 35:-0.6091274 36:0.70036304 #
-7.3064720617132223878797958604991 2:-1.3 3:0.32438299 5:-1.3 6:0.50438303 7:-0.16896944 8:-1.3095578 9:0.53691673 10:-0.33793899 11:-1.3191324 12:0.56945115 13:-0.34375587 14:-1.2074448 15:0.79889601 16:-0.34957245 17:-1.0957601 18:1.0283421 21:0.17 24:0.34 25:-0.10467942 26:-0.030370625 27:0.59820843 28:-0.20935842 29:-0.06074262 30:0.85641819 31:-0.21679699 32:-0.41202399 33:0.80325359 34:-0.22423558 35:-0.76330531 36:0.75009 #
-111.08603816125697960615070769563 2:-1.3 3:0.32438299 5:-1.3 6:0.50438303 7:-0.03170019 8:-1.0610079 9:0.48470125 10:-0.063400485 11:-0.82204258 12:0.46501884 13:-0.35434872 14:-0.76678753 15:0.31926873 16:-0.64529681 17:-0.71153355 18:0.17351797 21:0.17 24:0.34 25:-0.13298745 26:-0.12825835 27:0.33379921 28:-0.26597434 29:-0.25651664 30:0.32760096 31:-0.41139597 32:-0.42198166 33:0.29860339 34:-0.55681634 35:-0.58744705 36:0.26960629 #
-159.8072205945620112288452219218 2:-1.3 3:0.32438299 5:-1.3 6:0.50438303 7:-0.12856594 8:-0.95401126 9:0.63091958 10:-0.25713223 11:-0.60807723 12:0.75745481 13:0.0075215292 14:-0.81485331 15:0.891644 16:0.27217501 17:-1.0216278 18:1.0258307 21:0.17 24:0.34 25:-0.26567435 26:-0.070121147 27:0.37720239 28:-0.53134644 29:-0.14023957 30:0.41441119 31:-0.087612711 32:-0.16960485 33:0.90445966 34:0.35612267 35:-0.19896635 36:1.3945101 #
-164.44636195657122357260959688574 2:-1.3 3:0.32438299 5:-1.3 6:0.50438303 7:-0.036359072 8:-1.0904534 9:0.44447964 10:-0.072717816 11:-0.88090384 12:0.3845773 13:0.007360531 14:-0.90138143 15:0.78090411 16:0.087439701 17:-0.92185831 18:1.1772321 21:0.17 24:0.34 25:-0.13487646 26:-0.1806483 27:0.4997181 28:-0.26975372 29:-0.361296 30:0.65943789 31:-0.17334792 32:-0.54519784 33:0.57350671 34:-0.076943159 35:-0.7291016 36:0.48757532 #
466.58945428668567956265178509057 2:-1.3 3:0.32438299 5:-1.3 6:0.50438303 7:0.022718554 8:-1.0791167 9:0.45865935 10:0.045437943 11:-0.85821587 12:0.41293737 13:-0.19357638 14:-0.83807117 15:0.49876267 16:-0.43259037 17:-0.81792748 18:0.58459002 21:0.17 24:0.34 25:-0.096548878 26:-0.19923195 27:0.53215396 28:-0.19309819 29:-0.39846185 30:0.7243017 31:-0.15359017 32:-0.61886531 33:0.72992224 34:-0.11408242 35:-0.83926696 36:0.73554236 #
148.84301447287813857656146865338 2:-1.3 3:0.32438299 5:-1.3 6:0.50438303 7:0.14828026 8:-1.1713512 9:0.48510045 10:0.29655948 11:-1.0426958 12:0.46581894 13:0.40294474 14:-0.97234178 15:0.5868119 16:0.50932997 17:-0.90198547 18:0.7078054 21:0.17 24:0.34 25:0.24862087 26:0.056576438 27:0.45646894 28:0.49723953 29:0.11315379 30:0.5729388 31:0.43035695 32:-0.14910747 33:0.49329913 34:0.36347315 35:-0.41137102 36:0.41365898 #
-671.81221111089689657092094421387 2:-1.3 3:0.32438299 5:-1.3 6:0.50438303 7:-0.036284771 8:-1.1432396 9:0.62689632 10:-0.072570093 11:-0.98644996 12:0.74941313 13:-0.053007755 14:-0.76105022 15:0.84137112 16:-0.033445757 17:-0.53564918 18:0.93333101 21:0.17 24:0.34 25:-0.072389551 26:-0.21171631 27:0.50450701 28:-0.14477904 29:-0.42343053 30:0.66901129 31:-0.28070912 32:-0.42487904 33:0.58567154 34:-0.41663831 35:-0.42632931 36:0.5023303 #
552.26982753692004735057707875967 2:-1.3 3:0.32438299 5:-1.3 6:0.50438303 7:0.086259879 8:-1.1754774 9:0.51456845 10:0.17251934 11:-1.0508915 12:0.52475822 13:0.13384461 14:-0.80825663 15:0.52733308 16:0.095169917 17:-0.56561762 18:0.52991104 21:0.17 24:0.34 25:-0.16604325 26:-0.14189249 27:0.38776436 28:-0.33209255 29:-0.28378424 30:0.43552679 31:0.067937471 32:-0.28993496 33:0.32075804 34:0.46796435 35:-0.29609075 36:0.20598625 #
-702.55638328658528735104482620955 2:-1.3 3:0.32438299 5:-1.3 6:0.50438303 7:0.10101402 8:-1.0593191 9:0.59633118 10:0.20202777 11:-0.81872016 12:0.68827474 13:-0.046647705 14:-0.72372073 15:0.94334865 16:-0.29532388 17:-0.62871933 18:1.1984196 21:0.17 24:0.34 25:0.036919508 26:-0.10508539 27:0.38035387 28:0.073839232 29:-0.21016638 30:0.42070618 31:0.041782901 32:-0.39624646 33:0.64086741 34:0.0097268196 35:-0.58232051 36:0.86102951 #
128.88914678444177752680843695998 2:-1.3 3:0.32438299 5:-1.3 6:0.50438303 7:0.18235299 8:-0.99458134 9:0.3981671 10:0.36470485 11:-0.68919283 12:0.29195064 13:0.090627708 14:-0.60980171 15:0.25439605 16:-0.18344983 17:-0.53041261 18:0.21684073 21:0.17 24:0.34 25:-0.011650559 26:-0.11053703 27:0.63667196 28:-0.023299485 29:-0.22107188 30:0.93334454 31:0.16996612 32:-0.43686947 33:0.82572335 34:0.36323267 35:-0.65266496 36:0.71810406 #
-267.3619130911006323003675788641 2:-1.3 3:0.32438299 5:-1.3 6:0.50438303 7:-0.12109096 8:-1.0389246 9:0.36616895 10:-0.24218136 11:-0.77785486 12:0.22795406 13:-0.1715025 14:-0.548581 15:0.47719306 16:-0.10082296 17:-0.31931138 18:0.72643197 21:0.17 24:0.34 25:-0.13397458 26:-0.12786831 27:0.39185855 28:-0.26794878 29:-0.25573802 30:0.44371927 31:-0.25259206 32:-0.44817662 33:0.36951318 34:-0.23723519 35:-0.64061421 36:0.29530886 #
268.44111899795979070404428057373 2:-1.3 3:0.32438299 5:-1.3 6:0.50438303 7:-0.091238506 8:-1.1422292 9:0.49012306 10:-0.18247664 11:-0.98449802 12:0.47586212 13:-0.44047749 14:-0.85227668 15:0.61674917 16:-0.69847685 17:-0.72005832 18:0.7576369 21:0.17 24:0.34 25:-0.12779506 26:0.044266861 27:0.40126422 28:-0.25558954 29:0.088534355 30:0.46253607 31:-0.26392856 32:-0.09419135 33:0.46220282 34:-0.27226663 35:-0.27691755 36:0.46187115 #
76.484009531103879453439731150866 2:-1.3 3:0.32438299 5:-1.3 6:0.50438303 7:0.0051776152 8:-1.1388606 9:0.68434554 10:0.010355214 11:-0.97772855 12:0.8643083 13:0.082270794 14:-0.74480784 15:0.73273391 16:0.15418635 17:-0.51188385 18:0.60115921 21:0.17 24:0.34 25:0.04498446 26:-0.16217454 27:0.34151474 28:0.08996965 29:-0.32434788 30:0.34303012 31:0.10619213 32:-0.2223869 33:0.78420341 34:0.12241372 35:-0.12042496 36:1.2253765 #
91.42973303163117293479444924742 2:-1.3 3:0.32438299 5:-1.3 6:0.50438303 7:-0.12273892 8:-1.1395134 9:0.58446789 10:-0.24547714 11:-0.97911805 12:0.66454583 13:-0.32298499 14:-0.71913522 15:0.63536209 16:-0.40049276 17:-0.45915097 18:0.6061731 21:0.17 24:0.34 25:0.095988229 26:-0.18837948 27:0.30792013 28:0.19197476 29:-0.37676126 30:0.27584532 31:-0.091232449 32:-0.49495611 33:0.31957042 34:-0.37444109 35:-0.61315113 36:0.36329627 #
420.60533191204791592099354602396 2:-1.3 3:0.32438299 5:-1.3 6:0.50438303 7:-0.016749037 8:-0.98308831 9:0.7696628 10:-0.033498272 11:-0.66620916 12:1.0349414 13:-0.053143673 14:-0.79437888 15:1.1653873 16:-0.072789297 17:-0.92255104 18:1.2958319 21:0.17 24:0.34 25:-0.022139182 26:-0.30408534 27:0.13089176 28:-0.044277076 29:-0.60816962 30:-0.078215793 31:-0.24252667 32:-0.47252443 33:0.20997024 34:-0.44077575 35:-0.33687562 36:0.49815798 #
-111.4598628601148107009066734463 2:-1.3 3:0.32438299 5:-1.3 6:0.50438303 7:0.10903056 8:-1.1168075 9:0.60291564 10:0.21806024 11:-0.93371904 12:0.70143878 13:-0.025440404 14:-1.027853 15:0.548944 16:-0.26894158 17:-1.1219906 18:0.396442 21:0.17 24:0.34 25:-0.15670541 26:-0.079310149 27:0.33741558 28:-0.31341296 29:-0.15862891 30:0.33483872 31:-0.42322797 32:-0.39657316 33:0.50284547 34:-0.53304499 35:-0.63452041 36:0.67085344 #
-173.98241882046676209938596002758 2:-1.3 3:0.32438299 5:-1.3 6:0.50438303 7:0.051836863 8:-1.1892503 9:0.60140848 10:0.10367287 11:-1.0784951 12:0.69843376 13:0.012490035 14:-0.84816337 15:0.6864593 16:-0.078692958 17:-0.61784035 18:0.67448288 21:0.17 24:0.34 25:0.021236299 26:-0.24050763 27:0.41870359 28:0.042479966 29:-0.4810245 30:0.49741125 31:0.27465817 32:-0.56689203 33:0.6669699 34:0.50684059 35:-0.65276414 36:0.83653069 #
745.04625492805178055277792736888 2:-1.3 3:0.32438299 5:-1.3 6:0.50438303 7:0.087438427 8:-1.2320921 9:0.74181831 10:0.17487705 11:-1.1641723 12:0.97925514 13:0.1884013 14:-0.89083147 15:0.99759197 16:0.2019261 17:-0.61748624 18:1.0159321 21:0.17 24:0.34 25:-0.016061647 26:-0.073408104 27:0.42667338 28:-0.032128558 29:-0.14681152 30:0.51334524 31:-0.030999428 32:-0.48630509 33:0.55239278 34:-0.029873315 35:-0.82579684 36:0.59143949 #
302.60663746222184045109315775335 2:-1.3 3:0.32438299 5:-1.3 6:0.50438303 7:-0.12858397 8:-1.0973982 9:0.38442388 10:-0.2571677 11:-0.89468944 12:0.26447475 13:-0.26919007 14:-0.63499403 15:0.2554816 16:-0.28121284 17:-0.3752948 18:0.24649464 21:0.17 24:0.34 25:0.026836867 26:-0.22599787 27:0.51641881 28:0.053677268 29:-0.45199192 30:0.69283146 31:-0.083876148 32:-0.42371115 33:0.53801614 34:-0.22142693 35:-0.39543387 36:0.38319772 #
46.025416772064801307351444847882 2:-1.3 3:0.32438299 5:-1.3 6:0.50438303 7:-0.15152048 8:-0.99369562 9:0.59213942 10:-0.30303943 11:-0.68726438 12:0.67990524 13:-0.22292031 14:-0.72766745 15:0.73641038 16:-0.14280084 17:-0.76806825 18:0.79292166 21:0.17 24:0.34 25:0.30295005 26:-0.3895283 27:0.28152576 28:0.60589969 29:-0.77905422 30:0.22304286 31:0.15925699 32:-0.74366719 33:0.55972666 34:-0.28738615 35:-0.70828241 36:0.89640719 #
-541.63586336976402435539057478309 2:-1.3 3:0.32438299 5:-1.3 6:0.50438303 7:-0.00022125864 8:-1.0609862 9:0.5904327 10:-0.00044129571 11:-0.82191879 12:0.6764828 13:0.17135213 14:-0.72019684 15:0.7614308 16:0.34314522 17:-0.61848146 18:0.84637469 21:0.17 24:0.34 25:-0.052451663 26:-0.21218999 27:0.23162366 28:-0.10489496 29:-0.42438933 30:0.12323447 31:-0.053357229 32:-0.52335221 33:0.40706885 34:-0.0018130931 35:-0.62231648 36:0.69090223 #
118.2572722317963496152515290305 2:-1.3 3:0.32438299 5:-1.3 6:0.50438303 7:-0.14823698 8:-1.3326826 9:0.67007536 10:-0.29647431 11:-1.3653808 12:0.83576715 13:-0.15392859 14:-1.0677251 15:0.86692953 16:-0.011383495 17:-0.77006781 18:0.8980903 21:0.17 24:0.34 25:-0.045569241 26:0.075177059 27:0.38354975 28:-0.091138527 29:0.15035066 30:0.42709816 31:0.14489393 32:0.058125138 33:0.51495814 34:0.380927 35:-0.034102637 36:0.60281771 #
394.73104501251134479389293119311 2:-1.3 3:0.32438299 5:-1.3 6:0.50438303 7:0.14994349 8:-1.0869514 9:0.41756618 10:0.29988527 11:-0.87403303 12:0.33074227 13:0.27308595 14:-0.73272544 15:0.66292411 16:0.24628672 17:-0.59142041 18:0.99510437 21:0.17 24:0.34 25:0.0084873606 26:-0.027661715 27:0.48737064 28:0.016967757 29:-0.055324726 30:0.6347546 31:0.024412548 32:-0.26069662 33:0.57359344 34:0.03185299 35:-0.46606934 36:0.51243609 #
-49.651373741701235076106968335807 2:-1.3 3:0.32438299 5:-1.3 6:0.50438303 7:-0.069422722 8:-1.0443003 9:0.64904052 10:-0.13884693 11:-0.78868192 12:0.79369283 13:-0.24956764 14:-0.72774571 15:0.65873021 16:-0.36028776 17:-0.66682231 18:0.5237627 21:0.17 24:0.34 25:-0.072050862 26:-0.069755986 27:0.34171721 28:-0.14409405 29:-0.1395205 30:0.34344748 31:-0.1139276 32:-0.31124401 33:0.65966952 34:-0.08375562 35:-0.48296914 36:0.97589868 #
-112.12793297877500720005627954379 2:-1.3 3:0.32438299 5:-1.3 6:0.50438303 7:-0.068064556 8:-1.0064793 9:0.64047736 10:-0.13612537 11:-0.7129212 12:0.77657443 13:-0.24194914 14:-0.69904083 15:0.6689654 16:-0.34777227 17:-0.68515372 18:0.56135774 21:0.17 24:0.34 25:-0.025136827 26:-0.076177888 27:0.54647607 28:-0.050277706 29:-0.15235114 30:0.75294065 31:-0.19835001 32:-0.32362646 33:0.57297045 34:-0.34642756 35:-0.49489605 36:0.3929944 #
-200.84202749635829832186573185027 2:-1.3 3:0.32438299 5:-1.3 6:0.50438303 7:-0.060583234 8:-1.0941926 9:0.63615406 10:-0.12117131 11:-0.88832957 12:0.76792127 13:-0.14665996 14:-0.96121496 15:0.91729319 16:-0.17214897 17:-1.0341319 18:1.06665 21:0.17 24:0.34 25:-0.016542388 26:-0.076353796 27:0.49616024 28:-0.033047687 29:-0.15274037 30:0.65234506 31:-0.088950269 32:-0.52060974 33:0.72472072 34:-0.14482319 35:-0.88850385 36:0.79711044 #
-126.09773768092293266818160191178 2:-1.3 3:0.32438299 5:-1.3 6:0.50438303 7:0.13074203 8:-1.1832836 9:0.60674685 10:0.26148096 11:-1.0666203 12:0.70911193 13:0.18485054 14:-0.95404804 15:0.54974473 16:0.10821977 17:-0.84148312 18:0.39037913 21:0.17 24:0.34 25:0.15505877 26:-0.15079245 27:0.23221815 28:0.31012446 29:-0.30158478 30:0.12444599 31:0.079394452 32:-0.34588069 33:0.17680661 34:-0.15133256 35:-0.39017454 36:0.22917192 #
680.99259716347910398326348513365 2:-1.3 3:0.32438299 5:-1.3 6:0.50438303 7:-0.063984387 8:-1.1773655 9:0.47542542 10:-0.12796655 11:-1.05475 12:0.44647238 13:0.022903843 14:-0.77681756 15:0.29321474 16:0.17377567 17:-0.49886292 18:0.13996544 21:0.17 24:0.34 25:0.03786486 26:-0.060615912 27:0.50713986 28:0.07571087 29:-0.12121056 30:0.67426211 31:0.16891503 32:-0.4977318 33:0.78857064 34:0.26210603 35:-0.87424332 36:0.90287083 #
180.70583234183482090884353965521 2:-1.3 3:0.32438299 5:-1.3 6:0.50438303 7:0.052316055 8:-1.1606959 9:0.45816723 10:0.10463034 11:-1.0213838 12:0.41194919 13:-0.043276303 14:-0.80551136 15:0.51320219 16:-0.19118288 17:-0.58964026 18:0.61444819 21:0.17 24:0.34 25:-0.15877619 26:-0.13483135 27:0.47257638 28:-0.31754074 29:-0.26967442 30:0.60516143 31:-0.35692805 32:-0.39259082 33:0.62853914 34:-0.39630535 35:-0.51552469 36:0.65192038 #
179.50515645284843913032091222703 2:-1.3 3:0.32438299 5:-1.3 6:0.50438303 7:0.22392981 8:-1.2809511 9:0.60121602 10:0.44786075 11:-1.2618339 12:0.69805259 13:0.3745769 14:-0.87367833 15:0.43001202 16:0.3012923 17:-0.48552075 18:0.16197658 21:0.17 24:0.34 25:-0.07548739 26:-0.18148509 27:0.33045834 28:-0.1509801 29:-0.36296815 30:0.32091555 31:0.09314736 32:-0.64479095 33:0.38187078 34:0.33727115 35:-0.92660958 36:0.44282469 #
-202.40460692940149556307005695999 2:-1.3 3:0.32438299 5:-1.3 6:0.50438303 7:-0.32813337 8:-1.2722239 9:0.38235655 10:-0.65626419 11:-1.2444855 12:0.26032624 13:-0.35484171 14:-0.95446146 15:0.38429669 16:-0.053417236 17:-0.66442651 18:0.5082649 21:0.17 24:0.34 25:-0.064381711 26:-0.1842458 27:0.37236771 28:-0.12876934 29:-0.3684864 30:0.40473607 31:-0.15001644 32:-0.5814321 33:0.44844708 34:-0.17126937 35:-0.79437441 36:0.49215665 #
103.28168964757568915047158952802 2:-1.3 3:0.32438299 5:-1.3 6:0.50438303 7:-0.14917962 8:-1.2463967 9:0.30819726 10:-0.29835916 11:-1.1928146 12:0.11200838 13:-0.39278007 14:-0.9798553 15:0.23275594 16:-0.48720053 17:-0.76689768 18:0.35350308 21:0.17 24:0.34 25:-0.12671077 26:-0.0010977885 27:0.39756277 28:-0.2534236 29:-0.0021980801 30:0.45512334 31:-0.29280156 32:-0.53958178 33:0.33263436 34:-0.33218122 35:-1.0769666 36:0.21014725 #
156.02935216629995807124942075461 2:-1.3 3:0.32438299 5:-1.3 6:0.50438303 7:-0.027523853 8:-0.96867651 9:0.60877854 10:-0.055047289 11:-0.63734132 12:0.71317524 13:0.14947456 14:-0.45076227 15:0.72350621 16:0.35399711 17:-0.26418656 18:0.73383594 21:0.17 24:0.34 25:-0.090952069 26:-0.40304351 27:0.19842392 28:-0.18190122 29:-0.80609381 30:0.056849319 31:0.40952337 32:-0.71558082 33:0.18678333 34:1.00095 35:-0.62506849 36:0.31672043 #
249.55980889316464299554354511201 2:-1.3 3:0.32438299 5:-1.3 6:0.50438303 7:-0.098699622 8:-1.1056399 9:0.53101951 10:-0.19740027 11:-0.91126609 12:0.55764222 13:0.011119056 14:-0.63020498 15:0.44155857 16:0.21963917 17:-0.34917974 18:0.32545182 21:0.17 24:0.34 25:0.12834072 26:-0.21017346 27:0.59969217 28:0.25671765 29:-0.42038783 30:0.85941058 31:0.17112641 32:-0.42846727 33:0.5967328 34:0.085563816 35:-0.436575 36:0.3340697 #
284.58720935427589893151889555156 2:-1.3 3:0.32438299 5:-1.3 6:0.50438303 7:-0.025126891 8:-1.1050479 9:0.61737138 10:-0.050253674 11:-0.91019452 12:0.73035151 13:-0.32019341 14:-0.95009071 15:0.74334383 16:-0.59013206 17:-0.98999047 18:0.75632912 21:0.17 24:0.34 25:-0.29841509 26:-0.1169688 27:0.46942294 28:-0.59682679 29:-0.23394375 30:0.5988555 31:-0.6987434 32:-0.52895623 33:0.55096561 34:-0.80065781 35:-0.82397246 36:0.50307947 #
-405.30228738386739451016183011234 2:-1.3 3:0.32438299 5:-1.3 6:0.50438303 7:-0.036552154 8:-1.1513247 9:0.70768726 10:-0.073096827 11:-1.0027212 12:0.91099566 13:0.024014577 14:-0.82071036 15:0.72242206 16:0.12112569 17:-0.63868034 18:0.53386796 21:0.17 24:0.34 25:-0.10564746 26:-0.10363775 27:0.47095567 28:-0.21133611 29:-0.20723352 30:0.60188353 31:-0.30130875 32:-0.46498528 33:0.79333711 34:-0.39131606 35:-0.72268158 36:0.98477834 #
-30.990184169970312666464451467618 2:-1.3 3:0.32438299 5:-1.3 6:0.50438303 7:0.2005641 8:-1.2433903 9:0.71940434 10:0.40113068 11:-1.1868405 12:0.93442267 13:0.33550328 14:-1.0093135 15:0.84260499 16:0.26987785 17:-0.83178538 18:0.75078744 21:0.17 24:0.34 25:0.1262126 26:-0.22540608 27:0.3000361 28:0.25242278 29:-0.45081058 30:0.26007104 31:0.24021171 32:-0.16680302 33:0.86175662 34:0.22799703 35:0.11720737 36:1.4634433 #
-143.4064920128825519896054174751 2:-1.3 3:0.32438299 5:-1.3 6:0.50438303 7:0.14772128 8:-1.1170402 9:0.31135428 10:0.29544637 11:-0.9338333 12:0.11834506 13:0.25636709 14:-0.80927795 15:0.33020121 16:0.2172868 17:-0.68469715 18:0.54207546 21:0.17 24:0.34 25:0.040777106 26:-0.17345805 27:0.44135121 28:0.081539676 29:-0.34688714 30:0.54266208 31:-0.014423136 32:-0.41055644 33:0.74744314 34:-0.11039808 35:-0.4742077 36:0.95220697 #
-90.082370527920971881030709482729 2:-1.3 3:0.32438299 5:-1.3 6:0.50438303 7:0.072707199 8:-1.0460292 9:0.37691119 10:0.14541741 11:-0.79199988 12:0.24945138 13:0.13939674 14:-0.601403 15:0.39767689 16:0.13337573 17:-0.41078484 18:0.54592025 21:0.17 24:0.34 25:0.14008532 26:0.05012621 27:0.54183388 28:0.28014505 29:0.10028376 30:0.74364185 31:0.25758088 32:-0.2657128 33:0.54990208 34:0.23499717 35:-0.63168335 36:0.3561511 #
-78.563120492945884620894503314048 2:-1.3 3:0.32438299 5:-1.3 6:0.50438303 7:-0.33969584 8:-1.3500633 9:0.69360697 10:-0.67939168 11:-1.4001764 12:0.88282448 13:-0.3956112 14:-0.65848827 15:0.89599055 16:-0.11183158 17:0.083198816 18:0.90914947 21:0.17 24:0.34 25:-0.088204309 26:-0.0016944702 27:0.39730394 28:-0.17640381 29:-0.0033991882 30:0.45460817 31:0.094922289 32:-0.26581493 33:0.56316 34:0.36625123 35:-0.52823484 36:0.6717124 #
123.81900187734204621392564149573 2:-1.3 3:0.32438299 5:-1.3 6:0.50438303 7:-0.068527631 8:-1.3805816 9:0.81751841 10:-0.1370526 11:-1.4610178 12:1.130668 13:-0.070220374 14:-1.0372444 15:1.2464149 16:-0.0033882349 17:-0.61344725 18:1.3621775 21:0.17 24:0.34 25:0.2809588 26:0.054294642 27:0.52598733 28:0.56190115 29:0.10861122 30:0.71196216 31:0.47359449 32:-0.29444608 33:0.80210805 34:0.3852753 35:-0.69749486 36:0.89224398 #
-596.99104718267767566430848091841 2:-1.3 3:0.32438299 5:-1.3 6:0.50438303 7:-0.12041132 8:-1.1662241 9:0.57671446 10:-0.24081874 11:-1.0324314 12:0.64905262 13:-0.48681268 14:-1.1019257 15:0.78079176 16:-0.7328071 17:-1.171398 18:0.91254455 21:0.17 24:0.34 25:-0.08043281 26:-0.19715485 27:0.40382636 28:-0.16089423 29:-0.39428419 30:0.46763206 31:-0.1754908 32:-0.60009456 33:0.42220712 34:-0.19010949 35:-0.80588478 36:0.37677082 #
77.315147161807232123464928008616 2:-1.3 3:0.32438299 5:-1.3 6:0.50438303 7:0.049418129 8:-1.2324026 9:0.40467262 10:0.098834291 11:-1.1648706 12:0.30495715 13:0.16030477 14:-0.74915463 15:0.25765011 16:0.22177388 17:-0.33345369 18:0.21033911 21:0.17 24:0.34 25:0.090649083 26:-0.20303422 27:0.31970635 28:0.18130796 29:-0.40608177 30:0.29941806 31:0.47851098 32:-0.41086623 33:0.4544811 34:0.77572203 35:-0.41565213 36:0.60955149 #
139.51082938344751482873107306659 2:-1.3 3:0.32438299 5:-1.3 6:0.50438303 7:0.03324363 8:-1.2386 9:0.5332824 10:0.066482075 11:-1.1774343 12:0.56216061 13:0.10660877 14:-0.84671605 15:0.51376408 16:0.14673634 17:-0.51602554 18:0.46534291 21:0.17 24:0.34 25:0.26218909 26:-0.058966026 27:0.47650689 28:0.52440333 29:-0.11797169 30:0.61305767 31:0.16249532 32:-0.26589388 33:0.63520801 34:-0.19939215 35:-0.41384509 36:0.65737861 #
-108.88639861842816003445477690548 2:-1.3 3:0.32438299 5:-1.3 6:0.50438303 7:0.10842796 8:-1.1826196 9:0.73988664 10:0.21685331 11:-1.0651532 12:0.97539955 13:-0.12718536 14:-0.74689054 15:0.79309201 16:-0.47122568 17:-0.42862117 18:0.61079162 21:0.17 24:0.34 25:-0.07234282 26:-0.22999088 27:0.30526987 28:-0.14468265 29:-0.45997059 30:0.27054319 31:-0.18061098 32:-0.59348536 33:0.48200041 34:-0.21653783 35:-0.72699827 36:0.69345754 #
-53.338548985975428706751699792221 2:-1.3 3:0.32438299 5:-1.3 6:0.50438303 7:-0.11058212 8:-0.88366556 9:0.72070718 10:-0.22116402 11:-0.46749094 12:0.93701738 13:0.12462106 14:-0.33826318 15:0.89706355 16:0.47040772 17:-0.20903681 18:0.85709327 21:0.17 24:0.34 25:-0.15425307 26:-0.54904205 27:0.026260145 28:-0.30849922 29:-1.0980967 30:-0.28745762 31:0.57876647 32:-0.78767437 33:0.019874597 34:1.4660379 35:-0.47724998 36:0.32721907 #
-92.637733802711011321662226691842 2:-1.3 3:0.32438299 5:-1.3 6:0.50438303 7:-0.16761798 8:-1.1624439 9:0.50501305 10:-0.33523613 11:-1.0250242 12:0.50563365 13:-0.44188431 14:-0.75240141 15:0.48142055 16:-0.54853171 17:-0.47978544 18:0.45719692 21:0.17 24:0.34 25:-0.18884796 26:-0.18953569 27:0.34536365 28:-0.37768704 29:-0.37909052 30:0.3507424 31:-0.089589387 32:-0.56833118 33:0.42418164 34:0.198516 35:-0.75758898 36:0.49762574 #
-707.14662959032364142331061884761 2:-1.3 3:0.32438299 5:-1.3 6:0.50438303 7:-0.0061872089 8:-1.1875012 9:0.50979459 10:-0.012379982 11:-1.0751162 12:0.51520342 13:0.18002591 14:-1.056317 15:0.56283367 16:0.37242985 17:-1.0375187 18:0.61046195 21:0.17 24:0.34 25:-0.0058206096 26:-0.094911389 27:0.44470897 28:-0.011637392 29:-0.18982598 30:0.54943436 31:0.20791735 32:-0.4259716 33:0.53140497 34:0.42747584 35:-0.66212517 36:0.51338118 #
225.96759909933862786601821426302 2:-1.3 3:0.32438299 5:-1.3 6:0.50438303 7:0.037648413 8:-1.0126181 9:0.61288393 10:0.075296856 11:-0.72510409 12:0.72139186 13:0.38757491 14:-0.79730994 15:0.47088745 16:0.69985056 17:-0.86952329 18:0.22038688 21:0.17 24:0.34 25:0.14953652 26:-0.20296904 27:0.40618286 28:0.2990692 29:-0.40593675 30:0.47235432 31:0.36318374 32:-0.60924494 33:0.57720625 34:0.42729604 35:-0.8125456 36:0.68205392 #
126.85989690726648859708802774549 2:-1.3 3:0.32438299 5:-1.3 6:0.50438303 7:-0.078940295 8:-1.0559489 9:0.37535444 10:-0.15787984 11:-0.81192315 12:0.2463239 13:-0.1049003 14:-0.84388638 15:0.46899328 16:-0.051922396 17:-0.87586087 18:0.69166291 21:0.17 24:0.34 25:-0.10229181 26:-0.21717015 27:0.32802996 28:-0.2045866 29:-0.4343383 30:0.31604531 31:-0.18320251 32:-0.21271196 33:0.55981791 34:-0.16181964 35:0.0089339092 36:0.80358976 #
-12.378742389087705078054568730295 2:-1.3 3:0.32438299 5:-1.3 6:0.50438303 7:-0.20997044 8:-0.97131664 9:0.54020208 10:-0.41993964 11:-0.64264888 12:0.57602185 13:-0.098504342 14:-0.46500912 15:0.70401311 16:0.22293216 17:-0.28735977 18:0.83200681 21:0.17 24:0.34 25:0.083892241 26:-0.19037065 27:0.029756464 28:0.1677765 29:-0.38073406 30:-0.28048715 31:0.15002298 32:-0.56033993 33:0.12042537 34:0.13226308 35:-0.73993796 36:0.52133757 #
4.1934840539627158406688067771029 2:-1.3 3:0.32438299 5:-1.3 6:0.50438303 7:0.080239609 8:-1.1742933 9:0.31793341 10:0.16047919 11:-1.0486287 12:0.13147742 13:-0.066733524 14:-1.0518626 15:0.18178259 16:-0.29394457 17:-1.0551057 18:0.23207928 21:0.17 24:0.34 25:0.015592271 26:-0.27063122 27:0.37803417 28:0.031194169 29:-0.54128069 30:0.41608074 31:0.024278499 32:-0.71158785 33:0.4598805 34:0.017370425 35:-0.88191235 36:0.50368428 #
388.88435654375626882028882391751 2:-1.3 3:0.32438299 5:-1.3 6:0.50438303 7:0.093533918 8:-1.0472813 9:0.56746411 10:0.18706957 11:-0.79453903 12:0.63054854 13:0.35291091 14:-0.7594853 15:0.5532288 16:0.51875466 17:-0.72443175 18:0.47591135 21:0.17 24:0.34 25:0.13561003 26:-0.23796634 27:0.25003895 28:0.27122429 29:-0.47592962 30:0.16007344 31:0.37784299 32:-0.29004481 33:0.20248605 34:0.48446277 35:-0.10415815 36:0.24489735 #
-199.85400928501633188716368749738 2:-1.3 3:0.32438299 5:-1.3 6:0.50438303 7:0.08963421 8:-1.065874 9:0.50609034 10:0.17925423 11:-0.83182251 12:0.50777918 13:0.25874013 14:-0.75411123 15:0.56706315 16:0.33822453 17:-0.67645407 18:0.62630635 21:0.17 24:0.34 25:-0.010709384 26:-0.023726158 27:0.41046292 28:-0.021347145 29:-0.047529943 30:0.48099086 31:-0.073415473 32:-0.040078357 33:0.69392693 34:-0.12542507 35:-0.032701325 36:0.90689629 #
-599.11490789173728899186244234443 2:-1.3 3:0.32438299 5:-1.3 6:0.50438303 7:-0.1094081 8:-1.1052458 9:0.48130232 10:-0.21881373 11:-0.91019714 12:0.45824057 13:-0.077618688 14:-0.7332136 15:0.61755699 16:0.063575052 17:-0.55622375 18:0.7768892 21:0.17 24:0.34 25:0.0098872697 26:-0.01161622 27:0.53903091 28:0.019769199 29:-0.023211978 30:0.73803675 31:0.1558426 32:-0.32843539 33:0.73382682 34:0.29191142 35:-0.63364321 36:0.7296077 #
800.0877529232218421384459361434 2:-1.3 3:0.32438299 5:-1.3 6:0.50438303 7:0.031973306 8:-1.1220123 9:0.59713018 10:0.063930266 11:-0.94483006 12:0.68981153 13:0.26623732 14:-0.78367794 15:0.65204191 16:0.46854746 17:-0.62260556 18:0.61419988 21:0.17 24:0.34 25:-0.019882759 26:-0.17099646 27:0.56728452 28:-0.039694719 29:-0.3421073 30:0.7946983 31:-0.023779202 32:-0.44840816 33:0.90969139 34:-0.0078042238 35:-0.55480212 36:1.0247413 #
501.58650744829645873323897831142 2:-1.3 3:0.32438299 5:-1.3 6:0.50438303 7:-0.19856963 8:-1.120911 9:0.42265248 10:-0.39714551 11:-0.9421683 12:0.34089705 13:-0.29800299 14:-0.87321216 15:0.71594238 16:-0.19885716 17:-0.80427629 18:1.0909616 21:0.17 24:0.34 25:-0.017103517 26:-0.13055439 27:0.52152479 28:-0.034181379 29:-0.26114619 30:0.7030983 31:-0.07692498 32:-0.24718441 33:0.5249061 34:-0.11964439 35:-0.23326518 36:0.34673691 #
-229.61475714564008399065642151982 2:-1.3 3:0.32438299 5:-1.3 6:0.50438303 7:0.20799805 8:-1.1049156 9:0.38302702 10:0.41599149 11:-0.90987343 12:0.2616612 13:0.26690996 14:-0.95143211 15:0.57389724 16:0.11782859 17:-0.99300873 18:0.88611621 21:0.17 24:0.34 25:-0.005451059 26:-0.21716911 27:0.32444429 28:-0.010878456 29:-0.43436468 30:0.30891129 31:0.070443422 32:-0.55318826 33:0.32534873 34:0.15178728 35:-0.67203778 36:0.34179845 #
-262.38915489172489969860180281103 2:-1.3 3:0.32438299 5:-1.3 6:0.50438303 7:-0.078559354 8:-0.99745864 9:0.38711116 10:-0.15712684 11:-0.69531685 12:0.26980057 13:-0.11042042 14:-0.80028421 15:0.33426085 16:-0.063710399 17:-0.90531081 18:0.39867273 21:0.17 24:0.34 25:0.16486283 26:-0.15907919 27:0.43901116 28:0.32977727 29:-0.31824696 30:0.53809243 31:-0.07878302 32:-0.46447855 33:0.55036628 34:-0.48729938 35:-0.6107794 36:0.56267625 #
148.58786766002575063794211018831 2:-1.3 3:0.32438299 5:-1.3 6:0.50438303 7:-0.20307639 8:-1.2563679 9:0.56616592 10:-0.4061546 11:-1.2126237 12:0.62795067 13:-0.46415204 14:-1.1136626 15:0.40984085 16:-0.52214968 17:-1.014708 18:0.19172221 21:0.17 24:0.34 25:-0.22666521 26:-0.12869833 27:0.43609139 28:-0.45330864 29:-0.25741473 30:0.53218967 31:-0.42553854 32:-0.34606776 33:0.63118762 34:-0.3977505 35:-0.43474734 36:0.73018986 #
-981.7238607450543668164755217731 2:-1.3 3:0.32438299 5:-1.3 6:0.50438303 7:0.10683645 8:-1.1601393 9:0.54651433 10:0.21368383 11:-1.0199697 12:0.58867651 13:0.24696124 14:-0.83090103 15:0.59592414 16:0.28023872 17:-0.64175874 18:0.60320741 21:0.17 24:0.34 25:0.081190251 26:-0.13803501 27:0.45970073 28:0.16233115 29:-0.27599502 30:0.57930106 31:0.18585558 32:-0.52090347 33:0.52954823 34:0.20934199 35:-0.76575911 36:0.47975394 #
-10.382733176836881128224376880098 2:-1.3 3:0.32438299 5:-1.3 6:0.50438303 7:-0.0869307 8:-0.9672581 9:0.51016903 10:-0.17385037 11:-0.6339674 12:0.51600426 13:-0.31319574 14:-0.72355336 15:0.58312136 16:-0.45254108 17:-0.81306255 18:0.6502859 21:0.17 24:0.34 25:-0.11147919 26:-0.25206271 27:0.33443609 28:-0.223002 29:-0.50404161 30:0.32875592 31:-0.29264471 32:-0.78179902 33:0.25852323 34:-0.36231962 35:-1.0595052 36:0.18824288 #
-19.850456315926539474503442761488 2:-1.3 3:0.32438299 5:-1.3 6:0.50438303 7:0.0026376534 8:-1.0231636 9:0.61112678 10:0.0052798553 11:-0.74620676 12:0.71787781 13:-0.011885189 14:-1.0115703 15:1.0071226 16:-0.029050982 17:-1.2769186 18:1.2963734 21:0.17 24:0.34 25:-0.04830547 26:-0.38247743 27:0.16535103 28:-0.096618935 29:-0.76493871 30:-0.0093422355 31:-0.10399949 32:-0.88564497 33:0.22171003 34:-0.11138555 35:-1.0063323 36:0.45274857 #
-184.10422848381597304978640750051 2:-1.3 3:0.32438299 5:-1.3 6:0.50438303 7:0.10662647 8:-1.2443203 9:0.42934012 10:0.21324641 11:-1.1889287 12:0.3542746 13:0.14911379 14:-0.67352861 15:0.32919756 16:0.08498022 17:-0.1581746 18:0.30410162 21:0.17 24:0.34 25:-0.064397037 26:-0.22868238 27:0.48474175 28:-0.12877169 29:-0.45740506 30:0.62955707 31:-0.028427422 32:-0.21039838 33:0.81726092 34:0.071932681 35:0.036585022 36:1.0049931 #
144.85180999779768740154395345598 2:-1.3 3:0.32438299 5:-1.3 6:0.50438303 7:0.1350022 8:-1.2789369 9:0.52578568 10:0.27002797 11:-1.2576393 12:0.54723012 13:-0.012531891 14:-1.0465842 15:0.65560389 16:-0.29508865 17:-0.83535773 18:0.76404113 21:0.17 24:0.34 25:0.057385724 26:-0.071146205 27:0.46229902 28:0.11464606 29:-0.14214602 30:0.58438981 31:0.13972734 32:-0.54284537 33:0.55377966 34:0.16471459 35:-0.94344378 36:0.52308214 #
95.362420579299609357804001774639 2:-1.3 3:0.32438299 5:-1.3 6:0.50438303 7:0.0092588272 8:-1.0602733 9:0.48148903 10:0.018484125 11:-0.82158017 12:0.4585028 13:0.20176013 14:-0.59323204 15:0.2904087 16:0.38503572 17:-0.36508396 18:0.12221565 21:0.17 24:0.34 25:-0.06466528 26:-0.14936173 27:0.28376159 28:-0.1292012 29:-0.29892433 30:0.22783065 31:0.029569933 32:-0.33494246 33:0.37439746 34:0.18844143 35:-0.37110963 36:0.52108568 #
228.50684024109304459670966025442 2:-1.3 3:0.32438299 5:-1.3 6:0.50438303 7:-0.26829481 8:-1.251123 9:0.603948 10:-0.53658807 11:-1.2022914 12:0.70350546 13:-0.50880772 14:-1.1236039 15:0.80662566 16:-0.48102611 17:-1.0449281 18:0.90973687 21:0.17 24:0.34 25:-0.015147704 26:-0.22419024 27:0.35527322 28:-0.030286986 29:-0.44839302 30:0.3705667 31:0.25783935 32:-0.55047494 33:0.45451513 34:0.54597282 35:-0.65257066 36:0.53847098 #
-238.02454754125298563849355559796 2:-1.3 3:0.32438299 5:-1.3 6:0.50438303 7:0.10844591 8:-1.1052307 9:0.40175173 10:0.21698523 11:-0.90833169 12:0.29935017 13:0.22759895 14:-0.80054754 15:0.41317382 16:0.23821513 17:-0.69219422 18:0.52727932 21:0.17 24:0.34 25:-0.18571174 26:-0.1516654 27:0.22191978 28:-0.37184098 29:-0.3027353 30:0.10302679 31:-0.31727055 32:-0.41752848 33:0.26802331 34:-0.26302564 35:-0.53185868 36:0.4326883 #
-161.9201099258697809091245289892 2:-1.3 3:0.32438299 5:-1.3 6:0.50438303 7:-0.14753154 8:-1.1279256 9:0.57052952 10:-0.29505 11:-0.95573765 12:0.63669759 13:-0.32735249 14:-0.68977684 15:0.55859941 16:-0.35965475 17:-0.42375344 18:0.48053405 21:0.17 24:0.34 25:-0.32541841 26:-0.022195073 27:0.23111933 28:-0.65089393 29:-0.044320729 30:0.12213936 31:-0.54355568 32:-0.37897405 33:0.35799178 34:-0.43626168 35:-0.71356058 36:0.59380615 #
147.04708123368462224789254833013 2:-1.3 3:0.32438299 5:-1.3 6:0.50438303 7:0.10611925 8:-1.1296014 9:0.46404207 10:0.21225268 11:-0.95882273 12:0.42372987 13:0.48658147 14:-0.78737694 15:0.52426261 16:0.76091188 17:-0.61586523 18:0.62482607 21:0.17 24:0.34 25:0.21585061 26:-0.12995787 27:0.41239229 28:0.43165982 29:-0.25985467 30:0.48467931 31:0.6382097 32:-0.38917011 33:0.48818853 34:0.84472567 35:-0.51843661 36:0.49165702 #
-80.629547210736234319483628496528 2:-1.3 3:0.32438299 5:-1.3 6:0.50438303 7:0.12492809 8:-1.1247096 9:0.65248328 10:0.2498583 11:-0.9487139 12:0.80062914 13:0.08571697 14:-0.7478646 15:0.91375804 16:-0.078429021 17:-0.54699051 18:1.0269109 21:0.17 24:0.34 25:0.13114308 26:-0.033501886 27:0.62349868 28:0.2623044 29:-0.066979848 30:0.90692908 31:0.24153394 32:-0.26002544 33:0.82853556 34:0.22077443 35:-0.45307279 36:0.7501173 #
-39.466213239762609532590431626886 2:-1.3 3:0.32438299 5:-1.3 6:0.50438303 7:-0.071789265 8:-1.23607 9:0.62639666 10:-0.14355797 11:-1.1716503 12:0.74846447 13:-0.2907277 14:-0.80559713 15:0.76270819 16:-0.43789706 17:-0.43941262 18:0.77701253 21:0.17 24:0.34 25:-0.10664404 26:-0.31281233 27:0.54247403 28:-0.21337682 29:-0.62549633 30:0.74476206 31:-0.51669645 32:-0.49139667 33:0.52223021 34:-0.82008415 35:-0.35720202 36:0.29962286 #
60.498994597893855029724363703281 2:-1.3 3:0.32438299 5:-1.3 6:0.50438303 7:0.15818085 8:-1.4072111 9:0.73115069 10:0.31638518 11:-1.5132267 12:0.95801049 13:0.26494452 14:-1.4047444 15:0.80322737 16:0.21350312 17:-1.2961209 18:0.64852434 21:0.17 24:0.34 25:0.06124144 26:-0.14783172 27:0.57137388 28:0.12242089 29:-0.29551288 30:0.802504 31:0.02790861 32:-0.44757119 33:0.65488034 34:-0.066653952 35:-0.5995295 36:0.50716406 #
-63.448366869561823477852158248425 2:-1.3 3:0.32438299 5:-1.3 6:0.50438303 7:-0.22557425 8:-1.3105116 9:0.65305513 10:-0.45116764 11:-1.3212801 12:0.80169231 13:-0.30866873 14:-1.0802062 15:0.77095604 16:-0.16617078 17:-0.83923239 18:0.74016744 21:0.17 24:0.34 25:-0.084771223 26:-0.11720511 27:0.24466473 28:-0.16945098 29:-0.23452562 30:0.14948571 31:-0.35363343 32:-0.2879957 33:0.43675995 34:-0.53774506 35:-0.34157118 36:0.72409487 #
297.12079992401748995689558796585 2:-1.3 3:0.32438299 5:-1.3 6:0.50438303 7:-0.068279535 8:-1.0986068 9:0.51056099 10:-0.13656977 11:-0.89707214 12:0.51672488 13:0.079863615 14:-0.8675791 15:0.84740424 16:0.29629573 17:-0.83818114 18:1.1780447 21:0.17 24:0.34 25:0.10562042 26:-0.22359335 27:0.35930225 28:0.21133251 29:-0.44727355 30:0.37870696 31:0.34952423 32:-0.51954472 33:0.45015764 34:0.48778725 35:-0.59188551 36:0.52165425 #
-211.32377660517431650077924132347 2:-1.3 3:0.32438299 5:-1.3 6:0.50438303 7:-0.058513679 8:-1.0918732 9:0.62853181 10:-0.11704023 11:-0.88438147 12:0.75264394 13:-0.20902573 14:-0.74234349 15:0.91885275 16:-0.30100721 17:-0.60032904 18:1.0850297 21:0.17 24:0.34 25:-0.025729902 26:-0.027900709 27:0.58815932 28:-0.05143971 29:-0.055850934 30:0.83638966 31:-0.084524177 32:-0.18664384 33:0.99633968 34:-0.11758589 35:-0.31749448 36:1.1563197 #
429.93465903532154470667592249811 2:-1.3 3:0.32438299 5:-1.3 6:0.50438303 7:-0.024310894 8:-1.2341697 9:0.2876744 10:-0.048653997 11:-1.1691545 12:0.070887811 13:-0.097477086 14:-0.83347148 15:0.30007681 16:-0.14630222 17:-0.49799904 18:0.5291782 21:0.17 24:0.34 25:0.10518679 26:-0.18027528 27:0.32272747 28:0.21050757 29:-0.36074501 30:0.30573931 31:0.26039702 32:-0.52570564 33:0.29223588 34:0.31038916 35:-0.69079989 36:0.27884901 #
-163.70533641079916264970961492509 2:-1.3 3:0.32438299 5:-1.3 6:0.50438303 7:-0.067790061 8:-1.1203219 9:0.65416265 10:-0.13552649 11:-0.93896651 12:0.80411881 13:-0.02029529 14:-0.55663377 15:0.71919101 16:0.094933473 17:-0.17389616 18:0.63446575 21:0.17 24:0.34 25:-0.079019688 26:-0.17718288 27:0.46603912 28:-0.15830697 29:-0.35395077 30:0.59153628 31:-0.044332307 32:-0.69455051 33:0.49341375 34:0.069436729 35:-1.0348737 36:0.39506599 #
-113.92303747440668360013660276309 2:-1.3 3:0.32438299 5:-1.3 6:0.50438303 7:-0.0058798823 8:-1.0540726 9:0.64796084 10:-0.011801812 11:-0.81007445 12:0.79137754 13:-0.10883884 14:-0.67205793 15:0.70909584 16:-0.20587191 17:-0.53433031 18:0.62665999 21:0.17 24:0.34 25:0.19093454 26:0.13086928 27:0.4235886 28:0.3820295 29:0.2614418 30:0.5075978 31:0.34879571 32:-0.018063307 33:0.63308084 34:0.31568775 35:-0.29776001 36:0.75873512 #
0.21904449846045226379942505445797 2:-1.3 3:0.32438299 5:-1.3 6:0.50438303 7:-0.10242227 8:-1.2031227 9:0.56717318 10:-0.20483361 11:-1.1059744 12:0.6299817 13:-0.31722951 14:-0.72419393 15:0.74048412 16:-0.42962298 17:-0.34237212 18:0.85100883 21:0.17 24:0.34 25:0.02821555 26:-0.069128163 27:0.52443004 28:0.056393679 29:-0.13821694 30:0.70879167 31:-0.18902393 32:-0.42262894 33:0.71236461 34:-0.4344703 35:-0.70701289 36:0.71591175 #
-269.74778010873188804907840676606 2:-1.3 3:0.32438299 5:-1.3 6:0.50438303 7:0.052417584 8:-1.1039834 9:0.6119647 10:0.10485213 11:-0.90761328 12:0.7196061 13:-0.19612662 14:-0.72178566 15:0.53313565 16:-0.49710712 17:-0.53579241 18:0.34674773 21:0.17 24:0.34 25:0.11413897 26:-0.22247681 27:0.45087168 28:0.22814193 29:-0.44477838 30:0.56156158 31:0.14196134 32:-0.41369918 33:0.65857863 34:0.055682205 35:-0.3825078 36:0.75551403 #
189.16404909058232419738487806171 2:-1.3 3:0.32438299 5:-1.3 6:0.50438303 7:0.14661925 8:-1.0965214 9:0.62367517 10:0.29321098 11:-0.89346051 12:0.74289709 13:0.060604509 14:-0.90499878 15:0.46024087 16:-0.17200452 17:-0.91672289 18:0.17747714 21:0.17 24:0.34 25:-0.00037212131 26:-0.27832532 27:0.46075174 28:-0.00056578341 29:-0.55684549 30:0.58169186 31:0.0061145062 32:-0.59382343 33:0.50280392 34:0.01293137 35:-0.63093841 36:0.42400873 #
14.596484225809241763727186480537 2:-1.3 3:0.32438299 5:-1.3 6:0.50438303 7:-0.17593271 8:-1.0381021 9:0.45819876 10:-0.35187855 11:-0.77578062 12:0.41204405 13:-0.62632006 14:-0.46942925 15:0.36493757 16:-0.90076911 17:-0.16317677 18:0.31784466 21:0.17 24:0.34 25:-0.27278566 26:-0.31962681 27:0.6589306 28:-0.54549891 29:-0.63929415 30:0.97795302 31:-0.56278181 32:-0.81161046 33:0.80594999 34:-0.58001715 35:-0.98395211 36:0.63398242 #
224.30081222047351729997899383307 2:-1.3 3:0.32438299 5:-1.3 6:0.50438303 7:0.019163078 8:-1.1448029 9:0.74373215 10:0.038335584 11:-0.98956627 12:0.98309988 13:0.19526911 14:-1.0483015 15:0.73790956 16:0.35220495 17:-1.1069893 18:0.49275705 21:0.17 24:0.34 25:0.12946789 26:-0.096427515 27:0.45209864 28:0.25886029 29:-0.19278491 30:0.56416488 31:0.31197447 32:-0.27258393 33:0.71468681 34:0.36503336 35:-0.35232955 36:0.86518937 #
147.85824548741231865278678014874 2:-1.3 3:0.32438299 5:-1.3 6:0.50438303 7:0.2203313 8:-1.1956995 9:0.42472836 10:0.44065157 11:-1.0918478 12:0.34503826 13:0.64869905 14:-0.61248887 15:0.67778683 16:0.85674369 17:-0.13316889 18:1.0104975 21:0.17 24:0.34 25:-0.25182101 26:-0.23275952 27:0.47458476 28:-0.50359917 29:-0.46556625 30:0.60924107 31:0.01728379 32:-0.62428081 33:0.75337559 34:0.53819537 35:-0.78302854 36:0.89753628 #
251.92480985107044944015797227621 2:-1.3 3:0.32438299 5:-1.3 6:0.50438303 7:-0.15768725 8:-1.1165398 9:0.42004097 10:-0.31535098 11:-0.93262899 12:0.33575556 13:-0.31946966 14:-0.71888959 15:0.4499917 16:-0.32358873 17:-0.50500929 18:0.56430435 21:0.17 24:0.34 25:-0.04770394 26:-0.10562 27:0.34314954 28:-0.095519654 29:-0.21107768 30:0.34609666 31:-0.53598028 32:-0.21533117 33:0.45098409 34:-0.97652984 35:-0.21944933 36:0.55578876 #
-115.25738053162015717134636361152 2:-1.3 3:0.32438299 5:-1.3 6:0.50438303 7:-0.11231907 8:-1.2139627 9:0.51905984 10:-0.22460091 11:-1.1265097 12:0.53386199 13:-0.022325693 14:-1.0464052 15:0.42815971 16:0.17995101 17:-0.96600211 18:0.32257453 21:0.17 24:0.34 25:-0.12509991 26:-0.24617067 27:0.42307681 28:-0.25034732 29:-0.49209708 30:0.50576508 31:-0.19474737 32:-0.57652754 33:0.60315013 34:-0.13925719 35:-0.66084719 36:0.70037234 #
198.69409540944192826827929820865 2:-1.3 3:0.32438299 5:-1.3 6:0.50438303 7:0.14252371 8:-1.0077357 9:0.43265542 10:0.28503984 11:-0.71552771 12:0.36093056 13:0.25504509 14:-0.6306929 15:0.39578924 16:0.2250471 17:-0.54583365 18:0.43064225 21:0.17 24:0.34 25:0.2752544 26:-0.14672208 27:0.41016138 28:0.55051672 29:-0.29343724 30:0.48028788 31:0.42236707 32:-0.26071677 33:0.40951177 34:0.29422528 35:-0.22800316 36:0.33872378 #
44.936090951493120826398808276281 2:-1.3 3:0.32438299 5:-1.3 6:0.50438303 7:-0.27894542 8:-0.93783349 9:0.57771045 10:-0.55793548 11:-0.5770452 12:0.6508888 13:-0.19790825 14:-0.67305756 15:0.49951208 16:0.16212009 17:-0.76943189 18:0.34796149 21:0.17 24:0.34 25:0.004494831 26:-0.29476812 27:0.37428144 28:0.0092269722 29:-0.58989221 30:0.40903446 31:0.12131372 32:-0.69981068 33:0.45399466 34:0.23358247 35:-0.80995941 36:0.49915203 #
450.52216682302565686768502928317 2:-1.3 3:0.32438299 5:-1.3 6:0.50438303 7:0.024295582 8:-1.0618681 9:0.40962002 10:0.048599683 11:-0.82319063 12:0.31489974 13:-0.049113564 14:-0.90024656 15:0.13715634 16:-0.14682935 17:-0.97719342 18:-0.040558208 21:0.17 24:0.34 25:0.18567106 26:-0.034757599 27:0.48447481 28:0.37130842 29:-0.069443673 30:0.62878942 31:-0.064594477 32:-0.43968123 33:0.93073958 34:-0.50051904 35:-0.80989999 36:1.2326291 #
156.30302512824331984120362903923 2:-1.3 3:0.32438299 5:-1.3 6:0.50438303 7:0.17149097 8:-1.0900812 9:0.46224949 10:0.34308016 11:-0.87742007 12:0.4203876 13:0.20347664 14:-0.48748627 15:0.3981418 16:0.063873105 17:-0.096954785 18:0.37621117 21:0.17 24:0.34 25:0.095573097 26:-0.20628121 27:0.22006392 28:0.19072463 29:-0.41193762 30:0.099257 31:0.1179757 32:-0.57251275 33:0.46806219 34:0.04489674 35:-0.73261833 36:0.83651179 #
54.192880093076901459880900802091 2:-1.3 3:0.32438299 5:-1.3 6:0.50438303 7:0.019335905 8:-1.376735 9:0.69462425 10:0.038668226 11:-1.4534531 12:0.88486373 13:0.30844295 14:-1.2940668 15:0.9853791 16:0.5782181 17:-1.1346841 18:1.0858777 21:0.17 24:0.34 25:0.069449104 26:-0.27926707 27:0.34307352 28:0.1389367 29:-0.55855966 30:0.34612668 31:0.037182178 32:-0.45139709 33:0.81683236 34:-0.064542003 35:-0.34426081 36:1.2875401 #
-113.52406661140265953235939377919 2:-1.3 3:0.32438299 5:-1.3 6:0.50438303 7:-0.029643977 8:-1.0553005 9:0.47061774 10:-0.059294537 11:-0.81074107 12:0.4368442 13:-0.030747702 14:-0.67213821 15:0.20777644 16:-0.0021998819 17:-0.53357029 18:-0.021301497 21:0.17 24:0.34 25:-0.24687082 26:-0.034880873 27:0.45166403 28:-0.49372223 29:-0.069797218 30:0.56336606 31:-0.35357121 32:-0.35173398 33:0.53517407 34:-0.21340303 35:-0.63370472 36:0.50699824 #
117.21274838914924032451381208375 2:-1.3 3:0.32438299 5:-1.3 6:0.50438303 7:0.17245506 8:-1.2919632 9:0.38911149 10:0.34494373 11:-1.2825677 12:0.27396798 13:0.27057022 14:-1.0719687 15:0.37430936 16:0.19619326 17:-0.86109889 18:0.47478631 21:0.17 24:0.34 25:0.014578619 26:-0.029479163 27:0.34971479 28:0.028987784 29:-0.058684014 30:0.35908043 31:0.42754889 32:-0.18745299 33:0.47266057 34:0.82598072 35:-0.31605163 36:0.58608997 #
-125.6684425022485669387606321834 2:-1.3 3:0.32438299 5:-1.3 6:0.50438303 7:-0.060286772 8:-1.0612862 9:0.16979152 10:-0.12054568 11:-0.8218959 12:-0.16472636 13:-0.19094723 14:-0.92172408 15:-0.0024962875 16:-0.26134807 17:-1.021384 18:0.15982407 21:0.17 24:0.34 25:-0.12798224 26:-0.10072993 27:0.11252933 28:-0.25609201 29:-0.20128062 30:-0.11519102 31:-0.3159095 32:-0.63889694 33:0.081930362 34:-0.37582624 35:-1.0763748 36:0.27895015 #
66.297177114733500502552487887442 2:-1.3 3:0.32438299 5:-1.3 6:0.50438303 7:-0.082911327 8:-1.035495 9:0.47960606 10:-0.16583404 11:-0.77117181 12:0.45482087 13:-0.052201632 14:-0.72913831 15:0.34730247 16:0.061429102 17:-0.68711495 18:0.23976636 21:0.17 24:0.34 25:0.033445247 26:-0.040961385 27:0.69847751 28:0.066923507 29:-0.081946574 30:1.0569813 31:0.10294516 32:0.065961733 33:0.90471333 34:0.13899584 35:0.2138364 36:0.75245833 #
549.13626075714012131356867030263 2:-1.3 3:0.32438299 5:-1.3 6:0.50438303 7:0.083964646 8:-1.266607 9:0.45870313 10:0.16797596 11:-1.2319227 12:0.41311696 13:-0.15991518 14:-0.82743955 15:0.67014563 16:-0.4878028 17:-0.4227722 18:0.92727035 21:0.17 24:0.34 25:0.029172799 26:-0.19048573 27:0.45173359 28:0.058226131 29:-0.38078713 30:0.56312972 31:0.24741946 32:-0.35631111 33:0.81370121 34:0.43651068 35:-0.33166796 36:1.0641406 #
359.35445192181055062974337488413 2:-1.3 3:0.32438299 5:-1.3 6:0.50438303 7:-0.030917203 8:-1.1531947 9:0.5607447 10:-0.061812177 11:-1.0057126 12:0.61716735 13:-0.0014914384 14:-0.76605141 15:0.60540956 16:0.058831092 17:-0.52622545 18:0.59371102 21:0.17 24:0.34 25:-0.2591278 26:-0.094432391 27:0.63441074 28:-0.51833373 29:-0.18872358 30:0.92859274 31:-0.20401913 32:-0.33068296 33:0.63254315 34:0.11023433 35:-0.47255412 36:0.33640507 #
-446.73412056893312183092348277569 2:-1.3 3:0.32438299 5:-1.3 6:0.50438303 7:-0.067593761 8:-1.0198148 9:0.58663219 10:-0.13519801 11:-0.7396999 12:0.66885328 13:-0.092467934 14:-0.86653215 15:0.72705889 16:-0.049732395 17:-0.99348652 18:0.78521192 21:0.17 24:0.34 25:0.092333876 26:-0.084846906 27:0.35687256 28:0.1847726 29:-0.16981119 30:0.37388581 31:0.09355218 32:-0.5381006 33:0.36611131 34:0.0024080959 35:-0.90646684 36:0.35840046 #
249.085396430266399647734942846 2:-1.3 3:0.32438299 5:-1.3 6:0.50438303 7:-0.0025196443 8:-1.2033477 9:0.67266876 10:-0.0049694907 11:-1.1046125 12:0.84116155 13:0.062904708 14:-0.92963958 15:0.66651583 16:0.13077857 17:-0.75419021 18:0.49210361 21:0.17 24:0.34 25:0.094549552 26:-0.15981591 27:0.56531215 28:0.18878384 29:-0.31915241 30:0.78997916 31:0.2537474 32:-0.75466257 33:0.41453561 34:0.31846797 35:-1.1898479 36:0.038823266 #
690.61022761957815419009421020746 2:-1.3 3:0.32438299 5:-1.3 6:0.50438303 7:-0.03361978 8:-1.0292017 9:0.51119858 10:-0.06708663 11:-0.75454974 12:0.51842177 13:-0.1991419 14:-0.75229788 15:0.33083683 16:-0.33119008 17:-0.74902308 18:0.14374396 21:0.17 24:0.34 25:0.032450575 26:-0.12947425 27:0.3429971 28:0.064168833 29:-0.25793052 30:0.34466553 31:0.15364388 32:-0.52187151 33:0.2470005 34:0.24255845 35:-0.78510922 36:0.14877632 #
36.726937589717458365612401394174 2:-1.3 3:0.32438299 5:-1.3 6:0.50438303 7:0.18703349 8:-1.0694716 9:0.62916124 10:0.37409759 11:-0.83855897 12:0.75402099 13:0.14955962 14:-0.64107102 15:0.62706345 16:-0.07497292 17:-0.4432855 18:0.50021863 21:0.17 24:0.34 25:0.075819775 26:-0.080711156 27:0.54327965 28:0.15142584 29:-0.16118152 30:0.74625862 31:0.087734923 32:-0.24920008 33:0.48773512 34:0.023887902 35:-0.33708477 36:0.22908098 #
-333.68105619898256009037140756845 2:-1.3 3:0.32438299 5:-1.3 6:0.50438303 7:-0.12877902 8:-1.2478819 9:0.68485892 10:-0.25753582 11:-1.194984 12:0.86543983 13:0.15579291 14:-0.87851042 15:0.74473941 16:0.56912166 17:-0.5618518 18:0.62418658 21:0.17 24:0.34 25:0.037372496 26:-0.2766352 27:0.42436248 28:0.074556865 29:-0.5530259 30:0.50854409 31:0.1562812 32:-0.58017731 33:0.4672744 34:0.23786119 35:-0.607149 36:0.42591724 #
162.17579668666118664077657740563 2:-1.3 3:0.32438299 5:-1.3 6:0.50438303 7:0.2768831 8:-1.1270325 9:0.22212125 10:0.55371863 11:-0.95494789 12:-0.06026192 13:0.26534572 14:-0.95711148 15:0.57845211 16:-0.023027755 17:-0.95959419 18:1.2169992 21:0.17 24:0.34 25:-0.059645809 26:-0.38761723 27:0.25269118 28:-0.11903202 29:-0.77556872 30:0.16579625 31:0.2031454 32:-0.68353623 33:0.23900086 34:0.52552992 35:-0.59175748 36:0.31238624 #
518.04409454175242899509612470865 2:-1.3 3:0.32438299 5:-1.3 6:0.50438303 7:-0.021607805 8:-1.2305768 9:0.67007983 10:-0.043185703 11:-1.1596366 12:0.83590281 13:-0.23323666 14:-0.93622881 15:0.89125192 16:-0.4232904 17:-0.71263838 18:0.94672543 21:0.17 24:0.34 25:-0.11709056 26:-0.19040242 27:0.43452728 28:-0.23429492 29:-0.38059619 30:0.52877128 31:-0.060414255 32:-0.50806367 33:0.51563221 34:0.11337325 35:-0.63540053 36:0.50237495 #
257.42401850416149500233586877584 2:-1.3 3:0.32438299 5:-1.3 6:0.50438303 7:-0.077906452 8:-1.048527 9:0.5695172 10:-0.15577003 11:-0.79587537 12:0.63478488 13:-0.42607272 14:-0.61295718 15:0.67091769 16:-0.69637465 17:-0.42970458 18:0.70720947 21:0.17 24:0.34 25:0.17875233 26:0.175405 27:0.68437648 28:0.35727164 29:0.35112908 30:1.0283381 31:0.20638177 32:-0.078222118 33:0.76694554 34:0.055315528 35:-0.50737071 36:0.50537765 #
-205.24734062326734829184715636075 2:-1.3 3:0.32438299 5:-1.3 6:0.50438303 7:0.096444465 8:-0.99897861 9:0.28580084 10:0.1928934 11:-0.69779032 12:0.067235313 13:0.042333763 14:-0.49414569 15:0.24213676 16:-0.10823049 17:-0.29050502 18:0.41706052 21:0.17 24:0.34 25:-0.14854415 26:-0.046849102 27:0.45875278 28:-0.29710668 29:-0.093664534 30:0.57747024 31:-0.24510382 32:-0.14548974 33:0.40166801 34:-0.1931195 35:-0.19726771 36:0.22584896 #
199.81608912232198349556711036712 2:-1.3 3:0.32438299 5:-1.3 6:0.50438303 7:-0.11460288 8:-1.1564306 9:0.63377786 10:-0.22922328 11:-1.0137147 12:0.76312923 13:-0.1048187 14:-0.82082701 15:0.61555153 16:0.019578094 17:-0.62809527 18:0.46797678 21:0.17 24:0.34 25:0.063136384 26:-0.11152966 27:0.57087171 28:0.12628269 29:-0.22308005 30:0.80191886 31:0.050004706 32:-0.3744508 33:0.6740253 34:-0.026275951 35:-0.52575779 36:0.54619396 #
-51.129287014020448509654670488089 2:-1.3 3:0.32438299 5:-1.3 6:0.50438303 7:0.10884027 8:-1.2582384 9:0.43833947 10:0.21770331 11:-1.2157598 12:0.37234885 13:0.54444647 14:-0.77559906 15:0.54217601 16:0.87119055 17:-0.3353259 18:0.71205491 21:0.17 24:0.34 25:0.23775773 26:-0.12451718 27:0.49875209 28:0.47545964 29:-0.24893132 30:0.65730071 31:0.87928319 32:-0.30018115 33:0.60802615 34:1.2830597 35:-0.35134473 36:0.55867893 #
34.089055940247789067143457941711 2:-1.3 3:0.32438299 5:-1.3 6:0.50438303 7:0.015491494 8:-1.1293629 9:0.43657279 10:0.031065695 11:-0.95678961 12:0.36895925 13:-0.012232333 14:-0.72693902 15:0.34633875 16:-0.055527858 17:-0.49659479 18:0.32395244 21:0.17 24:0.34 25:-0.36996168 26:-0.10605711 27:0.20385845 28:-0.7402733 29:-0.21161798 30:0.067013562 31:-0.7359966 32:-0.17358474 33:0.400473 34:-0.73199248 35:-0.13516843 36:0.73364753 #
62.449143975241000248388445470482 2:-1.3 3:0.32438299 5:-1.3 6:0.50438303 7:-0.14342418 8:-1.0850101 9:0.61653095 10:-0.28681251 11:-0.86780721 12:0.72879124 13:-0.14995119 14:-0.61602169 15:0.64166397 16:-0.013076517 17:-0.36406288 18:0.55456203 21:0.17 24:0.34 25:0.028551966 26:-0.29148874 27:0.44098413 28:0.057139032 29:-0.58293468 30:0.54168969 31:0.2845895 32:-0.30545264 33:0.54278165 34:0.51207209 35:-0.028033229 36:0.5437845 #
-61.334352601535336191318492637947 2:-1.3 3:0.32438299 5:-1.3 6:0.50438303 7:0.3962203 8:-1.297948 9:0.65531111 10:0.792454 11:-1.2950191 12:0.80630898 13:-0.026214253 14:-0.8784017 15:0.80518305 16:-0.84488213 17:-0.46160567 18:0.80409735 21:0.17 24:0.34 25:-0.076022118 26:-0.071450599 27:0.44597122 28:-0.15207902 29:-0.1428038 30:0.55172491 31:0.010961056 32:-0.4101072 33:0.64326113 34:0.17397763 35:-0.67740476 36:0.7347132 #
-94.512372312762522597040515393019 2:-1.3 3:0.32438299 5:-1.3 6:0.50438303 7:-0.18150961 8:-1.1786147 9:0.74741429 10:-0.36305952 11:-1.0595788 12:0.99031967 13:-0.17808799 14:-1.0083226 15:0.78377557 16:0.0068706241 17:-0.95728683 18:0.57720846 21:0.17 24:0.34 25:-0.15954094 26:-0.085715219 27:0.34237191 28:-0.31914452 29:-0.17150187 30:0.34512603 31:-0.15515223 32:-0.4567194 33:0.33921552 34:0.0087960837 35:-0.74187309 36:0.33344153 #
-88.741995491268923501593235414475 2:-1.3 3:0.32438299 5:-1.3 6:0.50438303 7:-0.15717302 8:-1.140709 9:0.7143833 10:-0.31446174 11:-0.98838055 12:0.92388874 13:-0.32640481 14:-0.85365295 15:0.8546325 16:-0.33835125 17:-0.71964586 18:0.78498209 21:0.17 24:0.34 25:0.090882666 26:-0.22997008 27:0.31016481 28:0.18208191 29:-0.4605709 30:0.28137252 31:0.084529184 32:-0.71083522 33:0.45485735 34:-0.012782187 35:-0.96136242 36:0.6287604 #
136.25050391352081646800797898322 2:-1.3 3:0.32438299 5:-1.3 6:0.50438303 7:-0.14712743 8:-1.0625399 9:0.57529092 10:-0.29429227 11:-0.82965237 12:0.64603406 13:-0.19194001 14:-0.80001009 15:0.59314257 16:-0.08961457 17:-0.77063912 18:0.54036683 21:0.17 24:0.34 25:-0.054610875 26:-0.086705215 27:0.20992693 28:-0.10952481 29:-0.17319891 30:0.080274291 31:0.15639374 32:-0.15481018 33:0.28410065 34:0.42204729 35:-0.13594508 36:0.48802802 #
-167.22706316928702108270954340696 2:-1.3 3:0.32438299 5:-1.3 6:0.50438303 7:0.0064258398 8:-1.1426821 9:0.56779993 10:0.01285601 11:-0.98534667 12:0.63123822 13:-0.17481764 14:-0.65921259 15:0.48236117 16:-0.36249408 17:-0.33303156 18:0.33352438 21:0.17 24:0.34 25:-0.24081528 26:0.097543277 27:0.57102764 28:-0.4816753 29:0.19517633 30:0.80196393 31:-0.46663433 32:-0.015530569 33:0.55413252 34:-0.45162958 35:-0.226142 36:0.3062672 #
255.36453179348453090824477840215 2:-1.3 3:0.32438299 5:-1.3 6:0.50438303 7:0.21910739 8:-1.1524386 9:0.5647279 10:0.43818766 11:-1.0052079 12:0.62502468 13:0.66945463 14:-0.88456202 15:0.61295742 16:0.90072012 17:-0.76407987 18:0.60081899 21:0.17 24:0.34 25:0.071167231 26:-0.015529536 27:0.53026909 28:0.14245833 29:-0.031230386 30:0.72076452 31:0.20034146 32:-0.34335765 33:0.6561445 34:0.25831747 35:-0.65561932 36:0.5916152 #
81.952621002543381223404139745981 2:-1.3 3:0.32438299 5:-1.3 6:0.50438303 7:-0.2425335 8:-1.1847814 9:0.58963543 10:-0.48502758 11:-1.0670975 12:0.6750676 13:-0.47896847 14:-0.91699541 15:0.46161565 16:-0.4729054 17:-0.76668447 18:0.2483218 21:0.17 24:0.34 25:0.018884365 26:-0.1706022 27:0.34733474 28:0.037653737 29:-0.34096152 30:0.35433221 31:-0.30167663 32:-0.55966908 33:0.48782411 34:-0.64110184 35:-0.77822965 36:0.62118149 #
-238.18705035087896249024197459221 2:-1.3 3:0.32438299 5:-1.3 6:0.50438303 7:-0.089851774 8:-0.85070956 9:0.81132054 10:-0.17967494 11:-0.39992297 12:1.118331 13:-0.1087049 14:-0.81122643 15:1.3045675 16:-0.037726618 17:-1.2223035 18:1.4907979 21:0.17 24:0.34 25:-0.041927222 26:-0.38921049 27:0.029445779 28:-0.083844841 29:-0.77837735 30:-0.28140867 31:-0.33639139 32:-0.40975079 33:0.052104943 34:-0.58891785 35:-0.041198798 36:0.38551715 #
498.42515790762678307146416045725 2:-1.3 3:0.32438299 5:-1.3 6:0.50438303 7:0.13725166 8:-1.1255641 9:0.69298881 10:0.27454633 11:-0.9483977 12:0.88177711 13:0.052331436 14:-0.87648481 15:0.80533671 16:-0.16988565 17:-0.80429643 18:0.72902501 21:0.17 24:0.34 25:0.092626683 26:-0.20717499 27:0.42342991 28:0.18515116 29:-0.41415328 30:0.506437 31:-0.062087812 32:-0.49414283 33:0.62772995 34:-0.30940309 35:-0.5740642 36:0.74885589 #
116.68916466617845628661598311737 2:-1.3 3:0.32438299 5:-1.3 6:0.50438303 7:0.14274354 8:-1.1290231 9:0.54487789 10:0.28548884 11:-0.95766902 12:0.5853914 13:0.44497547 14:-0.62911481 15:0.34325743 16:0.60446513 17:-0.30053356 18:0.10111941 21:0.17 24:0.34 25:0.029803097 26:-0.10456973 27:0.5677644 28:0.059627775 29:-0.20914611 30:0.7955066 31:0.34858105 32:-0.19524692 33:0.78473485 34:0.6375525 35:-0.18138711 36:0.77395791 #
462.70447032646484331053216010332 2:-1.3 3:0.32438299 5:-1.3 6:0.50438303 7:0.10922834 8:-1.1617912 9:0.41648555 10:0.21847723 11:-1.0229459 12:0.32864967 13:0.17342213 14:-0.9418968 15:0.17553188 16:0.12836905 17:-0.86066639 18:0.022474034 21:0.17 24:0.34 25:-0.34401092 26:-0.1667645 27:0.5299201 28:-0.6881119 29:-0.33337796 30:0.71962845 31:-0.15460348 32:-0.4415969 33:0.92486924 34:0.37884203 35:-0.54973549 36:1.1300234 #
-115.10768544586710504518123343587 2:-1.3 3:0.32438299 5:-1.3 6:0.50438303 7:-0.015705438 8:-1.0253946 9:0.78788596 10:-0.031414878 11:-0.75097048 12:1.0713751 13:0.022311294 14:-0.6126309 15:0.7622841 16:0.076037385 17:-0.4743062 18:0.45317453 21:0.17 24:0.34 25:-0.19427736 26:-0.087271906 27:0.33380863 28:-0.38853952 29:-0.17457439 30:0.32764921 31:-0.63181275 32:-0.10348167 33:0.25678131 34:-0.87507194 35:-0.032414701 36:0.18592595 #
106.39229703760074130514112766832 2:-1.3 3:0.32438299 5:-1.3 6:0.50438303 7:-0.021885239 8:-1.0728756 9:0.53123438 10:-0.043701638 11:-0.8444584 12:0.55825603 13:-0.086659253 14:-0.36025727 15:0.21704349 16:-0.12961687 17:0.12438042 18:-0.1239336 21:0.17 24:0.34 25:-0.052193452 26:-0.17658 27:0.42019933 28:-0.10474272 29:-0.35266519 30:0.49979922 31:0.15802227 32:-0.91523194 33:0.61180645 34:0.42051142 35:-1.4774045 36:0.72356081 #
33.101085531341013279416074510664 2:-1.3 3:0.32438299 5:-1.3 6:0.50438303 7:0.19450936 8:-1.0877111 9:0.47696969 10:0.38882631 11:-0.88223177 12:0.44899967 13:0.29789826 14:-0.79552877 15:0.46328849 16:0.20697813 17:-0.7098859 18:0.47701243 21:0.17 24:0.34 25:-0.03755248 26:-0.32493985 27:0.31902233 28:-0.074467301 29:-0.65102196 30:0.29977655 31:-0.049882658 32:-0.77240431 33:0.48359194 34:-0.024786234 35:-0.89467168 36:0.66808701 #
-20.300415364963363629158266121522 2:-1.3 3:0.32438299 5:-1.3 6:0.50438303 7:0.12128565 8:-1.3268446 9:0.34291789 10:0.24260458 11:-1.3526198 12:0.18153261 13:0.71315682 14:-0.7454685 15:0.50834709 16:1.1837078 17:-0.13816039 18:0.83524501 21:0.17 24:0.34 25:0.26719636 26:-0.10788278 27:0.57318318 28:0.53430724 29:-0.21559151 30:0.80605531 31:1.1333127 32:-0.18936688 33:0.72406757 34:1.7322454 35:-0.16297904 36:0.64197075 #
-17.269782797181271405406732810661 2:-1.3 3:0.32438299 5:-1.3 6:0.50438303 7:0.030504851 8:-1.0775515 9:0.48184195 10:0.061039213 11:-0.85385174 12:0.45939973 13:0.063651837 14:-0.74691248 15:0.48053929 16:0.066259734 17:-0.63980573 18:0.50177789 21:0.17 24:0.34 25:0.15626164 26:-0.090885073 27:0.33743644 28:0.31241393 29:-0.18157752 30:0.33461672 31:0.58229202 32:-0.099358469 33:0.57677567 34:0.85208499 35:-0.017004021 36:0.8188287 #
-145.3471601251334845983365084976 2:-1.3 3:0.32438299 5:-1.3 6:0.50438303 7:-0.10892736 8:-1.1026391 9:0.59824175 10:-0.21784621 11:-0.90587574 12:0.69211012 13:-0.4666833 14:-0.63897711 15:0.41734651 16:-0.71552557 17:-0.37202477 18:0.14266616 21:0.17 24:0.34 25:-0.13740289 26:-0.41073465 27:0.12036441 28:-0.2749553 29:-0.82130396 30:-0.099317551 31:0.082654931 32:-0.55988508 33:0.16790491 34:0.44014305 35:-0.29828411 36:0.43508932 #
435.69545132601115255965851247311 2:-1.3 3:0.32438299 5:-1.3 6:0.50438303 7:0.037857898 8:-1.0955714 9:0.69600528 10:0.075661287 11:-0.89107352 12:0.88752121 13:0.077138335 14:-0.69754249 15:0.89972264 16:0.078661136 17:-0.50393951 18:0.91159034 21:0.17 24:0.34 25:0.18642995 26:-0.2793259 27:0.41495472 28:0.3732402 29:-0.55921954 30:0.49028605 31:0.24589619 32:-0.60173273 33:0.54050273 34:0.1189175 35:-0.64517742 36:0.59089381 #
-44.284826938890127223658055299893 2:-1.3 3:0.32438299 5:-1.3 6:0.50438303 7:-0.11707693 8:-1.2303567 9:0.41910943 10:-0.23424852 11:-1.1614474 12:0.33366805 13:-0.18256585 14:-0.84726214 15:0.39547127 16:-0.13088331 17:-0.53360242 18:0.45698327 21:0.17 24:0.34 25:-0.14470555 26:-0.05078521 27:0.15622318 28:-0.28890494 29:-0.10221268 30:-0.026798818 31:-0.19839431 32:-0.27349508 33:0.22930911 34:-0.10748553 35:-0.44536895 36:0.48573384 #
131.10949960460285979024774860591 2:-1.3 3:0.32438299 5:-1.3 6:0.50438303 7:-0.21136051 8:-1.0745199 9:0.39214361 10:-0.42276606 11:-0.85160083 12:0.27974266 13:-0.62130213 14:-0.76991028 15:0.43603879 16:-0.81985259 17:-0.68854666 18:0.59224236 21:0.17 24:0.34 25:-0.063622572 26:-0.17571305 27:0.34722218 28:-0.12715472 29:-0.35159111 30:0.35483661 31:-0.30887103 32:-0.37852684 33:0.67895573 34:-0.49052885 35:-0.40543938 36:1.0032244 #
332.05028056995917040694621391594 2:-1.3 3:0.32438299 5:-1.3 6:0.50438303 7:-0.12528761 8:-1.2313414 9:0.66711706 10:-0.2506533 11:-1.1662905 12:0.82959586 13:-0.44322073 14:-0.94508129 15:0.39863944 16:-0.63579667 17:-0.72434175 18:-0.032513801 21:0.17 24:0.34 25:0.038139157 26:-0.11751542 27:0.18435939 28:0.076468997 29:-0.23540293 30:0.029415308 31:0.0070622712 32:-0.14967011 33:0.25848016 34:-0.062198833 35:-0.064114109 36:0.48781464 #
87.198888862977213420890620909631 2:-1.3 3:0.32438299 5:-1.3 6:0.50438303 7:-0.21482632 8:-1.2726332 9:0.41853768 10:-0.4296366 11:-1.2471018 12:0.33261803 13:-0.4980109 14:-1.0235424 15:0.32090423 16:-0.56638122 17:-0.79989439 18:0.30919567 21:0.17 24:0.34 25:-0.060884435 26:-0.23528668 27:0.2554785 28:-0.12192798 29:-0.4704659 30:0.17087108 31:-0.22277956 32:-0.42779717 33:0.23707518 34:-0.32375044 35:-0.38496551 36:0.30324256 #
221.77734703870657995139481499791 2:-1.3 3:0.32438299 5:-1.3 6:0.50438303 7:0.042216223 8:-1.1412876 9:0.70058852 10:0.084455296 11:-0.98276591 12:0.89679623 13:0.15808372 14:-0.67294794 15:0.91903603 16:0.23169306 17:-0.36317703 18:0.94134599 21:0.17 24:0.34 25:-0.075858928 26:-0.034685284 27:0.54629546 28:-0.15182753 29:-0.069234937 30:0.75246841 31:0.095327638 32:-0.10174854 33:0.69062847 34:0.3423734 35:-0.13396777 36:0.62873137 #
-96.181531108875759628062951378524 2:-1.3 3:0.32438299 5:-1.3 6:0.50438303 7:0.15603738 8:-1.3310138 9:0.87688178 10:0.31218252 11:-1.3541851 12:1.2498142 13:0.092375375 14:-1.0260088 15:0.99761426 16:-0.12738901 17:-0.69690061 18:0.74551147 21:0.17 24:0.34 25:0.0115707 26:-0.15241629 27:0.34967297 28:0.023131268 29:-0.30464673 30:0.35831887 31:-0.089405283 32:-0.52935958 33:0.70508361 34:-0.20189437 35:-0.75451607 36:1.0514727 #
-301.89566478997238618831033818424 2:-1.3 3:0.32438299 5:-1.3 6:0.50438303 7:0.14148164 8:-1.3538871 9:0.57690865 10:0.28281081 11:-1.4161642 12:0.64886177 13:0.098950014 14:-1.1820579 15:0.81744045 16:-0.084915251 17:-0.94887555 18:0.98560572 21:0.17 24:0.34 25:-0.052039824 26:-0.048887428 27:0.49322969 28:-0.10374295 29:-0.098487653 30:0.64786917 31:-0.1552953 32:-0.40697971 33:0.89070028 34:-0.20659116 35:-0.71578538 36:1.1340779 #
326.85766628111781528787105344236 2:-1.3 3:0.32438299 5:-1.3 6:0.50438303 7:-0.081036627 8:-1.2134117 9:0.47318295 10:-0.16206634 11:-1.1260484 12:0.44211656 13:0.080770478 14:-1.1419232 15:0.5480957 16:0.32357243 17:-1.1579241 18:0.65435588 21:0.17 24:0.34 25:0.043252863 26:-0.14343205 27:0.63923085 28:0.086267941 29:-0.28651476 30:0.93842775 31:-0.021509849 32:-0.31012812 33:0.7239204 34:-0.12950537 35:-0.33327043 36:0.50936747 #
-132.2696855696081570386013481766 2:-1.3 3:0.32438299 5:-1.3 6:0.50438303 7:-0.1260583 8:-1.2412504 9:0.43914872 10:-0.25202525 11:-1.1817604 12:0.37401718 13:-0.21461375 14:-1.0874721 15:0.49385586 16:-0.17717519 17:-0.99232513 18:0.6137628 21:0.17 24:0.34 25:-0.027375175 26:-0.15211889 27:0.44365156 28:-0.055136591 29:-0.30386332 30:0.54641324 31:-0.30570164 32:-0.39678502 33:0.37622166 34:-0.55651653 35:-0.48964998 36:0.205686 #
-468.64400450641062434442574158311 2:-1.3 3:0.32438299 5:-1.3 6:0.50438303 7:0.16020276 8:-1.0791699 9:0.64617556 10:0.32038373 11:-0.85825253 12:0.78791702 13:0.44632557 14:-0.87300032 15:0.83702081 16:0.57228065 17:-0.88775349 18:0.8859762 21:0.17 24:0.34 25:0.19236344 26:-0.12277545 27:0.3804726 28:0.38490671 29:-0.24582911 30:0.42108268 31:0.31204855 32:-0.36745501 33:0.51125628 34:0.23935178 35:-0.48946965 36:0.60150141 #
-196.43742515632595768693136051297 2:-1.3 3:0.32438299 5:-1.3 6:0.50438303 7:0.048875783 8:-1.4174333 9:0.16675255 10:0.09776561 11:-1.5340635 12:-0.17079988 13:-0.014156288 14:-0.94945133 15:0.040390484 16:-0.12608196 17:-0.36469331 18:0.25165918 21:0.17 24:0.34 25:0.10294694 26:-0.1892886 27:0.19869845 28:0.20580746 29:-0.37843645 30:0.057209391 31:0.58355892 32:-0.46498534 33:0.31007355 34:0.96124929 35:-0.55145812 36:0.56286275 #
-19.34444936387026814372802618891 2:-1.3 3:0.32438299 5:-1.3 6:0.50438303 7:0.13579406 8:-1.2218021 9:0.33014038 10:0.27151647 11:-1.14411 12:0.15578958 13:0.19624871 14:-0.83691388 15:0.18638307 16:0.12095458 17:-0.53038812 18:0.21687292 21:0.17 24:0.34 25:-0.0097904373 26:-0.23917864 27:0.32376224 28:-0.019233946 29:-0.4787001 30:0.30817956 31:-0.061849043 32:-0.49078947 33:0.42037061 34:-0.10422868 35:-0.50294805 36:0.53283423 #
-570.50580042692843107943190261722 2:-1.3 3:0.32438299 5:-1.3 6:0.50438303 7:0.045217775 8:-1.1317608 9:0.5079236 10:0.090492114 11:-0.95977271 12:0.5117178 13:-0.036136314 14:-0.71497786 15:0.72287238 16:-0.16276355 17:-0.46981725 18:0.93422019 21:0.17 24:0.34 25:-0.15014029 26:0.01540424 27:0.46473339 28:-0.30042574 29:0.031099005 30:0.5889731 31:-0.2445465 32:-0.24318954 33:0.79840982 34:-0.18877582 35:-0.51739043 36:1.0076425 #
-180.64827889065114163713587913662 2:-1.3 3:0.32438299 5:-1.3 6:0.50438303 7:0.076271869 8:-1.1657004 9:0.69712102 10:0.15248589 11:-1.0346183 12:0.88978213 13:0.27388859 14:-0.85021919 15:0.82565475 16:0.39523366 17:-0.66663647 18:0.76180774 21:0.17 24:0.34 25:-0.057683919 26:-0.01722699 27:0.33705965 28:-0.1155584 29:-0.034206346 30:0.33487281 31:0.06128265 32:-0.4121505 33:0.72289723 34:0.23788454 35:-0.7892803 36:1.111149 #
-70.065336358850913711648900061846 2:-1.3 3:0.32438299 5:-1.3 6:0.50438303 7:0.024635276 8:-1.0258783 9:0.34011033 10:0.04939533 11:-0.74619681 12:0.17626496 13:0.27499238 14:-0.66335762 15:0.32002777 16:0.50061309 17:-0.57958603 18:0.4641217 21:0.17 24:0.34 25:-0.01280353 26:-0.16384567 27:0.32588872 28:-0.025981631 29:-0.32704014 30:0.31059977 31:0.21630597 32:-0.66415077 33:0.31453028 34:0.458325 35:-1.0010566 36:0.31799921 #
204.71521604175538300296466331929 2:-1.3 3:0.32438299 5:-1.3 6:0.50438303 7:-0.076424479 8:-1.0828837 9:0.56137264 10:-0.15296927 11:-0.87326682 12:0.61787462 13:-0.23071885 14:-0.80336612 15:0.73145896 16:-0.30851808 17:-0.7346698 18:0.84479761 21:0.17 24:0.34 25:0.082239203 26:-0.098258063 27:0.5360083 28:0.16477349 29:-0.19698349 30:0.73325628 31:-0.038547527 32:-0.33495274 33:0.82574481 34:-0.24171437 35:-0.47260571 36:0.91871327 #
-30.875747867450684225332224741578 2:-1.3 3:0.32438299 5:-1.3 6:0.50438303 7:0.052422799 8:-1.0441574 9:0.53227723 10:0.10496468 11:-0.78441459 12:0.56053084 13:0.034476276 14:-0.70269912 15:0.74638242 16:-0.035931166 17:-0.61930788 18:0.93247175 21:0.17 24:0.34 25:-0.047030315 26:-0.24021231 27:0.49690303 28:-0.094738014 29:-0.47976768 30:0.65243304 31:-0.00082947314 32:-0.44739479 33:0.80077571 34:0.092685618 35:-0.41539025 36:0.94856519 #
281.75103417157600915743387304246 2:-1.3 3:0.32438299 5:-1.3 6:0.50438303 7:0.044972382 8:-1.2082762 9:0.539922 10:0.089882933 11:-1.1198577 12:0.57525086 13:-0.24123971 14:-0.9108544 15:0.56737596 16:-0.57235771 17:-0.70207715 18:0.55935466 21:0.17 24:0.34 25:0.079708844 26:-0.33728608 27:0.29329759 28:0.15948394 29:-0.67482048 30:0.24708892 31:0.48885131 32:-0.74899346 33:0.49356794 34:0.81828266 35:-0.82335669 36:0.74023235 #
62.438711040305527433247334556654 2:-1.3 3:0.32438299 5:-1.3 6:0.50438303 7:-0.051692586 8:-1.0623568 9:0.39103103 10:-0.10313275 11:-0.81256312 12:0.27851811 13:-0.32394388 14:-0.78770691 15:0.46407342 16:-0.54458416 17:-0.75958449 18:0.64992547 21:0.17 24:0.34 25:0.1081465 26:-0.089420117 27:0.46116602 28:0.21543255 29:-0.17792849 30:0.57956254 31:0.077402063 32:-0.23751478 33:0.57976705 34:-0.061040804 35:-0.29833019 36:0.57889426 #
76.634900583382346894723013974726 2:-1.3 3:0.32438299 5:-1.3 6:0.50438303 7:0.23721139 8:-1.1703286 9:0.45408279 10:0.47445232 11:-1.0401475 12:0.40381005 13:0.29424438 14:-0.94330078 15:0.54854852 16:0.11407468 17:-0.84594816 18:0.69321632 21:0.17 24:0.34 25:0.19041787 26:-0.085565656 27:0.42112631 28:0.38075396 29:-0.17111507 30:0.50189984 31:0.47695044 32:-0.51868451 33:0.63194263 34:0.57313466 35:-0.86655873 36:0.76185858 #
23.827546599038189611974303261377 2:-1.3 3:0.32438299 5:-1.3 6:0.50438303 7:0.11086398 8:-1.1675334 9:0.6169886 10:0.22173031 11:-1.0402799 12:0.72935688 13:0.32450068 14:-0.79459381 15:0.71542031 16:0.42723861 17:-0.54933584 18:0.70153338 21:0.17 24:0.34 25:0.12042819 26:0.055407614 27:0.61016649 28:0.24062152 29:0.11108279 30:0.88056684 31:0.13702266 32:-0.23129401 33:0.8713612 34:0.033182718 35:-0.57285404 36:0.86223501 #
11.075905004384022589647429413162 2:-1.3 3:0.32438299 5:-1.3 6:0.50438303 7:-0.20899302 8:-0.93193978 9:0.37649664 10:-0.41804314 11:-0.56664723 12:0.24840073 13:-0.11513999 14:-0.81317759 15:0.41178393 16:0.18772717 17:-1.0604577 18:0.57506859 21:0.17 24:0.34 25:0.21572848 26:0.00254041 27:0.072738864 28:0.4316712 29:0.0048122709 30:-0.19383982 31:0.3733497 32:-0.39872682 33:0.36418575 34:0.3151401 35:-0.8020587 36:0.92247355 #
211.19525201572270134420250542462 2:-1.3 3:0.32438299 5:-1.3 6:0.50438303 7:-0.14388484 8:-1.0932345 9:0.53728503 10:-0.28774765 11:-0.88784009 12:0.57009816 13:-0.13108703 14:-0.623169 15:0.58807659 16:0.025447844 17:-0.35977471 18:0.60622871 21:0.17 24:0.34 25:0.2261271 26:-0.13818243 27:0.36689517 28:0.45243621 29:-0.27614853 30:0.39391208 31:0.22930102 32:-0.39165992 33:0.54431397 34:0.0061014299 35:-0.50565243 36:0.69478732 #
138.3769236354043528081092517823 2:-1.3 3:0.32438299 5:-1.3 6:0.50438303 7:0.11245688 8:-1.1674944 9:0.58428657 10:0.22474395 11:-1.0361222 12:0.66390908 13:0.14332998 14:-0.9203015 15:0.44535831 16:0.061960839 17:-0.80498463 18:0.22623502 21:0.17 24:0.34 25:0.082653359 26:-0.24263501 27:0.32373384 28:0.16611677 29:-0.48650676 30:0.30874392 31:0.3655057 32:-0.54448617 33:0.37793928 34:0.56560224 35:-0.60403538 36:0.44766846 #
-9.0948942037060547249893716070801 2:-1.3 3:0.32438299 5:-1.3 6:0.50438303 7:-0.38936636 8:-1.3777018 9:0.4325051 10:-0.77867818 11:-1.4543175 12:0.36075133 13:-0.22977276 14:-1.1023186 15:0.24001761 16:0.31915292 17:-0.74975437 18:0.11939869 21:0.17 24:0.34 25:-0.19923784 26:-0.18208317 27:0.48356709 28:-0.3987489 29:-0.363848 30:0.62660241 31:-0.31416449 32:-0.76513904 33:0.61957955 34:-0.22976507 35:-1.1663945 36:0.61233068 #
107.50252381463758410973241552711 2:-1.3 3:0.32438299 5:-1.3 6:0.50438303 7:0.11716899 8:-1.1610533 9:0.52970368 10:0.23434527 11:-1.0210786 12:0.55509675 13:0.042356569 14:-0.7490285 15:0.53273207 16:-0.14958867 17:-0.4763822 18:0.51031494 21:0.17 24:0.34 25:0.3532474 26:-0.18491927 27:0.16442573 28:0.70641232 29:-0.36986095 30:-0.01142333 31:0.070817076 32:-0.30815017 33:-0.051993299 34:-0.56477147 35:-0.246959 36:-0.092670627 #
866.11914951005599050404271110892 2:-1.3 3:0.32438299 5:-1.3 6:0.50438303 7:0.090878628 8:-1.1185343 9:0.5278936 10:0.18212521 11:-0.93737066 12:0.55200523 13:0.11090961 14:-0.74864411 15:0.43880442 16:0.039842967 17:-0.55609328 18:0.32663226 21:0.17 24:0.34 25:0.053552005 26:-0.22673228 27:0.32532907 28:0.1044251 29:-0.4506959 30:0.30735877 31:0.081338018 32:-0.29523522 33:0.53401864 34:0.056378324 35:-0.13861907 36:0.75923222 #
110.28075027174911326710571302101 2:-1.3 3:0.32438299 5:-1.3 6:0.50438303 7:-0.14396001 8:-0.97371119 9:0.54306054 10:-0.28802684 11:-0.64940262 12:0.58147955 13:-0.27828491 14:-0.46810314 15:0.64171511 16:-0.26858839 17:-0.28778592 18:0.70165318 21:0.17 24:0.34 25:-0.13036366 26:-0.27543303 27:0.53267169 28:-0.26012531 29:-0.55154634 30:0.7261318 31:-0.17695884 32:-0.58993018 33:0.78342617 34:-0.093370259 35:-0.62849504 36:0.8410821 #
-500.57379762936812994666979648173 2:-1.3 3:0.32438299 5:-1.3 6:0.50438303 7:0.086129405 8:-1.1499023 9:0.32194492 10:0.17040941 11:-1.0408512 12:0.13501517 13:0.00053510547 14:-0.9285593 15:0.44664642 16:-0.17045075 17:-0.83901483 18:0.75473058 21:0.17 24:0.34 25:0.020912036 26:-0.15138817 27:0.29996797 28:0.052243445 29:-0.31307933 30:0.27849844 31:0.036158662 32:-0.46355459 33:0.52828425 34:0.026515821 35:-0.61148769 36:0.78574806 #
405.61265912927910903817974030972 2:-1.3 3:0.32438299 5:-1.3 6:0.50438303 7:-0.11573745 8:-1.1353228 9:0.45745608 10:-0.22899464 11:-0.92003828 12:0.41657123 13:-0.3820906 14:-0.72212154 15:0.44664332 16:-0.53381789 17:-0.49453765 18:0.48216283 21:0.17 24:0.34 25:0.017974703 26:0.0065690097 27:0.44160235 28:0.021262461 29:0.028037781 30:0.51874208 31:-0.027141213 32:-0.41810036 33:0.5809074 34:-0.084899396 35:-0.86560988 36:0.63281584 #
23.474697813315195560335268964991 2:-1.3 3:0.32438299 5:-1.3 6:0.50438303 7:0.077691033 8:-1.1529895 9:0.50255501 10:0.1563428 11:-0.98441619 12:0.50310081 13:0.20329909 14:-0.79866326 15:0.74408126 16:0.25086588 17:-0.6006391 18:0.98688436 21:0.17 24:0.34 25:0.13598129 26:-0.12023895 27:0.39089161 28:0.26639259 29:-0.23518236 30:0.43213648 31:0.13790219 32:-0.43350253 33:0.71223956 34:0.005998618 35:-0.63357037 36:0.98830646 #
317.02816639703024748087045736611 2:-1.3 3:0.32438299 5:-1.3 6:0.50438303 7:0.19722299 8:-1.2462623 9:0.46419135 10:0.39628032 11:-1.1509882 12:0.42851448 13:0.51619017 14:-0.9010148 15:0.71063745 16:0.6372894 17:-0.62742001 18:0.99612159 21:0.17 24:0.34 25:0.29788932 26:-0.016779635 27:0.21764295 28:0.58522183 29:-0.023626553 30:0.076795332 31:0.20350257 32:-0.31578159 33:0.66718853 34:-0.18464038 35:-0.61163968 36:1.2498615 #
623.81571744556219982769107446074 2:-1.3 3:0.32438299 5:-1.3 6:0.50438303 7:0.051134393 8:-0.99696881 9:0.54761422 10:0.092539519 11:-0.92458779 12:0.56633502 13:-0.047182847 14:-0.62880754 15:0.61539638 16:-0.19270289 17:-0.45307851 18:0.64538062 21:0.17 24:0.34 25:0.065379255 26:0.026682978 27:0.43744913 28:0.18538836 29:-0.00062451814 30:0.63240778 31:0.028950764 32:-0.25810283 33:0.65707004 34:-0.093727797 35:-0.50135577 36:0.72224337 #
-220.62727357230875213645049370825 2:-1.3 3:0.32438299 5:-1.3 6:0.50438303 7:0.068576455 8:-1.3377361 9:0.74892867 10:0.14287104 11:-1.2468387 12:1.0075158 13:0.032883774 14:-1.1693614 15:0.84018713 16:-0.073550679 17:-1.0200911 18:0.68367279 21:0.17 24:0.34 25:-0.20092276 26:-0.17646959 27:0.40772644 28:-0.43434691 29:-0.32134154 30:0.41800958 31:-0.25411111 32:-0.4692001 33:0.54004931 34:-0.093839511 35:-0.62644583 36:0.63822085 #
-13.955110524345355926811862445902 2:-1.3 3:0.32438299 5:-1.3 6:0.50438303 7:0.023140935 8:-1.0902203 9:0.45135972 10:0.051405422 11:-0.75200677 12:0.41144636 13:0.12770404 14:-0.73380631 15:0.30929977 16:0.20720594 17:-0.65088636 18:0.21664451 21:0.17 24:0.34 25:-0.02271791 26:-0.15601587 27:0.60164839 28:-0.073682599 29:-0.28438804 30:0.81143749 31:0.16094837 32:-0.26755527 33:0.53137356 34:0.37843931 35:-0.26062393 36:0.22984895 #
1248.3272454382251908100442960858 2:-1.3 3:0.32438299 5:-1.3 6:0.50438303 7:-0.013976476 8:-1.1752567 9:0.3576982 10:-0.026709106 11:-1.0327356 12:0.21352434 13:-0.10121214 14:-0.84307271 15:0.38503265 16:-0.17488837 17:-0.63766986 18:0.55865151 21:0.17 24:0.34 25:-0.083854154 26:-0.17393243 27:0.5181917 28:-0.17527476 29:-0.34111622 30:0.68413639 31:0.025886385 32:-0.39900154 33:0.62467355 34:0.22236094 35:-0.4588154 36:0.56008577 #
